digraph Tree {
node [shape=box] ;
0 [label="X[1] <= 0.4263\ngini = 0.4504\nsamples = 1228\nvalue = [1353, 517, 84, 3]"] ;
1 [label="X[6] <= 0.4749\ngini = 0.4681\nsamples = 1092\nvalue = [1162, 483, 81, 3]"] ;
0 -> 1 [labeldistance=2.5, labelangle=45, headlabel="True"] ;
2 [label="X[1] <= 0.1105\ngini = 0.3327\nsamples = 612\nvalue = [765, 167, 24, 3]"] ;
1 -> 2 ;
3 [label="X[4] <= 0.1736\ngini = 0.4606\nsamples = 145\nvalue = [158, 67, 9, 0]"] ;
2 -> 3 ;
4 [label="X[1] <= 0.0316\ngini = 0.4931\nsamples = 20\nvalue = [15, 19, 0, 0]"] ;
3 -> 4 ;
5 [label="gini = 0.0\nsamples = 1\nvalue = [4, 0, 0, 0]"] ;
4 -> 5 ;
6 [label="X[4] <= 0.0744\ngini = 0.4644\nsamples = 19\nvalue = [11, 19, 0, 0]"] ;
4 -> 6 ;
7 [label="gini = 0.0\nsamples = 3\nvalue = [5, 0, 0, 0]"] ;
6 -> 7 ;
8 [label="X[6] <= 0.0354\ngini = 0.3648\nsamples = 16\nvalue = [6, 19, 0, 0]"] ;
6 -> 8 ;
9 [label="gini = 0.0\nsamples = 1\nvalue = [3, 0, 0, 0]"] ;
8 -> 9 ;
10 [label="X[6] <= 0.1327\ngini = 0.2355\nsamples = 15\nvalue = [3, 19, 0, 0]"] ;
8 -> 10 ;
11 [label="gini = 0.0\nsamples = 10\nvalue = [0, 14, 0, 0]"] ;
10 -> 11 ;
12 [label="X[5] <= 0.2384\ngini = 0.4688\nsamples = 5\nvalue = [3, 5, 0, 0]"] ;
10 -> 12 ;
13 [label="X[1] <= 0.0895\ngini = 0.48\nsamples = 4\nvalue = [3, 2, 0, 0]"] ;
12 -> 13 ;
14 [label="gini = 0.0\nsamples = 2\nvalue = [3, 0, 0, 0]"] ;
13 -> 14 ;
15 [label="gini = 0.0\nsamples = 2\nvalue = [0, 2, 0, 0]"] ;
13 -> 15 ;
16 [label="gini = 0.0\nsamples = 1\nvalue = [0, 3, 0, 0]"] ;
12 -> 16 ;
17 [label="X[3] <= 0.2825\ngini = 0.4292\nsamples = 125\nvalue = [143, 48, 9, 0]"] ;
3 -> 17 ;
18 [label="X[0] <= 0.3465\ngini = 0.4879\nsamples = 49\nvalue = [46, 29, 1, 0]"] ;
17 -> 18 ;
19 [label="X[5] <= 0.2238\ngini = 0.5056\nsamples = 44\nvalue = [38, 29, 1, 0]"] ;
18 -> 19 ;
20 [label="X[6] <= 0.2389\ngini = 0.4994\nsamples = 37\nvalue = [30, 28, 0, 0]"] ;
19 -> 20 ;
21 [label="gini = 0.0\nsamples = 4\nvalue = [6, 0, 0, 0]"] ;
20 -> 21 ;
22 [label="X[3] <= 0.2736\ngini = 0.497\nsamples = 33\nvalue = [24, 28, 0, 0]"] ;
20 -> 22 ;
23 [label="X[5] <= 0.0698\ngini = 0.4998\nsamples = 30\nvalue = [24, 25, 0, 0]"] ;
22 -> 23 ;
24 [label="gini = 0.0\nsamples = 1\nvalue = [0, 2, 0, 0]"] ;
23 -> 24 ;
25 [label="X[1] <= 0.0789\ngini = 0.4998\nsamples = 29\nvalue = [24, 23, 0, 0]"] ;
23 -> 25 ;
26 [label="X[3] <= 0.1571\ngini = 0.3599\nsamples = 10\nvalue = [13, 4, 0, 0]"] ;
25 -> 26 ;
27 [label="gini = 0.0\nsamples = 1\nvalue = [0, 1, 0, 0]"] ;
26 -> 27 ;
28 [label="X[6] <= 0.2832\ngini = 0.3047\nsamples = 9\nvalue = [13, 3, 0, 0]"] ;
26 -> 28 ;
29 [label="gini = 0.0\nsamples = 1\nvalue = [0, 1, 0, 0]"] ;
28 -> 29 ;
30 [label="X[1] <= 0.0632\ngini = 0.2311\nsamples = 8\nvalue = [13, 2, 0, 0]"] ;
28 -> 30 ;
31 [label="gini = 0.0\nsamples = 2\nvalue = [5, 0, 0, 0]"] ;
30 -> 31 ;
32 [label="X[4] <= 0.3058\ngini = 0.32\nsamples = 6\nvalue = [8, 2, 0, 0]"] ;
30 -> 32 ;
33 [label="gini = 0.0\nsamples = 1\nvalue = [0, 1, 0, 0]"] ;
32 -> 33 ;
34 [label="X[3] <= 0.1843\ngini = 0.1975\nsamples = 5\nvalue = [8, 1, 0, 0]"] ;
32 -> 34 ;
35 [label="X[6] <= 0.4513\ngini = 0.4444\nsamples = 2\nvalue = [2, 1, 0, 0]"] ;
34 -> 35 ;
36 [label="gini = 0.0\nsamples = 1\nvalue = [0, 1, 0, 0]"] ;
35 -> 36 ;
37 [label="gini = 0.0\nsamples = 1\nvalue = [2, 0, 0, 0]"] ;
35 -> 37 ;
38 [label="gini = 0.0\nsamples = 3\nvalue = [6, 0, 0, 0]"] ;
34 -> 38 ;
39 [label="X[5] <= 0.189\ngini = 0.4644\nsamples = 19\nvalue = [11, 19, 0, 0]"] ;
25 -> 39 ;
40 [label="X[4] <= 0.4917\ngini = 0.417\nsamples = 18\nvalue = [8, 19, 0, 0]"] ;
39 -> 40 ;
41 [label="X[3] <= 0.2454\ngini = 0.1975\nsamples = 12\nvalue = [2, 16, 0, 0]"] ;
40 -> 41 ;
42 [label="X[0] <= 0.136\ngini = 0.32\nsamples = 6\nvalue = [2, 8, 0, 0]"] ;
41 -> 42 ;
43 [label="gini = 0.0\nsamples = 1\nvalue = [1, 0, 0, 0]"] ;
42 -> 43 ;
44 [label="X[5] <= 0.1163\ngini = 0.1975\nsamples = 5\nvalue = [1, 8, 0, 0]"] ;
42 -> 44 ;
45 [label="X[2] <= 0.3819\ngini = 0.4444\nsamples = 2\nvalue = [1, 2, 0, 0]"] ;
44 -> 45 ;
46 [label="gini = 0.0\nsamples = 1\nvalue = [0, 2, 0, 0]"] ;
45 -> 46 ;
47 [label="gini = 0.0\nsamples = 1\nvalue = [1, 0, 0, 0]"] ;
45 -> 47 ;
48 [label="gini = 0.0\nsamples = 3\nvalue = [0, 6, 0, 0]"] ;
44 -> 48 ;
49 [label="gini = 0.0\nsamples = 6\nvalue = [0, 8, 0, 0]"] ;
41 -> 49 ;
50 [label="X[0] <= 0.2456\ngini = 0.4444\nsamples = 6\nvalue = [6, 3, 0, 0]"] ;
40 -> 50 ;
51 [label="X[2] <= 0.3802\ngini = 0.4898\nsamples = 5\nvalue = [4, 3, 0, 0]"] ;
50 -> 51 ;
52 [label="gini = 0.0\nsamples = 2\nvalue = [2, 0, 0, 0]"] ;
51 -> 52 ;
53 [label="X[2] <= 0.4601\ngini = 0.48\nsamples = 3\nvalue = [2, 3, 0, 0]"] ;
51 -> 53 ;
54 [label="gini = 0.0\nsamples = 2\nvalue = [0, 3, 0, 0]"] ;
53 -> 54 ;
55 [label="gini = 0.0\nsamples = 1\nvalue = [2, 0, 0, 0]"] ;
53 -> 55 ;
56 [label="gini = 0.0\nsamples = 1\nvalue = [2, 0, 0, 0]"] ;
50 -> 56 ;
57 [label="gini = 0.0\nsamples = 1\nvalue = [3, 0, 0, 0]"] ;
39 -> 57 ;
58 [label="gini = 0.0\nsamples = 3\nvalue = [0, 3, 0, 0]"] ;
22 -> 58 ;
59 [label="X[2] <= 0.4931\ngini = 0.34\nsamples = 7\nvalue = [8, 1, 1, 0]"] ;
19 -> 59 ;
60 [label="X[5] <= 0.3634\ngini = 0.1975\nsamples = 6\nvalue = [8, 1, 0, 0]"] ;
59 -> 60 ;
61 [label="gini = 0.0\nsamples = 5\nvalue = [8, 0, 0, 0]"] ;
60 -> 61 ;
62 [label="gini = 0.0\nsamples = 1\nvalue = [0, 1, 0, 0]"] ;
60 -> 62 ;
63 [label="gini = 0.0\nsamples = 1\nvalue = [0, 0, 1, 0]"] ;
59 -> 63 ;
64 [label="gini = 0.0\nsamples = 5\nvalue = [8, 0, 0, 0]"] ;
18 -> 64 ;
65 [label="X[6] <= 0.3274\ngini = 0.3604\nsamples = 76\nvalue = [97, 19, 8, 0]"] ;
17 -> 65 ;
66 [label="X[3] <= 0.4821\ngini = 0.2683\nsamples = 55\nvalue = [77, 11, 3, 0]"] ;
65 -> 66 ;
67 [label="X[0] <= 0.2566\ngini = 0.1757\nsamples = 44\nvalue = [67, 4, 3, 0]"] ;
66 -> 67 ;
68 [label="X[0] <= 0.2412\ngini = 0.2974\nsamples = 28\nvalue = [34, 4, 3, 0]"] ;
67 -> 68 ;
69 [label="X[2] <= 0.3767\ngini = 0.074\nsamples = 18\nvalue = [25, 1, 0, 0]"] ;
68 -> 69 ;
70 [label="X[6] <= 0.1681\ngini = 0.1975\nsamples = 7\nvalue = [8, 1, 0, 0]"] ;
69 -> 70 ;
71 [label="gini = 0.0\nsamples = 1\nvalue = [0, 1, 0, 0]"] ;
70 -> 71 ;
72 [label="gini = 0.0\nsamples = 6\nvalue = [8, 0, 0, 0]"] ;
70 -> 72 ;
73 [label="gini = 0.0\nsamples = 11\nvalue = [17, 0, 0, 0]"] ;
69 -> 73 ;
74 [label="X[1] <= 0.0421\ngini = 0.56\nsamples = 10\nvalue = [9, 3, 3, 0]"] ;
68 -> 74 ;
75 [label="gini = 0.0\nsamples = 2\nvalue = [0, 0, 3, 0]"] ;
74 -> 75 ;
76 [label="X[4] <= 0.4587\ngini = 0.375\nsamples = 8\nvalue = [9, 3, 0, 0]"] ;
74 -> 76 ;
77 [label="gini = 0.0\nsamples = 6\nvalue = [9, 0, 0, 0]"] ;
76 -> 77 ;
78 [label="gini = 0.0\nsamples = 2\nvalue = [0, 3, 0, 0]"] ;
76 -> 78 ;
79 [label="gini = 0.0\nsamples = 16\nvalue = [33, 0, 0, 0]"] ;
67 -> 79 ;
80 [label="X[2] <= 0.7118\ngini = 0.4844\nsamples = 11\nvalue = [10, 7, 0, 0]"] ;
66 -> 80 ;
81 [label="X[4] <= 0.4959\ngini = 0.355\nsamples = 8\nvalue = [10, 3, 0, 0]"] ;
80 -> 81 ;
82 [label="X[3] <= 0.5498\ngini = 0.2778\nsamples = 7\nvalue = [10, 2, 0, 0]"] ;
81 -> 82 ;
83 [label="gini = 0.0\nsamples = 5\nvalue = [9, 0, 0, 0]"] ;
82 -> 83 ;
84 [label="X[5] <= 0.2064\ngini = 0.4444\nsamples = 2\nvalue = [1, 2, 0, 0]"] ;
82 -> 84 ;
85 [label="gini = 0.0\nsamples = 1\nvalue = [0, 2, 0, 0]"] ;
84 -> 85 ;
86 [label="gini = 0.0\nsamples = 1\nvalue = [1, 0, 0, 0]"] ;
84 -> 86 ;
87 [label="gini = 0.0\nsamples = 1\nvalue = [0, 1, 0, 0]"] ;
81 -> 87 ;
88 [label="gini = 0.0\nsamples = 3\nvalue = [0, 4, 0, 0]"] ;
80 -> 88 ;
89 [label="X[5] <= 0.0959\ngini = 0.551\nsamples = 21\nvalue = [20, 8, 5, 0]"] ;
65 -> 89 ;
90 [label="X[3] <= 0.3435\ngini = 0.4688\nsamples = 3\nvalue = [3, 0, 5, 0]"] ;
89 -> 90 ;
91 [label="gini = 0.0\nsamples = 2\nvalue = [0, 0, 5, 0]"] ;
90 -> 91 ;
92 [label="gini = 0.0\nsamples = 1\nvalue = [3, 0, 0, 0]"] ;
90 -> 92 ;
93 [label="X[5] <= 0.3343\ngini = 0.4352\nsamples = 18\nvalue = [17, 8, 0, 0]"] ;
89 -> 93 ;
94 [label="X[2] <= 0.5712\ngini = 0.3856\nsamples = 17\nvalue = [17, 6, 0, 0]"] ;
93 -> 94 ;
95 [label="X[0] <= 0.2325\ngini = 0.3084\nsamples = 15\nvalue = [17, 4, 0, 0]"] ;
94 -> 95 ;
96 [label="X[4] <= 0.4959\ngini = 0.5\nsamples = 4\nvalue = [3, 3, 0, 0]"] ;
95 -> 96 ;
97 [label="gini = 0.0\nsamples = 2\nvalue = [0, 3, 0, 0]"] ;
96 -> 97 ;
98 [label="gini = 0.0\nsamples = 2\nvalue = [3, 0, 0, 0]"] ;
96 -> 98 ;
99 [label="X[5] <= 0.1686\ngini = 0.1244\nsamples = 11\nvalue = [14, 1, 0, 0]"] ;
95 -> 99 ;
100 [label="X[3] <= 0.3246\ngini = 0.2188\nsamples = 5\nvalue = [7, 1, 0, 0]"] ;
99 -> 100 ;
101 [label="gini = 0.0\nsamples = 3\nvalue = [5, 0, 0, 0]"] ;
100 -> 101 ;
102 [label="X[2] <= 0.4028\ngini = 0.4444\nsamples = 2\nvalue = [2, 1, 0, 0]"] ;
100 -> 102 ;
103 [label="gini = 0.0\nsamples = 1\nvalue = [0, 1, 0, 0]"] ;
102 -> 103 ;
104 [label="gini = 0.0\nsamples = 1\nvalue = [2, 0, 0, 0]"] ;
102 -> 104 ;
105 [label="gini = 0.0\nsamples = 6\nvalue = [7, 0, 0, 0]"] ;
99 -> 105 ;
106 [label="gini = 0.0\nsamples = 2\nvalue = [0, 2, 0, 0]"] ;
94 -> 106 ;
107 [label="gini = 0.0\nsamples = 1\nvalue = [0, 2, 0, 0]"] ;
93 -> 107 ;
108 [label="X[6] <= 0.3097\ngini = 0.2796\nsamples = 467\nvalue = [607, 100, 15, 3]"] ;
2 -> 108 ;
109 [label="X[6] <= 0.0442\ngini = 0.1879\nsamples = 268\nvalue = [369, 41, 2, 0]"] ;
108 -> 109 ;
110 [label="X[2] <= 0.2882\ngini = 0.48\nsamples = 3\nvalue = [2, 3, 0, 0]"] ;
109 -> 110 ;
111 [label="gini = 0.0\nsamples = 1\nvalue = [2, 0, 0, 0]"] ;
110 -> 111 ;
112 [label="gini = 0.0\nsamples = 2\nvalue = [0, 3, 0, 0]"] ;
110 -> 112 ;
113 [label="X[4] <= 0.4545\ngini = 0.1782\nsamples = 265\nvalue = [367, 38, 2, 0]"] ;
109 -> 113 ;
114 [label="X[1] <= 0.1842\ngini = 0.1317\nsamples = 233\nvalue = [330, 23, 2, 0]"] ;
113 -> 114 ;
115 [label="X[5] <= 0.1308\ngini = 0.2093\nsamples = 127\nvalue = [173, 21, 2, 0]"] ;
114 -> 115 ;
116 [label="X[0] <= 0.2544\ngini = 0.0563\nsamples = 45\nvalue = [67, 2, 0, 0]"] ;
115 -> 116 ;
117 [label="gini = 0.0\nsamples = 29\nvalue = [47, 0, 0, 0]"] ;
116 -> 117 ;
118 [label="X[1] <= 0.1632\ngini = 0.1653\nsamples = 16\nvalue = [20, 2, 0, 0]"] ;
116 -> 118 ;
119 [label="X[5] <= 0.1163\ngini = 0.0997\nsamples = 14\nvalue = [18, 1, 0, 0]"] ;
118 -> 119 ;
120 [label="gini = 0.0\nsamples = 7\nvalue = [10, 0, 0, 0]"] ;
119 -> 120 ;
121 [label="X[2] <= 0.4097\ngini = 0.1975\nsamples = 7\nvalue = [8, 1, 0, 0]"] ;
119 -> 121 ;
122 [label="X[1] <= 0.1263\ngini = 0.5\nsamples = 2\nvalue = [1, 1, 0, 0]"] ;
121 -> 122 ;
123 [label="gini = 0.0\nsamples = 1\nvalue = [1, 0, 0, 0]"] ;
122 -> 123 ;
124 [label="gini = 0.0\nsamples = 1\nvalue = [0, 1, 0, 0]"] ;
122 -> 124 ;
125 [label="gini = 0.0\nsamples = 5\nvalue = [7, 0, 0, 0]"] ;
121 -> 125 ;
126 [label="X[2] <= 0.6424\ngini = 0.4444\nsamples = 2\nvalue = [2, 1, 0, 0]"] ;
118 -> 126 ;
127 [label="gini = 0.0\nsamples = 1\nvalue = [2, 0, 0, 0]"] ;
126 -> 127 ;
128 [label="gini = 0.0\nsamples = 1\nvalue = [0, 1, 0, 0]"] ;
126 -> 128 ;
129 [label="X[1] <= 0.1632\ngini = 0.2807\nsamples = 82\nvalue = [106, 19, 2, 0]"] ;
115 -> 129 ;
130 [label="X[3] <= 0.2305\ngini = 0.207\nsamples = 63\nvalue = [84, 10, 1, 0]"] ;
129 -> 130 ;
131 [label="X[5] <= 0.1366\ngini = 0.48\nsamples = 2\nvalue = [2, 3, 0, 0]"] ;
130 -> 131 ;
132 [label="gini = 0.0\nsamples = 1\nvalue = [0, 3, 0, 0]"] ;
131 -> 132 ;
133 [label="gini = 0.0\nsamples = 1\nvalue = [2, 0, 0, 0]"] ;
131 -> 133 ;
134 [label="X[4] <= 0.3182\ngini = 0.1637\nsamples = 61\nvalue = [82, 7, 1, 0]"] ;
130 -> 134 ;
135 [label="X[3] <= 0.4238\ngini = 0.2456\nsamples = 41\nvalue = [49, 7, 1, 0]"] ;
134 -> 135 ;
136 [label="X[5] <= 0.2849\ngini = 0.074\nsamples = 17\nvalue = [25, 1, 0, 0]"] ;
135 -> 136 ;
137 [label="gini = 0.0\nsamples = 16\nvalue = [25, 0, 0, 0]"] ;
136 -> 137 ;
138 [label="gini = 0.0\nsamples = 1\nvalue = [0, 1, 0, 0]"] ;
136 -> 138 ;
139 [label="X[0] <= 0.2149\ngini = 0.3621\nsamples = 24\nvalue = [24, 6, 1, 0]"] ;
135 -> 139 ;
140 [label="gini = 0.0\nsamples = 6\nvalue = [8, 0, 0, 0]"] ;
139 -> 140 ;
141 [label="X[5] <= 0.1366\ngini = 0.4461\nsamples = 18\nvalue = [16, 6, 1, 0]"] ;
139 -> 141 ;
142 [label="X[3] <= 0.481\ngini = 0.2449\nsamples = 4\nvalue = [6, 0, 1, 0]"] ;
141 -> 142 ;
143 [label="gini = 0.0\nsamples = 3\nvalue = [6, 0, 0, 0]"] ;
142 -> 143 ;
144 [label="gini = 0.0\nsamples = 1\nvalue = [0, 0, 1, 0]"] ;
142 -> 144 ;
145 [label="X[3] <= 0.467\ngini = 0.4688\nsamples = 14\nvalue = [10, 6, 0, 0]"] ;
141 -> 145 ;
146 [label="gini = 0.0\nsamples = 4\nvalue = [0, 4, 0, 0]"] ;
145 -> 146 ;
147 [label="X[6] <= 0.0973\ngini = 0.2778\nsamples = 10\nvalue = [10, 2, 0, 0]"] ;
145 -> 147 ;
148 [label="gini = 0.0\nsamples = 1\nvalue = [0, 1, 0, 0]"] ;
147 -> 148 ;
149 [label="X[6] <= 0.2035\ngini = 0.1653\nsamples = 9\nvalue = [10, 1, 0, 0]"] ;
147 -> 149 ;
150 [label="gini = 0.0\nsamples = 7\nvalue = [9, 0, 0, 0]"] ;
149 -> 150 ;
151 [label="X[3] <= 0.4756\ngini = 0.5\nsamples = 2\nvalue = [1, 1, 0, 0]"] ;
149 -> 151 ;
152 [label="gini = 0.0\nsamples = 1\nvalue = [1, 0, 0, 0]"] ;
151 -> 152 ;
153 [label="gini = 0.0\nsamples = 1\nvalue = [0, 1, 0, 0]"] ;
151 -> 153 ;
154 [label="gini = 0.0\nsamples = 20\nvalue = [33, 0, 0, 0]"] ;
134 -> 154 ;
155 [label="X[4] <= 0.2438\ngini = 0.4473\nsamples = 19\nvalue = [22, 9, 1, 0]"] ;
129 -> 155 ;
156 [label="X[0] <= 0.2018\ngini = 0.4978\nsamples = 8\nvalue = [7, 8, 0, 0]"] ;
155 -> 156 ;
157 [label="gini = 0.0\nsamples = 2\nvalue = [6, 0, 0, 0]"] ;
156 -> 157 ;
158 [label="X[2] <= 0.7014\ngini = 0.1975\nsamples = 6\nvalue = [1, 8, 0, 0]"] ;
156 -> 158 ;
159 [label="gini = 0.0\nsamples = 5\nvalue = [0, 8, 0, 0]"] ;
158 -> 159 ;
160 [label="gini = 0.0\nsamples = 1\nvalue = [1, 0, 0, 0]"] ;
158 -> 160 ;
161 [label="X[5] <= 0.1919\ngini = 0.2145\nsamples = 11\nvalue = [15, 1, 1, 0]"] ;
155 -> 161 ;
162 [label="gini = 0.0\nsamples = 6\nvalue = [10, 0, 0, 0]"] ;
161 -> 162 ;
163 [label="X[4] <= 0.3926\ngini = 0.449\nsamples = 5\nvalue = [5, 1, 1, 0]"] ;
161 -> 163 ;
164 [label="gini = 0.0\nsamples = 3\nvalue = [5, 0, 0, 0]"] ;
163 -> 164 ;
165 [label="X[1] <= 0.1737\ngini = 0.5\nsamples = 2\nvalue = [0, 1, 1, 0]"] ;
163 -> 165 ;
166 [label="gini = 0.0\nsamples = 1\nvalue = [0, 1, 0, 0]"] ;
165 -> 166 ;
167 [label="gini = 0.0\nsamples = 1\nvalue = [0, 0, 1, 0]"] ;
165 -> 167 ;
168 [label="X[2] <= 0.3941\ngini = 0.0248\nsamples = 106\nvalue = [157, 2, 0, 0]"] ;
114 -> 168 ;
169 [label="X[4] <= 0.2066\ngini = 0.0973\nsamples = 26\nvalue = [37, 2, 0, 0]"] ;
168 -> 169 ;
170 [label="X[0] <= 0.2368\ngini = 0.5\nsamples = 4\nvalue = [2, 2, 0, 0]"] ;
169 -> 170 ;
171 [label="gini = 0.0\nsamples = 1\nvalue = [1, 0, 0, 0]"] ;
170 -> 171 ;
172 [label="X[2] <= 0.0417\ngini = 0.4444\nsamples = 3\nvalue = [1, 2, 0, 0]"] ;
170 -> 172 ;
173 [label="gini = 0.0\nsamples = 1\nvalue = [1, 0, 0, 0]"] ;
172 -> 173 ;
174 [label="gini = 0.0\nsamples = 2\nvalue = [0, 2, 0, 0]"] ;
172 -> 174 ;
175 [label="gini = 0.0\nsamples = 22\nvalue = [35, 0, 0, 0]"] ;
169 -> 175 ;
176 [label="gini = 0.0\nsamples = 80\nvalue = [120, 0, 0, 0]"] ;
168 -> 176 ;
177 [label="X[6] <= 0.1416\ngini = 0.4105\nsamples = 32\nvalue = [37, 15, 0, 0]"] ;
113 -> 177 ;
178 [label="gini = 0.0\nsamples = 1\nvalue = [0, 5, 0, 0]"] ;
177 -> 178 ;
179 [label="X[2] <= 0.5712\ngini = 0.335\nsamples = 31\nvalue = [37, 10, 0, 0]"] ;
177 -> 179 ;
180 [label="X[0] <= 0.2149\ngini = 0.2285\nsamples = 24\nvalue = [33, 5, 0, 0]"] ;
179 -> 180 ;
181 [label="X[5] <= 0.1686\ngini = 0.4444\nsamples = 9\nvalue = [10, 5, 0, 0]"] ;
180 -> 181 ;
182 [label="X[6] <= 0.2743\ngini = 0.4444\nsamples = 4\nvalue = [2, 4, 0, 0]"] ;
181 -> 182 ;
183 [label="gini = 0.0\nsamples = 2\nvalue = [2, 0, 0, 0]"] ;
182 -> 183 ;
184 [label="gini = 0.0\nsamples = 2\nvalue = [0, 4, 0, 0]"] ;
182 -> 184 ;
185 [label="X[5] <= 0.2442\ngini = 0.1975\nsamples = 5\nvalue = [8, 1, 0, 0]"] ;
181 -> 185 ;
186 [label="gini = 0.0\nsamples = 4\nvalue = [8, 0, 0, 0]"] ;
185 -> 186 ;
187 [label="gini = 0.0\nsamples = 1\nvalue = [0, 1, 0, 0]"] ;
185 -> 187 ;
188 [label="gini = 0.0\nsamples = 15\nvalue = [23, 0, 0, 0]"] ;
180 -> 188 ;
189 [label="X[2] <= 0.6007\ngini = 0.4938\nsamples = 7\nvalue = [4, 5, 0, 0]"] ;
179 -> 189 ;
190 [label="gini = 0.0\nsamples = 3\nvalue = [0, 4, 0, 0]"] ;
189 -> 190 ;
191 [label="X[1] <= 0.1789\ngini = 0.32\nsamples = 4\nvalue = [4, 1, 0, 0]"] ;
189 -> 191 ;
192 [label="X[4] <= 0.6198\ngini = 0.5\nsamples = 2\nvalue = [1, 1, 0, 0]"] ;
191 -> 192 ;
193 [label="gini = 0.0\nsamples = 1\nvalue = [0, 1, 0, 0]"] ;
192 -> 193 ;
194 [label="gini = 0.0\nsamples = 1\nvalue = [1, 0, 0, 0]"] ;
192 -> 194 ;
195 [label="gini = 0.0\nsamples = 2\nvalue = [3, 0, 0, 0]"] ;
191 -> 195 ;
196 [label="X[1] <= 0.1947\ngini = 0.3845\nsamples = 199\nvalue = [238, 59, 13, 3]"] ;
108 -> 196 ;
197 [label="X[0] <= 0.4254\ngini = 0.3421\nsamples = 113\nvalue = [146, 25, 9, 3]"] ;
196 -> 197 ;
198 [label="X[3] <= 0.3433\ngini = 0.3186\nsamples = 109\nvalue = [143, 24, 9, 0]"] ;
197 -> 198 ;
199 [label="X[4] <= 0.2273\ngini = 0.3713\nsamples = 83\nvalue = [106, 22, 9, 0]"] ;
198 -> 199 ;
200 [label="X[5] <= 0.1192\ngini = 0.6044\nsamples = 11\nvalue = [7, 6, 2, 0]"] ;
199 -> 200 ;
201 [label="X[0] <= 0.3991\ngini = 0.5312\nsamples = 5\nvalue = [1, 5, 2, 0]"] ;
200 -> 201 ;
202 [label="X[2] <= 0.3038\ngini = 0.4082\nsamples = 4\nvalue = [0, 5, 2, 0]"] ;
201 -> 202 ;
203 [label="gini = 0.0\nsamples = 1\nvalue = [0, 0, 2, 0]"] ;
202 -> 203 ;
204 [label="gini = 0.0\nsamples = 3\nvalue = [0, 5, 0, 0]"] ;
202 -> 204 ;
205 [label="gini = 0.0\nsamples = 1\nvalue = [1, 0, 0, 0]"] ;
201 -> 205 ;
206 [label="X[0] <= 0.3333\ngini = 0.2449\nsamples = 6\nvalue = [6, 1, 0, 0]"] ;
200 -> 206 ;
207 [label="gini = 0.0\nsamples = 5\nvalue = [6, 0, 0, 0]"] ;
206 -> 207 ;
208 [label="gini = 0.0\nsamples = 1\nvalue = [0, 1, 0, 0]"] ;
206 -> 208 ;
209 [label="X[6] <= 0.3363\ngini = 0.321\nsamples = 72\nvalue = [99, 16, 7, 0]"] ;
199 -> 209 ;
210 [label="X[2] <= 0.3854\ngini = 0.497\nsamples = 9\nvalue = [7, 6, 0, 0]"] ;
209 -> 210 ;
211 [label="X[5] <= 0.1134\ngini = 0.2778\nsamples = 4\nvalue = [1, 5, 0, 0]"] ;
210 -> 211 ;
212 [label="gini = 0.0\nsamples = 1\nvalue = [1, 0, 0, 0]"] ;
211 -> 212 ;
213 [label="gini = 0.0\nsamples = 3\nvalue = [0, 5, 0, 0]"] ;
211 -> 213 ;
214 [label="X[4] <= 0.4711\ngini = 0.2449\nsamples = 5\nvalue = [6, 1, 0, 0]"] ;
210 -> 214 ;
215 [label="gini = 0.0\nsamples = 3\nvalue = [5, 0, 0, 0]"] ;
214 -> 215 ;
216 [label="X[0] <= 0.25\ngini = 0.5\nsamples = 2\nvalue = [1, 1, 0, 0]"] ;
214 -> 216 ;
217 [label="gini = 0.0\nsamples = 1\nvalue = [1, 0, 0, 0]"] ;
216 -> 217 ;
218 [label="gini = 0.0\nsamples = 1\nvalue = [0, 1, 0, 0]"] ;
216 -> 218 ;
219 [label="X[3] <= 0.1571\ngini = 0.2751\nsamples = 63\nvalue = [92, 10, 7, 0]"] ;
209 -> 219 ;
220 [label="gini = 0.0\nsamples = 1\nvalue = [0, 1, 0, 0]"] ;
219 -> 220 ;
221 [label="X[3] <= 0.3323\ngini = 0.2632\nsamples = 62\nvalue = [92, 9, 7, 0]"] ;
219 -> 221 ;
222 [label="X[5] <= 0.218\ngini = 0.2413\nsamples = 60\nvalue = [90, 9, 5, 0]"] ;
221 -> 222 ;
223 [label="X[4] <= 0.3182\ngini = 0.1562\nsamples = 48\nvalue = [76, 6, 1, 0]"] ;
222 -> 223 ;
224 [label="X[4] <= 0.3017\ngini = 0.2778\nsamples = 10\nvalue = [15, 3, 0, 0]"] ;
223 -> 224 ;
225 [label="gini = 0.0\nsamples = 8\nvalue = [15, 0, 0, 0]"] ;
224 -> 225 ;
226 [label="gini = 0.0\nsamples = 2\nvalue = [0, 3, 0, 0]"] ;
224 -> 226 ;
227 [label="X[2] <= 0.4253\ngini = 0.1169\nsamples = 38\nvalue = [61, 3, 1, 0]"] ;
223 -> 227 ;
228 [label="X[2] <= 0.4184\ngini = 0.2185\nsamples = 19\nvalue = [29, 3, 1, 0]"] ;
227 -> 228 ;
229 [label="X[1] <= 0.1421\ngini = 0.1738\nsamples = 18\nvalue = [29, 2, 1, 0]"] ;
228 -> 229 ;
230 [label="X[1] <= 0.1211\ngini = 0.3378\nsamples = 9\nvalue = [12, 2, 1, 0]"] ;
229 -> 230 ;
231 [label="gini = 0.0\nsamples = 3\nvalue = [6, 0, 0, 0]"] ;
230 -> 231 ;
232 [label="X[6] <= 0.3894\ngini = 0.4938\nsamples = 6\nvalue = [6, 2, 1, 0]"] ;
230 -> 232 ;
233 [label="gini = 0.0\nsamples = 2\nvalue = [5, 0, 0, 0]"] ;
232 -> 233 ;
234 [label="X[2] <= 0.3819\ngini = 0.625\nsamples = 4\nvalue = [1, 2, 1, 0]"] ;
232 -> 234 ;
235 [label="X[2] <= 0.342\ngini = 0.4444\nsamples = 3\nvalue = [1, 2, 0, 0]"] ;
234 -> 235 ;
236 [label="gini = 0.0\nsamples = 1\nvalue = [0, 1, 0, 0]"] ;
235 -> 236 ;
237 [label="X[4] <= 0.376\ngini = 0.5\nsamples = 2\nvalue = [1, 1, 0, 0]"] ;
235 -> 237 ;
238 [label="gini = 0.0\nsamples = 1\nvalue = [1, 0, 0, 0]"] ;
237 -> 238 ;
239 [label="gini = 0.0\nsamples = 1\nvalue = [0, 1, 0, 0]"] ;
237 -> 239 ;
240 [label="gini = 0.0\nsamples = 1\nvalue = [0, 0, 1, 0]"] ;
234 -> 240 ;
241 [label="gini = 0.0\nsamples = 9\nvalue = [17, 0, 0, 0]"] ;
229 -> 241 ;
242 [label="gini = 0.0\nsamples = 1\nvalue = [0, 1, 0, 0]"] ;
228 -> 242 ;
243 [label="gini = 0.0\nsamples = 19\nvalue = [32, 0, 0, 0]"] ;
227 -> 243 ;
244 [label="X[0] <= 0.2149\ngini = 0.4989\nsamples = 12\nvalue = [14, 3, 4, 0]"] ;
222 -> 244 ;
245 [label="X[0] <= 0.1316\ngini = 0.2907\nsamples = 9\nvalue = [14, 3, 0, 0]"] ;
244 -> 245 ;
246 [label="gini = 0.0\nsamples = 1\nvalue = [0, 1, 0, 0]"] ;
245 -> 246 ;
247 [label="X[6] <= 0.4336\ngini = 0.2188\nsamples = 8\nvalue = [14, 2, 0, 0]"] ;
245 -> 247 ;
248 [label="X[0] <= 0.1667\ngini = 0.1327\nsamples = 6\nvalue = [13, 1, 0, 0]"] ;
247 -> 248 ;
249 [label="gini = 0.0\nsamples = 3\nvalue = [9, 0, 0, 0]"] ;
248 -> 249 ;
250 [label="X[1] <= 0.1211\ngini = 0.32\nsamples = 3\nvalue = [4, 1, 0, 0]"] ;
248 -> 250 ;
251 [label="gini = 0.0\nsamples = 1\nvalue = [3, 0, 0, 0]"] ;
250 -> 251 ;
252 [label="X[4] <= 0.5165\ngini = 0.5\nsamples = 2\nvalue = [1, 1, 0, 0]"] ;
250 -> 252 ;
253 [label="gini = 0.0\nsamples = 1\nvalue = [1, 0, 0, 0]"] ;
252 -> 253 ;
254 [label="gini = 0.0\nsamples = 1\nvalue = [0, 1, 0, 0]"] ;
252 -> 254 ;
255 [label="X[0] <= 0.1667\ngini = 0.5\nsamples = 2\nvalue = [1, 1, 0, 0]"] ;
247 -> 255 ;
256 [label="gini = 0.0\nsamples = 1\nvalue = [0, 1, 0, 0]"] ;
255 -> 256 ;
257 [label="gini = 0.0\nsamples = 1\nvalue = [1, 0, 0, 0]"] ;
255 -> 257 ;
258 [label="gini = 0.0\nsamples = 3\nvalue = [0, 0, 4, 0]"] ;
244 -> 258 ;
259 [label="X[6] <= 0.3805\ngini = 0.5\nsamples = 2\nvalue = [2, 0, 2, 0]"] ;
221 -> 259 ;
260 [label="gini = 0.0\nsamples = 1\nvalue = [0, 0, 2, 0]"] ;
259 -> 260 ;
261 [label="gini = 0.0\nsamples = 1\nvalue = [2, 0, 0, 0]"] ;
259 -> 261 ;
262 [label="X[2] <= 0.5243\ngini = 0.0973\nsamples = 26\nvalue = [37, 2, 0, 0]"] ;
198 -> 262 ;
263 [label="gini = 0.0\nsamples = 14\nvalue = [21, 0, 0, 0]"] ;
262 -> 263 ;
264 [label="X[6] <= 0.3628\ngini = 0.1975\nsamples = 12\nvalue = [16, 2, 0, 0]"] ;
262 -> 264 ;
265 [label="gini = 0.0\nsamples = 7\nvalue = [10, 0, 0, 0]"] ;
264 -> 265 ;
266 [label="X[2] <= 0.559\ngini = 0.375\nsamples = 5\nvalue = [6, 2, 0, 0]"] ;
264 -> 266 ;
267 [label="gini = 0.0\nsamples = 2\nvalue = [0, 2, 0, 0]"] ;
266 -> 267 ;
268 [label="gini = 0.0\nsamples = 3\nvalue = [6, 0, 0, 0]"] ;
266 -> 268 ;
269 [label="X[0] <= 0.4868\ngini = 0.6122\nsamples = 4\nvalue = [3, 1, 0, 3]"] ;
197 -> 269 ;
270 [label="gini = 0.0\nsamples = 1\nvalue = [0, 0, 0, 3]"] ;
269 -> 270 ;
271 [label="X[3] <= 0.4484\ngini = 0.375\nsamples = 3\nvalue = [3, 1, 0, 0]"] ;
269 -> 271 ;
272 [label="gini = 0.0\nsamples = 2\nvalue = [3, 0, 0, 0]"] ;
271 -> 272 ;
273 [label="gini = 0.0\nsamples = 1\nvalue = [0, 1, 0, 0]"] ;
271 -> 273 ;
274 [label="X[4] <= 0.4587\ngini = 0.4298\nsamples = 86\nvalue = [92, 34, 4, 0]"] ;
196 -> 274 ;
275 [label="X[4] <= 0.4504\ngini = 0.4773\nsamples = 61\nvalue = [61, 28, 4, 0]"] ;
274 -> 275 ;
276 [label="X[0] <= 0.7456\ngini = 0.4491\nsamples = 59\nvalue = [61, 23, 4, 0]"] ;
275 -> 276 ;
277 [label="X[1] <= 0.3\ngini = 0.4192\nsamples = 57\nvalue = [61, 19, 4, 0]"] ;
276 -> 277 ;
278 [label="X[6] <= 0.4336\ngini = 0.4722\nsamples = 45\nvalue = [47, 19, 4, 0]"] ;
277 -> 278 ;
279 [label="X[4] <= 0.124\ngini = 0.2945\nsamples = 27\nvalue = [32, 7, 0, 0]"] ;
278 -> 279 ;
280 [label="gini = 0.0\nsamples = 1\nvalue = [0, 2, 0, 0]"] ;
279 -> 280 ;
281 [label="X[4] <= 0.2851\ngini = 0.2337\nsamples = 26\nvalue = [32, 5, 0, 0]"] ;
279 -> 281 ;
282 [label="gini = 0.0\nsamples = 11\nvalue = [14, 0, 0, 0]"] ;
281 -> 282 ;
283 [label="X[4] <= 0.3099\ngini = 0.3403\nsamples = 15\nvalue = [18, 5, 0, 0]"] ;
281 -> 283 ;
284 [label="X[5] <= 0.1831\ngini = 0.5\nsamples = 3\nvalue = [2, 2, 0, 0]"] ;
283 -> 284 ;
285 [label="gini = 0.0\nsamples = 1\nvalue = [2, 0, 0, 0]"] ;
284 -> 285 ;
286 [label="gini = 0.0\nsamples = 2\nvalue = [0, 2, 0, 0]"] ;
284 -> 286 ;
287 [label="X[0] <= 0.1974\ngini = 0.2659\nsamples = 12\nvalue = [16, 3, 0, 0]"] ;
283 -> 287 ;
288 [label="X[1] <= 0.2158\ngini = 0.4898\nsamples = 5\nvalue = [4, 3, 0, 0]"] ;
287 -> 288 ;
289 [label="gini = 0.0\nsamples = 1\nvalue = [2, 0, 0, 0]"] ;
288 -> 289 ;
290 [label="X[0] <= 0.1623\ngini = 0.48\nsamples = 4\nvalue = [2, 3, 0, 0]"] ;
288 -> 290 ;
291 [label="gini = 0.0\nsamples = 2\nvalue = [2, 0, 0, 0]"] ;
290 -> 291 ;
292 [label="gini = 0.0\nsamples = 2\nvalue = [0, 3, 0, 0]"] ;
290 -> 292 ;
293 [label="gini = 0.0\nsamples = 7\nvalue = [12, 0, 0, 0]"] ;
287 -> 293 ;
294 [label="X[3] <= 0.4027\ngini = 0.5994\nsamples = 18\nvalue = [15, 12, 4, 0]"] ;
278 -> 294 ;
295 [label="X[5] <= 0.2006\ngini = 0.4992\nsamples = 16\nvalue = [13, 12, 0, 0]"] ;
294 -> 295 ;
296 [label="X[3] <= 0.246\ngini = 0.4444\nsamples = 11\nvalue = [12, 6, 0, 0]"] ;
295 -> 296 ;
297 [label="X[3] <= 0.1744\ngini = 0.4898\nsamples = 4\nvalue = [3, 4, 0, 0]"] ;
296 -> 297 ;
298 [label="gini = 0.0\nsamples = 1\nvalue = [2, 0, 0, 0]"] ;
297 -> 298 ;
299 [label="X[0] <= 0.25\ngini = 0.32\nsamples = 3\nvalue = [1, 4, 0, 0]"] ;
297 -> 299 ;
300 [label="gini = 0.0\nsamples = 2\nvalue = [0, 4, 0, 0]"] ;
299 -> 300 ;
301 [label="gini = 0.0\nsamples = 1\nvalue = [1, 0, 0, 0]"] ;
299 -> 301 ;
302 [label="X[3] <= 0.3159\ngini = 0.2975\nsamples = 7\nvalue = [9, 2, 0, 0]"] ;
296 -> 302 ;
303 [label="gini = 0.0\nsamples = 5\nvalue = [8, 0, 0, 0]"] ;
302 -> 303 ;
304 [label="X[0] <= 0.2105\ngini = 0.4444\nsamples = 2\nvalue = [1, 2, 0, 0]"] ;
302 -> 304 ;
305 [label="gini = 0.0\nsamples = 1\nvalue = [1, 0, 0, 0]"] ;
304 -> 305 ;
306 [label="gini = 0.0\nsamples = 1\nvalue = [0, 2, 0, 0]"] ;
304 -> 306 ;
307 [label="X[0] <= 0.4649\ngini = 0.2449\nsamples = 5\nvalue = [1, 6, 0, 0]"] ;
295 -> 307 ;
308 [label="X[5] <= 0.2442\ngini = 0.4444\nsamples = 3\nvalue = [1, 2, 0, 0]"] ;
307 -> 308 ;
309 [label="gini = 0.0\nsamples = 2\nvalue = [0, 2, 0, 0]"] ;
308 -> 309 ;
310 [label="gini = 0.0\nsamples = 1\nvalue = [1, 0, 0, 0]"] ;
308 -> 310 ;
311 [label="gini = 0.0\nsamples = 2\nvalue = [0, 4, 0, 0]"] ;
307 -> 311 ;
312 [label="X[0] <= 0.6053\ngini = 0.4444\nsamples = 2\nvalue = [2, 0, 4, 0]"] ;
294 -> 312 ;
313 [label="gini = 0.0\nsamples = 1\nvalue = [0, 0, 4, 0]"] ;
312 -> 313 ;
314 [label="gini = 0.0\nsamples = 1\nvalue = [2, 0, 0, 0]"] ;
312 -> 314 ;
315 [label="gini = 0.0\nsamples = 12\nvalue = [14, 0, 0, 0]"] ;
277 -> 315 ;
316 [label="gini = 0.0\nsamples = 2\nvalue = [0, 4, 0, 0]"] ;
276 -> 316 ;
317 [label="gini = 0.0\nsamples = 2\nvalue = [0, 5, 0, 0]"] ;
275 -> 317 ;
318 [label="X[6] <= 0.4336\ngini = 0.2717\nsamples = 25\nvalue = [31, 6, 0, 0]"] ;
274 -> 318 ;
319 [label="X[6] <= 0.3982\ngini = 0.375\nsamples = 18\nvalue = [18, 6, 0, 0]"] ;
318 -> 319 ;
320 [label="X[1] <= 0.2105\ngini = 0.255\nsamples = 15\nvalue = [17, 3, 0, 0]"] ;
319 -> 320 ;
321 [label="gini = 0.0\nsamples = 1\nvalue = [0, 1, 0, 0]"] ;
320 -> 321 ;
322 [label="X[3] <= 0.4765\ngini = 0.1884\nsamples = 14\nvalue = [17, 2, 0, 0]"] ;
320 -> 322 ;
323 [label="X[4] <= 0.5372\ngini = 0.1049\nsamples = 13\nvalue = [17, 1, 0, 0]"] ;
322 -> 323 ;
324 [label="gini = 0.0\nsamples = 12\nvalue = [17, 0, 0, 0]"] ;
323 -> 324 ;
325 [label="gini = 0.0\nsamples = 1\nvalue = [0, 1, 0, 0]"] ;
323 -> 325 ;
326 [label="gini = 0.0\nsamples = 1\nvalue = [0, 1, 0, 0]"] ;
322 -> 326 ;
327 [label="X[2] <= 0.3576\ngini = 0.375\nsamples = 3\nvalue = [1, 3, 0, 0]"] ;
319 -> 327 ;
328 [label="gini = 0.0\nsamples = 1\nvalue = [1, 0, 0, 0]"] ;
327 -> 328 ;
329 [label="gini = 0.0\nsamples = 2\nvalue = [0, 3, 0, 0]"] ;
327 -> 329 ;
330 [label="gini = 0.0\nsamples = 7\nvalue = [13, 0, 0, 0]"] ;
318 -> 330 ;
331 [label="X[2] <= 0.0156\ngini = 0.5603\nsamples = 480\nvalue = [397, 316, 57, 0]"] ;
1 -> 331 ;
332 [label="X[2] <= 0.0017\ngini = 0.142\nsamples = 7\nvalue = [1, 12, 0, 0]"] ;
331 -> 332 ;
333 [label="gini = 0.0\nsamples = 1\nvalue = [1, 0, 0, 0]"] ;
332 -> 333 ;
334 [label="gini = 0.0\nsamples = 6\nvalue = [0, 12, 0, 0]"] ;
332 -> 334 ;
335 [label="X[4] <= 0.2273\ngini = 0.5594\nsamples = 473\nvalue = [396, 304, 57, 0]"] ;
331 -> 335 ;
336 [label="X[6] <= 0.8761\ngini = 0.4676\nsamples = 98\nvalue = [102, 33, 13, 0]"] ;
335 -> 336 ;
337 [label="X[2] <= 0.1892\ngini = 0.4418\nsamples = 96\nvalue = [102, 33, 9, 0]"] ;
336 -> 337 ;
338 [label="X[3] <= 0.2538\ngini = 0.375\nsamples = 4\nvalue = [2, 6, 0, 0]"] ;
337 -> 338 ;
339 [label="gini = 0.0\nsamples = 2\nvalue = [0, 5, 0, 0]"] ;
338 -> 339 ;
340 [label="X[2] <= 0.1007\ngini = 0.4444\nsamples = 2\nvalue = [2, 1, 0, 0]"] ;
338 -> 340 ;
341 [label="gini = 0.0\nsamples = 1\nvalue = [2, 0, 0, 0]"] ;
340 -> 341 ;
342 [label="gini = 0.0\nsamples = 1\nvalue = [0, 1, 0, 0]"] ;
340 -> 342 ;
343 [label="X[1] <= 0.1632\ngini = 0.4155\nsamples = 92\nvalue = [100, 27, 9, 0]"] ;
337 -> 343 ;
344 [label="X[1] <= 0.1316\ngini = 0.2035\nsamples = 28\nvalue = [40, 3, 2, 0]"] ;
343 -> 344 ;
345 [label="X[4] <= 0.2149\ngini = 0.1244\nsamples = 16\nvalue = [28, 2, 0, 0]"] ;
344 -> 345 ;
346 [label="X[5] <= 0.1192\ngini = 0.0666\nsamples = 15\nvalue = [28, 1, 0, 0]"] ;
345 -> 346 ;
347 [label="X[5] <= 0.0988\ngini = 0.2778\nsamples = 3\nvalue = [5, 1, 0, 0]"] ;
346 -> 347 ;
348 [label="gini = 0.0\nsamples = 2\nvalue = [5, 0, 0, 0]"] ;
347 -> 348 ;
349 [label="gini = 0.0\nsamples = 1\nvalue = [0, 1, 0, 0]"] ;
347 -> 349 ;
350 [label="gini = 0.0\nsamples = 12\nvalue = [23, 0, 0, 0]"] ;
346 -> 350 ;
351 [label="gini = 0.0\nsamples = 1\nvalue = [0, 1, 0, 0]"] ;
345 -> 351 ;
352 [label="X[4] <= 0.2025\ngini = 0.3378\nsamples = 12\nvalue = [12, 1, 2, 0]"] ;
344 -> 352 ;
353 [label="gini = 0.0\nsamples = 7\nvalue = [9, 0, 0, 0]"] ;
352 -> 353 ;
354 [label="X[1] <= 0.1421\ngini = 0.6111\nsamples = 5\nvalue = [3, 1, 2, 0]"] ;
352 -> 354 ;
355 [label="gini = 0.0\nsamples = 1\nvalue = [0, 0, 2, 0]"] ;
354 -> 355 ;
356 [label="X[5] <= 0.1424\ngini = 0.375\nsamples = 4\nvalue = [3, 1, 0, 0]"] ;
354 -> 356 ;
357 [label="gini = 0.0\nsamples = 3\nvalue = [3, 0, 0, 0]"] ;
356 -> 357 ;
358 [label="gini = 0.0\nsamples = 1\nvalue = [0, 1, 0, 0]"] ;
356 -> 358 ;
359 [label="X[3] <= 0.2003\ngini = 0.4898\nsamples = 64\nvalue = [60, 24, 7, 0]"] ;
343 -> 359 ;
360 [label="X[6] <= 0.646\ngini = 0.4346\nsamples = 47\nvalue = [47, 12, 6, 0]"] ;
359 -> 360 ;
361 [label="X[0] <= 0.4035\ngini = 0.1284\nsamples = 20\nvalue = [27, 2, 0, 0]"] ;
360 -> 361 ;
362 [label="X[1] <= 0.1737\ngini = 0.0689\nsamples = 19\nvalue = [27, 1, 0, 0]"] ;
361 -> 362 ;
363 [label="X[6] <= 0.5575\ngini = 0.2449\nsamples = 6\nvalue = [6, 1, 0, 0]"] ;
362 -> 363 ;
364 [label="gini = 0.0\nsamples = 5\nvalue = [6, 0, 0, 0]"] ;
363 -> 364 ;
365 [label="gini = 0.0\nsamples = 1\nvalue = [0, 1, 0, 0]"] ;
363 -> 365 ;
366 [label="gini = 0.0\nsamples = 13\nvalue = [21, 0, 0, 0]"] ;
362 -> 366 ;
367 [label="gini = 0.0\nsamples = 1\nvalue = [0, 1, 0, 0]"] ;
361 -> 367 ;
368 [label="X[3] <= 0.1582\ngini = 0.5864\nsamples = 27\nvalue = [20, 10, 6, 0]"] ;
360 -> 368 ;
369 [label="X[2] <= 0.3611\ngini = 0.4234\nsamples = 18\nvalue = [16, 7, 0, 0]"] ;
368 -> 369 ;
370 [label="X[5] <= 0.2297\ngini = 0.2311\nsamples = 11\nvalue = [13, 2, 0, 0]"] ;
369 -> 370 ;
371 [label="X[3] <= 0.1008\ngini = 0.1327\nsamples = 10\nvalue = [13, 1, 0, 0]"] ;
370 -> 371 ;
372 [label="X[1] <= 0.2053\ngini = 0.32\nsamples = 5\nvalue = [4, 1, 0, 0]"] ;
371 -> 372 ;
373 [label="X[0] <= 0.2237\ngini = 0.5\nsamples = 2\nvalue = [1, 1, 0, 0]"] ;
372 -> 373 ;
374 [label="gini = 0.0\nsamples = 1\nvalue = [1, 0, 0, 0]"] ;
373 -> 374 ;
375 [label="gini = 0.0\nsamples = 1\nvalue = [0, 1, 0, 0]"] ;
373 -> 375 ;
376 [label="gini = 0.0\nsamples = 3\nvalue = [3, 0, 0, 0]"] ;
372 -> 376 ;
377 [label="gini = 0.0\nsamples = 5\nvalue = [9, 0, 0, 0]"] ;
371 -> 377 ;
378 [label="gini = 0.0\nsamples = 1\nvalue = [0, 1, 0, 0]"] ;
370 -> 378 ;
379 [label="X[1] <= 0.1895\ngini = 0.4688\nsamples = 7\nvalue = [3, 5, 0, 0]"] ;
369 -> 379 ;
380 [label="gini = 0.0\nsamples = 1\nvalue = [1, 0, 0, 0]"] ;
379 -> 380 ;
381 [label="X[5] <= 0.1105\ngini = 0.4082\nsamples = 6\nvalue = [2, 5, 0, 0]"] ;
379 -> 381 ;
382 [label="X[1] <= 0.2526\ngini = 0.4444\nsamples = 3\nvalue = [2, 1, 0, 0]"] ;
381 -> 382 ;
383 [label="X[5] <= 0.0843\ngini = 0.5\nsamples = 2\nvalue = [1, 1, 0, 0]"] ;
382 -> 383 ;
384 [label="gini = 0.0\nsamples = 1\nvalue = [1, 0, 0, 0]"] ;
383 -> 384 ;
385 [label="gini = 0.0\nsamples = 1\nvalue = [0, 1, 0, 0]"] ;
383 -> 385 ;
386 [label="gini = 0.0\nsamples = 1\nvalue = [1, 0, 0, 0]"] ;
382 -> 386 ;
387 [label="gini = 0.0\nsamples = 3\nvalue = [0, 4, 0, 0]"] ;
381 -> 387 ;
388 [label="X[3] <= 0.1772\ngini = 0.6391\nsamples = 9\nvalue = [4, 3, 6, 0]"] ;
368 -> 388 ;
389 [label="X[2] <= 0.3351\ngini = 0.4444\nsamples = 5\nvalue = [0, 3, 6, 0]"] ;
388 -> 389 ;
390 [label="gini = 0.0\nsamples = 1\nvalue = [0, 2, 0, 0]"] ;
389 -> 390 ;
391 [label="X[2] <= 0.4861\ngini = 0.2449\nsamples = 4\nvalue = [0, 1, 6, 0]"] ;
389 -> 391 ;
392 [label="gini = 0.0\nsamples = 3\nvalue = [0, 0, 6, 0]"] ;
391 -> 392 ;
393 [label="gini = 0.0\nsamples = 1\nvalue = [0, 1, 0, 0]"] ;
391 -> 393 ;
394 [label="gini = 0.0\nsamples = 4\nvalue = [4, 0, 0, 0]"] ;
388 -> 394 ;
395 [label="X[3] <= 0.2063\ngini = 0.5355\nsamples = 17\nvalue = [13, 12, 1, 0]"] ;
359 -> 395 ;
396 [label="gini = 0.0\nsamples = 2\nvalue = [0, 5, 0, 0]"] ;
395 -> 396 ;
397 [label="X[0] <= 0.3553\ngini = 0.5034\nsamples = 15\nvalue = [13, 7, 1, 0]"] ;
395 -> 397 ;
398 [label="X[3] <= 0.2525\ngini = 0.56\nsamples = 13\nvalue = [7, 7, 1, 0]"] ;
397 -> 398 ;
399 [label="X[0] <= 0.2675\ngini = 0.54\nsamples = 8\nvalue = [6, 3, 1, 0]"] ;
398 -> 399 ;
400 [label="X[2] <= 0.2708\ngini = 0.32\nsamples = 4\nvalue = [4, 0, 1, 0]"] ;
399 -> 400 ;
401 [label="gini = 0.0\nsamples = 1\nvalue = [0, 0, 1, 0]"] ;
400 -> 401 ;
402 [label="gini = 0.0\nsamples = 3\nvalue = [4, 0, 0, 0]"] ;
400 -> 402 ;
403 [label="X[4] <= 0.1364\ngini = 0.48\nsamples = 4\nvalue = [2, 3, 0, 0]"] ;
399 -> 403 ;
404 [label="gini = 0.0\nsamples = 1\nvalue = [2, 0, 0, 0]"] ;
403 -> 404 ;
405 [label="gini = 0.0\nsamples = 3\nvalue = [0, 3, 0, 0]"] ;
403 -> 405 ;
406 [label="X[0] <= 0.3289\ngini = 0.32\nsamples = 5\nvalue = [1, 4, 0, 0]"] ;
398 -> 406 ;
407 [label="gini = 0.0\nsamples = 4\nvalue = [0, 4, 0, 0]"] ;
406 -> 407 ;
408 [label="gini = 0.0\nsamples = 1\nvalue = [1, 0, 0, 0]"] ;
406 -> 408 ;
409 [label="gini = 0.0\nsamples = 2\nvalue = [6, 0, 0, 0]"] ;
397 -> 409 ;
410 [label="gini = 0.0\nsamples = 2\nvalue = [0, 0, 4, 0]"] ;
336 -> 410 ;
411 [label="X[4] <= 0.6446\ngini = 0.5637\nsamples = 375\nvalue = [294, 271, 44, 0]"] ;
335 -> 411 ;
412 [label="X[3] <= 0.1873\ngini = 0.5649\nsamples = 371\nvalue = [286, 271, 44, 0]"] ;
411 -> 412 ;
413 [label="X[6] <= 0.7345\ngini = 0.5611\nsamples = 193\nvalue = [130, 154, 22, 0]"] ;
412 -> 413 ;
414 [label="X[5] <= 0.1977\ngini = 0.5574\nsamples = 132\nvalue = [106, 98, 14, 0]"] ;
413 -> 414 ;
415 [label="X[5] <= 0.1657\ngini = 0.5132\nsamples = 103\nvalue = [97, 63, 6, 0]"] ;
414 -> 415 ;
416 [label="X[3] <= 0.1226\ngini = 0.5323\nsamples = 91\nvalue = [77, 60, 6, 0]"] ;
415 -> 416 ;
417 [label="X[4] <= 0.5579\ngini = 0.3676\nsamples = 29\nvalue = [36, 10, 1, 0]"] ;
416 -> 417 ;
418 [label="X[0] <= 0.2412\ngini = 0.3279\nsamples = 27\nvalue = [36, 8, 1, 0]"] ;
417 -> 418 ;
419 [label="X[1] <= 0.2263\ngini = 0.2288\nsamples = 24\nvalue = [34, 4, 1, 0]"] ;
418 -> 419 ;
420 [label="gini = 0.0\nsamples = 16\nvalue = [28, 0, 0, 0]"] ;
419 -> 420 ;
421 [label="X[2] <= 0.3924\ngini = 0.562\nsamples = 8\nvalue = [6, 4, 1, 0]"] ;
419 -> 421 ;
422 [label="X[0] <= 0.0833\ngini = 0.4062\nsamples = 6\nvalue = [6, 1, 1, 0]"] ;
421 -> 422 ;
423 [label="gini = 0.0\nsamples = 1\nvalue = [0, 1, 0, 0]"] ;
422 -> 423 ;
424 [label="X[5] <= 0.125\ngini = 0.2449\nsamples = 5\nvalue = [6, 0, 1, 0]"] ;
422 -> 424 ;
425 [label="gini = 0.0\nsamples = 4\nvalue = [6, 0, 0, 0]"] ;
424 -> 425 ;
426 [label="gini = 0.0\nsamples = 1\nvalue = [0, 0, 1, 0]"] ;
424 -> 426 ;
427 [label="gini = 0.0\nsamples = 2\nvalue = [0, 3, 0, 0]"] ;
421 -> 427 ;
428 [label="X[5] <= 0.0785\ngini = 0.4444\nsamples = 3\nvalue = [2, 4, 0, 0]"] ;
418 -> 428 ;
429 [label="gini = 0.0\nsamples = 1\nvalue = [2, 0, 0, 0]"] ;
428 -> 429 ;
430 [label="gini = 0.0\nsamples = 2\nvalue = [0, 4, 0, 0]"] ;
428 -> 430 ;
431 [label="gini = 0.0\nsamples = 2\nvalue = [0, 2, 0, 0]"] ;
417 -> 431 ;
432 [label="X[0] <= 0.2325\ngini = 0.5436\nsamples = 62\nvalue = [41, 50, 5, 0]"] ;
416 -> 432 ;
433 [label="X[3] <= 0.1744\ngini = 0.5217\nsamples = 42\nvalue = [21, 41, 5, 0]"] ;
432 -> 433 ;
434 [label="X[2] <= 0.2691\ngini = 0.5487\nsamples = 35\nvalue = [20, 30, 4, 0]"] ;
433 -> 434 ;
435 [label="gini = 0.0\nsamples = 3\nvalue = [0, 7, 0, 0]"] ;
434 -> 435 ;
436 [label="X[2] <= 0.3038\ngini = 0.5722\nsamples = 32\nvalue = [20, 23, 4, 0]"] ;
434 -> 436 ;
437 [label="X[4] <= 0.343\ngini = 0.3367\nsamples = 7\nvalue = [11, 3, 0, 0]"] ;
436 -> 437 ;
438 [label="X[2] <= 0.2812\ngini = 0.375\nsamples = 2\nvalue = [1, 3, 0, 0]"] ;
437 -> 438 ;
439 [label="gini = 0.0\nsamples = 1\nvalue = [1, 0, 0, 0]"] ;
438 -> 439 ;
440 [label="gini = 0.0\nsamples = 1\nvalue = [0, 3, 0, 0]"] ;
438 -> 440 ;
441 [label="gini = 0.0\nsamples = 5\nvalue = [10, 0, 0, 0]"] ;
437 -> 441 ;
442 [label="X[1] <= 0.1737\ngini = 0.5436\nsamples = 25\nvalue = [9, 20, 4, 0]"] ;
436 -> 442 ;
443 [label="X[5] <= 0.1395\ngini = 0.5679\nsamples = 9\nvalue = [5, 3, 1, 0]"] ;
442 -> 443 ;
444 [label="X[5] <= 0.0523\ngini = 0.4688\nsamples = 8\nvalue = [5, 3, 0, 0]"] ;
443 -> 444 ;
445 [label="gini = 0.0\nsamples = 1\nvalue = [0, 1, 0, 0]"] ;
444 -> 445 ;
446 [label="X[2] <= 0.375\ngini = 0.4082\nsamples = 7\nvalue = [5, 2, 0, 0]"] ;
444 -> 446 ;
447 [label="gini = 0.0\nsamples = 1\nvalue = [0, 1, 0, 0]"] ;
446 -> 447 ;
448 [label="X[0] <= 0.1535\ngini = 0.2778\nsamples = 6\nvalue = [5, 1, 0, 0]"] ;
446 -> 448 ;
449 [label="X[6] <= 0.5221\ngini = 0.5\nsamples = 2\nvalue = [1, 1, 0, 0]"] ;
448 -> 449 ;
450 [label="gini = 0.0\nsamples = 1\nvalue = [0, 1, 0, 0]"] ;
449 -> 450 ;
451 [label="gini = 0.0\nsamples = 1\nvalue = [1, 0, 0, 0]"] ;
449 -> 451 ;
452 [label="gini = 0.0\nsamples = 4\nvalue = [4, 0, 0, 0]"] ;
448 -> 452 ;
453 [label="gini = 0.0\nsamples = 1\nvalue = [0, 0, 1, 0]"] ;
443 -> 453 ;
454 [label="X[3] <= 0.1709\ngini = 0.4549\nsamples = 16\nvalue = [4, 17, 3, 0]"] ;
442 -> 454 ;
455 [label="X[1] <= 0.2053\ngini = 0.3678\nsamples = 15\nvalue = [4, 17, 1, 0]"] ;
454 -> 455 ;
456 [label="gini = 0.0\nsamples = 4\nvalue = [0, 8, 0, 0]"] ;
455 -> 456 ;
457 [label="X[0] <= 0.2193\ngini = 0.5\nsamples = 11\nvalue = [4, 9, 1, 0]"] ;
455 -> 457 ;
458 [label="X[0] <= 0.1009\ngini = 0.4028\nsamples = 9\nvalue = [2, 9, 1, 0]"] ;
457 -> 458 ;
459 [label="X[5] <= 0.0901\ngini = 0.5\nsamples = 2\nvalue = [1, 0, 1, 0]"] ;
458 -> 459 ;
460 [label="gini = 0.0\nsamples = 1\nvalue = [0, 0, 1, 0]"] ;
459 -> 460 ;
461 [label="gini = 0.0\nsamples = 1\nvalue = [1, 0, 0, 0]"] ;
459 -> 461 ;
462 [label="X[4] <= 0.5165\ngini = 0.18\nsamples = 7\nvalue = [1, 9, 0, 0]"] ;
458 -> 462 ;
463 [label="gini = 0.0\nsamples = 6\nvalue = [0, 9, 0, 0]"] ;
462 -> 463 ;
464 [label="gini = 0.0\nsamples = 1\nvalue = [1, 0, 0, 0]"] ;
462 -> 464 ;
465 [label="gini = 0.0\nsamples = 2\nvalue = [2, 0, 0, 0]"] ;
457 -> 465 ;
466 [label="gini = 0.0\nsamples = 1\nvalue = [0, 0, 2, 0]"] ;
454 -> 466 ;
467 [label="X[1] <= 0.3421\ngini = 0.2722\nsamples = 7\nvalue = [1, 11, 1, 0]"] ;
433 -> 467 ;
468 [label="X[4] <= 0.4876\ngini = 0.1528\nsamples = 6\nvalue = [0, 11, 1, 0]"] ;
467 -> 468 ;
469 [label="gini = 0.0\nsamples = 5\nvalue = [0, 11, 0, 0]"] ;
468 -> 469 ;
470 [label="gini = 0.0\nsamples = 1\nvalue = [0, 0, 1, 0]"] ;
468 -> 470 ;
471 [label="gini = 0.0\nsamples = 1\nvalue = [1, 0, 0, 0]"] ;
467 -> 471 ;
472 [label="X[6] <= 0.6283\ngini = 0.4281\nsamples = 20\nvalue = [20, 9, 0, 0]"] ;
432 -> 472 ;
473 [label="gini = 0.0\nsamples = 6\nvalue = [9, 0, 0, 0]"] ;
472 -> 473 ;
474 [label="X[1] <= 0.2316\ngini = 0.495\nsamples = 14\nvalue = [11, 9, 0, 0]"] ;
472 -> 474 ;
475 [label="X[5] <= 0.1076\ngini = 0.4444\nsamples = 11\nvalue = [10, 5, 0, 0]"] ;
474 -> 475 ;
476 [label="X[2] <= 0.375\ngini = 0.4938\nsamples = 6\nvalue = [4, 5, 0, 0]"] ;
475 -> 476 ;
477 [label="gini = 0.0\nsamples = 1\nvalue = [2, 0, 0, 0]"] ;
476 -> 477 ;
478 [label="X[4] <= 0.4091\ngini = 0.4082\nsamples = 5\nvalue = [2, 5, 0, 0]"] ;
476 -> 478 ;
479 [label="gini = 0.0\nsamples = 2\nvalue = [0, 3, 0, 0]"] ;
478 -> 479 ;
480 [label="X[4] <= 0.4339\ngini = 0.5\nsamples = 3\nvalue = [2, 2, 0, 0]"] ;
478 -> 480 ;
481 [label="gini = 0.0\nsamples = 2\nvalue = [2, 0, 0, 0]"] ;
480 -> 481 ;
482 [label="gini = 0.0\nsamples = 1\nvalue = [0, 2, 0, 0]"] ;
480 -> 482 ;
483 [label="gini = 0.0\nsamples = 5\nvalue = [6, 0, 0, 0]"] ;
475 -> 483 ;
484 [label="X[5] <= 0.0988\ngini = 0.32\nsamples = 3\nvalue = [1, 4, 0, 0]"] ;
474 -> 484 ;
485 [label="gini = 0.0\nsamples = 2\nvalue = [0, 4, 0, 0]"] ;
484 -> 485 ;
486 [label="gini = 0.0\nsamples = 1\nvalue = [1, 0, 0, 0]"] ;
484 -> 486 ;
487 [label="X[1] <= 0.0368\ngini = 0.2268\nsamples = 12\nvalue = [20, 3, 0, 0]"] ;
415 -> 487 ;
488 [label="gini = 0.0\nsamples = 1\nvalue = [0, 2, 0, 0]"] ;
487 -> 488 ;
489 [label="X[4] <= 0.3843\ngini = 0.0907\nsamples = 11\nvalue = [20, 1, 0, 0]"] ;
487 -> 489 ;
490 [label="X[4] <= 0.3099\ngini = 0.32\nsamples = 4\nvalue = [4, 1, 0, 0]"] ;
489 -> 490 ;
491 [label="gini = 0.0\nsamples = 3\nvalue = [4, 0, 0, 0]"] ;
490 -> 491 ;
492 [label="gini = 0.0\nsamples = 1\nvalue = [0, 1, 0, 0]"] ;
490 -> 492 ;
493 [label="gini = 0.0\nsamples = 7\nvalue = [16, 0, 0, 0]"] ;
489 -> 493 ;
494 [label="X[2] <= 0.3976\ngini = 0.4933\nsamples = 29\nvalue = [9, 35, 8, 0]"] ;
414 -> 494 ;
495 [label="X[4] <= 0.3512\ngini = 0.6326\nsamples = 17\nvalue = [8, 14, 7, 0]"] ;
494 -> 495 ;
496 [label="X[6] <= 0.5133\ngini = 0.48\nsamples = 6\nvalue = [6, 4, 0, 0]"] ;
495 -> 496 ;
497 [label="gini = 0.0\nsamples = 1\nvalue = [0, 3, 0, 0]"] ;
496 -> 497 ;
498 [label="X[2] <= 0.3038\ngini = 0.2449\nsamples = 5\nvalue = [6, 1, 0, 0]"] ;
496 -> 498 ;
499 [label="gini = 0.0\nsamples = 2\nvalue = [4, 0, 0, 0]"] ;
498 -> 499 ;
500 [label="X[2] <= 0.3455\ngini = 0.4444\nsamples = 3\nvalue = [2, 1, 0, 0]"] ;
498 -> 500 ;
501 [label="gini = 0.0\nsamples = 1\nvalue = [0, 1, 0, 0]"] ;
500 -> 501 ;
502 [label="gini = 0.0\nsamples = 2\nvalue = [2, 0, 0, 0]"] ;
500 -> 502 ;
503 [label="X[2] <= 0.3733\ngini = 0.5762\nsamples = 11\nvalue = [2, 10, 7, 0]"] ;
495 -> 503 ;
504 [label="X[1] <= 0.3316\ngini = 0.449\nsamples = 9\nvalue = [2, 10, 2, 0]"] ;
503 -> 504 ;
505 [label="X[2] <= 0.3073\ngini = 0.3787\nsamples = 8\nvalue = [1, 10, 2, 0]"] ;
504 -> 505 ;
506 [label="X[6] <= 0.6637\ngini = 0.2188\nsamples = 5\nvalue = [1, 7, 0, 0]"] ;
505 -> 506 ;
507 [label="X[2] <= 0.2674\ngini = 0.375\nsamples = 4\nvalue = [1, 3, 0, 0]"] ;
506 -> 507 ;
508 [label="gini = 0.0\nsamples = 3\nvalue = [0, 3, 0, 0]"] ;
507 -> 508 ;
509 [label="gini = 0.0\nsamples = 1\nvalue = [1, 0, 0, 0]"] ;
507 -> 509 ;
510 [label="gini = 0.0\nsamples = 1\nvalue = [0, 4, 0, 0]"] ;
506 -> 510 ;
511 [label="X[1] <= 0.2105\ngini = 0.48\nsamples = 3\nvalue = [0, 3, 2, 0]"] ;
505 -> 511 ;
512 [label="gini = 0.0\nsamples = 2\nvalue = [0, 3, 0, 0]"] ;
511 -> 512 ;
513 [label="gini = 0.0\nsamples = 1\nvalue = [0, 0, 2, 0]"] ;
511 -> 513 ;
514 [label="gini = 0.0\nsamples = 1\nvalue = [1, 0, 0, 0]"] ;
504 -> 514 ;
515 [label="gini = 0.0\nsamples = 2\nvalue = [0, 0, 5, 0]"] ;
503 -> 515 ;
516 [label="X[0] <= 0.1447\ngini = 0.1626\nsamples = 12\nvalue = [1, 21, 1, 0]"] ;
494 -> 516 ;
517 [label="X[5] <= 0.3169\ngini = 0.5\nsamples = 2\nvalue = [0, 1, 1, 0]"] ;
516 -> 517 ;
518 [label="gini = 0.0\nsamples = 1\nvalue = [0, 1, 0, 0]"] ;
517 -> 518 ;
519 [label="gini = 0.0\nsamples = 1\nvalue = [0, 0, 1, 0]"] ;
517 -> 519 ;
520 [label="X[2] <= 0.6458\ngini = 0.0907\nsamples = 10\nvalue = [1, 20, 0, 0]"] ;
516 -> 520 ;
521 [label="gini = 0.0\nsamples = 9\nvalue = [0, 20, 0, 0]"] ;
520 -> 521 ;
522 [label="gini = 0.0\nsamples = 1\nvalue = [1, 0, 0, 0]"] ;
520 -> 522 ;
523 [label="X[3] <= 0.1092\ngini = 0.5124\nsamples = 61\nvalue = [24, 56, 8, 0]"] ;
413 -> 523 ;
524 [label="X[4] <= 0.4752\ngini = 0.3481\nsamples = 35\nvalue = [7, 38, 3, 0]"] ;
523 -> 524 ;
525 [label="X[5] <= 0.064\ngini = 0.4251\nsamples = 27\nvalue = [7, 27, 3, 0]"] ;
524 -> 525 ;
526 [label="gini = 0.0\nsamples = 2\nvalue = [0, 0, 2, 0]"] ;
525 -> 526 ;
527 [label="X[6] <= 0.7699\ngini = 0.3641\nsamples = 25\nvalue = [7, 27, 1, 0]"] ;
525 -> 527 ;
528 [label="X[1] <= 0.1947\ngini = 0.4861\nsamples = 9\nvalue = [5, 7, 0, 0]"] ;
527 -> 528 ;
529 [label="gini = 0.0\nsamples = 3\nvalue = [3, 0, 0, 0]"] ;
528 -> 529 ;
530 [label="X[5] <= 0.0959\ngini = 0.3457\nsamples = 6\nvalue = [2, 7, 0, 0]"] ;
528 -> 530 ;
531 [label="gini = 0.0\nsamples = 1\nvalue = [1, 0, 0, 0]"] ;
530 -> 531 ;
532 [label="X[5] <= 0.1076\ngini = 0.2188\nsamples = 5\nvalue = [1, 7, 0, 0]"] ;
530 -> 532 ;
533 [label="gini = 0.0\nsamples = 2\nvalue = [0, 5, 0, 0]"] ;
532 -> 533 ;
534 [label="X[4] <= 0.3347\ngini = 0.4444\nsamples = 3\nvalue = [1, 2, 0, 0]"] ;
532 -> 534 ;
535 [label="gini = 0.0\nsamples = 2\nvalue = [0, 2, 0, 0]"] ;
534 -> 535 ;
536 [label="gini = 0.0\nsamples = 1\nvalue = [1, 0, 0, 0]"] ;
534 -> 536 ;
537 [label="X[3] <= 0.077\ngini = 0.2344\nsamples = 16\nvalue = [2, 20, 1, 0]"] ;
527 -> 537 ;
538 [label="X[6] <= 0.8142\ngini = 0.5312\nsamples = 6\nvalue = [2, 5, 1, 0]"] ;
537 -> 538 ;
539 [label="gini = 0.0\nsamples = 3\nvalue = [0, 4, 0, 0]"] ;
538 -> 539 ;
540 [label="X[4] <= 0.4298\ngini = 0.625\nsamples = 3\nvalue = [2, 1, 1, 0]"] ;
538 -> 540 ;
541 [label="X[4] <= 0.3802\ngini = 0.5\nsamples = 2\nvalue = [0, 1, 1, 0]"] ;
540 -> 541 ;
542 [label="gini = 0.0\nsamples = 1\nvalue = [0, 1, 0, 0]"] ;
541 -> 542 ;
543 [label="gini = 0.0\nsamples = 1\nvalue = [0, 0, 1, 0]"] ;
541 -> 543 ;
544 [label="gini = 0.0\nsamples = 1\nvalue = [2, 0, 0, 0]"] ;
540 -> 544 ;
545 [label="gini = 0.0\nsamples = 10\nvalue = [0, 15, 0, 0]"] ;
537 -> 545 ;
546 [label="gini = 0.0\nsamples = 8\nvalue = [0, 11, 0, 0]"] ;
524 -> 546 ;
547 [label="X[5] <= 0.0785\ngini = 0.6013\nsamples = 26\nvalue = [17, 18, 5, 0]"] ;
523 -> 547 ;
548 [label="X[5] <= 0.0378\ngini = 0.32\nsamples = 3\nvalue = [1, 0, 4, 0]"] ;
547 -> 548 ;
549 [label="gini = 0.0\nsamples = 1\nvalue = [1, 0, 0, 0]"] ;
548 -> 549 ;
550 [label="gini = 0.0\nsamples = 2\nvalue = [0, 0, 4, 0]"] ;
548 -> 550 ;
551 [label="X[4] <= 0.2438\ngini = 0.5257\nsamples = 23\nvalue = [16, 18, 1, 0]"] ;
547 -> 551 ;
552 [label="gini = 0.0\nsamples = 4\nvalue = [0, 8, 0, 0]"] ;
551 -> 552 ;
553 [label="X[4] <= 0.5\ngini = 0.5103\nsamples = 19\nvalue = [16, 10, 1, 0]"] ;
551 -> 553 ;
554 [label="X[2] <= 0.3733\ngini = 0.4734\nsamples = 18\nvalue = [16, 10, 0, 0]"] ;
553 -> 554 ;
555 [label="X[5] <= 0.1134\ngini = 0.18\nsamples = 7\nvalue = [9, 1, 0, 0]"] ;
554 -> 555 ;
556 [label="gini = 0.0\nsamples = 1\nvalue = [0, 1, 0, 0]"] ;
555 -> 556 ;
557 [label="gini = 0.0\nsamples = 6\nvalue = [9, 0, 0, 0]"] ;
555 -> 557 ;
558 [label="X[3] <= 0.1183\ngini = 0.4922\nsamples = 11\nvalue = [7, 9, 0, 0]"] ;
554 -> 558 ;
559 [label="gini = 0.0\nsamples = 1\nvalue = [3, 0, 0, 0]"] ;
558 -> 559 ;
560 [label="X[1] <= 0.2\ngini = 0.426\nsamples = 10\nvalue = [4, 9, 0, 0]"] ;
558 -> 560 ;
561 [label="gini = 0.0\nsamples = 4\nvalue = [0, 5, 0, 0]"] ;
560 -> 561 ;
562 [label="X[5] <= 0.1744\ngini = 0.5\nsamples = 6\nvalue = [4, 4, 0, 0]"] ;
560 -> 562 ;
563 [label="X[3] <= 0.1692\ngini = 0.4444\nsamples = 5\nvalue = [2, 4, 0, 0]"] ;
562 -> 563 ;
564 [label="X[5] <= 0.1047\ngini = 0.4444\nsamples = 3\nvalue = [2, 1, 0, 0]"] ;
563 -> 564 ;
565 [label="gini = 0.0\nsamples = 1\nvalue = [0, 1, 0, 0]"] ;
564 -> 565 ;
566 [label="gini = 0.0\nsamples = 2\nvalue = [2, 0, 0, 0]"] ;
564 -> 566 ;
567 [label="gini = 0.0\nsamples = 2\nvalue = [0, 3, 0, 0]"] ;
563 -> 567 ;
568 [label="gini = 0.0\nsamples = 1\nvalue = [2, 0, 0, 0]"] ;
562 -> 568 ;
569 [label="gini = 0.0\nsamples = 1\nvalue = [0, 0, 1, 0]"] ;
553 -> 569 ;
570 [label="X[6] <= 0.6106\ngini = 0.5575\nsamples = 178\nvalue = [156, 117, 22, 0]"] ;
412 -> 570 ;
571 [label="X[2] <= 0.026\ngini = 0.5116\nsamples = 103\nvalue = [107, 48, 14, 0]"] ;
570 -> 571 ;
572 [label="X[6] <= 0.5575\ngini = 0.4082\nsamples = 3\nvalue = [2, 0, 5, 0]"] ;
571 -> 572 ;
573 [label="gini = 0.0\nsamples = 1\nvalue = [1, 0, 0, 0]"] ;
572 -> 573 ;
574 [label="X[5] <= 0.314\ngini = 0.2778\nsamples = 2\nvalue = [1, 0, 5, 0]"] ;
572 -> 574 ;
575 [label="gini = 0.0\nsamples = 1\nvalue = [0, 0, 5, 0]"] ;
574 -> 575 ;
576 [label="gini = 0.0\nsamples = 1\nvalue = [1, 0, 0, 0]"] ;
574 -> 576 ;
577 [label="X[6] <= 0.5752\ngini = 0.489\nsamples = 100\nvalue = [105, 48, 9, 0]"] ;
571 -> 577 ;
578 [label="X[1] <= 0.0632\ngini = 0.5109\nsamples = 84\nvalue = [84, 47, 7, 0]"] ;
577 -> 578 ;
579 [label="gini = 0.0\nsamples = 2\nvalue = [0, 3, 0, 0]"] ;
578 -> 579 ;
580 [label="X[5] <= 0.2035\ngini = 0.5039\nsamples = 82\nvalue = [84, 44, 7, 0]"] ;
578 -> 580 ;
581 [label="X[0] <= 0.364\ngini = 0.4328\nsamples = 53\nvalue = [58, 21, 3, 0]"] ;
580 -> 581 ;
582 [label="X[3] <= 0.1912\ngini = 0.4076\nsamples = 50\nvalue = [58, 18, 3, 0]"] ;
581 -> 582 ;
583 [label="gini = 0.0\nsamples = 5\nvalue = [10, 0, 0, 0]"] ;
582 -> 583 ;
584 [label="X[1] <= 0.3632\ngini = 0.4461\nsamples = 45\nvalue = [48, 18, 3, 0]"] ;
582 -> 584 ;
585 [label="X[5] <= 0.0669\ngini = 0.4174\nsamples = 43\nvalue = [48, 15, 3, 0]"] ;
584 -> 585 ;
586 [label="X[2] <= 0.4271\ngini = 0.5714\nsamples = 5\nvalue = [1, 4, 2, 0]"] ;
585 -> 586 ;
587 [label="gini = 0.0\nsamples = 1\nvalue = [0, 0, 2, 0]"] ;
586 -> 587 ;
588 [label="X[2] <= 0.5035\ngini = 0.32\nsamples = 4\nvalue = [1, 4, 0, 0]"] ;
586 -> 588 ;
589 [label="gini = 0.0\nsamples = 1\nvalue = [0, 2, 0, 0]"] ;
588 -> 589 ;
590 [label="X[6] <= 0.5221\ngini = 0.4444\nsamples = 3\nvalue = [1, 2, 0, 0]"] ;
588 -> 590 ;
591 [label="gini = 0.0\nsamples = 2\nvalue = [0, 2, 0, 0]"] ;
590 -> 591 ;
592 [label="gini = 0.0\nsamples = 1\nvalue = [1, 0, 0, 0]"] ;
590 -> 592 ;
593 [label="X[2] <= 0.5156\ngini = 0.3304\nsamples = 38\nvalue = [47, 11, 1, 0]"] ;
585 -> 593 ;
594 [label="X[2] <= 0.5035\ngini = 0.4114\nsamples = 28\nvalue = [27, 11, 0, 0]"] ;
593 -> 594 ;
595 [label="X[4] <= 0.4876\ngini = 0.3527\nsamples = 26\nvalue = [27, 8, 0, 0]"] ;
594 -> 595 ;
596 [label="X[1] <= 0.2632\ngini = 0.2975\nsamples = 24\nvalue = [27, 6, 0, 0]"] ;
595 -> 596 ;
597 [label="X[2] <= 0.4514\ngini = 0.3648\nsamples = 19\nvalue = [19, 6, 0, 0]"] ;
596 -> 597 ;
598 [label="X[3] <= 0.1972\ngini = 0.1884\nsamples = 15\nvalue = [17, 2, 0, 0]"] ;
597 -> 598 ;
599 [label="gini = 0.0\nsamples = 1\nvalue = [0, 1, 0, 0]"] ;
598 -> 599 ;
600 [label="X[1] <= 0.1474\ngini = 0.1049\nsamples = 14\nvalue = [17, 1, 0, 0]"] ;
598 -> 600 ;
601 [label="gini = 0.0\nsamples = 8\nvalue = [9, 0, 0, 0]"] ;
600 -> 601 ;
602 [label="X[2] <= 0.4115\ngini = 0.1975\nsamples = 6\nvalue = [8, 1, 0, 0]"] ;
600 -> 602 ;
603 [label="gini = 0.0\nsamples = 4\nvalue = [6, 0, 0, 0]"] ;
602 -> 603 ;
604 [label="X[0] <= 0.2807\ngini = 0.4444\nsamples = 2\nvalue = [2, 1, 0, 0]"] ;
602 -> 604 ;
605 [label="gini = 0.0\nsamples = 1\nvalue = [0, 1, 0, 0]"] ;
604 -> 605 ;
606 [label="gini = 0.0\nsamples = 1\nvalue = [2, 0, 0, 0]"] ;
604 -> 606 ;
607 [label="X[1] <= 0.0842\ngini = 0.4444\nsamples = 4\nvalue = [2, 4, 0, 0]"] ;
597 -> 607 ;
608 [label="gini = 0.0\nsamples = 1\nvalue = [2, 0, 0, 0]"] ;
607 -> 608 ;
609 [label="gini = 0.0\nsamples = 3\nvalue = [0, 4, 0, 0]"] ;
607 -> 609 ;
610 [label="gini = 0.0\nsamples = 5\nvalue = [8, 0, 0, 0]"] ;
596 -> 610 ;
611 [label="gini = 0.0\nsamples = 2\nvalue = [0, 2, 0, 0]"] ;
595 -> 611 ;
612 [label="gini = 0.0\nsamples = 2\nvalue = [0, 3, 0, 0]"] ;
594 -> 612 ;
613 [label="X[4] <= 0.376\ngini = 0.0907\nsamples = 10\nvalue = [20, 0, 1, 0]"] ;
593 -> 613 ;
614 [label="gini = 0.0\nsamples = 8\nvalue = [19, 0, 0, 0]"] ;
613 -> 614 ;
615 [label="X[5] <= 0.1134\ngini = 0.5\nsamples = 2\nvalue = [1, 0, 1, 0]"] ;
613 -> 615 ;
616 [label="gini = 0.0\nsamples = 1\nvalue = [0, 0, 1, 0]"] ;
615 -> 616 ;
617 [label="gini = 0.0\nsamples = 1\nvalue = [1, 0, 0, 0]"] ;
615 -> 617 ;
618 [label="gini = 0.0\nsamples = 2\nvalue = [0, 3, 0, 0]"] ;
584 -> 618 ;
619 [label="gini = 0.0\nsamples = 3\nvalue = [0, 3, 0, 0]"] ;
581 -> 619 ;
620 [label="X[4] <= 0.3471\ngini = 0.5653\nsamples = 29\nvalue = [26, 23, 4, 0]"] ;
580 -> 620 ;
621 [label="X[4] <= 0.2438\ngini = 0.2778\nsamples = 9\nvalue = [10, 2, 0, 0]"] ;
620 -> 621 ;
622 [label="gini = 0.0\nsamples = 1\nvalue = [0, 1, 0, 0]"] ;
621 -> 622 ;
623 [label="X[3] <= 0.2244\ngini = 0.1653\nsamples = 8\nvalue = [10, 1, 0, 0]"] ;
621 -> 623 ;
624 [label="X[5] <= 0.3605\ngini = 0.5\nsamples = 2\nvalue = [1, 1, 0, 0]"] ;
623 -> 624 ;
625 [label="gini = 0.0\nsamples = 1\nvalue = [0, 1, 0, 0]"] ;
624 -> 625 ;
626 [label="gini = 0.0\nsamples = 1\nvalue = [1, 0, 0, 0]"] ;
624 -> 626 ;
627 [label="gini = 0.0\nsamples = 6\nvalue = [9, 0, 0, 0]"] ;
623 -> 627 ;
628 [label="X[2] <= 0.0434\ngini = 0.5758\nsamples = 20\nvalue = [16, 21, 4, 0]"] ;
620 -> 628 ;
629 [label="gini = 0.0\nsamples = 2\nvalue = [6, 0, 0, 0]"] ;
628 -> 629 ;
630 [label="X[1] <= 0.3316\ngini = 0.5453\nsamples = 18\nvalue = [10, 21, 4, 0]"] ;
628 -> 630 ;
631 [label="X[1] <= 0.2632\ngini = 0.6091\nsamples = 14\nvalue = [10, 13, 4, 0]"] ;
630 -> 631 ;
632 [label="X[3] <= 0.4182\ngini = 0.3911\nsamples = 9\nvalue = [4, 11, 0, 0]"] ;
631 -> 632 ;
633 [label="X[2] <= 0.7144\ngini = 0.2778\nsamples = 7\nvalue = [2, 10, 0, 0]"] ;
632 -> 633 ;
634 [label="gini = 0.0\nsamples = 6\nvalue = [0, 10, 0, 0]"] ;
633 -> 634 ;
635 [label="gini = 0.0\nsamples = 1\nvalue = [2, 0, 0, 0]"] ;
633 -> 635 ;
636 [label="X[5] <= 0.3052\ngini = 0.4444\nsamples = 2\nvalue = [2, 1, 0, 0]"] ;
632 -> 636 ;
637 [label="gini = 0.0\nsamples = 1\nvalue = [0, 1, 0, 0]"] ;
636 -> 637 ;
638 [label="gini = 0.0\nsamples = 1\nvalue = [2, 0, 0, 0]"] ;
636 -> 638 ;
639 [label="X[4] <= 0.3843\ngini = 0.6111\nsamples = 5\nvalue = [6, 2, 4, 0]"] ;
631 -> 639 ;
640 [label="gini = 0.0\nsamples = 1\nvalue = [0, 0, 4, 0]"] ;
639 -> 640 ;
641 [label="X[4] <= 0.4876\ngini = 0.375\nsamples = 4\nvalue = [6, 2, 0, 0]"] ;
639 -> 641 ;
642 [label="gini = 0.0\nsamples = 2\nvalue = [6, 0, 0, 0]"] ;
641 -> 642 ;
643 [label="gini = 0.0\nsamples = 2\nvalue = [0, 2, 0, 0]"] ;
641 -> 643 ;
644 [label="gini = 0.0\nsamples = 4\nvalue = [0, 8, 0, 0]"] ;
630 -> 644 ;
645 [label="X[3] <= 0.2665\ngini = 0.2257\nsamples = 16\nvalue = [21, 1, 2, 0]"] ;
577 -> 645 ;
646 [label="X[5] <= 0.1047\ngini = 0.1528\nsamples = 7\nvalue = [11, 1, 0, 0]"] ;
645 -> 646 ;
647 [label="X[1] <= 0.2474\ngini = 0.5\nsamples = 2\nvalue = [1, 1, 0, 0]"] ;
646 -> 647 ;
648 [label="gini = 0.0\nsamples = 1\nvalue = [0, 1, 0, 0]"] ;
647 -> 648 ;
649 [label="gini = 0.0\nsamples = 1\nvalue = [1, 0, 0, 0]"] ;
647 -> 649 ;
650 [label="gini = 0.0\nsamples = 5\nvalue = [10, 0, 0, 0]"] ;
646 -> 650 ;
651 [label="X[0] <= 0.2588\ngini = 0.2778\nsamples = 9\nvalue = [10, 0, 2, 0]"] ;
645 -> 651 ;
652 [label="X[2] <= 0.592\ngini = 0.5\nsamples = 4\nvalue = [2, 0, 2, 0]"] ;
651 -> 652 ;
653 [label="gini = 0.0\nsamples = 2\nvalue = [0, 0, 2, 0]"] ;
652 -> 653 ;
654 [label="gini = 0.0\nsamples = 2\nvalue = [2, 0, 0, 0]"] ;
652 -> 654 ;
655 [label="gini = 0.0\nsamples = 5\nvalue = [8, 0, 0, 0]"] ;
651 -> 655 ;
656 [label="X[1] <= 0.1211\ngini = 0.5448\nsamples = 75\nvalue = [49, 69, 8, 0]"] ;
570 -> 656 ;
657 [label="X[0] <= 0.3026\ngini = 0.5511\nsamples = 9\nvalue = [9, 4, 2, 0]"] ;
656 -> 657 ;
658 [label="X[0] <= 0.25\ngini = 0.2975\nsamples = 7\nvalue = [9, 0, 2, 0]"] ;
657 -> 658 ;
659 [label="X[1] <= 0.1\ngini = 0.4444\nsamples = 3\nvalue = [1, 0, 2, 0]"] ;
658 -> 659 ;
660 [label="gini = 0.0\nsamples = 2\nvalue = [0, 0, 2, 0]"] ;
659 -> 660 ;
661 [label="gini = 0.0\nsamples = 1\nvalue = [1, 0, 0, 0]"] ;
659 -> 661 ;
662 [label="gini = 0.0\nsamples = 4\nvalue = [8, 0, 0, 0]"] ;
658 -> 662 ;
663 [label="gini = 0.0\nsamples = 2\nvalue = [0, 4, 0, 0]"] ;
657 -> 663 ;
664 [label="X[4] <= 0.3017\ngini = 0.5243\nsamples = 66\nvalue = [40, 65, 6, 0]"] ;
656 -> 664 ;
665 [label="X[3] <= 0.35\ngini = 0.5562\nsamples = 10\nvalue = [1, 7, 5, 0]"] ;
664 -> 665 ;
666 [label="X[5] <= 0.0988\ngini = 0.5679\nsamples = 8\nvalue = [1, 3, 5, 0]"] ;
665 -> 666 ;
667 [label="gini = 0.0\nsamples = 2\nvalue = [0, 0, 3, 0]"] ;
666 -> 667 ;
668 [label="X[5] <= 0.1134\ngini = 0.6111\nsamples = 6\nvalue = [1, 3, 2, 0]"] ;
666 -> 668 ;
669 [label="gini = 0.0\nsamples = 1\nvalue = [1, 0, 0, 0]"] ;
668 -> 669 ;
670 [label="X[5] <= 0.1308\ngini = 0.48\nsamples = 5\nvalue = [0, 3, 2, 0]"] ;
668 -> 670 ;
671 [label="gini = 0.0\nsamples = 1\nvalue = [0, 1, 0, 0]"] ;
670 -> 671 ;
672 [label="X[5] <= 0.1715\ngini = 0.5\nsamples = 4\nvalue = [0, 2, 2, 0]"] ;
670 -> 672 ;
673 [label="gini = 0.0\nsamples = 1\nvalue = [0, 0, 1, 0]"] ;
672 -> 673 ;
674 [label="X[1] <= 0.2211\ngini = 0.4444\nsamples = 3\nvalue = [0, 2, 1, 0]"] ;
672 -> 674 ;
675 [label="gini = 0.0\nsamples = 1\nvalue = [0, 0, 1, 0]"] ;
674 -> 675 ;
676 [label="gini = 0.0\nsamples = 2\nvalue = [0, 2, 0, 0]"] ;
674 -> 676 ;
677 [label="gini = 0.0\nsamples = 2\nvalue = [0, 4, 0, 0]"] ;
665 -> 677 ;
678 [label="X[4] <= 0.3926\ngini = 0.4913\nsamples = 56\nvalue = [39, 58, 1, 0]"] ;
664 -> 678 ;
679 [label="X[6] <= 0.6681\ngini = 0.5222\nsamples = 25\nvalue = [20, 17, 1, 0]"] ;
678 -> 679 ;
680 [label="X[2] <= 0.1875\ngini = 0.42\nsamples = 12\nvalue = [6, 14, 0, 0]"] ;
679 -> 680 ;
681 [label="X[2] <= 0.0295\ngini = 0.48\nsamples = 5\nvalue = [6, 4, 0, 0]"] ;
680 -> 681 ;
682 [label="gini = 0.0\nsamples = 1\nvalue = [3, 0, 0, 0]"] ;
681 -> 682 ;
683 [label="X[3] <= 0.3142\ngini = 0.4898\nsamples = 4\nvalue = [3, 4, 0, 0]"] ;
681 -> 683 ;
684 [label="gini = 0.0\nsamples = 1\nvalue = [3, 0, 0, 0]"] ;
683 -> 684 ;
685 [label="gini = 0.0\nsamples = 3\nvalue = [0, 4, 0, 0]"] ;
683 -> 685 ;
686 [label="gini = 0.0\nsamples = 7\nvalue = [0, 10, 0, 0]"] ;
680 -> 686 ;
687 [label="X[0] <= 0.3596\ngini = 0.3642\nsamples = 13\nvalue = [14, 3, 1, 0]"] ;
679 -> 687 ;
688 [label="X[1] <= 0.3263\ngini = 0.5124\nsamples = 9\nvalue = [7, 3, 1, 0]"] ;
687 -> 688 ;
689 [label="X[6] <= 0.6903\ngini = 0.3704\nsamples = 8\nvalue = [7, 1, 1, 0]"] ;
688 -> 689 ;
690 [label="gini = 0.0\nsamples = 4\nvalue = [5, 0, 0, 0]"] ;
689 -> 690 ;
691 [label="X[4] <= 0.376\ngini = 0.625\nsamples = 4\nvalue = [2, 1, 1, 0]"] ;
689 -> 691 ;
692 [label="X[5] <= 0.2238\ngini = 0.4444\nsamples = 3\nvalue = [2, 1, 0, 0]"] ;
691 -> 692 ;
693 [label="gini = 0.0\nsamples = 1\nvalue = [0, 1, 0, 0]"] ;
692 -> 693 ;
694 [label="gini = 0.0\nsamples = 2\nvalue = [2, 0, 0, 0]"] ;
692 -> 694 ;
695 [label="gini = 0.0\nsamples = 1\nvalue = [0, 0, 1, 0]"] ;
691 -> 695 ;
696 [label="gini = 0.0\nsamples = 1\nvalue = [0, 2, 0, 0]"] ;
688 -> 696 ;
697 [label="gini = 0.0\nsamples = 4\nvalue = [7, 0, 0, 0]"] ;
687 -> 697 ;
698 [label="X[3] <= 0.3397\ngini = 0.4328\nsamples = 31\nvalue = [19, 41, 0, 0]"] ;
678 -> 698 ;
699 [label="X[0] <= 0.3991\ngini = 0.48\nsamples = 24\nvalue = [18, 27, 0, 0]"] ;
698 -> 699 ;
700 [label="X[4] <= 0.4587\ngini = 0.4388\nsamples = 22\nvalue = [13, 27, 0, 0]"] ;
699 -> 700 ;
701 [label="X[1] <= 0.2105\ngini = 0.2778\nsamples = 11\nvalue = [3, 15, 0, 0]"] ;
700 -> 701 ;
702 [label="gini = 0.0\nsamples = 2\nvalue = [2, 0, 0, 0]"] ;
701 -> 702 ;
703 [label="X[4] <= 0.405\ngini = 0.1172\nsamples = 9\nvalue = [1, 15, 0, 0]"] ;
701 -> 703 ;
704 [label="X[1] <= 0.3842\ngini = 0.375\nsamples = 3\nvalue = [1, 3, 0, 0]"] ;
703 -> 704 ;
705 [label="gini = 0.0\nsamples = 2\nvalue = [0, 3, 0, 0]"] ;
704 -> 705 ;
706 [label="gini = 0.0\nsamples = 1\nvalue = [1, 0, 0, 0]"] ;
704 -> 706 ;
707 [label="gini = 0.0\nsamples = 6\nvalue = [0, 12, 0, 0]"] ;
703 -> 707 ;
708 [label="X[2] <= 0.3906\ngini = 0.4959\nsamples = 11\nvalue = [10, 12, 0, 0]"] ;
700 -> 708 ;
709 [label="X[5] <= 0.3924\ngini = 0.355\nsamples = 6\nvalue = [3, 10, 0, 0]"] ;
708 -> 709 ;
710 [label="X[1] <= 0.1895\ngini = 0.1653\nsamples = 5\nvalue = [1, 10, 0, 0]"] ;
709 -> 710 ;
711 [label="gini = 0.0\nsamples = 1\nvalue = [1, 0, 0, 0]"] ;
710 -> 711 ;
712 [label="gini = 0.0\nsamples = 4\nvalue = [0, 10, 0, 0]"] ;
710 -> 712 ;
713 [label="gini = 0.0\nsamples = 1\nvalue = [2, 0, 0, 0]"] ;
709 -> 713 ;
714 [label="X[5] <= 0.2122\ngini = 0.3457\nsamples = 5\nvalue = [7, 2, 0, 0]"] ;
708 -> 714 ;
715 [label="X[1] <= 0.2526\ngini = 0.4444\nsamples = 2\nvalue = [1, 2, 0, 0]"] ;
714 -> 715 ;
716 [label="gini = 0.0\nsamples = 1\nvalue = [1, 0, 0, 0]"] ;
715 -> 716 ;
717 [label="gini = 0.0\nsamples = 1\nvalue = [0, 2, 0, 0]"] ;
715 -> 717 ;
718 [label="gini = 0.0\nsamples = 3\nvalue = [6, 0, 0, 0]"] ;
714 -> 718 ;
719 [label="gini = 0.0\nsamples = 2\nvalue = [5, 0, 0, 0]"] ;
699 -> 719 ;
720 [label="X[2] <= 0.1649\ngini = 0.1244\nsamples = 7\nvalue = [1, 14, 0, 0]"] ;
698 -> 720 ;
721 [label="gini = 0.0\nsamples = 4\nvalue = [0, 10, 0, 0]"] ;
720 -> 721 ;
722 [label="X[1] <= 0.2684\ngini = 0.32\nsamples = 3\nvalue = [1, 4, 0, 0]"] ;
720 -> 722 ;
723 [label="gini = 0.0\nsamples = 2\nvalue = [0, 4, 0, 0]"] ;
722 -> 723 ;
724 [label="gini = 0.0\nsamples = 1\nvalue = [1, 0, 0, 0]"] ;
722 -> 724 ;
725 [label="gini = 0.0\nsamples = 4\nvalue = [8, 0, 0, 0]"] ;
411 -> 725 ;
726 [label="X[6] <= 0.6814\ngini = 0.2758\nsamples = 136\nvalue = [191, 34, 3, 0]"] ;
0 -> 726 [labeldistance=2.5, labelangle=-45, headlabel="False"] ;
727 [label="X[0] <= 0.2675\ngini = 0.1697\nsamples = 121\nvalue = [184, 19, 0, 0]"] ;
726 -> 727 ;
728 [label="X[6] <= 0.4159\ngini = 0.0506\nsamples = 48\nvalue = [75, 2, 0, 0]"] ;
727 -> 728 ;
729 [label="gini = 0.0\nsamples = 26\nvalue = [44, 0, 0, 0]"] ;
728 -> 729 ;
730 [label="X[6] <= 0.4336\ngini = 0.1139\nsamples = 22\nvalue = [31, 2, 0, 0]"] ;
728 -> 730 ;
731 [label="X[0] <= 0.2412\ngini = 0.48\nsamples = 3\nvalue = [3, 2, 0, 0]"] ;
730 -> 731 ;
732 [label="X[1] <= 0.5158\ngini = 0.4444\nsamples = 2\nvalue = [1, 2, 0, 0]"] ;
731 -> 732 ;
733 [label="gini = 0.0\nsamples = 1\nvalue = [1, 0, 0, 0]"] ;
732 -> 733 ;
734 [label="gini = 0.0\nsamples = 1\nvalue = [0, 2, 0, 0]"] ;
732 -> 734 ;
735 [label="gini = 0.0\nsamples = 1\nvalue = [2, 0, 0, 0]"] ;
731 -> 735 ;
736 [label="gini = 0.0\nsamples = 19\nvalue = [28, 0, 0, 0]"] ;
730 -> 736 ;
737 [label="X[0] <= 0.3377\ngini = 0.2334\nsamples = 73\nvalue = [109, 17, 0, 0]"] ;
727 -> 737 ;
738 [label="X[6] <= 0.2743\ngini = 0.3418\nsamples = 37\nvalue = [50, 14, 0, 0]"] ;
737 -> 738 ;
739 [label="gini = 0.0\nsamples = 15\nvalue = [28, 0, 0, 0]"] ;
738 -> 739 ;
740 [label="X[5] <= 0.2645\ngini = 0.4753\nsamples = 22\nvalue = [22, 14, 0, 0]"] ;
738 -> 740 ;
741 [label="X[2] <= 0.066\ngini = 0.3995\nsamples = 18\nvalue = [21, 8, 0, 0]"] ;
740 -> 741 ;
742 [label="X[6] <= 0.4071\ngini = 0.4734\nsamples = 7\nvalue = [5, 8, 0, 0]"] ;
741 -> 742 ;
743 [label="gini = 0.0\nsamples = 3\nvalue = [0, 7, 0, 0]"] ;
742 -> 743 ;
744 [label="X[4] <= 0.4463\ngini = 0.2778\nsamples = 4\nvalue = [5, 1, 0, 0]"] ;
742 -> 744 ;
745 [label="gini = 0.0\nsamples = 3\nvalue = [5, 0, 0, 0]"] ;
744 -> 745 ;
746 [label="gini = 0.0\nsamples = 1\nvalue = [0, 1, 0, 0]"] ;
744 -> 746 ;
747 [label="gini = 0.0\nsamples = 11\nvalue = [16, 0, 0, 0]"] ;
741 -> 747 ;
748 [label="X[4] <= 0.4587\ngini = 0.2449\nsamples = 4\nvalue = [1, 6, 0, 0]"] ;
740 -> 748 ;
749 [label="gini = 0.0\nsamples = 1\nvalue = [1, 0, 0, 0]"] ;
748 -> 749 ;
750 [label="gini = 0.0\nsamples = 3\nvalue = [0, 6, 0, 0]"] ;
748 -> 750 ;
751 [label="X[1] <= 0.4684\ngini = 0.0921\nsamples = 36\nvalue = [59, 3, 0, 0]"] ;
737 -> 751 ;
752 [label="X[0] <= 0.614\ngini = 0.2659\nsamples = 12\nvalue = [16, 3, 0, 0]"] ;
751 -> 752 ;
753 [label="X[5] <= 0.2965\ngini = 0.1975\nsamples = 11\nvalue = [16, 2, 0, 0]"] ;
752 -> 753 ;
754 [label="gini = 0.0\nsamples = 8\nvalue = [12, 0, 0, 0]"] ;
753 -> 754 ;
755 [label="X[4] <= 0.3347\ngini = 0.4444\nsamples = 3\nvalue = [4, 2, 0, 0]"] ;
753 -> 755 ;
756 [label="gini = 0.0\nsamples = 1\nvalue = [0, 2, 0, 0]"] ;
755 -> 756 ;
757 [label="gini = 0.0\nsamples = 2\nvalue = [4, 0, 0, 0]"] ;
755 -> 757 ;
758 [label="gini = 0.0\nsamples = 1\nvalue = [0, 1, 0, 0]"] ;
752 -> 758 ;
759 [label="gini = 0.0\nsamples = 24\nvalue = [43, 0, 0, 0]"] ;
751 -> 759 ;
760 [label="X[5] <= 0.3459\ngini = 0.5472\nsamples = 15\nvalue = [7, 15, 3, 0]"] ;
726 -> 760 ;
761 [label="X[3] <= 0.2264\ngini = 0.605\nsamples = 13\nvalue = [7, 10, 3, 0]"] ;
760 -> 761 ;
762 [label="X[1] <= 0.4947\ngini = 0.4688\nsamples = 6\nvalue = [0, 5, 3, 0]"] ;
761 -> 762 ;
763 [label="gini = 0.0\nsamples = 3\nvalue = [0, 0, 3, 0]"] ;
762 -> 763 ;
764 [label="gini = 0.0\nsamples = 3\nvalue = [0, 5, 0, 0]"] ;
762 -> 764 ;
765 [label="X[1] <= 0.5421\ngini = 0.4861\nsamples = 7\nvalue = [7, 5, 0, 0]"] ;
761 -> 765 ;
766 [label="gini = 0.0\nsamples = 3\nvalue = [5, 0, 0, 0]"] ;
765 -> 766 ;
767 [label="X[5] <= 0.2762\ngini = 0.4082\nsamples = 4\nvalue = [2, 5, 0, 0]"] ;
765 -> 767 ;
768 [label="gini = 0.0\nsamples = 3\nvalue = [0, 5, 0, 0]"] ;
767 -> 768 ;
769 [label="gini = 0.0\nsamples = 1\nvalue = [2, 0, 0, 0]"] ;
767 -> 769 ;
770 [label="gini = 0.0\nsamples = 2\nvalue = [0, 5, 0, 0]"] ;
760 -> 770 ;
}