digraph Tree {
node [shape=box] ;
0 [label="X[6] <= 0.4336\ngini = 0.4698\nsamples = 1231\nvalue = [1302, 574, 78, 3]"] ;
1 [label="X[3] <= 0.282\ngini = 0.2966\nsamples = 621\nvalue = [817, 161, 12, 3]"] ;
0 -> 1 [labeldistance=2.5, labelangle=45, headlabel="True"] ;
2 [label="X[3] <= 0.2184\ngini = 0.421\nsamples = 130\nvalue = [145, 53, 5, 0]"] ;
1 -> 2 ;
3 [label="X[6] <= 0.3982\ngini = 0.0973\nsamples = 23\nvalue = [37, 2, 0, 0]"] ;
2 -> 3 ;
4 [label="gini = 0.0\nsamples = 17\nvalue = [31, 0, 0, 0]"] ;
3 -> 4 ;
5 [label="X[3] <= 0.2106\ngini = 0.375\nsamples = 6\nvalue = [6, 2, 0, 0]"] ;
3 -> 5 ;
6 [label="X[3] <= 0.1985\ngini = 0.2449\nsamples = 5\nvalue = [6, 1, 0, 0]"] ;
5 -> 6 ;
7 [label="gini = 0.0\nsamples = 3\nvalue = [4, 0, 0, 0]"] ;
6 -> 7 ;
8 [label="X[0] <= 0.2719\ngini = 0.4444\nsamples = 2\nvalue = [2, 1, 0, 0]"] ;
6 -> 8 ;
9 [label="gini = 0.0\nsamples = 1\nvalue = [0, 1, 0, 0]"] ;
8 -> 9 ;
10 [label="gini = 0.0\nsamples = 1\nvalue = [2, 0, 0, 0]"] ;
8 -> 10 ;
11 [label="gini = 0.0\nsamples = 1\nvalue = [0, 1, 0, 0]"] ;
5 -> 11 ;
12 [label="X[3] <= 0.2192\ngini = 0.4687\nsamples = 107\nvalue = [108, 51, 5, 0]"] ;
2 -> 12 ;
13 [label="gini = 0.0\nsamples = 2\nvalue = [0, 5, 0, 0]"] ;
12 -> 13 ;
14 [label="X[6] <= 0.2389\ngini = 0.4539\nsamples = 105\nvalue = [108, 46, 5, 0]"] ;
12 -> 14 ;
15 [label="X[2] <= 0.4844\ngini = 0.1964\nsamples = 20\nvalue = [25, 1, 2, 0]"] ;
14 -> 15 ;
16 [label="gini = 0.0\nsamples = 10\nvalue = [14, 0, 0, 0]"] ;
15 -> 16 ;
17 [label="X[3] <= 0.2728\ngini = 0.3571\nsamples = 10\nvalue = [11, 1, 2, 0]"] ;
15 -> 17 ;
18 [label="X[1] <= 0.1658\ngini = 0.1653\nsamples = 8\nvalue = [10, 1, 0, 0]"] ;
17 -> 18 ;
19 [label="gini = 0.0\nsamples = 6\nvalue = [8, 0, 0, 0]"] ;
18 -> 19 ;
20 [label="X[5] <= 0.1366\ngini = 0.4444\nsamples = 2\nvalue = [2, 1, 0, 0]"] ;
18 -> 20 ;
21 [label="gini = 0.0\nsamples = 1\nvalue = [2, 0, 0, 0]"] ;
20 -> 21 ;
22 [label="gini = 0.0\nsamples = 1\nvalue = [0, 1, 0, 0]"] ;
20 -> 22 ;
23 [label="X[3] <= 0.2771\ngini = 0.4444\nsamples = 2\nvalue = [1, 0, 2, 0]"] ;
17 -> 23 ;
24 [label="gini = 0.0\nsamples = 1\nvalue = [0, 0, 2, 0]"] ;
23 -> 24 ;
25 [label="gini = 0.0\nsamples = 1\nvalue = [1, 0, 0, 0]"] ;
23 -> 25 ;
26 [label="X[5] <= 0.2994\ngini = 0.48\nsamples = 85\nvalue = [83, 45, 3, 0]"] ;
14 -> 26 ;
27 [label="X[3] <= 0.2272\ngini = 0.4612\nsamples = 80\nvalue = [83, 39, 3, 0]"] ;
26 -> 27 ;
28 [label="X[0] <= 0.3465\ngini = 0.142\nsamples = 8\nvalue = [12, 1, 0, 0]"] ;
27 -> 28 ;
29 [label="gini = 0.0\nsamples = 7\nvalue = [12, 0, 0, 0]"] ;
28 -> 29 ;
30 [label="gini = 0.0\nsamples = 1\nvalue = [0, 1, 0, 0]"] ;
28 -> 30 ;
31 [label="X[3] <= 0.2378\ngini = 0.4823\nsamples = 72\nvalue = [71, 38, 3, 0]"] ;
27 -> 31 ;
32 [label="X[0] <= 0.2588\ngini = 0.5856\nsamples = 14\nvalue = [9, 13, 3, 0]"] ;
31 -> 32 ;
33 [label="X[3] <= 0.2352\ngini = 0.5813\nsamples = 10\nvalue = [9, 6, 2, 0]"] ;
32 -> 33 ;
34 [label="X[4] <= 0.4587\ngini = 0.3457\nsamples = 6\nvalue = [7, 2, 0, 0]"] ;
33 -> 34 ;
35 [label="gini = 0.0\nsamples = 4\nvalue = [7, 0, 0, 0]"] ;
34 -> 35 ;
36 [label="gini = 0.0\nsamples = 2\nvalue = [0, 2, 0, 0]"] ;
34 -> 36 ;
37 [label="X[5] <= 0.2093\ngini = 0.625\nsamples = 4\nvalue = [2, 4, 2, 0]"] ;
33 -> 37 ;
38 [label="gini = 0.0\nsamples = 2\nvalue = [0, 4, 0, 0]"] ;
37 -> 38 ;
39 [label="X[6] <= 0.3363\ngini = 0.5\nsamples = 2\nvalue = [2, 0, 2, 0]"] ;
37 -> 39 ;
40 [label="gini = 0.0\nsamples = 1\nvalue = [2, 0, 0, 0]"] ;
39 -> 40 ;
41 [label="gini = 0.0\nsamples = 1\nvalue = [0, 0, 2, 0]"] ;
39 -> 41 ;
42 [label="X[6] <= 0.3186\ngini = 0.2188\nsamples = 4\nvalue = [0, 7, 1, 0]"] ;
32 -> 42 ;
43 [label="gini = 0.0\nsamples = 2\nvalue = [0, 5, 0, 0]"] ;
42 -> 43 ;
44 [label="X[2] <= 0.2847\ngini = 0.4444\nsamples = 2\nvalue = [0, 2, 1, 0]"] ;
42 -> 44 ;
45 [label="gini = 0.0\nsamples = 1\nvalue = [0, 2, 0, 0]"] ;
44 -> 45 ;
46 [label="gini = 0.0\nsamples = 1\nvalue = [0, 0, 1, 0]"] ;
44 -> 46 ;
47 [label="X[0] <= 0.1798\ngini = 0.4096\nsamples = 58\nvalue = [62, 25, 0, 0]"] ;
31 -> 47 ;
48 [label="X[6] <= 0.295\ngini = 0.4986\nsamples = 13\nvalue = [9, 10, 0, 0]"] ;
47 -> 48 ;
49 [label="gini = 0.0\nsamples = 5\nvalue = [6, 0, 0, 0]"] ;
48 -> 49 ;
50 [label="X[6] <= 0.4071\ngini = 0.355\nsamples = 8\nvalue = [3, 10, 0, 0]"] ;
48 -> 50 ;
51 [label="X[2] <= 0.309\ngini = 0.1975\nsamples = 5\nvalue = [1, 8, 0, 0]"] ;
50 -> 51 ;
52 [label="gini = 0.0\nsamples = 1\nvalue = [1, 0, 0, 0]"] ;
51 -> 52 ;
53 [label="gini = 0.0\nsamples = 4\nvalue = [0, 8, 0, 0]"] ;
51 -> 53 ;
54 [label="X[0] <= 0.136\ngini = 0.5\nsamples = 3\nvalue = [2, 2, 0, 0]"] ;
50 -> 54 ;
55 [label="gini = 0.0\nsamples = 1\nvalue = [0, 2, 0, 0]"] ;
54 -> 55 ;
56 [label="gini = 0.0\nsamples = 2\nvalue = [2, 0, 0, 0]"] ;
54 -> 56 ;
57 [label="X[3] <= 0.2641\ngini = 0.3439\nsamples = 45\nvalue = [53, 15, 0, 0]"] ;
47 -> 57 ;
58 [label="X[1] <= 0.0789\ngini = 0.1841\nsamples = 24\nvalue = [35, 4, 0, 0]"] ;
57 -> 58 ;
59 [label="gini = 0.0\nsamples = 5\nvalue = [12, 0, 0, 0]"] ;
58 -> 59 ;
60 [label="X[0] <= 0.1974\ngini = 0.2524\nsamples = 19\nvalue = [23, 4, 0, 0]"] ;
58 -> 60 ;
61 [label="gini = 0.0\nsamples = 7\nvalue = [12, 0, 0, 0]"] ;
60 -> 61 ;
62 [label="X[2] <= 0.3524\ngini = 0.3911\nsamples = 12\nvalue = [11, 4, 0, 0]"] ;
60 -> 62 ;
63 [label="X[2] <= 0.3264\ngini = 0.48\nsamples = 4\nvalue = [2, 3, 0, 0]"] ;
62 -> 63 ;
64 [label="X[1] <= 0.1316\ngini = 0.4444\nsamples = 3\nvalue = [2, 1, 0, 0]"] ;
63 -> 64 ;
65 [label="gini = 0.0\nsamples = 2\nvalue = [2, 0, 0, 0]"] ;
64 -> 65 ;
66 [label="gini = 0.0\nsamples = 1\nvalue = [0, 1, 0, 0]"] ;
64 -> 66 ;
67 [label="gini = 0.0\nsamples = 1\nvalue = [0, 2, 0, 0]"] ;
63 -> 67 ;
68 [label="X[6] <= 0.3451\ngini = 0.18\nsamples = 8\nvalue = [9, 1, 0, 0]"] ;
62 -> 68 ;
69 [label="X[3] <= 0.2533\ngini = 0.5\nsamples = 2\nvalue = [1, 1, 0, 0]"] ;
68 -> 69 ;
70 [label="gini = 0.0\nsamples = 1\nvalue = [0, 1, 0, 0]"] ;
69 -> 70 ;
71 [label="gini = 0.0\nsamples = 1\nvalue = [1, 0, 0, 0]"] ;
69 -> 71 ;
72 [label="gini = 0.0\nsamples = 6\nvalue = [8, 0, 0, 0]"] ;
68 -> 72 ;
73 [label="X[1] <= 0.1105\ngini = 0.4709\nsamples = 21\nvalue = [18, 11, 0, 0]"] ;
57 -> 73 ;
74 [label="X[2] <= 0.2587\ngini = 0.4875\nsamples = 12\nvalue = [8, 11, 0, 0]"] ;
73 -> 74 ;
75 [label="gini = 0.0\nsamples = 2\nvalue = [3, 0, 0, 0]"] ;
74 -> 75 ;
76 [label="X[5] <= 0.125\ngini = 0.4297\nsamples = 10\nvalue = [5, 11, 0, 0]"] ;
74 -> 76 ;
77 [label="X[4] <= 0.2934\ngini = 0.1975\nsamples = 5\nvalue = [1, 8, 0, 0]"] ;
76 -> 77 ;
78 [label="X[6] <= 0.3451\ngini = 0.4444\nsamples = 3\nvalue = [1, 2, 0, 0]"] ;
77 -> 78 ;
79 [label="gini = 0.0\nsamples = 1\nvalue = [1, 0, 0, 0]"] ;
78 -> 79 ;
80 [label="gini = 0.0\nsamples = 2\nvalue = [0, 2, 0, 0]"] ;
78 -> 80 ;
81 [label="gini = 0.0\nsamples = 2\nvalue = [0, 6, 0, 0]"] ;
77 -> 81 ;
82 [label="X[6] <= 0.292\ngini = 0.4898\nsamples = 5\nvalue = [4, 3, 0, 0]"] ;
76 -> 82 ;
83 [label="gini = 0.0\nsamples = 2\nvalue = [0, 3, 0, 0]"] ;
82 -> 83 ;
84 [label="gini = 0.0\nsamples = 3\nvalue = [4, 0, 0, 0]"] ;
82 -> 84 ;
85 [label="gini = 0.0\nsamples = 9\nvalue = [10, 0, 0, 0]"] ;
73 -> 85 ;
86 [label="gini = 0.0\nsamples = 5\nvalue = [0, 6, 0, 0]"] ;
26 -> 86 ;
87 [label="X[0] <= 0.25\ngini = 0.2576\nsamples = 491\nvalue = [672, 108, 7, 3]"] ;
1 -> 87 ;
88 [label="X[5] <= 0.2645\ngini = 0.1862\nsamples = 221\nvalue = [329, 37, 1, 0]"] ;
87 -> 88 ;
89 [label="X[5] <= 0.0669\ngini = 0.1631\nsamples = 202\nvalue = [306, 29, 1, 0]"] ;
88 -> 89 ;
90 [label="X[4] <= 0.4339\ngini = 0.426\nsamples = 7\nvalue = [9, 4, 0, 0]"] ;
89 -> 90 ;
91 [label="gini = 0.0\nsamples = 5\nvalue = [9, 0, 0, 0]"] ;
90 -> 91 ;
92 [label="gini = 0.0\nsamples = 2\nvalue = [0, 4, 0, 0]"] ;
90 -> 92 ;
93 [label="X[1] <= 0.0474\ngini = 0.1485\nsamples = 195\nvalue = [297, 25, 1, 0]"] ;
89 -> 93 ;
94 [label="X[6] <= 0.3805\ngini = 0.5536\nsamples = 10\nvalue = [8, 8, 1, 0]"] ;
93 -> 94 ;
95 [label="X[1] <= 0.0263\ngini = 0.4861\nsamples = 9\nvalue = [8, 3, 1, 0]"] ;
94 -> 95 ;
96 [label="gini = 0.0\nsamples = 2\nvalue = [0, 3, 0, 0]"] ;
95 -> 96 ;
97 [label="X[2] <= 0.3524\ngini = 0.1975\nsamples = 7\nvalue = [8, 0, 1, 0]"] ;
95 -> 97 ;
98 [label="X[5] <= 0.0901\ngini = 0.4444\nsamples = 3\nvalue = [2, 0, 1, 0]"] ;
97 -> 98 ;
99 [label="X[4] <= 0.3636\ngini = 0.5\nsamples = 2\nvalue = [1, 0, 1, 0]"] ;
98 -> 99 ;
100 [label="gini = 0.0\nsamples = 1\nvalue = [0, 0, 1, 0]"] ;
99 -> 100 ;
101 [label="gini = 0.0\nsamples = 1\nvalue = [1, 0, 0, 0]"] ;
99 -> 101 ;
102 [label="gini = 0.0\nsamples = 1\nvalue = [1, 0, 0, 0]"] ;
98 -> 102 ;
103 [label="gini = 0.0\nsamples = 4\nvalue = [6, 0, 0, 0]"] ;
97 -> 103 ;
104 [label="gini = 0.0\nsamples = 1\nvalue = [0, 5, 0, 0]"] ;
94 -> 104 ;
105 [label="X[1] <= 0.1105\ngini = 0.1049\nsamples = 185\nvalue = [289, 17, 0, 0]"] ;
93 -> 105 ;
106 [label="X[3] <= 0.4709\ngini = 0.2486\nsamples = 31\nvalue = [47, 8, 0, 0]"] ;
105 -> 106 ;
107 [label="X[1] <= 0.0789\ngini = 0.0465\nsamples = 24\nvalue = [41, 1, 0, 0]"] ;
106 -> 107 ;
108 [label="gini = 0.0\nsamples = 12\nvalue = [26, 0, 0, 0]"] ;
107 -> 108 ;
109 [label="X[2] <= 0.434\ngini = 0.1172\nsamples = 12\nvalue = [15, 1, 0, 0]"] ;
107 -> 109 ;
110 [label="gini = 0.0\nsamples = 7\nvalue = [10, 0, 0, 0]"] ;
109 -> 110 ;
111 [label="X[4] <= 0.438\ngini = 0.2778\nsamples = 5\nvalue = [5, 1, 0, 0]"] ;
109 -> 111 ;
112 [label="gini = 0.0\nsamples = 3\nvalue = [4, 0, 0, 0]"] ;
111 -> 112 ;
113 [label="X[5] <= 0.1512\ngini = 0.5\nsamples = 2\nvalue = [1, 1, 0, 0]"] ;
111 -> 113 ;
114 [label="gini = 0.0\nsamples = 1\nvalue = [0, 1, 0, 0]"] ;
113 -> 114 ;
115 [label="gini = 0.0\nsamples = 1\nvalue = [1, 0, 0, 0]"] ;
113 -> 115 ;
116 [label="X[3] <= 0.5537\ngini = 0.497\nsamples = 7\nvalue = [6, 7, 0, 0]"] ;
106 -> 116 ;
117 [label="X[4] <= 0.2479\ngini = 0.2188\nsamples = 5\nvalue = [1, 7, 0, 0]"] ;
116 -> 117 ;
118 [label="gini = 0.0\nsamples = 4\nvalue = [0, 7, 0, 0]"] ;
117 -> 118 ;
119 [label="gini = 0.0\nsamples = 1\nvalue = [1, 0, 0, 0]"] ;
117 -> 119 ;
120 [label="gini = 0.0\nsamples = 2\nvalue = [5, 0, 0, 0]"] ;
116 -> 120 ;
121 [label="X[4] <= 0.4835\ngini = 0.0691\nsamples = 154\nvalue = [242, 9, 0, 0]"] ;
105 -> 121 ;
122 [label="X[3] <= 0.3505\ngini = 0.0185\nsamples = 130\nvalue = [212, 2, 0, 0]"] ;
121 -> 122 ;
123 [label="X[0] <= 0.1404\ngini = 0.0754\nsamples = 31\nvalue = [49, 2, 0, 0]"] ;
122 -> 123 ;
124 [label="X[1] <= 0.1763\ngini = 0.2604\nsamples = 6\nvalue = [11, 2, 0, 0]"] ;
123 -> 124 ;
125 [label="gini = 0.0\nsamples = 2\nvalue = [0, 2, 0, 0]"] ;
124 -> 125 ;
126 [label="gini = 0.0\nsamples = 4\nvalue = [11, 0, 0, 0]"] ;
124 -> 126 ;
127 [label="gini = 0.0\nsamples = 25\nvalue = [38, 0, 0, 0]"] ;
123 -> 127 ;
128 [label="gini = 0.0\nsamples = 99\nvalue = [163, 0, 0, 0]"] ;
122 -> 128 ;
129 [label="X[0] <= 0.1886\ngini = 0.3068\nsamples = 24\nvalue = [30, 7, 0, 0]"] ;
121 -> 129 ;
130 [label="X[4] <= 0.5165\ngini = 0.4444\nsamples = 3\nvalue = [2, 4, 0, 0]"] ;
129 -> 130 ;
131 [label="gini = 0.0\nsamples = 1\nvalue = [0, 4, 0, 0]"] ;
130 -> 131 ;
132 [label="gini = 0.0\nsamples = 2\nvalue = [2, 0, 0, 0]"] ;
130 -> 132 ;
133 [label="X[5] <= 0.2122\ngini = 0.1748\nsamples = 21\nvalue = [28, 3, 0, 0]"] ;
129 -> 133 ;
134 [label="X[3] <= 0.3224\ngini = 0.255\nsamples = 14\nvalue = [17, 3, 0, 0]"] ;
133 -> 134 ;
135 [label="gini = 0.0\nsamples = 1\nvalue = [0, 1, 0, 0]"] ;
134 -> 135 ;
136 [label="X[4] <= 0.5413\ngini = 0.1884\nsamples = 13\nvalue = [17, 2, 0, 0]"] ;
134 -> 136 ;
137 [label="X[5] <= 0.2064\ngini = 0.4082\nsamples = 4\nvalue = [5, 2, 0, 0]"] ;
136 -> 137 ;
138 [label="X[3] <= 0.3699\ngini = 0.2778\nsamples = 3\nvalue = [5, 1, 0, 0]"] ;
137 -> 138 ;
139 [label="gini = 0.0\nsamples = 2\nvalue = [5, 0, 0, 0]"] ;
138 -> 139 ;
140 [label="gini = 0.0\nsamples = 1\nvalue = [0, 1, 0, 0]"] ;
138 -> 140 ;
141 [label="gini = 0.0\nsamples = 1\nvalue = [0, 1, 0, 0]"] ;
137 -> 141 ;
142 [label="gini = 0.0\nsamples = 9\nvalue = [12, 0, 0, 0]"] ;
136 -> 142 ;
143 [label="gini = 0.0\nsamples = 7\nvalue = [11, 0, 0, 0]"] ;
133 -> 143 ;
144 [label="X[3] <= 0.5101\ngini = 0.3829\nsamples = 19\nvalue = [23, 8, 0, 0]"] ;
88 -> 144 ;
145 [label="X[6] <= 0.2389\ngini = 0.3018\nsamples = 16\nvalue = [22, 5, 0, 0]"] ;
144 -> 145 ;
146 [label="gini = 0.0\nsamples = 7\nvalue = [12, 0, 0, 0]"] ;
145 -> 146 ;
147 [label="X[3] <= 0.3461\ngini = 0.4444\nsamples = 9\nvalue = [10, 5, 0, 0]"] ;
145 -> 147 ;
148 [label="X[5] <= 0.2791\ngini = 0.1653\nsamples = 7\nvalue = [10, 1, 0, 0]"] ;
147 -> 148 ;
149 [label="X[2] <= 0.2986\ngini = 0.5\nsamples = 2\nvalue = [1, 1, 0, 0]"] ;
148 -> 149 ;
150 [label="gini = 0.0\nsamples = 1\nvalue = [0, 1, 0, 0]"] ;
149 -> 150 ;
151 [label="gini = 0.0\nsamples = 1\nvalue = [1, 0, 0, 0]"] ;
149 -> 151 ;
152 [label="gini = 0.0\nsamples = 5\nvalue = [9, 0, 0, 0]"] ;
148 -> 152 ;
153 [label="gini = 0.0\nsamples = 2\nvalue = [0, 4, 0, 0]"] ;
147 -> 153 ;
154 [label="X[3] <= 0.5242\ngini = 0.375\nsamples = 3\nvalue = [1, 3, 0, 0]"] ;
144 -> 154 ;
155 [label="gini = 0.0\nsamples = 2\nvalue = [0, 3, 0, 0]"] ;
154 -> 155 ;
156 [label="gini = 0.0\nsamples = 1\nvalue = [1, 0, 0, 0]"] ;
154 -> 156 ;
157 [label="X[6] <= 0.0619\ngini = 0.3141\nsamples = 270\nvalue = [343, 71, 6, 3]"] ;
87 -> 157 ;
158 [label="gini = 0.0\nsamples = 5\nvalue = [0, 10, 0, 0]"] ;
157 -> 158 ;
159 [label="X[4] <= 0.2025\ngini = 0.2882\nsamples = 265\nvalue = [343, 61, 6, 3]"] ;
157 -> 159 ;
160 [label="X[2] <= 0.6441\ngini = 0.4829\nsamples = 34\nvalue = [36, 14, 4, 0]"] ;
159 -> 160 ;
161 [label="X[0] <= 0.2588\ngini = 0.3664\nsamples = 27\nvalue = [32, 5, 4, 0]"] ;
160 -> 161 ;
162 [label="gini = 0.0\nsamples = 1\nvalue = [0, 2, 0, 0]"] ;
161 -> 162 ;
163 [label="X[4] <= 0.186\ngini = 0.3103\nsamples = 26\nvalue = [32, 3, 4, 0]"] ;
161 -> 163 ;
164 [label="X[0] <= 0.2763\ngini = 0.2024\nsamples = 23\nvalue = [31, 0, 4, 0]"] ;
163 -> 164 ;
165 [label="X[6] <= 0.0885\ngini = 0.4898\nsamples = 6\nvalue = [4, 0, 3, 0]"] ;
164 -> 165 ;
166 [label="gini = 0.0\nsamples = 2\nvalue = [0, 0, 3, 0]"] ;
165 -> 166 ;
167 [label="gini = 0.0\nsamples = 4\nvalue = [4, 0, 0, 0]"] ;
165 -> 167 ;
168 [label="X[3] <= 0.3224\ngini = 0.0689\nsamples = 17\nvalue = [27, 0, 1, 0]"] ;
164 -> 168 ;
169 [label="X[0] <= 0.4167\ngini = 0.4444\nsamples = 2\nvalue = [2, 0, 1, 0]"] ;
168 -> 169 ;
170 [label="gini = 0.0\nsamples = 1\nvalue = [0, 0, 1, 0]"] ;
169 -> 170 ;
171 [label="gini = 0.0\nsamples = 1\nvalue = [2, 0, 0, 0]"] ;
169 -> 171 ;
172 [label="gini = 0.0\nsamples = 15\nvalue = [25, 0, 0, 0]"] ;
168 -> 172 ;
173 [label="X[2] <= 0.4497\ngini = 0.375\nsamples = 3\nvalue = [1, 3, 0, 0]"] ;
163 -> 173 ;
174 [label="gini = 0.0\nsamples = 2\nvalue = [0, 3, 0, 0]"] ;
173 -> 174 ;
175 [label="gini = 0.0\nsamples = 1\nvalue = [1, 0, 0, 0]"] ;
173 -> 175 ;
176 [label="X[0] <= 0.2939\ngini = 0.426\nsamples = 7\nvalue = [4, 9, 0, 0]"] ;
160 -> 176 ;
177 [label="gini = 0.0\nsamples = 4\nvalue = [0, 9, 0, 0]"] ;
176 -> 177 ;
178 [label="gini = 0.0\nsamples = 3\nvalue = [4, 0, 0, 0]"] ;
176 -> 178 ;
179 [label="X[2] <= 0.1719\ngini = 0.2515\nsamples = 231\nvalue = [307, 47, 2, 3]"] ;
159 -> 179 ;
180 [label="X[0] <= 0.3465\ngini = 0.3018\nsamples = 90\nvalue = [110, 25, 0, 0]"] ;
179 -> 180 ;
181 [label="X[4] <= 0.4174\ngini = 0.4701\nsamples = 34\nvalue = [28, 17, 0, 0]"] ;
180 -> 181 ;
182 [label="X[3] <= 0.3984\ngini = 0.4444\nsamples = 7\nvalue = [4, 8, 0, 0]"] ;
181 -> 182 ;
183 [label="gini = 0.0\nsamples = 3\nvalue = [4, 0, 0, 0]"] ;
182 -> 183 ;
184 [label="gini = 0.0\nsamples = 4\nvalue = [0, 8, 0, 0]"] ;
182 -> 184 ;
185 [label="X[1] <= 0.5105\ngini = 0.3967\nsamples = 27\nvalue = [24, 9, 0, 0]"] ;
181 -> 185 ;
186 [label="gini = 0.0\nsamples = 13\nvalue = [15, 0, 0, 0]"] ;
185 -> 186 ;
187 [label="X[6] <= 0.2301\ngini = 0.5\nsamples = 14\nvalue = [9, 9, 0, 0]"] ;
185 -> 187 ;
188 [label="gini = 0.0\nsamples = 1\nvalue = [0, 2, 0, 0]"] ;
187 -> 188 ;
189 [label="X[1] <= 0.5947\ngini = 0.4922\nsamples = 13\nvalue = [9, 7, 0, 0]"] ;
187 -> 189 ;
190 [label="X[3] <= 0.3418\ngini = 0.4628\nsamples = 8\nvalue = [4, 7, 0, 0]"] ;
189 -> 190 ;
191 [label="gini = 0.0\nsamples = 1\nvalue = [0, 3, 0, 0]"] ;
190 -> 191 ;
192 [label="X[1] <= 0.5211\ngini = 0.5\nsamples = 7\nvalue = [4, 4, 0, 0]"] ;
190 -> 192 ;
193 [label="gini = 0.0\nsamples = 2\nvalue = [0, 2, 0, 0]"] ;
192 -> 193 ;
194 [label="X[3] <= 0.4331\ngini = 0.4444\nsamples = 5\nvalue = [4, 2, 0, 0]"] ;
192 -> 194 ;
195 [label="gini = 0.0\nsamples = 3\nvalue = [4, 0, 0, 0]"] ;
194 -> 195 ;
196 [label="gini = 0.0\nsamples = 2\nvalue = [0, 2, 0, 0]"] ;
194 -> 196 ;
197 [label="gini = 0.0\nsamples = 5\nvalue = [5, 0, 0, 0]"] ;
189 -> 197 ;
198 [label="X[6] <= 0.3451\ngini = 0.162\nsamples = 56\nvalue = [82, 8, 0, 0]"] ;
180 -> 198 ;
199 [label="X[5] <= 0.2703\ngini = 0.0526\nsamples = 46\nvalue = [72, 2, 0, 0]"] ;
198 -> 199 ;
200 [label="gini = 0.0\nsamples = 26\nvalue = [39, 0, 0, 0]"] ;
199 -> 200 ;
201 [label="X[0] <= 0.7456\ngini = 0.1078\nsamples = 20\nvalue = [33, 2, 0, 0]"] ;
199 -> 201 ;
202 [label="X[4] <= 0.3264\ngini = 0.0588\nsamples = 18\nvalue = [32, 1, 0, 0]"] ;
201 -> 202 ;
203 [label="X[0] <= 0.5439\ngini = 0.18\nsamples = 5\nvalue = [9, 1, 0, 0]"] ;
202 -> 203 ;
204 [label="gini = 0.0\nsamples = 1\nvalue = [0, 1, 0, 0]"] ;
203 -> 204 ;
205 [label="gini = 0.0\nsamples = 4\nvalue = [9, 0, 0, 0]"] ;
203 -> 205 ;
206 [label="gini = 0.0\nsamples = 13\nvalue = [23, 0, 0, 0]"] ;
202 -> 206 ;
207 [label="X[1] <= 0.4474\ngini = 0.5\nsamples = 2\nvalue = [1, 1, 0, 0]"] ;
201 -> 207 ;
208 [label="gini = 0.0\nsamples = 1\nvalue = [1, 0, 0, 0]"] ;
207 -> 208 ;
209 [label="gini = 0.0\nsamples = 1\nvalue = [0, 1, 0, 0]"] ;
207 -> 209 ;
210 [label="X[3] <= 0.5145\ngini = 0.4688\nsamples = 10\nvalue = [10, 6, 0, 0]"] ;
198 -> 210 ;
211 [label="gini = 0.0\nsamples = 6\nvalue = [8, 0, 0, 0]"] ;
210 -> 211 ;
212 [label="X[2] <= 0.0538\ngini = 0.375\nsamples = 4\nvalue = [2, 6, 0, 0]"] ;
210 -> 212 ;
213 [label="gini = 0.0\nsamples = 1\nvalue = [2, 0, 0, 0]"] ;
212 -> 213 ;
214 [label="gini = 0.0\nsamples = 3\nvalue = [0, 6, 0, 0]"] ;
212 -> 214 ;
215 [label="X[3] <= 0.4907\ngini = 0.2166\nsamples = 141\nvalue = [197, 22, 2, 3]"] ;
179 -> 215 ;
216 [label="X[6] <= 0.3274\ngini = 0.1552\nsamples = 99\nvalue = [143, 10, 0, 3]"] ;
215 -> 216 ;
217 [label="X[3] <= 0.4309\ngini = 0.0465\nsamples = 79\nvalue = [123, 3, 0, 0]"] ;
216 -> 217 ;
218 [label="X[6] <= 0.3097\ngini = 0.0722\nsamples = 52\nvalue = [77, 3, 0, 0]"] ;
217 -> 218 ;
219 [label="X[1] <= 0.1526\ngini = 0.0555\nsamples = 46\nvalue = [68, 2, 0, 0]"] ;
218 -> 219 ;
220 [label="X[6] <= 0.2035\ngini = 0.1107\nsamples = 21\nvalue = [32, 2, 0, 0]"] ;
219 -> 220 ;
221 [label="X[3] <= 0.4156\ngini = 0.2778\nsamples = 5\nvalue = [5, 1, 0, 0]"] ;
220 -> 221 ;
222 [label="gini = 0.0\nsamples = 4\nvalue = [5, 0, 0, 0]"] ;
221 -> 222 ;
223 [label="gini = 0.0\nsamples = 1\nvalue = [0, 1, 0, 0]"] ;
221 -> 223 ;
224 [label="X[3] <= 0.3552\ngini = 0.0689\nsamples = 16\nvalue = [27, 1, 0, 0]"] ;
220 -> 224 ;
225 [label="X[3] <= 0.3423\ngini = 0.2188\nsamples = 4\nvalue = [7, 1, 0, 0]"] ;
224 -> 225 ;
226 [label="gini = 0.0\nsamples = 3\nvalue = [7, 0, 0, 0]"] ;
225 -> 226 ;
227 [label="gini = 0.0\nsamples = 1\nvalue = [0, 1, 0, 0]"] ;
225 -> 227 ;
228 [label="gini = 0.0\nsamples = 12\nvalue = [20, 0, 0, 0]"] ;
224 -> 228 ;
229 [label="gini = 0.0\nsamples = 25\nvalue = [36, 0, 0, 0]"] ;
219 -> 229 ;
230 [label="X[3] <= 0.4281\ngini = 0.18\nsamples = 6\nvalue = [9, 1, 0, 0]"] ;
218 -> 230 ;
231 [label="gini = 0.0\nsamples = 5\nvalue = [9, 0, 0, 0]"] ;
230 -> 231 ;
232 [label="gini = 0.0\nsamples = 1\nvalue = [0, 1, 0, 0]"] ;
230 -> 232 ;
233 [label="gini = 0.0\nsamples = 27\nvalue = [46, 0, 0, 0]"] ;
217 -> 233 ;
234 [label="X[1] <= 0.1632\ngini = 0.4911\nsamples = 20\nvalue = [20, 7, 0, 3]"] ;
216 -> 234 ;
235 [label="X[0] <= 0.3333\ngini = 0.4922\nsamples = 11\nvalue = [9, 7, 0, 0]"] ;
234 -> 235 ;
236 [label="X[3] <= 0.3306\ngini = 0.4861\nsamples = 8\nvalue = [5, 7, 0, 0]"] ;
235 -> 236 ;
237 [label="gini = 0.0\nsamples = 2\nvalue = [2, 0, 0, 0]"] ;
236 -> 237 ;
238 [label="X[2] <= 0.5\ngini = 0.42\nsamples = 6\nvalue = [3, 7, 0, 0]"] ;
236 -> 238 ;
239 [label="X[4] <= 0.3182\ngini = 0.2188\nsamples = 4\nvalue = [1, 7, 0, 0]"] ;
238 -> 239 ;
240 [label="gini = 0.0\nsamples = 1\nvalue = [0, 4, 0, 0]"] ;
239 -> 240 ;
241 [label="X[4] <= 0.3843\ngini = 0.375\nsamples = 3\nvalue = [1, 3, 0, 0]"] ;
239 -> 241 ;
242 [label="gini = 0.0\nsamples = 1\nvalue = [1, 0, 0, 0]"] ;
241 -> 242 ;
243 [label="gini = 0.0\nsamples = 2\nvalue = [0, 3, 0, 0]"] ;
241 -> 243 ;
244 [label="gini = 0.0\nsamples = 2\nvalue = [2, 0, 0, 0]"] ;
238 -> 244 ;
245 [label="gini = 0.0\nsamples = 3\nvalue = [4, 0, 0, 0]"] ;
235 -> 245 ;
246 [label="X[3] <= 0.4174\ngini = 0.3367\nsamples = 9\nvalue = [11, 0, 0, 3]"] ;
234 -> 246 ;
247 [label="gini = 0.0\nsamples = 7\nvalue = [9, 0, 0, 0]"] ;
246 -> 247 ;
248 [label="X[4] <= 0.3223\ngini = 0.48\nsamples = 2\nvalue = [2, 0, 0, 3]"] ;
246 -> 248 ;
249 [label="gini = 0.0\nsamples = 1\nvalue = [2, 0, 0, 0]"] ;
248 -> 249 ;
250 [label="gini = 0.0\nsamples = 1\nvalue = [0, 0, 0, 3]"] ;
248 -> 250 ;
251 [label="X[3] <= 0.4957\ngini = 0.3374\nsamples = 42\nvalue = [54, 12, 2, 0]"] ;
215 -> 251 ;
252 [label="X[0] <= 0.2588\ngini = 0.4978\nsamples = 9\nvalue = [7, 8, 0, 0]"] ;
251 -> 252 ;
253 [label="gini = 0.0\nsamples = 3\nvalue = [0, 4, 0, 0]"] ;
252 -> 253 ;
254 [label="X[2] <= 0.7483\ngini = 0.4628\nsamples = 6\nvalue = [7, 4, 0, 0]"] ;
252 -> 254 ;
255 [label="X[1] <= 0.1737\ngini = 0.3457\nsamples = 4\nvalue = [7, 2, 0, 0]"] ;
254 -> 255 ;
256 [label="X[2] <= 0.6701\ngini = 0.48\nsamples = 3\nvalue = [3, 2, 0, 0]"] ;
255 -> 256 ;
257 [label="gini = 0.0\nsamples = 2\nvalue = [3, 0, 0, 0]"] ;
256 -> 257 ;
258 [label="gini = 0.0\nsamples = 1\nvalue = [0, 2, 0, 0]"] ;
256 -> 258 ;
259 [label="gini = 0.0\nsamples = 1\nvalue = [4, 0, 0, 0]"] ;
255 -> 259 ;
260 [label="gini = 0.0\nsamples = 2\nvalue = [0, 2, 0, 0]"] ;
254 -> 260 ;
261 [label="X[6] <= 0.0796\ngini = 0.2065\nsamples = 33\nvalue = [47, 4, 2, 0]"] ;
251 -> 261 ;
262 [label="X[1] <= 0.2\ngini = 0.56\nsamples = 4\nvalue = [3, 1, 1, 0]"] ;
261 -> 262 ;
263 [label="X[5] <= 0.2209\ngini = 0.5\nsamples = 2\nvalue = [0, 1, 1, 0]"] ;
262 -> 263 ;
264 [label="gini = 0.0\nsamples = 1\nvalue = [0, 1, 0, 0]"] ;
263 -> 264 ;
265 [label="gini = 0.0\nsamples = 1\nvalue = [0, 0, 1, 0]"] ;
263 -> 265 ;
266 [label="gini = 0.0\nsamples = 2\nvalue = [3, 0, 0, 0]"] ;
262 -> 266 ;
267 [label="X[1] <= 0.1789\ngini = 0.1554\nsamples = 29\nvalue = [44, 3, 1, 0]"] ;
261 -> 267 ;
268 [label="X[1] <= 0.1632\ngini = 0.2378\nsamples = 18\nvalue = [26, 3, 1, 0]"] ;
267 -> 268 ;
269 [label="X[2] <= 0.4748\ngini = 0.1902\nsamples = 17\nvalue = [26, 2, 1, 0]"] ;
268 -> 269 ;
270 [label="gini = 0.0\nsamples = 1\nvalue = [0, 1, 0, 0]"] ;
269 -> 270 ;
271 [label="X[4] <= 0.2893\ngini = 0.1352\nsamples = 16\nvalue = [26, 1, 1, 0]"] ;
269 -> 271 ;
272 [label="X[5] <= 0.1395\ngini = 0.34\nsamples = 7\nvalue = [8, 1, 1, 0]"] ;
271 -> 272 ;
273 [label="gini = 0.0\nsamples = 1\nvalue = [0, 0, 1, 0]"] ;
272 -> 273 ;
274 [label="X[2] <= 0.6337\ngini = 0.1975\nsamples = 6\nvalue = [8, 1, 0, 0]"] ;
272 -> 274 ;
275 [label="gini = 0.0\nsamples = 4\nvalue = [7, 0, 0, 0]"] ;
274 -> 275 ;
276 [label="X[2] <= 0.7257\ngini = 0.5\nsamples = 2\nvalue = [1, 1, 0, 0]"] ;
274 -> 276 ;
277 [label="gini = 0.0\nsamples = 1\nvalue = [0, 1, 0, 0]"] ;
276 -> 277 ;
278 [label="gini = 0.0\nsamples = 1\nvalue = [1, 0, 0, 0]"] ;
276 -> 278 ;
279 [label="gini = 0.0\nsamples = 9\nvalue = [18, 0, 0, 0]"] ;
271 -> 279 ;
280 [label="gini = 0.0\nsamples = 1\nvalue = [0, 1, 0, 0]"] ;
268 -> 280 ;
281 [label="gini = 0.0\nsamples = 11\nvalue = [18, 0, 0, 0]"] ;
267 -> 281 ;
282 [label="X[4] <= 0.2273\ngini = 0.5586\nsamples = 610\nvalue = [485, 413, 66, 0]"] ;
0 -> 282 [labeldistance=2.5, labelangle=-45, headlabel="False"] ;
283 [label="X[0] <= 0.5789\ngini = 0.401\nsamples = 115\nvalue = [134, 37, 9, 0]"] ;
282 -> 283 ;
284 [label="X[3] <= 0.0992\ngini = 0.3842\nsamples = 112\nvalue = [133, 33, 9, 0]"] ;
283 -> 284 ;
285 [label="X[2] <= 0.3368\ngini = 0.5952\nsamples = 9\nvalue = [7, 8, 2, 0]"] ;
284 -> 285 ;
286 [label="X[5] <= 0.2267\ngini = 0.5694\nsamples = 7\nvalue = [7, 3, 2, 0]"] ;
285 -> 286 ;
287 [label="X[6] <= 0.8142\ngini = 0.3457\nsamples = 5\nvalue = [7, 0, 2, 0]"] ;
286 -> 287 ;
288 [label="gini = 0.0\nsamples = 4\nvalue = [7, 0, 0, 0]"] ;
287 -> 288 ;
289 [label="gini = 0.0\nsamples = 1\nvalue = [0, 0, 2, 0]"] ;
287 -> 289 ;
290 [label="gini = 0.0\nsamples = 2\nvalue = [0, 3, 0, 0]"] ;
286 -> 290 ;
291 [label="gini = 0.0\nsamples = 2\nvalue = [0, 5, 0, 0]"] ;
285 -> 291 ;
292 [label="X[2] <= 0.4566\ngini = 0.337\nsamples = 103\nvalue = [126, 25, 7, 0]"] ;
284 -> 292 ;
293 [label="X[0] <= 0.2149\ngini = 0.3025\nsamples = 84\nvalue = [108, 16, 7, 0]"] ;
292 -> 293 ;
294 [label="gini = 0.0\nsamples = 17\nvalue = [27, 0, 0, 0]"] ;
293 -> 294 ;
295 [label="X[1] <= 0.3421\ngini = 0.3652\nsamples = 67\nvalue = [81, 16, 7, 0]"] ;
293 -> 295 ;
296 [label="X[5] <= 0.0552\ngini = 0.3382\nsamples = 64\nvalue = [80, 13, 7, 0]"] ;
295 -> 296 ;
297 [label="X[5] <= 0.0465\ngini = 0.6562\nsamples = 6\nvalue = [2, 3, 3, 0]"] ;
296 -> 297 ;
298 [label="gini = 0.0\nsamples = 2\nvalue = [2, 0, 0, 0]"] ;
297 -> 298 ;
299 [label="X[1] <= 0.2158\ngini = 0.5\nsamples = 4\nvalue = [0, 3, 3, 0]"] ;
297 -> 299 ;
300 [label="gini = 0.0\nsamples = 2\nvalue = [0, 3, 0, 0]"] ;
299 -> 300 ;
301 [label="gini = 0.0\nsamples = 2\nvalue = [0, 0, 3, 0]"] ;
299 -> 301 ;
302 [label="X[5] <= 0.1366\ngini = 0.2675\nsamples = 58\nvalue = [78, 10, 4, 0]"] ;
296 -> 302 ;
303 [label="X[0] <= 0.25\ngini = 0.0977\nsamples = 34\nvalue = [56, 2, 1, 0]"] ;
302 -> 303 ;
304 [label="X[2] <= 0.2587\ngini = 0.2722\nsamples = 7\nvalue = [11, 1, 1, 0]"] ;
303 -> 304 ;
305 [label="gini = 0.0\nsamples = 1\nvalue = [0, 1, 0, 0]"] ;
304 -> 305 ;
306 [label="X[1] <= 0.1474\ngini = 0.1528\nsamples = 6\nvalue = [11, 0, 1, 0]"] ;
304 -> 306 ;
307 [label="gini = 0.0\nsamples = 1\nvalue = [0, 0, 1, 0]"] ;
306 -> 307 ;
308 [label="gini = 0.0\nsamples = 5\nvalue = [11, 0, 0, 0]"] ;
306 -> 308 ;
309 [label="X[1] <= 0.1947\ngini = 0.0425\nsamples = 27\nvalue = [45, 1, 0, 0]"] ;
303 -> 309 ;
310 [label="gini = 0.0\nsamples = 18\nvalue = [28, 0, 0, 0]"] ;
309 -> 310 ;
311 [label="X[5] <= 0.0901\ngini = 0.1049\nsamples = 9\nvalue = [17, 1, 0, 0]"] ;
309 -> 311 ;
312 [label="X[5] <= 0.0843\ngini = 0.32\nsamples = 2\nvalue = [4, 1, 0, 0]"] ;
311 -> 312 ;
313 [label="gini = 0.0\nsamples = 1\nvalue = [4, 0, 0, 0]"] ;
312 -> 313 ;
314 [label="gini = 0.0\nsamples = 1\nvalue = [0, 1, 0, 0]"] ;
312 -> 314 ;
315 [label="gini = 0.0\nsamples = 7\nvalue = [13, 0, 0, 0]"] ;
311 -> 315 ;
316 [label="X[3] <= 0.2251\ngini = 0.4885\nsamples = 24\nvalue = [22, 8, 3, 0]"] ;
302 -> 316 ;
317 [label="X[3] <= 0.1705\ngini = 0.3648\nsamples = 19\nvalue = [19, 6, 0, 0]"] ;
316 -> 317 ;
318 [label="X[2] <= 0.2309\ngini = 0.4861\nsamples = 10\nvalue = [7, 5, 0, 0]"] ;
317 -> 318 ;
319 [label="gini = 0.0\nsamples = 2\nvalue = [0, 2, 0, 0]"] ;
318 -> 319 ;
320 [label="X[1] <= 0.0684\ngini = 0.42\nsamples = 8\nvalue = [7, 3, 0, 0]"] ;
318 -> 320 ;
321 [label="gini = 0.0\nsamples = 1\nvalue = [0, 1, 0, 0]"] ;
320 -> 321 ;
322 [label="X[1] <= 0.3211\ngini = 0.3457\nsamples = 7\nvalue = [7, 2, 0, 0]"] ;
320 -> 322 ;
323 [label="X[2] <= 0.3351\ngini = 0.2188\nsamples = 6\nvalue = [7, 1, 0, 0]"] ;
322 -> 323 ;
324 [label="gini = 0.0\nsamples = 4\nvalue = [5, 0, 0, 0]"] ;
323 -> 324 ;
325 [label="X[5] <= 0.2122\ngini = 0.4444\nsamples = 2\nvalue = [2, 1, 0, 0]"] ;
323 -> 325 ;
326 [label="gini = 0.0\nsamples = 1\nvalue = [2, 0, 0, 0]"] ;
325 -> 326 ;
327 [label="gini = 0.0\nsamples = 1\nvalue = [0, 1, 0, 0]"] ;
325 -> 327 ;
328 [label="gini = 0.0\nsamples = 1\nvalue = [0, 1, 0, 0]"] ;
322 -> 328 ;
329 [label="X[3] <= 0.1849\ngini = 0.142\nsamples = 9\nvalue = [12, 1, 0, 0]"] ;
317 -> 329 ;
330 [label="X[1] <= 0.2053\ngini = 0.32\nsamples = 4\nvalue = [4, 1, 0, 0]"] ;
329 -> 330 ;
331 [label="gini = 0.0\nsamples = 3\nvalue = [4, 0, 0, 0]"] ;
330 -> 331 ;
332 [label="gini = 0.0\nsamples = 1\nvalue = [0, 1, 0, 0]"] ;
330 -> 332 ;
333 [label="gini = 0.0\nsamples = 5\nvalue = [8, 0, 0, 0]"] ;
329 -> 333 ;
334 [label="X[2] <= 0.1667\ngini = 0.6562\nsamples = 5\nvalue = [3, 2, 3, 0]"] ;
316 -> 334 ;
335 [label="gini = 0.0\nsamples = 1\nvalue = [2, 0, 0, 0]"] ;
334 -> 335 ;
336 [label="X[5] <= 0.1541\ngini = 0.6111\nsamples = 4\nvalue = [1, 2, 3, 0]"] ;
334 -> 336 ;
337 [label="gini = 0.0\nsamples = 1\nvalue = [0, 0, 3, 0]"] ;
336 -> 337 ;
338 [label="X[5] <= 0.3052\ngini = 0.4444\nsamples = 3\nvalue = [1, 2, 0, 0]"] ;
336 -> 338 ;
339 [label="gini = 0.0\nsamples = 2\nvalue = [0, 2, 0, 0]"] ;
338 -> 339 ;
340 [label="gini = 0.0\nsamples = 1\nvalue = [1, 0, 0, 0]"] ;
338 -> 340 ;
341 [label="X[0] <= 0.25\ngini = 0.375\nsamples = 3\nvalue = [1, 3, 0, 0]"] ;
295 -> 341 ;
342 [label="gini = 0.0\nsamples = 1\nvalue = [1, 0, 0, 0]"] ;
341 -> 342 ;
343 [label="gini = 0.0\nsamples = 2\nvalue = [0, 3, 0, 0]"] ;
341 -> 343 ;
344 [label="X[6] <= 0.5841\ngini = 0.4444\nsamples = 19\nvalue = [18, 9, 0, 0]"] ;
292 -> 344 ;
345 [label="X[3] <= 0.2266\ngini = 0.142\nsamples = 10\nvalue = [12, 1, 0, 0]"] ;
344 -> 345 ;
346 [label="X[6] <= 0.5221\ngini = 0.32\nsamples = 4\nvalue = [4, 1, 0, 0]"] ;
345 -> 346 ;
347 [label="X[6] <= 0.4956\ngini = 0.5\nsamples = 2\nvalue = [1, 1, 0, 0]"] ;
346 -> 347 ;
348 [label="gini = 0.0\nsamples = 1\nvalue = [1, 0, 0, 0]"] ;
347 -> 348 ;
349 [label="gini = 0.0\nsamples = 1\nvalue = [0, 1, 0, 0]"] ;
347 -> 349 ;
350 [label="gini = 0.0\nsamples = 2\nvalue = [3, 0, 0, 0]"] ;
346 -> 350 ;
351 [label="gini = 0.0\nsamples = 6\nvalue = [8, 0, 0, 0]"] ;
345 -> 351 ;
352 [label="X[2] <= 0.5833\ngini = 0.4898\nsamples = 9\nvalue = [6, 8, 0, 0]"] ;
344 -> 352 ;
353 [label="X[3] <= 0.1692\ngini = 0.3967\nsamples = 7\nvalue = [3, 8, 0, 0]"] ;
352 -> 353 ;
354 [label="gini = 0.0\nsamples = 2\nvalue = [2, 0, 0, 0]"] ;
353 -> 354 ;
355 [label="X[3] <= 0.2754\ngini = 0.1975\nsamples = 5\nvalue = [1, 8, 0, 0]"] ;
353 -> 355 ;
356 [label="gini = 0.0\nsamples = 4\nvalue = [0, 8, 0, 0]"] ;
355 -> 356 ;
357 [label="gini = 0.0\nsamples = 1\nvalue = [1, 0, 0, 0]"] ;
355 -> 357 ;
358 [label="gini = 0.0\nsamples = 2\nvalue = [3, 0, 0, 0]"] ;
352 -> 358 ;
359 [label="X[3] <= 0.448\ngini = 0.32\nsamples = 3\nvalue = [1, 4, 0, 0]"] ;
283 -> 359 ;
360 [label="gini = 0.0\nsamples = 1\nvalue = [0, 2, 0, 0]"] ;
359 -> 360 ;
361 [label="X[6] <= 0.4779\ngini = 0.4444\nsamples = 2\nvalue = [1, 2, 0, 0]"] ;
359 -> 361 ;
362 [label="gini = 0.0\nsamples = 1\nvalue = [1, 0, 0, 0]"] ;
361 -> 362 ;
363 [label="gini = 0.0\nsamples = 1\nvalue = [0, 2, 0, 0]"] ;
361 -> 363 ;
364 [label="X[6] <= 0.6106\ngini = 0.5643\nsamples = 495\nvalue = [351, 376, 57, 0]"] ;
282 -> 364 ;
365 [label="X[1] <= 0.5105\ngini = 0.5342\nsamples = 255\nvalue = [218, 155, 20, 0]"] ;
364 -> 365 ;
366 [label="X[2] <= 0.5122\ngini = 0.5431\nsamples = 240\nvalue = [197, 155, 20, 0]"] ;
365 -> 366 ;
367 [label="X[0] <= 0.2325\ngini = 0.5539\nsamples = 209\nvalue = [163, 147, 20, 0]"] ;
366 -> 367 ;
368 [label="X[4] <= 0.3678\ngini = 0.5101\nsamples = 111\nvalue = [69, 96, 4, 0]"] ;
367 -> 368 ;
369 [label="X[2] <= 0.4878\ngini = 0.4841\nsamples = 40\nvalue = [33, 23, 0, 0]"] ;
368 -> 369 ;
370 [label="X[5] <= 0.125\ngini = 0.4346\nsamples = 34\nvalue = [32, 15, 0, 0]"] ;
369 -> 370 ;
371 [label="X[5] <= 0.093\ngini = 0.2355\nsamples = 15\nvalue = [19, 3, 0, 0]"] ;
370 -> 371 ;
372 [label="X[6] <= 0.4779\ngini = 0.4444\nsamples = 8\nvalue = [6, 3, 0, 0]"] ;
371 -> 372 ;
373 [label="gini = 0.0\nsamples = 1\nvalue = [0, 1, 0, 0]"] ;
372 -> 373 ;
374 [label="X[2] <= 0.3021\ngini = 0.375\nsamples = 7\nvalue = [6, 2, 0, 0]"] ;
372 -> 374 ;
375 [label="gini = 0.0\nsamples = 3\nvalue = [4, 0, 0, 0]"] ;
374 -> 375 ;
376 [label="X[6] <= 0.5044\ngini = 0.5\nsamples = 4\nvalue = [2, 2, 0, 0]"] ;
374 -> 376 ;
377 [label="gini = 0.0\nsamples = 1\nvalue = [1, 0, 0, 0]"] ;
376 -> 377 ;
378 [label="X[4] <= 0.3099\ngini = 0.4444\nsamples = 3\nvalue = [1, 2, 0, 0]"] ;
376 -> 378 ;
379 [label="gini = 0.0\nsamples = 1\nvalue = [0, 1, 0, 0]"] ;
378 -> 379 ;
380 [label="X[3] <= 0.1774\ngini = 0.5\nsamples = 2\nvalue = [1, 1, 0, 0]"] ;
378 -> 380 ;
381 [label="gini = 0.0\nsamples = 1\nvalue = [0, 1, 0, 0]"] ;
380 -> 381 ;
382 [label="gini = 0.0\nsamples = 1\nvalue = [1, 0, 0, 0]"] ;
380 -> 382 ;
383 [label="gini = 0.0\nsamples = 7\nvalue = [13, 0, 0, 0]"] ;
371 -> 383 ;
384 [label="X[0] <= 0.2237\ngini = 0.4992\nsamples = 19\nvalue = [13, 12, 0, 0]"] ;
370 -> 384 ;
385 [label="X[3] <= 0.1282\ngini = 0.4567\nsamples = 13\nvalue = [11, 6, 0, 0]"] ;
384 -> 385 ;
386 [label="gini = 0.0\nsamples = 1\nvalue = [0, 3, 0, 0]"] ;
385 -> 386 ;
387 [label="X[5] <= 0.2151\ngini = 0.3367\nsamples = 12\nvalue = [11, 3, 0, 0]"] ;
385 -> 387 ;
388 [label="gini = 0.0\nsamples = 6\nvalue = [6, 0, 0, 0]"] ;
387 -> 388 ;
389 [label="X[6] <= 0.5221\ngini = 0.4688\nsamples = 6\nvalue = [5, 3, 0, 0]"] ;
387 -> 389 ;
390 [label="X[6] <= 0.4867\ngini = 0.48\nsamples = 5\nvalue = [2, 3, 0, 0]"] ;
389 -> 390 ;
391 [label="gini = 0.0\nsamples = 1\nvalue = [1, 0, 0, 0]"] ;
390 -> 391 ;
392 [label="X[0] <= 0.2018\ngini = 0.375\nsamples = 4\nvalue = [1, 3, 0, 0]"] ;
390 -> 392 ;
393 [label="gini = 0.0\nsamples = 2\nvalue = [0, 2, 0, 0]"] ;
392 -> 393 ;
394 [label="X[5] <= 0.2616\ngini = 0.5\nsamples = 2\nvalue = [1, 1, 0, 0]"] ;
392 -> 394 ;
395 [label="gini = 0.0\nsamples = 1\nvalue = [0, 1, 0, 0]"] ;
394 -> 395 ;
396 [label="gini = 0.0\nsamples = 1\nvalue = [1, 0, 0, 0]"] ;
394 -> 396 ;
397 [label="gini = 0.0\nsamples = 1\nvalue = [3, 0, 0, 0]"] ;
389 -> 397 ;
398 [label="X[6] <= 0.4867\ngini = 0.375\nsamples = 6\nvalue = [2, 6, 0, 0]"] ;
384 -> 398 ;
399 [label="X[5] <= 0.186\ngini = 0.4444\nsamples = 5\nvalue = [2, 4, 0, 0]"] ;
398 -> 399 ;
400 [label="gini = 0.0\nsamples = 3\nvalue = [0, 4, 0, 0]"] ;
399 -> 400 ;
401 [label="gini = 0.0\nsamples = 2\nvalue = [2, 0, 0, 0]"] ;
399 -> 401 ;
402 [label="gini = 0.0\nsamples = 1\nvalue = [0, 2, 0, 0]"] ;
398 -> 402 ;
403 [label="X[4] <= 0.2727\ngini = 0.1975\nsamples = 6\nvalue = [1, 8, 0, 0]"] ;
369 -> 403 ;
404 [label="X[0] <= 0.1842\ngini = 0.375\nsamples = 3\nvalue = [1, 3, 0, 0]"] ;
403 -> 404 ;
405 [label="gini = 0.0\nsamples = 2\nvalue = [0, 3, 0, 0]"] ;
404 -> 405 ;
406 [label="gini = 0.0\nsamples = 1\nvalue = [1, 0, 0, 0]"] ;
404 -> 406 ;
407 [label="gini = 0.0\nsamples = 3\nvalue = [0, 5, 0, 0]"] ;
403 -> 407 ;
408 [label="X[0] <= 0.1184\ngini = 0.4799\nsamples = 71\nvalue = [36, 73, 4, 0]"] ;
368 -> 408 ;
409 [label="X[1] <= 0.2158\ngini = 0.1653\nsamples = 8\nvalue = [10, 0, 1, 0]"] ;
408 -> 409 ;
410 [label="gini = 0.0\nsamples = 5\nvalue = [7, 0, 0, 0]"] ;
409 -> 410 ;
411 [label="X[6] <= 0.5929\ngini = 0.375\nsamples = 3\nvalue = [3, 0, 1, 0]"] ;
409 -> 411 ;
412 [label="gini = 0.0\nsamples = 2\nvalue = [3, 0, 0, 0]"] ;
411 -> 412 ;
413 [label="gini = 0.0\nsamples = 1\nvalue = [0, 0, 1, 0]"] ;
411 -> 413 ;
414 [label="X[3] <= 0.1411\ngini = 0.422\nsamples = 63\nvalue = [26, 73, 3, 0]"] ;
408 -> 414 ;
415 [label="gini = 0.0\nsamples = 3\nvalue = [5, 0, 0, 0]"] ;
414 -> 415 ;
416 [label="X[0] <= 0.1952\ngini = 0.3858\nsamples = 60\nvalue = [21, 73, 3, 0]"] ;
414 -> 416 ;
417 [label="X[5] <= 0.1512\ngini = 0.4644\nsamples = 38\nvalue = [18, 40, 2, 0]"] ;
416 -> 417 ;
418 [label="X[0] <= 0.1886\ngini = 0.2185\nsamples = 18\nvalue = [3, 29, 1, 0]"] ;
417 -> 418 ;
419 [label="X[3] <= 0.2426\ngini = 0.179\nsamples = 16\nvalue = [2, 28, 1, 0]"] ;
418 -> 419 ;
420 [label="X[5] <= 0.0901\ngini = 0.1284\nsamples = 14\nvalue = [2, 27, 0, 0]"] ;
419 -> 420 ;
421 [label="X[2] <= 0.4149\ngini = 0.4082\nsamples = 5\nvalue = [2, 5, 0, 0]"] ;
420 -> 421 ;
422 [label="X[3] <= 0.1519\ngini = 0.4444\nsamples = 3\nvalue = [2, 1, 0, 0]"] ;
421 -> 422 ;
423 [label="gini = 0.0\nsamples = 1\nvalue = [0, 1, 0, 0]"] ;
422 -> 423 ;
424 [label="gini = 0.0\nsamples = 2\nvalue = [2, 0, 0, 0]"] ;
422 -> 424 ;
425 [label="gini = 0.0\nsamples = 2\nvalue = [0, 4, 0, 0]"] ;
421 -> 425 ;
426 [label="gini = 0.0\nsamples = 9\nvalue = [0, 22, 0, 0]"] ;
420 -> 426 ;
427 [label="X[5] <= 0.0959\ngini = 0.5\nsamples = 2\nvalue = [0, 1, 1, 0]"] ;
419 -> 427 ;
428 [label="gini = 0.0\nsamples = 1\nvalue = [0, 0, 1, 0]"] ;
427 -> 428 ;
429 [label="gini = 0.0\nsamples = 1\nvalue = [0, 1, 0, 0]"] ;
427 -> 429 ;
430 [label="X[1] <= 0.1263\ngini = 0.5\nsamples = 2\nvalue = [1, 1, 0, 0]"] ;
418 -> 430 ;
431 [label="gini = 0.0\nsamples = 1\nvalue = [0, 1, 0, 0]"] ;
430 -> 431 ;
432 [label="gini = 0.0\nsamples = 1\nvalue = [1, 0, 0, 0]"] ;
430 -> 432 ;
433 [label="X[6] <= 0.5929\ngini = 0.524\nsamples = 20\nvalue = [15, 11, 1, 0]"] ;
417 -> 433 ;
434 [label="X[5] <= 0.2645\ngini = 0.4717\nsamples = 17\nvalue = [14, 6, 1, 0]"] ;
433 -> 434 ;
435 [label="X[2] <= 0.2517\ngini = 0.2604\nsamples = 11\nvalue = [11, 2, 0, 0]"] ;
434 -> 435 ;
436 [label="X[0] <= 0.1535\ngini = 0.4444\nsamples = 3\nvalue = [1, 2, 0, 0]"] ;
435 -> 436 ;
437 [label="gini = 0.0\nsamples = 2\nvalue = [0, 2, 0, 0]"] ;
436 -> 437 ;
438 [label="gini = 0.0\nsamples = 1\nvalue = [1, 0, 0, 0]"] ;
436 -> 438 ;
439 [label="gini = 0.0\nsamples = 8\nvalue = [10, 0, 0, 0]"] ;
435 -> 439 ;
440 [label="X[2] <= 0.066\ngini = 0.5938\nsamples = 6\nvalue = [3, 4, 1, 0]"] ;
434 -> 440 ;
441 [label="gini = 0.0\nsamples = 2\nvalue = [3, 0, 0, 0]"] ;
440 -> 441 ;
442 [label="X[2] <= 0.4931\ngini = 0.32\nsamples = 4\nvalue = [0, 4, 1, 0]"] ;
440 -> 442 ;
443 [label="gini = 0.0\nsamples = 3\nvalue = [0, 4, 0, 0]"] ;
442 -> 443 ;
444 [label="gini = 0.0\nsamples = 1\nvalue = [0, 0, 1, 0]"] ;
442 -> 444 ;
445 [label="X[3] <= 0.1761\ngini = 0.2778\nsamples = 3\nvalue = [1, 5, 0, 0]"] ;
433 -> 445 ;
446 [label="gini = 0.0\nsamples = 1\nvalue = [1, 0, 0, 0]"] ;
445 -> 446 ;
447 [label="gini = 0.0\nsamples = 2\nvalue = [0, 5, 0, 0]"] ;
445 -> 447 ;
448 [label="X[6] <= 0.5929\ngini = 0.1972\nsamples = 22\nvalue = [3, 33, 1, 0]"] ;
416 -> 448 ;
449 [label="X[4] <= 0.5\ngini = 0.1094\nsamples = 21\nvalue = [1, 33, 1, 0]"] ;
448 -> 449 ;
450 [label="X[4] <= 0.4421\ngini = 0.0571\nsamples = 20\nvalue = [1, 33, 0, 0]"] ;
449 -> 450 ;
451 [label="gini = 0.0\nsamples = 16\nvalue = [0, 28, 0, 0]"] ;
450 -> 451 ;
452 [label="X[2] <= 0.4583\ngini = 0.2778\nsamples = 4\nvalue = [1, 5, 0, 0]"] ;
450 -> 452 ;
453 [label="X[2] <= 0.349\ngini = 0.4444\nsamples = 3\nvalue = [1, 2, 0, 0]"] ;
452 -> 453 ;
454 [label="gini = 0.0\nsamples = 2\nvalue = [0, 2, 0, 0]"] ;
453 -> 454 ;
455 [label="gini = 0.0\nsamples = 1\nvalue = [1, 0, 0, 0]"] ;
453 -> 455 ;
456 [label="gini = 0.0\nsamples = 1\nvalue = [0, 3, 0, 0]"] ;
452 -> 456 ;
457 [label="gini = 0.0\nsamples = 1\nvalue = [0, 0, 1, 0]"] ;
449 -> 457 ;
458 [label="gini = 0.0\nsamples = 1\nvalue = [2, 0, 0, 0]"] ;
448 -> 458 ;
459 [label="X[4] <= 0.4917\ngini = 0.5489\nsamples = 98\nvalue = [94, 51, 16, 0]"] ;
367 -> 459 ;
460 [label="X[2] <= 0.3941\ngini = 0.5275\nsamples = 93\nvalue = [94, 41, 16, 0]"] ;
459 -> 460 ;
461 [label="X[6] <= 0.5929\ngini = 0.4312\nsamples = 68\nvalue = [74, 19, 9, 0]"] ;
460 -> 461 ;
462 [label="X[1] <= 0.4474\ngini = 0.4638\nsamples = 62\nvalue = [64, 19, 9, 0]"] ;
461 -> 462 ;
463 [label="X[2] <= 0.099\ngini = 0.4486\nsamples = 60\nvalue = [64, 17, 9, 0]"] ;
462 -> 463 ;
464 [label="X[2] <= 0.033\ngini = 0.6656\nsamples = 19\nvalue = [9, 8, 8, 0]"] ;
463 -> 464 ;
465 [label="X[6] <= 0.5664\ngini = 0.5207\nsamples = 11\nvalue = [8, 4, 1, 0]"] ;
464 -> 465 ;
466 [label="X[5] <= 0.2151\ngini = 0.4444\nsamples = 10\nvalue = [8, 4, 0, 0]"] ;
465 -> 466 ;
467 [label="gini = 0.0\nsamples = 3\nvalue = [0, 3, 0, 0]"] ;
466 -> 467 ;
468 [label="X[6] <= 0.5044\ngini = 0.1975\nsamples = 7\nvalue = [8, 1, 0, 0]"] ;
466 -> 468 ;
469 [label="X[4] <= 0.4298\ngini = 0.5\nsamples = 2\nvalue = [1, 1, 0, 0]"] ;
468 -> 469 ;
470 [label="gini = 0.0\nsamples = 1\nvalue = [0, 1, 0, 0]"] ;
469 -> 470 ;
471 [label="gini = 0.0\nsamples = 1\nvalue = [1, 0, 0, 0]"] ;
469 -> 471 ;
472 [label="gini = 0.0\nsamples = 5\nvalue = [7, 0, 0, 0]"] ;
468 -> 472 ;
473 [label="gini = 0.0\nsamples = 1\nvalue = [0, 0, 1, 0]"] ;
465 -> 473 ;
474 [label="X[3] <= 0.2993\ngini = 0.5417\nsamples = 8\nvalue = [1, 4, 7, 0]"] ;
464 -> 474 ;
475 [label="gini = 0.0\nsamples = 1\nvalue = [0, 1, 0, 0]"] ;
474 -> 475 ;
476 [label="X[1] <= 0.2632\ngini = 0.5124\nsamples = 7\nvalue = [1, 3, 7, 0]"] ;
474 -> 476 ;
477 [label="gini = 0.0\nsamples = 2\nvalue = [0, 2, 0, 0]"] ;
476 -> 477 ;
478 [label="X[4] <= 0.2769\ngini = 0.3704\nsamples = 5\nvalue = [1, 1, 7, 0]"] ;
476 -> 478 ;
479 [label="gini = 0.0\nsamples = 1\nvalue = [1, 0, 0, 0]"] ;
478 -> 479 ;
480 [label="X[1] <= 0.3579\ngini = 0.2188\nsamples = 4\nvalue = [0, 1, 7, 0]"] ;
478 -> 480 ;
481 [label="gini = 0.0\nsamples = 3\nvalue = [0, 0, 7, 0]"] ;
480 -> 481 ;
482 [label="gini = 0.0\nsamples = 1\nvalue = [0, 1, 0, 0]"] ;
480 -> 482 ;
483 [label="X[0] <= 0.4912\ngini = 0.2646\nsamples = 41\nvalue = [55, 9, 1, 0]"] ;
463 -> 483 ;
484 [label="X[5] <= 0.3721\ngini = 0.3035\nsamples = 36\nvalue = [45, 9, 1, 0]"] ;
483 -> 484 ;
485 [label="X[1] <= 0.1316\ngini = 0.2613\nsamples = 34\nvalue = [45, 7, 1, 0]"] ;
484 -> 485 ;
486 [label="X[4] <= 0.3099\ngini = 0.4598\nsamples = 12\nvalue = [13, 5, 1, 0]"] ;
485 -> 486 ;
487 [label="X[3] <= 0.1303\ngini = 0.4688\nsamples = 7\nvalue = [3, 5, 0, 0]"] ;
486 -> 487 ;
488 [label="gini = 0.0\nsamples = 1\nvalue = [1, 0, 0, 0]"] ;
487 -> 488 ;
489 [label="X[2] <= 0.3385\ngini = 0.4082\nsamples = 6\nvalue = [2, 5, 0, 0]"] ;
487 -> 489 ;
490 [label="gini = 0.0\nsamples = 4\nvalue = [0, 5, 0, 0]"] ;
489 -> 490 ;
491 [label="gini = 0.0\nsamples = 2\nvalue = [2, 0, 0, 0]"] ;
489 -> 491 ;
492 [label="X[0] <= 0.2675\ngini = 0.1653\nsamples = 5\nvalue = [10, 0, 1, 0]"] ;
486 -> 492 ;
493 [label="gini = 0.0\nsamples = 4\nvalue = [10, 0, 0, 0]"] ;
492 -> 493 ;
494 [label="gini = 0.0\nsamples = 1\nvalue = [0, 0, 1, 0]"] ;
492 -> 494 ;
495 [label="X[6] <= 0.5398\ngini = 0.1107\nsamples = 22\nvalue = [32, 2, 0, 0]"] ;
485 -> 495 ;
496 [label="gini = 0.0\nsamples = 17\nvalue = [27, 0, 0, 0]"] ;
495 -> 496 ;
497 [label="X[6] <= 0.5575\ngini = 0.4082\nsamples = 5\nvalue = [5, 2, 0, 0]"] ;
495 -> 497 ;
498 [label="gini = 0.0\nsamples = 1\nvalue = [0, 1, 0, 0]"] ;
497 -> 498 ;
499 [label="X[2] <= 0.342\ngini = 0.2778\nsamples = 4\nvalue = [5, 1, 0, 0]"] ;
497 -> 499 ;
500 [label="X[0] <= 0.2939\ngini = 0.5\nsamples = 2\nvalue = [1, 1, 0, 0]"] ;
499 -> 500 ;
501 [label="gini = 0.0\nsamples = 1\nvalue = [1, 0, 0, 0]"] ;
500 -> 501 ;
502 [label="gini = 0.0\nsamples = 1\nvalue = [0, 1, 0, 0]"] ;
500 -> 502 ;
503 [label="gini = 0.0\nsamples = 2\nvalue = [4, 0, 0, 0]"] ;
499 -> 503 ;
504 [label="gini = 0.0\nsamples = 2\nvalue = [0, 2, 0, 0]"] ;
484 -> 504 ;
505 [label="gini = 0.0\nsamples = 5\nvalue = [10, 0, 0, 0]"] ;
483 -> 505 ;
506 [label="gini = 0.0\nsamples = 2\nvalue = [0, 2, 0, 0]"] ;
462 -> 506 ;
507 [label="gini = 0.0\nsamples = 6\nvalue = [10, 0, 0, 0]"] ;
461 -> 507 ;
508 [label="X[1] <= 0.1211\ngini = 0.6114\nsamples = 25\nvalue = [20, 22, 7, 0]"] ;
460 -> 508 ;
509 [label="X[3] <= 0.1994\ngini = 0.32\nsamples = 6\nvalue = [3, 12, 0, 0]"] ;
508 -> 509 ;
510 [label="gini = 0.0\nsamples = 2\nvalue = [3, 0, 0, 0]"] ;
509 -> 510 ;
511 [label="gini = 0.0\nsamples = 4\nvalue = [0, 12, 0, 0]"] ;
509 -> 511 ;
512 [label="X[3] <= 0.2318\ngini = 0.6211\nsamples = 19\nvalue = [17, 10, 7, 0]"] ;
508 -> 512 ;
513 [label="X[5] <= 0.1279\ngini = 0.5289\nsamples = 7\nvalue = [2, 7, 2, 0]"] ;
512 -> 513 ;
514 [label="X[4] <= 0.3388\ngini = 0.375\nsamples = 5\nvalue = [0, 6, 2, 0]"] ;
513 -> 514 ;
515 [label="X[1] <= 0.1895\ngini = 0.4444\nsamples = 2\nvalue = [0, 1, 2, 0]"] ;
514 -> 515 ;
516 [label="gini = 0.0\nsamples = 1\nvalue = [0, 0, 2, 0]"] ;
515 -> 516 ;
517 [label="gini = 0.0\nsamples = 1\nvalue = [0, 1, 0, 0]"] ;
515 -> 517 ;
518 [label="gini = 0.0\nsamples = 3\nvalue = [0, 5, 0, 0]"] ;
514 -> 518 ;
519 [label="X[1] <= 0.2053\ngini = 0.4444\nsamples = 2\nvalue = [2, 1, 0, 0]"] ;
513 -> 519 ;
520 [label="gini = 0.0\nsamples = 1\nvalue = [0, 1, 0, 0]"] ;
519 -> 520 ;
521 [label="gini = 0.0\nsamples = 1\nvalue = [2, 0, 0, 0]"] ;
519 -> 521 ;
522 [label="X[0] <= 0.3684\ngini = 0.5104\nsamples = 12\nvalue = [15, 3, 5, 0]"] ;
512 -> 522 ;
523 [label="X[5] <= 0.2238\ngini = 0.375\nsamples = 11\nvalue = [15, 0, 5, 0]"] ;
522 -> 523 ;
524 [label="X[6] <= 0.5664\ngini = 0.2188\nsamples = 9\nvalue = [14, 0, 2, 0]"] ;
523 -> 524 ;
525 [label="gini = 0.0\nsamples = 8\nvalue = [14, 0, 0, 0]"] ;
524 -> 525 ;
526 [label="gini = 0.0\nsamples = 1\nvalue = [0, 0, 2, 0]"] ;
524 -> 526 ;
527 [label="X[2] <= 0.441\ngini = 0.375\nsamples = 2\nvalue = [1, 0, 3, 0]"] ;
523 -> 527 ;
528 [label="gini = 0.0\nsamples = 1\nvalue = [0, 0, 3, 0]"] ;
527 -> 528 ;
529 [label="gini = 0.0\nsamples = 1\nvalue = [1, 0, 0, 0]"] ;
527 -> 529 ;
530 [label="gini = 0.0\nsamples = 1\nvalue = [0, 3, 0, 0]"] ;
522 -> 530 ;
531 [label="gini = 0.0\nsamples = 5\nvalue = [0, 10, 0, 0]"] ;
459 -> 531 ;
532 [label="X[3] <= 0.3038\ngini = 0.3084\nsamples = 31\nvalue = [34, 8, 0, 0]"] ;
366 -> 532 ;
533 [label="X[2] <= 0.6233\ngini = 0.0588\nsamples = 25\nvalue = [32, 1, 0, 0]"] ;
532 -> 533 ;
534 [label="gini = 0.0\nsamples = 20\nvalue = [28, 0, 0, 0]"] ;
533 -> 534 ;
535 [label="X[2] <= 0.6476\ngini = 0.32\nsamples = 5\nvalue = [4, 1, 0, 0]"] ;
533 -> 535 ;
536 [label="gini = 0.0\nsamples = 1\nvalue = [0, 1, 0, 0]"] ;
535 -> 536 ;
537 [label="gini = 0.0\nsamples = 4\nvalue = [4, 0, 0, 0]"] ;
535 -> 537 ;
538 [label="X[5] <= 0.1715\ngini = 0.3457\nsamples = 6\nvalue = [2, 7, 0, 0]"] ;
532 -> 538 ;
539 [label="X[2] <= 0.5885\ngini = 0.2188\nsamples = 5\nvalue = [1, 7, 0, 0]"] ;
538 -> 539 ;
540 [label="gini = 0.0\nsamples = 4\nvalue = [0, 7, 0, 0]"] ;
539 -> 540 ;
541 [label="gini = 0.0\nsamples = 1\nvalue = [1, 0, 0, 0]"] ;
539 -> 541 ;
542 [label="gini = 0.0\nsamples = 1\nvalue = [1, 0, 0, 0]"] ;
538 -> 542 ;
543 [label="gini = 0.0\nsamples = 15\nvalue = [21, 0, 0, 0]"] ;
365 -> 543 ;
544 [label="X[6] <= 0.7699\ngini = 0.5559\nsamples = 240\nvalue = [133, 221, 37, 0]"] ;
364 -> 544 ;
545 [label="X[5] <= 0.2936\ngini = 0.5645\nsamples = 181\nvalue = [116, 152, 24, 0]"] ;
544 -> 545 ;
546 [label="X[2] <= 0.5677\ngini = 0.5776\nsamples = 163\nvalue = [112, 126, 24, 0]"] ;
545 -> 546 ;
547 [label="X[6] <= 0.6991\ngini = 0.5747\nsamples = 154\nvalue = [104, 126, 23, 0]"] ;
546 -> 547 ;
548 [label="X[2] <= 0.2934\ngini = 0.5434\nsamples = 89\nvalue = [48, 83, 12, 0]"] ;
547 -> 548 ;
549 [label="X[4] <= 0.281\ngini = 0.4821\nsamples = 25\nvalue = [22, 15, 0, 0]"] ;
548 -> 549 ;
550 [label="gini = 0.0\nsamples = 2\nvalue = [0, 3, 0, 0]"] ;
549 -> 550 ;
551 [label="X[2] <= 0.066\ngini = 0.4567\nsamples = 23\nvalue = [22, 12, 0, 0]"] ;
549 -> 551 ;
552 [label="X[5] <= 0.1977\ngini = 0.42\nsamples = 5\nvalue = [3, 7, 0, 0]"] ;
551 -> 552 ;
553 [label="gini = 0.0\nsamples = 1\nvalue = [3, 0, 0, 0]"] ;
552 -> 553 ;
554 [label="gini = 0.0\nsamples = 4\nvalue = [0, 7, 0, 0]"] ;
552 -> 554 ;
555 [label="X[5] <= 0.189\ngini = 0.3299\nsamples = 18\nvalue = [19, 5, 0, 0]"] ;
551 -> 555 ;
556 [label="gini = 0.0\nsamples = 7\nvalue = [11, 0, 0, 0]"] ;
555 -> 556 ;
557 [label="X[4] <= 0.4711\ngini = 0.4734\nsamples = 11\nvalue = [8, 5, 0, 0]"] ;
555 -> 557 ;
558 [label="X[1] <= 0.2947\ngini = 0.2188\nsamples = 7\nvalue = [7, 1, 0, 0]"] ;
557 -> 558 ;
559 [label="X[3] <= 0.4713\ngini = 0.4444\nsamples = 3\nvalue = [2, 1, 0, 0]"] ;
558 -> 559 ;
560 [label="gini = 0.0\nsamples = 2\nvalue = [2, 0, 0, 0]"] ;
559 -> 560 ;
561 [label="gini = 0.0\nsamples = 1\nvalue = [0, 1, 0, 0]"] ;
559 -> 561 ;
562 [label="gini = 0.0\nsamples = 4\nvalue = [5, 0, 0, 0]"] ;
558 -> 562 ;
563 [label="X[3] <= 0.3703\ngini = 0.32\nsamples = 4\nvalue = [1, 4, 0, 0]"] ;
557 -> 563 ;
564 [label="gini = 0.0\nsamples = 3\nvalue = [0, 4, 0, 0]"] ;
563 -> 564 ;
565 [label="gini = 0.0\nsamples = 1\nvalue = [1, 0, 0, 0]"] ;
563 -> 565 ;
566 [label="X[5] <= 0.189\ngini = 0.5155\nsamples = 64\nvalue = [26, 68, 12, 0]"] ;
548 -> 566 ;
567 [label="X[4] <= 0.2603\ngini = 0.5644\nsamples = 52\nvalue = [26, 50, 11, 0]"] ;
566 -> 567 ;
568 [label="X[1] <= 0.2368\ngini = 0.5\nsamples = 5\nvalue = [8, 2, 2, 0]"] ;
567 -> 568 ;
569 [label="gini = 0.0\nsamples = 3\nvalue = [8, 0, 0, 0]"] ;
568 -> 569 ;
570 [label="X[6] <= 0.6726\ngini = 0.5\nsamples = 2\nvalue = [0, 2, 2, 0]"] ;
568 -> 570 ;
571 [label="gini = 0.0\nsamples = 1\nvalue = [0, 0, 2, 0]"] ;
570 -> 571 ;
572 [label="gini = 0.0\nsamples = 1\nvalue = [0, 2, 0, 0]"] ;
570 -> 572 ;
573 [label="X[1] <= 0.4526\ngini = 0.5184\nsamples = 47\nvalue = [18, 48, 9, 0]"] ;
567 -> 573 ;
574 [label="X[1] <= 0.1211\ngini = 0.4965\nsamples = 45\nvalue = [15, 48, 9, 0]"] ;
573 -> 574 ;
575 [label="X[3] <= 0.1234\ngini = 0.54\nsamples = 6\nvalue = [6, 3, 1, 0]"] ;
574 -> 575 ;
576 [label="gini = 0.0\nsamples = 1\nvalue = [0, 2, 0, 0]"] ;
575 -> 576 ;
577 [label="X[1] <= 0.1\ngini = 0.4062\nsamples = 5\nvalue = [6, 1, 1, 0]"] ;
575 -> 577 ;
578 [label="X[6] <= 0.6549\ngini = 0.32\nsamples = 3\nvalue = [4, 0, 1, 0]"] ;
577 -> 578 ;
579 [label="gini = 0.0\nsamples = 2\nvalue = [4, 0, 0, 0]"] ;
578 -> 579 ;
580 [label="gini = 0.0\nsamples = 1\nvalue = [0, 0, 1, 0]"] ;
578 -> 580 ;
581 [label="X[4] <= 0.376\ngini = 0.4444\nsamples = 2\nvalue = [2, 1, 0, 0]"] ;
577 -> 581 ;
582 [label="gini = 0.0\nsamples = 1\nvalue = [0, 1, 0, 0]"] ;
581 -> 582 ;
583 [label="gini = 0.0\nsamples = 1\nvalue = [2, 0, 0, 0]"] ;
581 -> 583 ;
584 [label="X[4] <= 0.2686\ngini = 0.4355\nsamples = 39\nvalue = [9, 45, 8, 0]"] ;
574 -> 584 ;
585 [label="X[3] <= 0.262\ngini = 0.4444\nsamples = 2\nvalue = [1, 0, 2, 0]"] ;
584 -> 585 ;
586 [label="gini = 0.0\nsamples = 1\nvalue = [1, 0, 0, 0]"] ;
585 -> 586 ;
587 [label="gini = 0.0\nsamples = 1\nvalue = [0, 0, 2, 0]"] ;
585 -> 587 ;
588 [label="X[2] <= 0.309\ngini = 0.3895\nsamples = 37\nvalue = [8, 45, 6, 0]"] ;
584 -> 588 ;
589 [label="X[3] <= 0.1659\ngini = 0.4444\nsamples = 3\nvalue = [2, 1, 0, 0]"] ;
588 -> 589 ;
590 [label="gini = 0.0\nsamples = 1\nvalue = [0, 1, 0, 0]"] ;
589 -> 590 ;
591 [label="gini = 0.0\nsamples = 2\nvalue = [2, 0, 0, 0]"] ;
589 -> 591 ;
592 [label="X[3] <= 0.1148\ngini = 0.3597\nsamples = 34\nvalue = [6, 44, 6, 0]"] ;
588 -> 592 ;
593 [label="X[3] <= 0.0997\ngini = 0.6667\nsamples = 4\nvalue = [2, 2, 2, 0]"] ;
592 -> 593 ;
594 [label="X[4] <= 0.4711\ngini = 0.5\nsamples = 2\nvalue = [0, 2, 2, 0]"] ;
593 -> 594 ;
595 [label="gini = 0.0\nsamples = 1\nvalue = [0, 0, 2, 0]"] ;
594 -> 595 ;
596 [label="gini = 0.0\nsamples = 1\nvalue = [0, 2, 0, 0]"] ;
594 -> 596 ;
597 [label="gini = 0.0\nsamples = 2\nvalue = [2, 0, 0, 0]"] ;
593 -> 597 ;
598 [label="X[3] <= 0.1972\ngini = 0.2816\nsamples = 30\nvalue = [4, 42, 4, 0]"] ;
592 -> 598 ;
599 [label="X[4] <= 0.4174\ngini = 0.4056\nsamples = 18\nvalue = [3, 21, 4, 0]"] ;
598 -> 599 ;
600 [label="X[3] <= 0.1785\ngini = 0.2778\nsamples = 14\nvalue = [0, 20, 4, 0]"] ;
599 -> 600 ;
601 [label="X[2] <= 0.5399\ngini = 0.2268\nsamples = 13\nvalue = [0, 20, 3, 0]"] ;
600 -> 601 ;
602 [label="X[1] <= 0.2632\ngini = 0.1049\nsamples = 11\nvalue = [0, 17, 1, 0]"] ;
601 -> 602 ;
603 [label="gini = 0.0\nsamples = 9\nvalue = [0, 15, 0, 0]"] ;
602 -> 603 ;
604 [label="X[4] <= 0.3388\ngini = 0.4444\nsamples = 2\nvalue = [0, 2, 1, 0]"] ;
602 -> 604 ;
605 [label="gini = 0.0\nsamples = 1\nvalue = [0, 2, 0, 0]"] ;
604 -> 605 ;
606 [label="gini = 0.0\nsamples = 1\nvalue = [0, 0, 1, 0]"] ;
604 -> 606 ;
607 [label="X[4] <= 0.3926\ngini = 0.48\nsamples = 2\nvalue = [0, 3, 2, 0]"] ;
601 -> 607 ;
608 [label="gini = 0.0\nsamples = 1\nvalue = [0, 0, 2, 0]"] ;
607 -> 608 ;
609 [label="gini = 0.0\nsamples = 1\nvalue = [0, 3, 0, 0]"] ;
607 -> 609 ;
610 [label="gini = 0.0\nsamples = 1\nvalue = [0, 0, 1, 0]"] ;
600 -> 610 ;
611 [label="X[0] <= 0.2018\ngini = 0.375\nsamples = 4\nvalue = [3, 1, 0, 0]"] ;
599 -> 611 ;
612 [label="X[2] <= 0.3889\ngini = 0.5\nsamples = 2\nvalue = [1, 1, 0, 0]"] ;
611 -> 612 ;
613 [label="gini = 0.0\nsamples = 1\nvalue = [1, 0, 0, 0]"] ;
612 -> 613 ;
614 [label="gini = 0.0\nsamples = 1\nvalue = [0, 1, 0, 0]"] ;
612 -> 614 ;
615 [label="gini = 0.0\nsamples = 2\nvalue = [2, 0, 0, 0]"] ;
611 -> 615 ;
616 [label="X[3] <= 0.2542\ngini = 0.0868\nsamples = 12\nvalue = [1, 21, 0, 0]"] ;
598 -> 616 ;
617 [label="X[4] <= 0.3223\ngini = 0.1975\nsamples = 7\nvalue = [1, 8, 0, 0]"] ;
616 -> 617 ;
618 [label="X[1] <= 0.2789\ngini = 0.4444\nsamples = 2\nvalue = [1, 2, 0, 0]"] ;
617 -> 618 ;
619 [label="gini = 0.0\nsamples = 1\nvalue = [1, 0, 0, 0]"] ;
618 -> 619 ;
620 [label="gini = 0.0\nsamples = 1\nvalue = [0, 2, 0, 0]"] ;
618 -> 620 ;
621 [label="gini = 0.0\nsamples = 5\nvalue = [0, 6, 0, 0]"] ;
617 -> 621 ;
622 [label="gini = 0.0\nsamples = 5\nvalue = [0, 13, 0, 0]"] ;
616 -> 622 ;
623 [label="gini = 0.0\nsamples = 2\nvalue = [3, 0, 0, 0]"] ;
573 -> 623 ;
624 [label="X[1] <= 0.2053\ngini = 0.0997\nsamples = 12\nvalue = [0, 18, 1, 0]"] ;
566 -> 624 ;
625 [label="gini = 0.0\nsamples = 4\nvalue = [0, 10, 0, 0]"] ;
624 -> 625 ;
626 [label="X[6] <= 0.6814\ngini = 0.1975\nsamples = 8\nvalue = [0, 8, 1, 0]"] ;
624 -> 626 ;
627 [label="gini = 0.0\nsamples = 6\nvalue = [0, 7, 0, 0]"] ;
626 -> 627 ;
628 [label="X[0] <= 0.25\ngini = 0.5\nsamples = 2\nvalue = [0, 1, 1, 0]"] ;
626 -> 628 ;
629 [label="gini = 0.0\nsamples = 1\nvalue = [0, 0, 1, 0]"] ;
628 -> 629 ;
630 [label="gini = 0.0\nsamples = 1\nvalue = [0, 1, 0, 0]"] ;
628 -> 630 ;
631 [label="X[1] <= 0.1211\ngini = 0.578\nsamples = 65\nvalue = [56, 43, 11, 0]"] ;
547 -> 631 ;
632 [label="gini = 0.0\nsamples = 3\nvalue = [6, 0, 0, 0]"] ;
631 -> 632 ;
633 [label="X[5] <= 0.0349\ngini = 0.5867\nsamples = 62\nvalue = [50, 43, 11, 0]"] ;
631 -> 633 ;
634 [label="gini = 0.0\nsamples = 1\nvalue = [0, 0, 2, 0]"] ;
633 -> 634 ;
635 [label="X[5] <= 0.1308\ngini = 0.5742\nsamples = 61\nvalue = [50, 43, 9, 0]"] ;
633 -> 635 ;
636 [label="X[1] <= 0.2842\ngini = 0.4955\nsamples = 25\nvalue = [19, 23, 0, 0]"] ;
635 -> 636 ;
637 [label="X[2] <= 0.4688\ngini = 0.4885\nsamples = 21\nvalue = [19, 14, 0, 0]"] ;
636 -> 637 ;
638 [label="X[0] <= 0.0921\ngini = 0.417\nsamples = 18\nvalue = [19, 8, 0, 0]"] ;
637 -> 638 ;
639 [label="gini = 0.0\nsamples = 1\nvalue = [0, 2, 0, 0]"] ;
638 -> 639 ;
640 [label="X[3] <= 0.1623\ngini = 0.3648\nsamples = 17\nvalue = [19, 6, 0, 0]"] ;
638 -> 640 ;
641 [label="X[5] <= 0.0959\ngini = 0.2355\nsamples = 15\nvalue = [19, 3, 0, 0]"] ;
640 -> 641 ;
642 [label="gini = 0.0\nsamples = 6\nvalue = [8, 0, 0, 0]"] ;
641 -> 642 ;
643 [label="X[4] <= 0.3636\ngini = 0.3367\nsamples = 9\nvalue = [11, 3, 0, 0]"] ;
641 -> 643 ;
644 [label="gini = 0.0\nsamples = 4\nvalue = [7, 0, 0, 0]"] ;
643 -> 644 ;
645 [label="X[0] <= 0.2325\ngini = 0.4898\nsamples = 5\nvalue = [4, 3, 0, 0]"] ;
643 -> 645 ;
646 [label="X[3] <= 0.1053\ngini = 0.32\nsamples = 4\nvalue = [4, 1, 0, 0]"] ;
645 -> 646 ;
647 [label="gini = 0.0\nsamples = 1\nvalue = [0, 1, 0, 0]"] ;
646 -> 647 ;
648 [label="gini = 0.0\nsamples = 3\nvalue = [4, 0, 0, 0]"] ;
646 -> 648 ;
649 [label="gini = 0.0\nsamples = 1\nvalue = [0, 2, 0, 0]"] ;
645 -> 649 ;
650 [label="gini = 0.0\nsamples = 2\nvalue = [0, 3, 0, 0]"] ;
640 -> 650 ;
651 [label="gini = 0.0\nsamples = 3\nvalue = [0, 6, 0, 0]"] ;
637 -> 651 ;
652 [label="gini = 0.0\nsamples = 4\nvalue = [0, 9, 0, 0]"] ;
636 -> 652 ;
653 [label="X[3] <= 0.0915\ngini = 0.5994\nsamples = 36\nvalue = [31, 20, 9, 0]"] ;
635 -> 653 ;
654 [label="gini = 0.0\nsamples = 2\nvalue = [0, 5, 0, 0]"] ;
653 -> 654 ;
655 [label="X[4] <= 0.3926\ngini = 0.5812\nsamples = 34\nvalue = [31, 15, 9, 0]"] ;
653 -> 655 ;
656 [label="X[3] <= 0.18\ngini = 0.6318\nsamples = 18\nvalue = [14, 13, 6, 0]"] ;
655 -> 656 ;
657 [label="X[0] <= 0.2412\ngini = 0.46\nsamples = 12\nvalue = [14, 2, 4, 0]"] ;
656 -> 657 ;
658 [label="X[4] <= 0.3306\ngini = 0.5926\nsamples = 5\nvalue = [4, 1, 4, 0]"] ;
657 -> 658 ;
659 [label="gini = 0.0\nsamples = 2\nvalue = [4, 0, 0, 0]"] ;
658 -> 659 ;
660 [label="X[2] <= 0.2917\ngini = 0.32\nsamples = 3\nvalue = [0, 1, 4, 0]"] ;
658 -> 660 ;
661 [label="gini = 0.0\nsamples = 1\nvalue = [0, 1, 0, 0]"] ;
660 -> 661 ;
662 [label="gini = 0.0\nsamples = 2\nvalue = [0, 0, 4, 0]"] ;
660 -> 662 ;
663 [label="X[4] <= 0.2479\ngini = 0.1653\nsamples = 7\nvalue = [10, 1, 0, 0]"] ;
657 -> 663 ;
664 [label="gini = 0.0\nsamples = 1\nvalue = [0, 1, 0, 0]"] ;
663 -> 664 ;
665 [label="gini = 0.0\nsamples = 6\nvalue = [10, 0, 0, 0]"] ;
663 -> 665 ;
666 [label="X[6] <= 0.7168\ngini = 0.2604\nsamples = 6\nvalue = [0, 11, 2, 0]"] ;
656 -> 666 ;
667 [label="gini = 0.0\nsamples = 1\nvalue = [0, 0, 2, 0]"] ;
666 -> 667 ;
668 [label="gini = 0.0\nsamples = 5\nvalue = [0, 11, 0, 0]"] ;
666 -> 668 ;
669 [label="X[4] <= 0.4256\ngini = 0.376\nsamples = 16\nvalue = [17, 2, 3, 0]"] ;
655 -> 669 ;
670 [label="gini = 0.0\nsamples = 5\nvalue = [7, 0, 0, 0]"] ;
669 -> 670 ;
671 [label="X[4] <= 0.4463\ngini = 0.4978\nsamples = 11\nvalue = [10, 2, 3, 0]"] ;
669 -> 671 ;
672 [label="gini = 0.0\nsamples = 1\nvalue = [0, 1, 0, 0]"] ;
671 -> 672 ;
673 [label="X[0] <= 0.2412\ngini = 0.4388\nsamples = 10\nvalue = [10, 1, 3, 0]"] ;
671 -> 673 ;
674 [label="X[3] <= 0.2067\ngini = 0.3787\nsamples = 9\nvalue = [10, 1, 2, 0]"] ;
673 -> 674 ;
675 [label="X[4] <= 0.5331\ngini = 0.4444\nsamples = 4\nvalue = [4, 0, 2, 0]"] ;
674 -> 675 ;
676 [label="X[2] <= 0.3663\ngini = 0.32\nsamples = 3\nvalue = [4, 0, 1, 0]"] ;
675 -> 676 ;
677 [label="gini = 0.0\nsamples = 1\nvalue = [0, 0, 1, 0]"] ;
676 -> 677 ;
678 [label="gini = 0.0\nsamples = 2\nvalue = [4, 0, 0, 0]"] ;
676 -> 678 ;
679 [label="gini = 0.0\nsamples = 1\nvalue = [0, 0, 1, 0]"] ;
675 -> 679 ;
680 [label="X[2] <= 0.0729\ngini = 0.2449\nsamples = 5\nvalue = [6, 1, 0, 0]"] ;
674 -> 680 ;
681 [label="gini = 0.0\nsamples = 1\nvalue = [0, 1, 0, 0]"] ;
680 -> 681 ;
682 [label="gini = 0.0\nsamples = 4\nvalue = [6, 0, 0, 0]"] ;
680 -> 682 ;
683 [label="gini = 0.0\nsamples = 1\nvalue = [0, 0, 1, 0]"] ;
673 -> 683 ;
684 [label="X[5] <= 0.0959\ngini = 0.1975\nsamples = 9\nvalue = [8, 0, 1, 0]"] ;
546 -> 684 ;
685 [label="X[4] <= 0.3512\ngini = 0.4444\nsamples = 3\nvalue = [2, 0, 1, 0]"] ;
684 -> 685 ;
686 [label="gini = 0.0\nsamples = 1\nvalue = [0, 0, 1, 0]"] ;
685 -> 686 ;
687 [label="gini = 0.0\nsamples = 2\nvalue = [2, 0, 0, 0]"] ;
685 -> 687 ;
688 [label="gini = 0.0\nsamples = 6\nvalue = [6, 0, 0, 0]"] ;
684 -> 688 ;
689 [label="X[2] <= 0.099\ngini = 0.2311\nsamples = 18\nvalue = [4, 26, 0, 0]"] ;
545 -> 689 ;
690 [label="gini = 0.0\nsamples = 9\nvalue = [0, 14, 0, 0]"] ;
689 -> 690 ;
691 [label="X[1] <= 0.2684\ngini = 0.375\nsamples = 9\nvalue = [4, 12, 0, 0]"] ;
689 -> 691 ;
692 [label="gini = 0.0\nsamples = 7\nvalue = [0, 12, 0, 0]"] ;
691 -> 692 ;
693 [label="gini = 0.0\nsamples = 2\nvalue = [4, 0, 0, 0]"] ;
691 -> 693 ;
694 [label="X[5] <= 0.0552\ngini = 0.4675\nsamples = 59\nvalue = [17, 69, 13, 0]"] ;
544 -> 694 ;
695 [label="X[0] <= 0.1535\ngini = 0.4082\nsamples = 6\nvalue = [0, 2, 5, 0]"] ;
694 -> 695 ;
696 [label="gini = 0.0\nsamples = 3\nvalue = [0, 0, 4, 0]"] ;
695 -> 696 ;
697 [label="X[2] <= 0.3785\ngini = 0.4444\nsamples = 3\nvalue = [0, 2, 1, 0]"] ;
695 -> 697 ;
698 [label="gini = 0.0\nsamples = 2\nvalue = [0, 2, 0, 0]"] ;
697 -> 698 ;
699 [label="gini = 0.0\nsamples = 1\nvalue = [0, 0, 1, 0]"] ;
697 -> 699 ;
700 [label="X[1] <= 0.0895\ngini = 0.4279\nsamples = 53\nvalue = [17, 67, 8, 0]"] ;
694 -> 700 ;
701 [label="X[3] <= 0.0993\ngini = 0.5\nsamples = 2\nvalue = [2, 0, 2, 0]"] ;
700 -> 701 ;
702 [label="gini = 0.0\nsamples = 1\nvalue = [0, 0, 2, 0]"] ;
701 -> 702 ;
703 [label="gini = 0.0\nsamples = 1\nvalue = [2, 0, 0, 0]"] ;
701 -> 703 ;
704 [label="X[0] <= 0.3991\ngini = 0.3866\nsamples = 51\nvalue = [15, 67, 6, 0]"] ;
700 -> 704 ;
705 [label="X[2] <= 0.349\ngini = 0.3538\nsamples = 49\nvalue = [12, 67, 6, 0]"] ;
704 -> 705 ;
706 [label="X[2] <= 0.1163\ngini = 0.201\nsamples = 32\nvalue = [5, 48, 1, 0]"] ;
705 -> 706 ;
707 [label="X[1] <= 0.2632\ngini = 0.5679\nsamples = 6\nvalue = [3, 5, 1, 0]"] ;
706 -> 707 ;
708 [label="gini = 0.0\nsamples = 2\nvalue = [0, 3, 0, 0]"] ;
707 -> 708 ;
709 [label="X[1] <= 0.3579\ngini = 0.6111\nsamples = 4\nvalue = [3, 2, 1, 0]"] ;
707 -> 709 ;
710 [label="gini = 0.0\nsamples = 1\nvalue = [0, 0, 1, 0]"] ;
709 -> 710 ;
711 [label="X[3] <= 0.268\ngini = 0.48\nsamples = 3\nvalue = [3, 2, 0, 0]"] ;
709 -> 711 ;
712 [label="gini = 0.0\nsamples = 2\nvalue = [3, 0, 0, 0]"] ;
711 -> 712 ;
713 [label="gini = 0.0\nsamples = 1\nvalue = [0, 2, 0, 0]"] ;
711 -> 713 ;
714 [label="X[6] <= 0.8584\ngini = 0.0849\nsamples = 26\nvalue = [2, 43, 0, 0]"] ;
706 -> 714 ;
715 [label="gini = 0.0\nsamples = 15\nvalue = [0, 25, 0, 0]"] ;
714 -> 715 ;
716 [label="X[1] <= 0.3316\ngini = 0.18\nsamples = 11\nvalue = [2, 18, 0, 0]"] ;
714 -> 716 ;
717 [label="X[3] <= 0.0657\ngini = 0.3457\nsamples = 6\nvalue = [2, 7, 0, 0]"] ;
716 -> 717 ;
718 [label="gini = 0.0\nsamples = 1\nvalue = [1, 0, 0, 0]"] ;
717 -> 718 ;
719 [label="X[2] <= 0.2674\ngini = 0.2188\nsamples = 5\nvalue = [1, 7, 0, 0]"] ;
717 -> 719 ;
720 [label="gini = 0.0\nsamples = 1\nvalue = [1, 0, 0, 0]"] ;
719 -> 720 ;
721 [label="gini = 0.0\nsamples = 4\nvalue = [0, 7, 0, 0]"] ;
719 -> 721 ;
722 [label="gini = 0.0\nsamples = 5\nvalue = [0, 11, 0, 0]"] ;
716 -> 722 ;
723 [label="X[2] <= 0.375\ngini = 0.5473\nsamples = 17\nvalue = [7, 19, 5, 0]"] ;
705 -> 723 ;
724 [label="X[2] <= 0.3594\ngini = 0.54\nsamples = 5\nvalue = [6, 1, 3, 0]"] ;
723 -> 724 ;
725 [label="X[2] <= 0.3524\ngini = 0.6111\nsamples = 3\nvalue = [2, 1, 3, 0]"] ;
724 -> 725 ;
726 [label="X[3] <= 0.077\ngini = 0.4444\nsamples = 2\nvalue = [2, 1, 0, 0]"] ;
725 -> 726 ;
727 [label="gini = 0.0\nsamples = 1\nvalue = [2, 0, 0, 0]"] ;
726 -> 727 ;
728 [label="gini = 0.0\nsamples = 1\nvalue = [0, 1, 0, 0]"] ;
726 -> 728 ;
729 [label="gini = 0.0\nsamples = 1\nvalue = [0, 0, 3, 0]"] ;
725 -> 729 ;
730 [label="gini = 0.0\nsamples = 2\nvalue = [4, 0, 0, 0]"] ;
724 -> 730 ;
731 [label="X[4] <= 0.5165\ngini = 0.254\nsamples = 12\nvalue = [1, 18, 2, 0]"] ;
723 -> 731 ;
732 [label="X[6] <= 0.9071\ngini = 0.0997\nsamples = 11\nvalue = [1, 18, 0, 0]"] ;
731 -> 732 ;
733 [label="gini = 0.0\nsamples = 9\nvalue = [0, 15, 0, 0]"] ;
732 -> 733 ;
734 [label="X[2] <= 0.3854\ngini = 0.375\nsamples = 2\nvalue = [1, 3, 0, 0]"] ;
732 -> 734 ;
735 [label="gini = 0.0\nsamples = 1\nvalue = [0, 3, 0, 0]"] ;
734 -> 735 ;
736 [label="gini = 0.0\nsamples = 1\nvalue = [1, 0, 0, 0]"] ;
734 -> 736 ;
737 [label="gini = 0.0\nsamples = 1\nvalue = [0, 0, 2, 0]"] ;
731 -> 737 ;
738 [label="gini = 0.0\nsamples = 2\nvalue = [3, 0, 0, 0]"] ;
704 -> 738 ;
}