digraph Tree {
node [shape=box] ;
0 [label="X[2] <= 0.5122\ngini = 0.4492\nsamples = 1260\nvalue = [1346, 541, 70, 0]"] ;
1 [label="X[2] <= 0.0191\ngini = 0.4786\nsamples = 974\nvalue = [983, 468, 59, 0]"] ;
0 -> 1 [labeldistance=2.5, labelangle=45, headlabel="True"] ;
2 [label="X[5] <= 0.3547\ngini = 0.3282\nsamples = 17\nvalue = [6, 23, 0, 0]"] ;
1 -> 2 ;
3 [label="X[4] <= 0.2727\ngini = 0.2604\nsamples = 14\nvalue = [4, 22, 0, 0]"] ;
2 -> 3 ;
4 [label="gini = 0.0\nsamples = 3\nvalue = [0, 8, 0, 0]"] ;
3 -> 4 ;
5 [label="X[6] <= 0.4513\ngini = 0.3457\nsamples = 11\nvalue = [4, 14, 0, 0]"] ;
3 -> 5 ;
6 [label="gini = 0.0\nsamples = 3\nvalue = [3, 0, 0, 0]"] ;
5 -> 6 ;
7 [label="X[5] <= 0.2529\ngini = 0.1244\nsamples = 8\nvalue = [1, 14, 0, 0]"] ;
5 -> 7 ;
8 [label="gini = 0.0\nsamples = 5\nvalue = [0, 11, 0, 0]"] ;
7 -> 8 ;
9 [label="X[0] <= 0.3772\ngini = 0.375\nsamples = 3\nvalue = [1, 3, 0, 0]"] ;
7 -> 9 ;
10 [label="gini = 0.0\nsamples = 2\nvalue = [0, 3, 0, 0]"] ;
9 -> 10 ;
11 [label="gini = 0.0\nsamples = 1\nvalue = [1, 0, 0, 0]"] ;
9 -> 11 ;
12 [label="X[5] <= 0.4331\ngini = 0.4444\nsamples = 3\nvalue = [2, 1, 0, 0]"] ;
2 -> 12 ;
13 [label="gini = 0.0\nsamples = 2\nvalue = [2, 0, 0, 0]"] ;
12 -> 13 ;
14 [label="gini = 0.0\nsamples = 1\nvalue = [0, 1, 0, 0]"] ;
12 -> 14 ;
15 [label="X[6] <= 0.4336\ngini = 0.4729\nsamples = 957\nvalue = [977, 445, 59, 0]"] ;
1 -> 15 ;
16 [label="X[4] <= 0.095\ngini = 0.3102\nsamples = 400\nvalue = [510, 109, 9, 0]"] ;
15 -> 16 ;
17 [label="X[1] <= 0.0895\ngini = 0.545\nsamples = 13\nvalue = [9, 10, 1, 0]"] ;
16 -> 17 ;
18 [label="gini = 0.0\nsamples = 5\nvalue = [0, 9, 0, 0]"] ;
17 -> 18 ;
19 [label="X[3] <= 0.2009\ngini = 0.314\nsamples = 8\nvalue = [9, 1, 1, 0]"] ;
17 -> 19 ;
20 [label="gini = 0.0\nsamples = 1\nvalue = [0, 1, 0, 0]"] ;
19 -> 20 ;
21 [label="X[3] <= 0.4808\ngini = 0.18\nsamples = 7\nvalue = [9, 0, 1, 0]"] ;
19 -> 21 ;
22 [label="gini = 0.0\nsamples = 6\nvalue = [9, 0, 0, 0]"] ;
21 -> 22 ;
23 [label="gini = 0.0\nsamples = 1\nvalue = [0, 0, 1, 0]"] ;
21 -> 23 ;
24 [label="X[0] <= 0.7456\ngini = 0.2943\nsamples = 387\nvalue = [501, 99, 8, 0]"] ;
16 -> 24 ;
25 [label="X[1] <= 0.2553\ngini = 0.2852\nsamples = 384\nvalue = [501, 94, 8, 0]"] ;
24 -> 25 ;
26 [label="X[1] <= 0.2263\ngini = 0.3476\nsamples = 260\nvalue = [321, 81, 8, 0]"] ;
25 -> 26 ;
27 [label="X[3] <= 0.2797\ngini = 0.3236\nsamples = 243\nvalue = [306, 67, 8, 0]"] ;
26 -> 27 ;
28 [label="X[1] <= 0.1526\ngini = 0.431\nsamples = 95\nvalue = [107, 41, 4, 0]"] ;
27 -> 28 ;
29 [label="X[1] <= 0.0921\ngini = 0.4678\nsamples = 71\nvalue = [78, 38, 3, 0]"] ;
28 -> 29 ;
30 [label="X[6] <= 0.3097\ngini = 0.2392\nsamples = 22\nvalue = [31, 5, 0, 0]"] ;
29 -> 30 ;
31 [label="X[0] <= 0.1974\ngini = 0.5\nsamples = 6\nvalue = [3, 3, 0, 0]"] ;
30 -> 31 ;
32 [label="gini = 0.0\nsamples = 3\nvalue = [3, 0, 0, 0]"] ;
31 -> 32 ;
33 [label="gini = 0.0\nsamples = 3\nvalue = [0, 3, 0, 0]"] ;
31 -> 33 ;
34 [label="X[4] <= 0.3264\ngini = 0.1244\nsamples = 16\nvalue = [28, 2, 0, 0]"] ;
30 -> 34 ;
35 [label="X[4] <= 0.2769\ngini = 0.4444\nsamples = 2\nvalue = [2, 1, 0, 0]"] ;
34 -> 35 ;
36 [label="gini = 0.0\nsamples = 1\nvalue = [2, 0, 0, 0]"] ;
35 -> 36 ;
37 [label="gini = 0.0\nsamples = 1\nvalue = [0, 1, 0, 0]"] ;
35 -> 37 ;
38 [label="X[1] <= 0.0789\ngini = 0.0713\nsamples = 14\nvalue = [26, 1, 0, 0]"] ;
34 -> 38 ;
39 [label="gini = 0.0\nsamples = 10\nvalue = [21, 0, 0, 0]"] ;
38 -> 39 ;
40 [label="X[5] <= 0.157\ngini = 0.2778\nsamples = 4\nvalue = [5, 1, 0, 0]"] ;
38 -> 40 ;
41 [label="X[0] <= 0.1711\ngini = 0.5\nsamples = 2\nvalue = [1, 1, 0, 0]"] ;
40 -> 41 ;
42 [label="gini = 0.0\nsamples = 1\nvalue = [1, 0, 0, 0]"] ;
41 -> 42 ;
43 [label="gini = 0.0\nsamples = 1\nvalue = [0, 1, 0, 0]"] ;
41 -> 43 ;
44 [label="gini = 0.0\nsamples = 2\nvalue = [4, 0, 0, 0]"] ;
40 -> 44 ;
45 [label="X[6] <= 0.1504\ngini = 0.52\nsamples = 49\nvalue = [47, 33, 3, 0]"] ;
29 -> 45 ;
46 [label="gini = 0.0\nsamples = 4\nvalue = [10, 0, 0, 0]"] ;
45 -> 46 ;
47 [label="X[0] <= 0.1886\ngini = 0.5371\nsamples = 45\nvalue = [37, 33, 3, 0]"] ;
45 -> 47 ;
48 [label="gini = 0.0\nsamples = 9\nvalue = [15, 0, 0, 0]"] ;
47 -> 48 ;
49 [label="X[5] <= 0.0901\ngini = 0.5297\nsamples = 36\nvalue = [22, 33, 3, 0]"] ;
47 -> 49 ;
50 [label="gini = 0.0\nsamples = 5\nvalue = [7, 0, 0, 0]"] ;
49 -> 50 ;
51 [label="X[4] <= 0.4174\ngini = 0.4913\nsamples = 31\nvalue = [15, 33, 3, 0]"] ;
49 -> 51 ;
52 [label="X[2] <= 0.3403\ngini = 0.3122\nsamples = 16\nvalue = [6, 25, 0, 0]"] ;
51 -> 52 ;
53 [label="X[1] <= 0.1\ngini = 0.0907\nsamples = 9\nvalue = [1, 20, 0, 0]"] ;
52 -> 53 ;
54 [label="X[6] <= 0.3097\ngini = 0.375\nsamples = 2\nvalue = [1, 3, 0, 0]"] ;
53 -> 54 ;
55 [label="gini = 0.0\nsamples = 1\nvalue = [1, 0, 0, 0]"] ;
54 -> 55 ;
56 [label="gini = 0.0\nsamples = 1\nvalue = [0, 3, 0, 0]"] ;
54 -> 56 ;
57 [label="gini = 0.0\nsamples = 7\nvalue = [0, 17, 0, 0]"] ;
53 -> 57 ;
58 [label="X[0] <= 0.2412\ngini = 0.5\nsamples = 7\nvalue = [5, 5, 0, 0]"] ;
52 -> 58 ;
59 [label="X[1] <= 0.1316\ngini = 0.2778\nsamples = 4\nvalue = [1, 5, 0, 0]"] ;
58 -> 59 ;
60 [label="gini = 0.0\nsamples = 3\nvalue = [0, 5, 0, 0]"] ;
59 -> 60 ;
61 [label="gini = 0.0\nsamples = 1\nvalue = [1, 0, 0, 0]"] ;
59 -> 61 ;
62 [label="gini = 0.0\nsamples = 3\nvalue = [4, 0, 0, 0]"] ;
58 -> 62 ;
63 [label="X[5] <= 0.2267\ngini = 0.615\nsamples = 15\nvalue = [9, 8, 3, 0]"] ;
51 -> 63 ;
64 [label="X[2] <= 0.4219\ngini = 0.4898\nsamples = 10\nvalue = [8, 6, 0, 0]"] ;
63 -> 64 ;
65 [label="X[0] <= 0.2149\ngini = 0.2778\nsamples = 4\nvalue = [1, 5, 0, 0]"] ;
64 -> 65 ;
66 [label="gini = 0.0\nsamples = 2\nvalue = [0, 4, 0, 0]"] ;
65 -> 66 ;
67 [label="X[0] <= 0.2412\ngini = 0.5\nsamples = 2\nvalue = [1, 1, 0, 0]"] ;
65 -> 67 ;
68 [label="gini = 0.0\nsamples = 1\nvalue = [1, 0, 0, 0]"] ;
67 -> 68 ;
69 [label="gini = 0.0\nsamples = 1\nvalue = [0, 1, 0, 0]"] ;
67 -> 69 ;
70 [label="X[0] <= 0.25\ngini = 0.2188\nsamples = 6\nvalue = [7, 1, 0, 0]"] ;
64 -> 70 ;
71 [label="gini = 0.0\nsamples = 3\nvalue = [5, 0, 0, 0]"] ;
70 -> 71 ;
72 [label="X[4] <= 0.5041\ngini = 0.4444\nsamples = 3\nvalue = [2, 1, 0, 0]"] ;
70 -> 72 ;
73 [label="gini = 0.0\nsamples = 1\nvalue = [1, 0, 0, 0]"] ;
72 -> 73 ;
74 [label="X[5] <= 0.1773\ngini = 0.5\nsamples = 2\nvalue = [1, 1, 0, 0]"] ;
72 -> 74 ;
75 [label="gini = 0.0\nsamples = 1\nvalue = [1, 0, 0, 0]"] ;
74 -> 75 ;
76 [label="gini = 0.0\nsamples = 1\nvalue = [0, 1, 0, 0]"] ;
74 -> 76 ;
77 [label="X[2] <= 0.3663\ngini = 0.6111\nsamples = 5\nvalue = [1, 2, 3, 0]"] ;
63 -> 77 ;
78 [label="X[4] <= 0.4752\ngini = 0.375\nsamples = 3\nvalue = [1, 0, 3, 0]"] ;
77 -> 78 ;
79 [label="gini = 0.0\nsamples = 2\nvalue = [0, 0, 3, 0]"] ;
78 -> 79 ;
80 [label="gini = 0.0\nsamples = 1\nvalue = [1, 0, 0, 0]"] ;
78 -> 80 ;
81 [label="gini = 0.0\nsamples = 2\nvalue = [0, 2, 0, 0]"] ;
77 -> 81 ;
82 [label="X[5] <= 0.2297\ngini = 0.2185\nsamples = 24\nvalue = [29, 3, 1, 0]"] ;
28 -> 82 ;
83 [label="X[2] <= 0.4549\ngini = 0.1699\nsamples = 23\nvalue = [29, 3, 0, 0]"] ;
82 -> 83 ;
84 [label="X[6] <= 0.4159\ngini = 0.074\nsamples = 17\nvalue = [25, 1, 0, 0]"] ;
83 -> 84 ;
85 [label="gini = 0.0\nsamples = 15\nvalue = [22, 0, 0, 0]"] ;
84 -> 85 ;
86 [label="X[5] <= 0.093\ngini = 0.375\nsamples = 2\nvalue = [3, 1, 0, 0]"] ;
84 -> 86 ;
87 [label="gini = 0.0\nsamples = 1\nvalue = [3, 0, 0, 0]"] ;
86 -> 87 ;
88 [label="gini = 0.0\nsamples = 1\nvalue = [0, 1, 0, 0]"] ;
86 -> 88 ;
89 [label="X[5] <= 0.2064\ngini = 0.4444\nsamples = 6\nvalue = [4, 2, 0, 0]"] ;
83 -> 89 ;
90 [label="X[5] <= 0.1599\ngini = 0.32\nsamples = 5\nvalue = [4, 1, 0, 0]"] ;
89 -> 90 ;
91 [label="X[4] <= 0.281\ngini = 0.5\nsamples = 2\nvalue = [1, 1, 0, 0]"] ;
90 -> 91 ;
92 [label="gini = 0.0\nsamples = 1\nvalue = [1, 0, 0, 0]"] ;
91 -> 92 ;
93 [label="gini = 0.0\nsamples = 1\nvalue = [0, 1, 0, 0]"] ;
91 -> 93 ;
94 [label="gini = 0.0\nsamples = 3\nvalue = [3, 0, 0, 0]"] ;
90 -> 94 ;
95 [label="gini = 0.0\nsamples = 1\nvalue = [0, 1, 0, 0]"] ;
89 -> 95 ;
96 [label="gini = 0.0\nsamples = 1\nvalue = [0, 0, 1, 0]"] ;
82 -> 96 ;
97 [label="X[1] <= 0.1\ngini = 0.2317\nsamples = 148\nvalue = [199, 26, 4, 0]"] ;
27 -> 97 ;
98 [label="X[2] <= 0.4201\ngini = 0.384\nsamples = 43\nvalue = [52, 15, 2, 0]"] ;
97 -> 98 ;
99 [label="X[1] <= 0.0368\ngini = 0.1731\nsamples = 28\nvalue = [39, 2, 2, 0]"] ;
98 -> 99 ;
100 [label="X[3] <= 0.3435\ngini = 0.5714\nsamples = 5\nvalue = [4, 1, 2, 0]"] ;
99 -> 100 ;
101 [label="gini = 0.0\nsamples = 2\nvalue = [4, 0, 0, 0]"] ;
100 -> 101 ;
102 [label="X[0] <= 0.2325\ngini = 0.4444\nsamples = 3\nvalue = [0, 1, 2, 0]"] ;
100 -> 102 ;
103 [label="gini = 0.0\nsamples = 1\nvalue = [0, 1, 0, 0]"] ;
102 -> 103 ;
104 [label="gini = 0.0\nsamples = 2\nvalue = [0, 0, 2, 0]"] ;
102 -> 104 ;
105 [label="X[6] <= 0.3982\ngini = 0.054\nsamples = 23\nvalue = [35, 1, 0, 0]"] ;
99 -> 105 ;
106 [label="gini = 0.0\nsamples = 19\nvalue = [31, 0, 0, 0]"] ;
105 -> 106 ;
107 [label="X[2] <= 0.3698\ngini = 0.32\nsamples = 4\nvalue = [4, 1, 0, 0]"] ;
105 -> 107 ;
108 [label="gini = 0.0\nsamples = 3\nvalue = [4, 0, 0, 0]"] ;
107 -> 108 ;
109 [label="gini = 0.0\nsamples = 1\nvalue = [0, 1, 0, 0]"] ;
107 -> 109 ;
110 [label="X[5] <= 0.0901\ngini = 0.5\nsamples = 15\nvalue = [13, 13, 0, 0]"] ;
98 -> 110 ;
111 [label="gini = 0.0\nsamples = 2\nvalue = [3, 0, 0, 0]"] ;
110 -> 111 ;
112 [label="X[3] <= 0.3202\ngini = 0.4915\nsamples = 13\nvalue = [10, 13, 0, 0]"] ;
110 -> 112 ;
113 [label="X[0] <= 0.2237\ngini = 0.2449\nsamples = 3\nvalue = [1, 6, 0, 0]"] ;
112 -> 113 ;
114 [label="gini = 0.0\nsamples = 1\nvalue = [1, 0, 0, 0]"] ;
113 -> 114 ;
115 [label="gini = 0.0\nsamples = 2\nvalue = [0, 6, 0, 0]"] ;
113 -> 115 ;
116 [label="X[3] <= 0.391\ngini = 0.4922\nsamples = 10\nvalue = [9, 7, 0, 0]"] ;
112 -> 116 ;
117 [label="X[2] <= 0.474\ngini = 0.1975\nsamples = 7\nvalue = [8, 1, 0, 0]"] ;
116 -> 117 ;
118 [label="gini = 0.0\nsamples = 3\nvalue = [4, 0, 0, 0]"] ;
117 -> 118 ;
119 [label="X[5] <= 0.1279\ngini = 0.32\nsamples = 4\nvalue = [4, 1, 0, 0]"] ;
117 -> 119 ;
120 [label="X[0] <= 0.2061\ngini = 0.5\nsamples = 2\nvalue = [1, 1, 0, 0]"] ;
119 -> 120 ;
121 [label="gini = 0.0\nsamples = 1\nvalue = [1, 0, 0, 0]"] ;
120 -> 121 ;
122 [label="gini = 0.0\nsamples = 1\nvalue = [0, 1, 0, 0]"] ;
120 -> 122 ;
123 [label="gini = 0.0\nsamples = 2\nvalue = [3, 0, 0, 0]"] ;
119 -> 123 ;
124 [label="X[6] <= 0.0973\ngini = 0.2449\nsamples = 3\nvalue = [1, 6, 0, 0]"] ;
116 -> 124 ;
125 [label="gini = 0.0\nsamples = 1\nvalue = [1, 0, 0, 0]"] ;
124 -> 125 ;
126 [label="gini = 0.0\nsamples = 2\nvalue = [0, 6, 0, 0]"] ;
124 -> 126 ;
127 [label="X[6] <= 0.2566\ngini = 0.151\nsamples = 105\nvalue = [147, 11, 2, 0]"] ;
97 -> 127 ;
128 [label="X[1] <= 0.1105\ngini = 0.0282\nsamples = 44\nvalue = [69, 1, 0, 0]"] ;
127 -> 128 ;
129 [label="X[4] <= 0.4132\ngini = 0.32\nsamples = 4\nvalue = [4, 1, 0, 0]"] ;
128 -> 129 ;
130 [label="gini = 0.0\nsamples = 3\nvalue = [4, 0, 0, 0]"] ;
129 -> 130 ;
131 [label="gini = 0.0\nsamples = 1\nvalue = [0, 1, 0, 0]"] ;
129 -> 131 ;
132 [label="gini = 0.0\nsamples = 40\nvalue = [65, 0, 0, 0]"] ;
128 -> 132 ;
133 [label="X[4] <= 0.1612\ngini = 0.236\nsamples = 61\nvalue = [78, 10, 2, 0]"] ;
127 -> 133 ;
134 [label="gini = 0.0\nsamples = 1\nvalue = [0, 2, 0, 0]"] ;
133 -> 134 ;
135 [label="X[0] <= 0.2719\ngini = 0.2056\nsamples = 60\nvalue = [78, 8, 2, 0]"] ;
133 -> 135 ;
136 [label="X[0] <= 0.1404\ngini = 0.1481\nsamples = 42\nvalue = [58, 4, 1, 0]"] ;
135 -> 136 ;
137 [label="X[5] <= 0.1512\ngini = 0.3457\nsamples = 4\nvalue = [7, 2, 0, 0]"] ;
136 -> 137 ;
138 [label="gini = 0.0\nsamples = 3\nvalue = [7, 0, 0, 0]"] ;
137 -> 138 ;
139 [label="gini = 0.0\nsamples = 1\nvalue = [0, 2, 0, 0]"] ;
137 -> 139 ;
140 [label="X[6] <= 0.3097\ngini = 0.1063\nsamples = 38\nvalue = [51, 2, 1, 0]"] ;
136 -> 140 ;
141 [label="X[2] <= 0.441\ngini = 0.4444\nsamples = 5\nvalue = [4, 2, 0, 0]"] ;
140 -> 141 ;
142 [label="gini = 0.0\nsamples = 2\nvalue = [3, 0, 0, 0]"] ;
141 -> 142 ;
143 [label="X[6] <= 0.292\ngini = 0.4444\nsamples = 3\nvalue = [1, 2, 0, 0]"] ;
141 -> 143 ;
144 [label="gini = 0.0\nsamples = 1\nvalue = [0, 1, 0, 0]"] ;
143 -> 144 ;
145 [label="X[4] <= 0.4256\ngini = 0.5\nsamples = 2\nvalue = [1, 1, 0, 0]"] ;
143 -> 145 ;
146 [label="gini = 0.0\nsamples = 1\nvalue = [1, 0, 0, 0]"] ;
145 -> 146 ;
147 [label="gini = 0.0\nsamples = 1\nvalue = [0, 1, 0, 0]"] ;
145 -> 147 ;
148 [label="X[5] <= 0.1483\ngini = 0.0408\nsamples = 33\nvalue = [47, 0, 1, 0]"] ;
140 -> 148 ;
149 [label="X[6] <= 0.3805\ngini = 0.1244\nsamples = 12\nvalue = [14, 0, 1, 0]"] ;
148 -> 149 ;
150 [label="X[3] <= 0.328\ngini = 0.4444\nsamples = 3\nvalue = [2, 0, 1, 0]"] ;
149 -> 150 ;
151 [label="gini = 0.0\nsamples = 1\nvalue = [1, 0, 0, 0]"] ;
150 -> 151 ;
152 [label="X[1] <= 0.1737\ngini = 0.5\nsamples = 2\nvalue = [1, 0, 1, 0]"] ;
150 -> 152 ;
153 [label="gini = 0.0\nsamples = 1\nvalue = [1, 0, 0, 0]"] ;
152 -> 153 ;
154 [label="gini = 0.0\nsamples = 1\nvalue = [0, 0, 1, 0]"] ;
152 -> 154 ;
155 [label="gini = 0.0\nsamples = 9\nvalue = [12, 0, 0, 0]"] ;
149 -> 155 ;
156 [label="gini = 0.0\nsamples = 21\nvalue = [33, 0, 0, 0]"] ;
148 -> 156 ;
157 [label="X[2] <= 0.4583\ngini = 0.3328\nsamples = 18\nvalue = [20, 4, 1, 0]"] ;
135 -> 157 ;
158 [label="X[0] <= 0.2851\ngini = 0.1769\nsamples = 15\nvalue = [19, 1, 1, 0]"] ;
157 -> 158 ;
159 [label="gini = 0.0\nsamples = 1\nvalue = [0, 1, 0, 0]"] ;
158 -> 159 ;
160 [label="X[6] <= 0.354\ngini = 0.095\nsamples = 14\nvalue = [19, 0, 1, 0]"] ;
158 -> 160 ;
161 [label="gini = 0.0\nsamples = 12\nvalue = [17, 0, 0, 0]"] ;
160 -> 161 ;
162 [label="X[2] <= 0.3038\ngini = 0.4444\nsamples = 2\nvalue = [2, 0, 1, 0]"] ;
160 -> 162 ;
163 [label="gini = 0.0\nsamples = 1\nvalue = [0, 0, 1, 0]"] ;
162 -> 163 ;
164 [label="gini = 0.0\nsamples = 1\nvalue = [2, 0, 0, 0]"] ;
162 -> 164 ;
165 [label="X[5] <= 0.2674\ngini = 0.375\nsamples = 3\nvalue = [1, 3, 0, 0]"] ;
157 -> 165 ;
166 [label="gini = 0.0\nsamples = 2\nvalue = [0, 3, 0, 0]"] ;
165 -> 166 ;
167 [label="gini = 0.0\nsamples = 1\nvalue = [1, 0, 0, 0]"] ;
165 -> 167 ;
168 [label="X[3] <= 0.4258\ngini = 0.4994\nsamples = 17\nvalue = [15, 14, 0, 0]"] ;
26 -> 168 ;
169 [label="X[4] <= 0.2975\ngini = 0.4082\nsamples = 7\nvalue = [4, 10, 0, 0]"] ;
168 -> 169 ;
170 [label="gini = 0.0\nsamples = 2\nvalue = [3, 0, 0, 0]"] ;
169 -> 170 ;
171 [label="X[3] <= 0.3653\ngini = 0.1653\nsamples = 5\nvalue = [1, 10, 0, 0]"] ;
169 -> 171 ;
172 [label="gini = 0.0\nsamples = 3\nvalue = [0, 8, 0, 0]"] ;
171 -> 172 ;
173 [label="X[4] <= 0.405\ngini = 0.4444\nsamples = 2\nvalue = [1, 2, 0, 0]"] ;
171 -> 173 ;
174 [label="gini = 0.0\nsamples = 1\nvalue = [0, 2, 0, 0]"] ;
173 -> 174 ;
175 [label="gini = 0.0\nsamples = 1\nvalue = [1, 0, 0, 0]"] ;
173 -> 175 ;
176 [label="X[4] <= 0.4091\ngini = 0.3911\nsamples = 10\nvalue = [11, 4, 0, 0]"] ;
168 -> 176 ;
177 [label="gini = 0.0\nsamples = 8\nvalue = [11, 0, 0, 0]"] ;
176 -> 177 ;
178 [label="gini = 0.0\nsamples = 2\nvalue = [0, 4, 0, 0]"] ;
176 -> 178 ;
179 [label="X[2] <= 0.1701\ngini = 0.1256\nsamples = 124\nvalue = [180, 13, 0, 0]"] ;
25 -> 179 ;
180 [label="X[6] <= 0.2743\ngini = 0.2301\nsamples = 67\nvalue = [85, 13, 0, 0]"] ;
179 -> 180 ;
181 [label="X[5] <= 0.2006\ngini = 0.0435\nsamples = 31\nvalue = [44, 1, 0, 0]"] ;
180 -> 181 ;
182 [label="X[2] <= 0.059\ngini = 0.2449\nsamples = 5\nvalue = [6, 1, 0, 0]"] ;
181 -> 182 ;
183 [label="gini = 0.0\nsamples = 1\nvalue = [0, 1, 0, 0]"] ;
182 -> 183 ;
184 [label="gini = 0.0\nsamples = 4\nvalue = [6, 0, 0, 0]"] ;
182 -> 184 ;
185 [label="gini = 0.0\nsamples = 26\nvalue = [38, 0, 0, 0]"] ;
181 -> 185 ;
186 [label="X[6] <= 0.4159\ngini = 0.3503\nsamples = 36\nvalue = [41, 12, 0, 0]"] ;
180 -> 186 ;
187 [label="X[6] <= 0.3805\ngini = 0.32\nsamples = 34\nvalue = [40, 10, 0, 0]"] ;
186 -> 187 ;
188 [label="X[2] <= 0.1389\ngini = 0.3813\nsamples = 27\nvalue = [29, 10, 0, 0]"] ;
187 -> 188 ;
189 [label="X[2] <= 0.066\ngini = 0.3122\nsamples = 21\nvalue = [25, 6, 0, 0]"] ;
188 -> 189 ;
190 [label="X[0] <= 0.3202\ngini = 0.4861\nsamples = 9\nvalue = [7, 5, 0, 0]"] ;
189 -> 190 ;
191 [label="gini = 0.0\nsamples = 3\nvalue = [0, 4, 0, 0]"] ;
190 -> 191 ;
192 [label="X[0] <= 0.6009\ngini = 0.2188\nsamples = 6\nvalue = [7, 1, 0, 0]"] ;
190 -> 192 ;
193 [label="gini = 0.0\nsamples = 3\nvalue = [4, 0, 0, 0]"] ;
192 -> 193 ;
194 [label="X[4] <= 0.3264\ngini = 0.375\nsamples = 3\nvalue = [3, 1, 0, 0]"] ;
192 -> 194 ;
195 [label="X[5] <= 0.3517\ngini = 0.5\nsamples = 2\nvalue = [1, 1, 0, 0]"] ;
194 -> 195 ;
196 [label="gini = 0.0\nsamples = 1\nvalue = [1, 0, 0, 0]"] ;
195 -> 196 ;
197 [label="gini = 0.0\nsamples = 1\nvalue = [0, 1, 0, 0]"] ;
195 -> 197 ;
198 [label="gini = 0.0\nsamples = 1\nvalue = [2, 0, 0, 0]"] ;
194 -> 198 ;
199 [label="X[4] <= 0.562\ngini = 0.0997\nsamples = 12\nvalue = [18, 1, 0, 0]"] ;
189 -> 199 ;
200 [label="gini = 0.0\nsamples = 11\nvalue = [18, 0, 0, 0]"] ;
199 -> 200 ;
201 [label="gini = 0.0\nsamples = 1\nvalue = [0, 1, 0, 0]"] ;
199 -> 201 ;
202 [label="X[6] <= 0.3097\ngini = 0.5\nsamples = 6\nvalue = [4, 4, 0, 0]"] ;
188 -> 202 ;
203 [label="gini = 0.0\nsamples = 2\nvalue = [0, 3, 0, 0]"] ;
202 -> 203 ;
204 [label="X[5] <= 0.311\ngini = 0.32\nsamples = 4\nvalue = [4, 1, 0, 0]"] ;
202 -> 204 ;
205 [label="gini = 0.0\nsamples = 3\nvalue = [4, 0, 0, 0]"] ;
204 -> 205 ;
206 [label="gini = 0.0\nsamples = 1\nvalue = [0, 1, 0, 0]"] ;
204 -> 206 ;
207 [label="gini = 0.0\nsamples = 7\nvalue = [11, 0, 0, 0]"] ;
187 -> 207 ;
208 [label="X[5] <= 0.2558\ngini = 0.4444\nsamples = 2\nvalue = [1, 2, 0, 0]"] ;
186 -> 208 ;
209 [label="gini = 0.0\nsamples = 1\nvalue = [1, 0, 0, 0]"] ;
208 -> 209 ;
210 [label="gini = 0.0\nsamples = 1\nvalue = [0, 2, 0, 0]"] ;
208 -> 210 ;
211 [label="gini = 0.0\nsamples = 57\nvalue = [95, 0, 0, 0]"] ;
179 -> 211 ;
212 [label="gini = 0.0\nsamples = 3\nvalue = [0, 5, 0, 0]"] ;
24 -> 212 ;
213 [label="X[6] <= 0.7743\ngini = 0.5417\nsamples = 557\nvalue = [467, 336, 50, 0]"] ;
15 -> 213 ;
214 [label="X[1] <= 0.3\ngini = 0.5107\nsamples = 479\nvalue = [436, 271, 28, 0]"] ;
213 -> 214 ;
215 [label="X[5] <= 0.2645\ngini = 0.5262\nsamples = 392\nvalue = [336, 240, 25, 0]"] ;
214 -> 215 ;
216 [label="X[6] <= 0.6991\ngini = 0.5142\nsamples = 350\nvalue = [320, 194, 24, 0]"] ;
215 -> 216 ;
217 [label="X[4] <= 0.3678\ngini = 0.5199\nsamples = 280\nvalue = [245, 170, 16, 0]"] ;
216 -> 217 ;
218 [label="X[5] <= 0.0552\ngini = 0.4733\nsamples = 177\nvalue = [182, 95, 6, 0]"] ;
217 -> 218 ;
219 [label="X[0] <= 0.3289\ngini = 0.3911\nsamples = 9\nvalue = [4, 11, 0, 0]"] ;
218 -> 219 ;
220 [label="X[3] <= 0.2874\ngini = 0.1528\nsamples = 7\nvalue = [1, 11, 0, 0]"] ;
219 -> 220 ;
221 [label="gini = 0.0\nsamples = 6\nvalue = [0, 11, 0, 0]"] ;
220 -> 221 ;
222 [label="gini = 0.0\nsamples = 1\nvalue = [1, 0, 0, 0]"] ;
220 -> 222 ;
223 [label="gini = 0.0\nsamples = 2\nvalue = [3, 0, 0, 0]"] ;
219 -> 223 ;
224 [label="X[3] <= 0.1413\ngini = 0.4601\nsamples = 168\nvalue = [178, 84, 6, 0]"] ;
218 -> 224 ;
225 [label="X[5] <= 0.0785\ngini = 0.5161\nsamples = 41\nvalue = [30, 29, 1, 0]"] ;
224 -> 225 ;
226 [label="gini = 0.0\nsamples = 4\nvalue = [8, 0, 0, 0]"] ;
225 -> 226 ;
227 [label="X[4] <= 0.1488\ngini = 0.5096\nsamples = 37\nvalue = [22, 29, 1, 0]"] ;
225 -> 227 ;
228 [label="gini = 0.0\nsamples = 3\nvalue = [5, 0, 0, 0]"] ;
227 -> 228 ;
229 [label="X[4] <= 0.186\ngini = 0.488\nsamples = 34\nvalue = [17, 29, 1, 0]"] ;
227 -> 229 ;
230 [label="gini = 0.0\nsamples = 5\nvalue = [0, 8, 0, 0]"] ;
229 -> 230 ;
231 [label="X[2] <= 0.3455\ngini = 0.5194\nsamples = 29\nvalue = [17, 21, 1, 0]"] ;
229 -> 231 ;
232 [label="X[4] <= 0.2273\ngini = 0.4444\nsamples = 21\nvalue = [10, 20, 0, 0]"] ;
231 -> 232 ;
233 [label="gini = 0.0\nsamples = 5\nvalue = [5, 0, 0, 0]"] ;
232 -> 233 ;
234 [label="X[6] <= 0.5575\ngini = 0.32\nsamples = 16\nvalue = [5, 20, 0, 0]"] ;
232 -> 234 ;
235 [label="X[1] <= 0.0526\ngini = 0.48\nsamples = 5\nvalue = [3, 2, 0, 0]"] ;
234 -> 235 ;
236 [label="gini = 0.0\nsamples = 1\nvalue = [0, 1, 0, 0]"] ;
235 -> 236 ;
237 [label="X[3] <= 0.1256\ngini = 0.375\nsamples = 4\nvalue = [3, 1, 0, 0]"] ;
235 -> 237 ;
238 [label="gini = 0.0\nsamples = 2\nvalue = [2, 0, 0, 0]"] ;
237 -> 238 ;
239 [label="X[0] <= 0.1667\ngini = 0.5\nsamples = 2\nvalue = [1, 1, 0, 0]"] ;
237 -> 239 ;
240 [label="gini = 0.0\nsamples = 1\nvalue = [0, 1, 0, 0]"] ;
239 -> 240 ;
241 [label="gini = 0.0\nsamples = 1\nvalue = [1, 0, 0, 0]"] ;
239 -> 241 ;
242 [label="X[1] <= 0.0842\ngini = 0.18\nsamples = 11\nvalue = [2, 18, 0, 0]"] ;
234 -> 242 ;
243 [label="gini = 0.0\nsamples = 1\nvalue = [1, 0, 0, 0]"] ;
242 -> 243 ;
244 [label="X[3] <= 0.108\ngini = 0.0997\nsamples = 10\nvalue = [1, 18, 0, 0]"] ;
242 -> 244 ;
245 [label="X[1] <= 0.1737\ngini = 0.375\nsamples = 2\nvalue = [1, 3, 0, 0]"] ;
244 -> 245 ;
246 [label="gini = 0.0\nsamples = 1\nvalue = [0, 3, 0, 0]"] ;
245 -> 246 ;
247 [label="gini = 0.0\nsamples = 1\nvalue = [1, 0, 0, 0]"] ;
245 -> 247 ;
248 [label="gini = 0.0\nsamples = 8\nvalue = [0, 15, 0, 0]"] ;
244 -> 248 ;
249 [label="X[6] <= 0.646\ngini = 0.3704\nsamples = 8\nvalue = [7, 1, 1, 0]"] ;
231 -> 249 ;
250 [label="gini = 0.0\nsamples = 4\nvalue = [5, 0, 0, 0]"] ;
249 -> 250 ;
251 [label="X[6] <= 0.6726\ngini = 0.625\nsamples = 4\nvalue = [2, 1, 1, 0]"] ;
249 -> 251 ;
252 [label="X[0] <= 0.2325\ngini = 0.5\nsamples = 2\nvalue = [0, 1, 1, 0]"] ;
251 -> 252 ;
253 [label="gini = 0.0\nsamples = 1\nvalue = [0, 0, 1, 0]"] ;
252 -> 253 ;
254 [label="gini = 0.0\nsamples = 1\nvalue = [0, 1, 0, 0]"] ;
252 -> 254 ;
255 [label="gini = 0.0\nsamples = 2\nvalue = [2, 0, 0, 0]"] ;
251 -> 255 ;
256 [label="X[0] <= 0.3816\ngini = 0.4232\nsamples = 127\nvalue = [148, 55, 5, 0]"] ;
224 -> 256 ;
257 [label="X[0] <= 0.3114\ngini = 0.383\nsamples = 120\nvalue = [148, 45, 4, 0]"] ;
256 -> 257 ;
258 [label="X[6] <= 0.5398\ngini = 0.4334\nsamples = 97\nvalue = [110, 43, 4, 0]"] ;
257 -> 258 ;
259 [label="X[3] <= 0.2186\ngini = 0.3055\nsamples = 65\nvalue = [82, 19, 0, 0]"] ;
258 -> 259 ;
260 [label="X[1] <= 0.1105\ngini = 0.1862\nsamples = 47\nvalue = [69, 8, 0, 0]"] ;
259 -> 260 ;
261 [label="X[5] <= 0.1134\ngini = 0.3829\nsamples = 19\nvalue = [23, 8, 0, 0]"] ;
260 -> 261 ;
262 [label="X[4] <= 0.3182\ngini = 0.48\nsamples = 3\nvalue = [2, 3, 0, 0]"] ;
261 -> 262 ;
263 [label="gini = 0.0\nsamples = 2\nvalue = [0, 3, 0, 0]"] ;
262 -> 263 ;
264 [label="gini = 0.0\nsamples = 1\nvalue = [2, 0, 0, 0]"] ;
262 -> 264 ;
265 [label="X[1] <= 0.0474\ngini = 0.3107\nsamples = 16\nvalue = [21, 5, 0, 0]"] ;
261 -> 265 ;
266 [label="gini = 0.0\nsamples = 1\nvalue = [0, 1, 0, 0]"] ;
265 -> 266 ;
267 [label="X[0] <= 0.25\ngini = 0.2688\nsamples = 15\nvalue = [21, 4, 0, 0]"] ;
265 -> 267 ;
268 [label="X[0] <= 0.2325\ngini = 0.0907\nsamples = 12\nvalue = [20, 1, 0, 0]"] ;
267 -> 268 ;
269 [label="gini = 0.0\nsamples = 9\nvalue = [18, 0, 0, 0]"] ;
268 -> 269 ;
270 [label="X[6] <= 0.5133\ngini = 0.4444\nsamples = 3\nvalue = [2, 1, 0, 0]"] ;
268 -> 270 ;
271 [label="X[4] <= 0.157\ngini = 0.5\nsamples = 2\nvalue = [1, 1, 0, 0]"] ;
270 -> 271 ;
272 [label="gini = 0.0\nsamples = 1\nvalue = [1, 0, 0, 0]"] ;
271 -> 272 ;
273 [label="gini = 0.0\nsamples = 1\nvalue = [0, 1, 0, 0]"] ;
271 -> 273 ;
274 [label="gini = 0.0\nsamples = 1\nvalue = [1, 0, 0, 0]"] ;
270 -> 274 ;
275 [label="X[4] <= 0.343\ngini = 0.375\nsamples = 3\nvalue = [1, 3, 0, 0]"] ;
267 -> 275 ;
276 [label="gini = 0.0\nsamples = 2\nvalue = [0, 3, 0, 0]"] ;
275 -> 276 ;
277 [label="gini = 0.0\nsamples = 1\nvalue = [1, 0, 0, 0]"] ;
275 -> 277 ;
278 [label="gini = 0.0\nsamples = 28\nvalue = [46, 0, 0, 0]"] ;
260 -> 278 ;
279 [label="X[1] <= 0.1316\ngini = 0.4965\nsamples = 18\nvalue = [13, 11, 0, 0]"] ;
259 -> 279 ;
280 [label="X[2] <= 0.3559\ngini = 0.355\nsamples = 8\nvalue = [3, 10, 0, 0]"] ;
279 -> 280 ;
281 [label="X[0] <= 0.1842\ngini = 0.5\nsamples = 4\nvalue = [3, 3, 0, 0]"] ;
280 -> 281 ;
282 [label="gini = 0.0\nsamples = 2\nvalue = [3, 0, 0, 0]"] ;
281 -> 282 ;
283 [label="gini = 0.0\nsamples = 2\nvalue = [0, 3, 0, 0]"] ;
281 -> 283 ;
284 [label="gini = 0.0\nsamples = 4\nvalue = [0, 7, 0, 0]"] ;
280 -> 284 ;
285 [label="X[0] <= 0.1623\ngini = 0.1653\nsamples = 10\nvalue = [10, 1, 0, 0]"] ;
279 -> 285 ;
286 [label="gini = 0.0\nsamples = 1\nvalue = [0, 1, 0, 0]"] ;
285 -> 286 ;
287 [label="gini = 0.0\nsamples = 9\nvalue = [10, 0, 0, 0]"] ;
285 -> 287 ;
288 [label="X[6] <= 0.6637\ngini = 0.5612\nsamples = 32\nvalue = [28, 24, 4, 0]"] ;
258 -> 288 ;
289 [label="X[4] <= 0.2107\ngini = 0.5698\nsamples = 27\nvalue = [21, 24, 4, 0]"] ;
288 -> 289 ;
290 [label="gini = 0.0\nsamples = 5\nvalue = [0, 10, 0, 0]"] ;
289 -> 290 ;
291 [label="X[5] <= 0.064\ngini = 0.5707\nsamples = 22\nvalue = [21, 14, 4, 0]"] ;
289 -> 291 ;
292 [label="gini = 0.0\nsamples = 1\nvalue = [0, 0, 3, 0]"] ;
291 -> 292 ;
293 [label="X[6] <= 0.6106\ngini = 0.5077\nsamples = 21\nvalue = [21, 14, 1, 0]"] ;
291 -> 293 ;
294 [label="X[1] <= 0.2237\ngini = 0.254\nsamples = 11\nvalue = [18, 2, 1, 0]"] ;
293 -> 294 ;
295 [label="X[5] <= 0.1744\ngini = 0.1172\nsamples = 8\nvalue = [15, 0, 1, 0]"] ;
294 -> 295 ;
296 [label="gini = 0.0\nsamples = 6\nvalue = [11, 0, 0, 0]"] ;
295 -> 296 ;
297 [label="X[4] <= 0.314\ngini = 0.32\nsamples = 2\nvalue = [4, 0, 1, 0]"] ;
295 -> 297 ;
298 [label="gini = 0.0\nsamples = 1\nvalue = [4, 0, 0, 0]"] ;
297 -> 298 ;
299 [label="gini = 0.0\nsamples = 1\nvalue = [0, 0, 1, 0]"] ;
297 -> 299 ;
300 [label="X[5] <= 0.125\ngini = 0.48\nsamples = 3\nvalue = [3, 2, 0, 0]"] ;
294 -> 300 ;
301 [label="gini = 0.0\nsamples = 2\nvalue = [3, 0, 0, 0]"] ;
300 -> 301 ;
302 [label="gini = 0.0\nsamples = 1\nvalue = [0, 2, 0, 0]"] ;
300 -> 302 ;
303 [label="X[2] <= 0.1979\ngini = 0.32\nsamples = 10\nvalue = [3, 12, 0, 0]"] ;
293 -> 303 ;
304 [label="gini = 0.0\nsamples = 1\nvalue = [2, 0, 0, 0]"] ;
303 -> 304 ;
305 [label="X[5] <= 0.0785\ngini = 0.142\nsamples = 9\nvalue = [1, 12, 0, 0]"] ;
303 -> 305 ;
306 [label="gini = 0.0\nsamples = 1\nvalue = [1, 0, 0, 0]"] ;
305 -> 306 ;
307 [label="gini = 0.0\nsamples = 8\nvalue = [0, 12, 0, 0]"] ;
305 -> 307 ;
308 [label="gini = 0.0\nsamples = 5\nvalue = [7, 0, 0, 0]"] ;
288 -> 308 ;
309 [label="X[6] <= 0.4513\ngini = 0.095\nsamples = 23\nvalue = [38, 2, 0, 0]"] ;
257 -> 309 ;
310 [label="gini = 0.0\nsamples = 1\nvalue = [0, 1, 0, 0]"] ;
309 -> 310 ;
311 [label="X[5] <= 0.1744\ngini = 0.05\nsamples = 22\nvalue = [38, 1, 0, 0]"] ;
309 -> 311 ;
312 [label="gini = 0.0\nsamples = 18\nvalue = [34, 0, 0, 0]"] ;
311 -> 312 ;
313 [label="X[4] <= 0.2355\ngini = 0.32\nsamples = 4\nvalue = [4, 1, 0, 0]"] ;
311 -> 313 ;
314 [label="X[0] <= 0.3684\ngini = 0.5\nsamples = 2\nvalue = [1, 1, 0, 0]"] ;
313 -> 314 ;
315 [label="gini = 0.0\nsamples = 1\nvalue = [1, 0, 0, 0]"] ;
314 -> 315 ;
316 [label="gini = 0.0\nsamples = 1\nvalue = [0, 1, 0, 0]"] ;
314 -> 316 ;
317 [label="gini = 0.0\nsamples = 2\nvalue = [3, 0, 0, 0]"] ;
313 -> 317 ;
318 [label="X[5] <= 0.1977\ngini = 0.1653\nsamples = 7\nvalue = [0, 10, 1, 0]"] ;
256 -> 318 ;
319 [label="gini = 0.0\nsamples = 5\nvalue = [0, 8, 0, 0]"] ;
318 -> 319 ;
320 [label="X[0] <= 0.6842\ngini = 0.4444\nsamples = 2\nvalue = [0, 2, 1, 0]"] ;
318 -> 320 ;
321 [label="gini = 0.0\nsamples = 1\nvalue = [0, 0, 1, 0]"] ;
320 -> 321 ;
322 [label="gini = 0.0\nsamples = 1\nvalue = [0, 2, 0, 0]"] ;
320 -> 322 ;
323 [label="X[3] <= 0.1442\ngini = 0.5574\nsamples = 103\nvalue = [63, 75, 10, 0]"] ;
217 -> 323 ;
324 [label="X[5] <= 0.2064\ngini = 0.4012\nsamples = 13\nvalue = [13, 5, 0, 0]"] ;
323 -> 324 ;
325 [label="X[1] <= 0.1053\ngini = 0.3599\nsamples = 12\nvalue = [13, 4, 0, 0]"] ;
324 -> 325 ;
326 [label="X[0] <= 0.1096\ngini = 0.4444\nsamples = 2\nvalue = [1, 2, 0, 0]"] ;
325 -> 326 ;
327 [label="gini = 0.0\nsamples = 1\nvalue = [0, 2, 0, 0]"] ;
326 -> 327 ;
328 [label="gini = 0.0\nsamples = 1\nvalue = [1, 0, 0, 0]"] ;
326 -> 328 ;
329 [label="X[5] <= 0.1134\ngini = 0.2449\nsamples = 10\nvalue = [12, 2, 0, 0]"] ;
325 -> 329 ;
330 [label="gini = 0.0\nsamples = 3\nvalue = [6, 0, 0, 0]"] ;
329 -> 330 ;
331 [label="X[2] <= 0.3212\ngini = 0.375\nsamples = 7\nvalue = [6, 2, 0, 0]"] ;
329 -> 331 ;
332 [label="gini = 0.0\nsamples = 4\nvalue = [4, 0, 0, 0]"] ;
331 -> 332 ;
333 [label="X[1] <= 0.1526\ngini = 0.5\nsamples = 3\nvalue = [2, 2, 0, 0]"] ;
331 -> 333 ;
334 [label="gini = 0.0\nsamples = 1\nvalue = [2, 0, 0, 0]"] ;
333 -> 334 ;
335 [label="gini = 0.0\nsamples = 2\nvalue = [0, 2, 0, 0]"] ;
333 -> 335 ;
336 [label="gini = 0.0\nsamples = 1\nvalue = [0, 1, 0, 0]"] ;
324 -> 336 ;
337 [label="X[0] <= 0.136\ngini = 0.5562\nsamples = 90\nvalue = [50, 70, 10, 0]"] ;
323 -> 337 ;
338 [label="X[3] <= 0.2898\ngini = 0.595\nsamples = 12\nvalue = [11, 5, 4, 0]"] ;
337 -> 338 ;
339 [label="X[6] <= 0.531\ngini = 0.4913\nsamples = 11\nvalue = [11, 5, 1, 0]"] ;
338 -> 339 ;
340 [label="gini = 0.0\nsamples = 5\nvalue = [7, 0, 0, 0]"] ;
339 -> 340 ;
341 [label="X[1] <= 0.1737\ngini = 0.58\nsamples = 6\nvalue = [4, 5, 1, 0]"] ;
339 -> 341 ;
342 [label="gini = 0.0\nsamples = 2\nvalue = [0, 5, 0, 0]"] ;
341 -> 342 ;
343 [label="X[5] <= 0.0872\ngini = 0.32\nsamples = 4\nvalue = [4, 0, 1, 0]"] ;
341 -> 343 ;
344 [label="gini = 0.0\nsamples = 1\nvalue = [0, 0, 1, 0]"] ;
343 -> 344 ;
345 [label="gini = 0.0\nsamples = 3\nvalue = [4, 0, 0, 0]"] ;
343 -> 345 ;
346 [label="gini = 0.0\nsamples = 1\nvalue = [0, 0, 3, 0]"] ;
338 -> 346 ;
347 [label="X[0] <= 0.2237\ngini = 0.5221\nsamples = 78\nvalue = [39, 65, 6, 0]"] ;
337 -> 347 ;
348 [label="X[4] <= 0.3843\ngini = 0.4398\nsamples = 51\nvalue = [20, 50, 2, 0]"] ;
347 -> 348 ;
349 [label="X[3] <= 0.2007\ngini = 0.1244\nsamples = 7\nvalue = [1, 14, 0, 0]"] ;
348 -> 349 ;
350 [label="gini = 0.0\nsamples = 4\nvalue = [0, 11, 0, 0]"] ;
349 -> 350 ;
351 [label="X[5] <= 0.1599\ngini = 0.375\nsamples = 3\nvalue = [1, 3, 0, 0]"] ;
349 -> 351 ;
352 [label="gini = 0.0\nsamples = 1\nvalue = [1, 0, 0, 0]"] ;
351 -> 352 ;
353 [label="gini = 0.0\nsamples = 2\nvalue = [0, 3, 0, 0]"] ;
351 -> 353 ;
354 [label="X[1] <= 0.1947\ngini = 0.4888\nsamples = 44\nvalue = [19, 36, 2, 0]"] ;
348 -> 354 ;
355 [label="X[5] <= 0.2122\ngini = 0.5201\nsamples = 30\nvalue = [16, 20, 1, 0]"] ;
354 -> 355 ;
356 [label="X[3] <= 0.1636\ngini = 0.4974\nsamples = 25\nvalue = [11, 19, 1, 0]"] ;
355 -> 356 ;
357 [label="X[5] <= 0.064\ngini = 0.1653\nsamples = 7\nvalue = [1, 10, 0, 0]"] ;
356 -> 357 ;
358 [label="gini = 0.0\nsamples = 1\nvalue = [1, 0, 0, 0]"] ;
357 -> 358 ;
359 [label="gini = 0.0\nsamples = 6\nvalue = [0, 10, 0, 0]"] ;
357 -> 359 ;
360 [label="X[3] <= 0.1744\ngini = 0.545\nsamples = 18\nvalue = [10, 9, 1, 0]"] ;
356 -> 360 ;
361 [label="X[2] <= 0.2812\ngini = 0.2778\nsamples = 5\nvalue = [5, 1, 0, 0]"] ;
360 -> 361 ;
362 [label="gini = 0.0\nsamples = 1\nvalue = [0, 1, 0, 0]"] ;
361 -> 362 ;
363 [label="gini = 0.0\nsamples = 4\nvalue = [5, 0, 0, 0]"] ;
361 -> 363 ;
364 [label="X[2] <= 0.4792\ngini = 0.5408\nsamples = 13\nvalue = [5, 8, 1, 0]"] ;
360 -> 364 ;
365 [label="X[1] <= 0.1632\ngini = 0.5785\nsamples = 10\nvalue = [5, 5, 1, 0]"] ;
364 -> 365 ;
366 [label="X[5] <= 0.0785\ngini = 0.5679\nsamples = 8\nvalue = [5, 3, 1, 0]"] ;
365 -> 366 ;
367 [label="X[6] <= 0.531\ngini = 0.5\nsamples = 2\nvalue = [0, 1, 1, 0]"] ;
366 -> 367 ;
368 [label="gini = 0.0\nsamples = 1\nvalue = [0, 0, 1, 0]"] ;
367 -> 368 ;
369 [label="gini = 0.0\nsamples = 1\nvalue = [0, 1, 0, 0]"] ;
367 -> 369 ;
370 [label="X[6] <= 0.4513\ngini = 0.4082\nsamples = 6\nvalue = [5, 2, 0, 0]"] ;
366 -> 370 ;
371 [label="gini = 0.0\nsamples = 1\nvalue = [2, 0, 0, 0]"] ;
370 -> 371 ;
372 [label="X[3] <= 0.1979\ngini = 0.48\nsamples = 5\nvalue = [3, 2, 0, 0]"] ;
370 -> 372 ;
373 [label="X[1] <= 0.0947\ngini = 0.4444\nsamples = 3\nvalue = [1, 2, 0, 0]"] ;
372 -> 373 ;
374 [label="gini = 0.0\nsamples = 1\nvalue = [0, 1, 0, 0]"] ;
373 -> 374 ;
375 [label="X[5] <= 0.1773\ngini = 0.5\nsamples = 2\nvalue = [1, 1, 0, 0]"] ;
373 -> 375 ;
376 [label="gini = 0.0\nsamples = 1\nvalue = [1, 0, 0, 0]"] ;
375 -> 376 ;
377 [label="gini = 0.0\nsamples = 1\nvalue = [0, 1, 0, 0]"] ;
375 -> 377 ;
378 [label="gini = 0.0\nsamples = 2\nvalue = [2, 0, 0, 0]"] ;
372 -> 378 ;
379 [label="gini = 0.0\nsamples = 2\nvalue = [0, 2, 0, 0]"] ;
365 -> 379 ;
380 [label="gini = 0.0\nsamples = 3\nvalue = [0, 3, 0, 0]"] ;
364 -> 380 ;
381 [label="X[1] <= 0.1\ngini = 0.2778\nsamples = 5\nvalue = [5, 1, 0, 0]"] ;
355 -> 381 ;
382 [label="gini = 0.0\nsamples = 1\nvalue = [0, 1, 0, 0]"] ;
381 -> 382 ;
383 [label="gini = 0.0\nsamples = 4\nvalue = [5, 0, 0, 0]"] ;
381 -> 383 ;
384 [label="X[5] <= 0.1744\ngini = 0.335\nsamples = 14\nvalue = [3, 16, 1, 0]"] ;
354 -> 384 ;
385 [label="gini = 0.0\nsamples = 9\nvalue = [0, 13, 0, 0]"] ;
384 -> 385 ;
386 [label="X[3] <= 0.1854\ngini = 0.6122\nsamples = 5\nvalue = [3, 3, 1, 0]"] ;
384 -> 386 ;
387 [label="X[5] <= 0.2035\ngini = 0.375\nsamples = 3\nvalue = [3, 0, 1, 0]"] ;
386 -> 387 ;
388 [label="gini = 0.0\nsamples = 2\nvalue = [3, 0, 0, 0]"] ;
387 -> 388 ;
389 [label="gini = 0.0\nsamples = 1\nvalue = [0, 0, 1, 0]"] ;
387 -> 389 ;
390 [label="gini = 0.0\nsamples = 2\nvalue = [0, 3, 0, 0]"] ;
386 -> 390 ;
391 [label="X[2] <= 0.4774\ngini = 0.5831\nsamples = 27\nvalue = [19, 15, 4, 0]"] ;
347 -> 391 ;
392 [label="X[0] <= 0.3465\ngini = 0.5987\nsamples = 25\nvalue = [14, 15, 4, 0]"] ;
391 -> 392 ;
393 [label="X[5] <= 0.1366\ngini = 0.6035\nsamples = 23\nvalue = [14, 13, 4, 0]"] ;
392 -> 393 ;
394 [label="X[2] <= 0.4497\ngini = 0.6044\nsamples = 10\nvalue = [3, 8, 4, 0]"] ;
393 -> 394 ;
395 [label="X[4] <= 0.376\ngini = 0.642\nsamples = 7\nvalue = [3, 2, 4, 0]"] ;
394 -> 395 ;
396 [label="X[5] <= 0.0814\ngini = 0.375\nsamples = 3\nvalue = [3, 1, 0, 0]"] ;
395 -> 396 ;
397 [label="gini = 0.0\nsamples = 1\nvalue = [2, 0, 0, 0]"] ;
396 -> 397 ;
398 [label="X[5] <= 0.1047\ngini = 0.5\nsamples = 2\nvalue = [1, 1, 0, 0]"] ;
396 -> 398 ;
399 [label="gini = 0.0\nsamples = 1\nvalue = [0, 1, 0, 0]"] ;
398 -> 399 ;
400 [label="gini = 0.0\nsamples = 1\nvalue = [1, 0, 0, 0]"] ;
398 -> 400 ;
401 [label="X[4] <= 0.3926\ngini = 0.32\nsamples = 4\nvalue = [0, 1, 4, 0]"] ;
395 -> 401 ;
402 [label="gini = 0.0\nsamples = 2\nvalue = [0, 0, 3, 0]"] ;
401 -> 402 ;
403 [label="X[3] <= 0.2162\ngini = 0.5\nsamples = 2\nvalue = [0, 1, 1, 0]"] ;
401 -> 403 ;
404 [label="gini = 0.0\nsamples = 1\nvalue = [0, 0, 1, 0]"] ;
403 -> 404 ;
405 [label="gini = 0.0\nsamples = 1\nvalue = [0, 1, 0, 0]"] ;
403 -> 405 ;
406 [label="gini = 0.0\nsamples = 3\nvalue = [0, 6, 0, 0]"] ;
394 -> 406 ;
407 [label="X[1] <= 0.1316\ngini = 0.4297\nsamples = 13\nvalue = [11, 5, 0, 0]"] ;
393 -> 407 ;
408 [label="gini = 0.0\nsamples = 3\nvalue = [5, 0, 0, 0]"] ;
407 -> 408 ;
409 [label="X[0] <= 0.2719\ngini = 0.4959\nsamples = 10\nvalue = [6, 5, 0, 0]"] ;
407 -> 409 ;
410 [label="X[5] <= 0.1512\ngini = 0.4688\nsamples = 7\nvalue = [3, 5, 0, 0]"] ;
409 -> 410 ;
411 [label="gini = 0.0\nsamples = 2\nvalue = [2, 0, 0, 0]"] ;
410 -> 411 ;
412 [label="X[3] <= 0.1754\ngini = 0.2778\nsamples = 5\nvalue = [1, 5, 0, 0]"] ;
410 -> 412 ;
413 [label="X[3] <= 0.1668\ngini = 0.4444\nsamples = 2\nvalue = [1, 2, 0, 0]"] ;
412 -> 413 ;
414 [label="gini = 0.0\nsamples = 1\nvalue = [0, 2, 0, 0]"] ;
413 -> 414 ;
415 [label="gini = 0.0\nsamples = 1\nvalue = [1, 0, 0, 0]"] ;
413 -> 415 ;
416 [label="gini = 0.0\nsamples = 3\nvalue = [0, 3, 0, 0]"] ;
412 -> 416 ;
417 [label="gini = 0.0\nsamples = 3\nvalue = [3, 0, 0, 0]"] ;
409 -> 417 ;
418 [label="gini = 0.0\nsamples = 2\nvalue = [0, 2, 0, 0]"] ;
392 -> 418 ;
419 [label="gini = 0.0\nsamples = 2\nvalue = [5, 0, 0, 0]"] ;
391 -> 419 ;
420 [label="X[4] <= 0.4917\ngini = 0.4528\nsamples = 70\nvalue = [75, 24, 8, 0]"] ;
216 -> 420 ;
421 [label="X[1] <= 0.2895\ngini = 0.4236\nsamples = 67\nvalue = [75, 21, 7, 0]"] ;
420 -> 421 ;
422 [label="X[1] <= 0.2158\ngini = 0.4002\nsamples = 66\nvalue = [75, 18, 7, 0]"] ;
421 -> 422 ;
423 [label="X[3] <= 0.3025\ngini = 0.3098\nsamples = 45\nvalue = [59, 9, 4, 0]"] ;
422 -> 423 ;
424 [label="X[4] <= 0.1074\ngini = 0.2763\nsamples = 44\nvalue = [59, 7, 4, 0]"] ;
423 -> 424 ;
425 [label="gini = 0.0\nsamples = 1\nvalue = [0, 1, 0, 0]"] ;
424 -> 425 ;
426 [label="X[5] <= 0.1541\ngini = 0.2579\nsamples = 43\nvalue = [59, 6, 4, 0]"] ;
424 -> 426 ;
427 [label="X[4] <= 0.3595\ngini = 0.3571\nsamples = 29\nvalue = [33, 6, 3, 0]"] ;
426 -> 427 ;
428 [label="X[0] <= 0.2588\ngini = 0.2449\nsamples = 18\nvalue = [25, 1, 3, 0]"] ;
427 -> 428 ;
429 [label="X[0] <= 0.2412\ngini = 0.4615\nsamples = 8\nvalue = [9, 1, 3, 0]"] ;
428 -> 429 ;
430 [label="X[2] <= 0.401\ngini = 0.18\nsamples = 6\nvalue = [9, 1, 0, 0]"] ;
429 -> 430 ;
431 [label="gini = 0.0\nsamples = 5\nvalue = [9, 0, 0, 0]"] ;
430 -> 431 ;
432 [label="gini = 0.0\nsamples = 1\nvalue = [0, 1, 0, 0]"] ;
430 -> 432 ;
433 [label="gini = 0.0\nsamples = 2\nvalue = [0, 0, 3, 0]"] ;
429 -> 433 ;
434 [label="gini = 0.0\nsamples = 10\nvalue = [16, 0, 0, 0]"] ;
428 -> 434 ;
435 [label="X[1] <= 0.1737\ngini = 0.4734\nsamples = 11\nvalue = [8, 5, 0, 0]"] ;
427 -> 435 ;
436 [label="X[4] <= 0.4463\ngini = 0.4688\nsamples = 7\nvalue = [3, 5, 0, 0]"] ;
435 -> 436 ;
437 [label="X[0] <= 0.2149\ngini = 0.32\nsamples = 4\nvalue = [1, 4, 0, 0]"] ;
436 -> 437 ;
438 [label="gini = 0.0\nsamples = 1\nvalue = [1, 0, 0, 0]"] ;
437 -> 438 ;
439 [label="gini = 0.0\nsamples = 3\nvalue = [0, 4, 0, 0]"] ;
437 -> 439 ;
440 [label="X[6] <= 0.7345\ngini = 0.4444\nsamples = 3\nvalue = [2, 1, 0, 0]"] ;
436 -> 440 ;
441 [label="gini = 0.0\nsamples = 1\nvalue = [0, 1, 0, 0]"] ;
440 -> 441 ;
442 [label="gini = 0.0\nsamples = 2\nvalue = [2, 0, 0, 0]"] ;
440 -> 442 ;
443 [label="gini = 0.0\nsamples = 4\nvalue = [5, 0, 0, 0]"] ;
435 -> 443 ;
444 [label="X[3] <= 0.1757\ngini = 0.0713\nsamples = 14\nvalue = [26, 0, 1, 0]"] ;
426 -> 444 ;
445 [label="gini = 0.0\nsamples = 11\nvalue = [20, 0, 0, 0]"] ;
444 -> 445 ;
446 [label="X[5] <= 0.2006\ngini = 0.2449\nsamples = 3\nvalue = [6, 0, 1, 0]"] ;
444 -> 446 ;
447 [label="gini = 0.0\nsamples = 2\nvalue = [6, 0, 0, 0]"] ;
446 -> 447 ;
448 [label="gini = 0.0\nsamples = 1\nvalue = [0, 0, 1, 0]"] ;
446 -> 448 ;
449 [label="gini = 0.0\nsamples = 1\nvalue = [0, 2, 0, 0]"] ;
423 -> 449 ;
450 [label="X[5] <= 0.1948\ngini = 0.5587\nsamples = 21\nvalue = [16, 9, 3, 0]"] ;
422 -> 450 ;
451 [label="X[6] <= 0.7168\ngini = 0.4082\nsamples = 15\nvalue = [15, 6, 0, 0]"] ;
450 -> 451 ;
452 [label="gini = 0.0\nsamples = 2\nvalue = [0, 2, 0, 0]"] ;
451 -> 452 ;
453 [label="X[1] <= 0.2368\ngini = 0.3324\nsamples = 13\nvalue = [15, 4, 0, 0]"] ;
451 -> 453 ;
454 [label="X[1] <= 0.2263\ngini = 0.32\nsamples = 3\nvalue = [1, 4, 0, 0]"] ;
453 -> 454 ;
455 [label="gini = 0.0\nsamples = 1\nvalue = [0, 2, 0, 0]"] ;
454 -> 455 ;
456 [label="X[0] <= 0.1754\ngini = 0.4444\nsamples = 2\nvalue = [1, 2, 0, 0]"] ;
454 -> 456 ;
457 [label="gini = 0.0\nsamples = 1\nvalue = [0, 2, 0, 0]"] ;
456 -> 457 ;
458 [label="gini = 0.0\nsamples = 1\nvalue = [1, 0, 0, 0]"] ;
456 -> 458 ;
459 [label="gini = 0.0\nsamples = 10\nvalue = [14, 0, 0, 0]"] ;
453 -> 459 ;
460 [label="X[2] <= 0.3073\ngini = 0.6122\nsamples = 6\nvalue = [1, 3, 3, 0]"] ;
450 -> 460 ;
461 [label="X[2] <= 0.1892\ngini = 0.375\nsamples = 4\nvalue = [1, 3, 0, 0]"] ;
460 -> 461 ;
462 [label="gini = 0.0\nsamples = 1\nvalue = [1, 0, 0, 0]"] ;
461 -> 462 ;
463 [label="gini = 0.0\nsamples = 3\nvalue = [0, 3, 0, 0]"] ;
461 -> 463 ;
464 [label="gini = 0.0\nsamples = 2\nvalue = [0, 0, 3, 0]"] ;
460 -> 464 ;
465 [label="gini = 0.0\nsamples = 1\nvalue = [0, 3, 0, 0]"] ;
421 -> 465 ;
466 [label="X[5] <= 0.2035\ngini = 0.375\nsamples = 3\nvalue = [0, 3, 1, 0]"] ;
420 -> 466 ;
467 [label="gini = 0.0\nsamples = 2\nvalue = [0, 3, 0, 0]"] ;
466 -> 467 ;
468 [label="gini = 0.0\nsamples = 1\nvalue = [0, 0, 1, 0]"] ;
466 -> 468 ;
469 [label="X[0] <= 0.1053\ngini = 0.4021\nsamples = 42\nvalue = [16, 46, 1, 0]"] ;
215 -> 469 ;
470 [label="gini = 0.0\nsamples = 1\nvalue = [2, 0, 0, 0]"] ;
469 -> 470 ;
471 [label="X[4] <= 0.2025\ngini = 0.3784\nsamples = 41\nvalue = [14, 46, 1, 0]"] ;
469 -> 471 ;
472 [label="gini = 0.0\nsamples = 2\nvalue = [2, 0, 0, 0]"] ;
471 -> 472 ;
473 [label="X[3] <= 0.1791\ngini = 0.3505\nsamples = 39\nvalue = [12, 46, 1, 0]"] ;
471 -> 473 ;
474 [label="gini = 0.0\nsamples = 10\nvalue = [0, 16, 0, 0]"] ;
473 -> 474 ;
475 [label="X[3] <= 0.1916\ngini = 0.4348\nsamples = 29\nvalue = [12, 30, 1, 0]"] ;
473 -> 475 ;
476 [label="gini = 0.0\nsamples = 2\nvalue = [4, 0, 0, 0]"] ;
475 -> 476 ;
477 [label="X[0] <= 0.3289\ngini = 0.3655\nsamples = 27\nvalue = [8, 30, 1, 0]"] ;
475 -> 477 ;
478 [label="X[4] <= 0.5041\ngini = 0.4802\nsamples = 16\nvalue = [7, 15, 1, 0]"] ;
477 -> 478 ;
479 [label="X[2] <= 0.2378\ngini = 0.4082\nsamples = 14\nvalue = [6, 15, 0, 0]"] ;
478 -> 479 ;
480 [label="X[0] <= 0.2544\ngini = 0.4938\nsamples = 7\nvalue = [5, 4, 0, 0]"] ;
479 -> 480 ;
481 [label="gini = 0.0\nsamples = 1\nvalue = [0, 2, 0, 0]"] ;
480 -> 481 ;
482 [label="X[4] <= 0.438\ngini = 0.4082\nsamples = 6\nvalue = [5, 2, 0, 0]"] ;
480 -> 482 ;
483 [label="X[1] <= 0.2263\ngini = 0.4444\nsamples = 3\nvalue = [1, 2, 0, 0]"] ;
482 -> 483 ;
484 [label="gini = 0.0\nsamples = 2\nvalue = [0, 2, 0, 0]"] ;
483 -> 484 ;
485 [label="gini = 0.0\nsamples = 1\nvalue = [1, 0, 0, 0]"] ;
483 -> 485 ;
486 [label="gini = 0.0\nsamples = 3\nvalue = [4, 0, 0, 0]"] ;
482 -> 486 ;
487 [label="X[4] <= 0.2934\ngini = 0.1528\nsamples = 7\nvalue = [1, 11, 0, 0]"] ;
479 -> 487 ;
488 [label="gini = 0.0\nsamples = 1\nvalue = [1, 0, 0, 0]"] ;
487 -> 488 ;
489 [label="gini = 0.0\nsamples = 6\nvalue = [0, 11, 0, 0]"] ;
487 -> 489 ;
490 [label="X[1] <= 0.1421\ngini = 0.5\nsamples = 2\nvalue = [1, 0, 1, 0]"] ;
478 -> 490 ;
491 [label="gini = 0.0\nsamples = 1\nvalue = [0, 0, 1, 0]"] ;
490 -> 491 ;
492 [label="gini = 0.0\nsamples = 1\nvalue = [1, 0, 0, 0]"] ;
490 -> 492 ;
493 [label="X[3] <= 0.5145\ngini = 0.1172\nsamples = 11\nvalue = [1, 15, 0, 0]"] ;
477 -> 493 ;
494 [label="gini = 0.0\nsamples = 10\nvalue = [0, 15, 0, 0]"] ;
493 -> 494 ;
495 [label="gini = 0.0\nsamples = 1\nvalue = [1, 0, 0, 0]"] ;
493 -> 495 ;
496 [label="X[4] <= 0.3843\ngini = 0.3891\nsamples = 87\nvalue = [100, 31, 3, 0]"] ;
214 -> 496 ;
497 [label="X[6] <= 0.4779\ngini = 0.5263\nsamples = 37\nvalue = [32, 20, 3, 0]"] ;
496 -> 497 ;
498 [label="gini = 0.0\nsamples = 6\nvalue = [10, 0, 0, 0]"] ;
497 -> 498 ;
499 [label="X[4] <= 0.2686\ngini = 0.559\nsamples = 31\nvalue = [22, 20, 3, 0]"] ;
497 -> 499 ;
500 [label="X[3] <= 0.6288\ngini = 0.2778\nsamples = 8\nvalue = [10, 2, 0, 0]"] ;
499 -> 500 ;
501 [label="gini = 0.0\nsamples = 7\nvalue = [10, 0, 0, 0]"] ;
500 -> 501 ;
502 [label="gini = 0.0\nsamples = 1\nvalue = [0, 2, 0, 0]"] ;
500 -> 502 ;
503 [label="X[6] <= 0.5398\ngini = 0.562\nsamples = 23\nvalue = [12, 18, 3, 0]"] ;
499 -> 503 ;
504 [label="X[5] <= 0.2238\ngini = 0.6111\nsamples = 5\nvalue = [3, 1, 2, 0]"] ;
503 -> 504 ;
505 [label="X[4] <= 0.3719\ngini = 0.5\nsamples = 2\nvalue = [1, 1, 0, 0]"] ;
504 -> 505 ;
506 [label="gini = 0.0\nsamples = 1\nvalue = [1, 0, 0, 0]"] ;
505 -> 506 ;
507 [label="gini = 0.0\nsamples = 1\nvalue = [0, 1, 0, 0]"] ;
505 -> 507 ;
508 [label="X[4] <= 0.3512\ngini = 0.5\nsamples = 3\nvalue = [2, 0, 2, 0]"] ;
504 -> 508 ;
509 [label="gini = 0.0\nsamples = 2\nvalue = [2, 0, 0, 0]"] ;
508 -> 509 ;
510 [label="gini = 0.0\nsamples = 1\nvalue = [0, 0, 2, 0]"] ;
508 -> 510 ;
511 [label="X[1] <= 0.3632\ngini = 0.4911\nsamples = 18\nvalue = [9, 17, 1, 0]"] ;
503 -> 511 ;
512 [label="X[6] <= 0.6549\ngini = 0.4444\nsamples = 6\nvalue = [6, 3, 0, 0]"] ;
511 -> 512 ;
513 [label="X[5] <= 0.3547\ngini = 0.48\nsamples = 3\nvalue = [2, 3, 0, 0]"] ;
512 -> 513 ;
514 [label="gini = 0.0\nsamples = 2\nvalue = [0, 3, 0, 0]"] ;
513 -> 514 ;
515 [label="gini = 0.0\nsamples = 1\nvalue = [2, 0, 0, 0]"] ;
513 -> 515 ;
516 [label="gini = 0.0\nsamples = 3\nvalue = [4, 0, 0, 0]"] ;
512 -> 516 ;
517 [label="X[6] <= 0.7434\ngini = 0.3642\nsamples = 12\nvalue = [3, 14, 1, 0]"] ;
511 -> 517 ;
518 [label="X[4] <= 0.2893\ngini = 0.2907\nsamples = 11\nvalue = [3, 14, 0, 0]"] ;
517 -> 518 ;
519 [label="gini = 0.0\nsamples = 3\nvalue = [0, 6, 0, 0]"] ;
518 -> 519 ;
520 [label="X[1] <= 0.4263\ngini = 0.3967\nsamples = 8\nvalue = [3, 8, 0, 0]"] ;
518 -> 520 ;
521 [label="gini = 0.0\nsamples = 5\nvalue = [0, 6, 0, 0]"] ;
520 -> 521 ;
522 [label="X[6] <= 0.6549\ngini = 0.48\nsamples = 3\nvalue = [3, 2, 0, 0]"] ;
520 -> 522 ;
523 [label="gini = 0.0\nsamples = 2\nvalue = [3, 0, 0, 0]"] ;
522 -> 523 ;
524 [label="gini = 0.0\nsamples = 1\nvalue = [0, 2, 0, 0]"] ;
522 -> 524 ;
525 [label="gini = 0.0\nsamples = 1\nvalue = [0, 0, 1, 0]"] ;
517 -> 525 ;
526 [label="X[3] <= 0.4607\ngini = 0.2397\nsamples = 50\nvalue = [68, 11, 0, 0]"] ;
496 -> 526 ;
527 [label="X[4] <= 0.5248\ngini = 0.2064\nsamples = 49\nvalue = [68, 9, 0, 0]"] ;
526 -> 527 ;
528 [label="X[5] <= 0.1047\ngini = 0.0815\nsamples = 29\nvalue = [45, 2, 0, 0]"] ;
527 -> 528 ;
529 [label="X[5] <= 0.0843\ngini = 0.4444\nsamples = 3\nvalue = [1, 2, 0, 0]"] ;
528 -> 529 ;
530 [label="gini = 0.0\nsamples = 1\nvalue = [1, 0, 0, 0]"] ;
529 -> 530 ;
531 [label="gini = 0.0\nsamples = 2\nvalue = [0, 2, 0, 0]"] ;
529 -> 531 ;
532 [label="gini = 0.0\nsamples = 26\nvalue = [44, 0, 0, 0]"] ;
528 -> 532 ;
533 [label="X[3] <= 0.3073\ngini = 0.3578\nsamples = 20\nvalue = [23, 7, 0, 0]"] ;
527 -> 533 ;
534 [label="gini = 0.0\nsamples = 9\nvalue = [13, 0, 0, 0]"] ;
533 -> 534 ;
535 [label="X[3] <= 0.3386\ngini = 0.4844\nsamples = 11\nvalue = [10, 7, 0, 0]"] ;
533 -> 535 ;
536 [label="gini = 0.0\nsamples = 2\nvalue = [0, 3, 0, 0]"] ;
535 -> 536 ;
537 [label="X[2] <= 0.0851\ngini = 0.4082\nsamples = 9\nvalue = [10, 4, 0, 0]"] ;
535 -> 537 ;
538 [label="gini = 0.0\nsamples = 4\nvalue = [7, 0, 0, 0]"] ;
537 -> 538 ;
539 [label="X[4] <= 0.657\ngini = 0.4898\nsamples = 5\nvalue = [3, 4, 0, 0]"] ;
537 -> 539 ;
540 [label="X[1] <= 0.7105\ngini = 0.32\nsamples = 4\nvalue = [1, 4, 0, 0]"] ;
539 -> 540 ;
541 [label="X[1] <= 0.5816\ngini = 0.5\nsamples = 2\nvalue = [1, 1, 0, 0]"] ;
540 -> 541 ;
542 [label="gini = 0.0\nsamples = 1\nvalue = [0, 1, 0, 0]"] ;
541 -> 542 ;
543 [label="gini = 0.0\nsamples = 1\nvalue = [1, 0, 0, 0]"] ;
541 -> 543 ;
544 [label="gini = 0.0\nsamples = 2\nvalue = [0, 3, 0, 0]"] ;
540 -> 544 ;
545 [label="gini = 0.0\nsamples = 1\nvalue = [2, 0, 0, 0]"] ;
539 -> 545 ;
546 [label="gini = 0.0\nsamples = 1\nvalue = [0, 2, 0, 0]"] ;
526 -> 546 ;
547 [label="X[2] <= 0.1354\ngini = 0.5928\nsamples = 78\nvalue = [31, 65, 22, 0]"] ;
213 -> 547 ;
548 [label="X[5] <= 0.3459\ngini = 0.595\nsamples = 6\nvalue = [6, 2, 3, 0]"] ;
547 -> 548 ;
549 [label="X[2] <= 0.0399\ngini = 0.4938\nsamples = 5\nvalue = [6, 2, 1, 0]"] ;
548 -> 549 ;
550 [label="X[2] <= 0.0295\ngini = 0.4444\nsamples = 2\nvalue = [0, 2, 1, 0]"] ;
549 -> 550 ;
551 [label="gini = 0.0\nsamples = 1\nvalue = [0, 2, 0, 0]"] ;
550 -> 551 ;
552 [label="gini = 0.0\nsamples = 1\nvalue = [0, 0, 1, 0]"] ;
550 -> 552 ;
553 [label="gini = 0.0\nsamples = 3\nvalue = [6, 0, 0, 0]"] ;
549 -> 553 ;
554 [label="gini = 0.0\nsamples = 1\nvalue = [0, 0, 2, 0]"] ;
548 -> 554 ;
555 [label="X[6] <= 0.9823\ngini = 0.5672\nsamples = 72\nvalue = [25, 63, 19, 0]"] ;
547 -> 555 ;
556 [label="X[6] <= 0.8584\ngini = 0.5447\nsamples = 68\nvalue = [24, 62, 15, 0]"] ;
555 -> 556 ;
557 [label="X[0] <= 0.1535\ngini = 0.6019\nsamples = 43\nvalue = [21, 35, 11, 0]"] ;
556 -> 557 ;
558 [label="X[1] <= 0.6605\ngini = 0.3984\nsamples = 10\nvalue = [1, 12, 3, 0]"] ;
557 -> 558 ;
559 [label="X[4] <= 0.4793\ngini = 0.2551\nsamples = 9\nvalue = [1, 12, 1, 0]"] ;
558 -> 559 ;
560 [label="X[4] <= 0.4008\ngini = 0.625\nsamples = 4\nvalue = [1, 2, 1, 0]"] ;
559 -> 560 ;
561 [label="X[1] <= 0.0947\ngini = 0.4444\nsamples = 3\nvalue = [0, 2, 1, 0]"] ;
560 -> 561 ;
562 [label="gini = 0.0\nsamples = 1\nvalue = [0, 0, 1, 0]"] ;
561 -> 562 ;
563 [label="gini = 0.0\nsamples = 2\nvalue = [0, 2, 0, 0]"] ;
561 -> 563 ;
564 [label="gini = 0.0\nsamples = 1\nvalue = [1, 0, 0, 0]"] ;
560 -> 564 ;
565 [label="gini = 0.0\nsamples = 5\nvalue = [0, 10, 0, 0]"] ;
559 -> 565 ;
566 [label="gini = 0.0\nsamples = 1\nvalue = [0, 0, 2, 0]"] ;
558 -> 566 ;
567 [label="X[1] <= 0.4368\ngini = 0.6182\nsamples = 33\nvalue = [20, 23, 8, 0]"] ;
557 -> 567 ;
568 [label="X[3] <= 0.126\ngini = 0.6134\nsamples = 31\nvalue = [15, 23, 8, 0]"] ;
567 -> 568 ;
569 [label="X[4] <= 0.3719\ngini = 0.6352\nsamples = 14\nvalue = [11, 6, 6, 0]"] ;
568 -> 569 ;
570 [label="X[2] <= 0.3958\ngini = 0.5494\nsamples = 10\nvalue = [11, 3, 4, 0]"] ;
569 -> 570 ;
571 [label="X[2] <= 0.3472\ngini = 0.4609\nsamples = 8\nvalue = [11, 1, 4, 0]"] ;
570 -> 571 ;
572 [label="X[1] <= 0.1737\ngini = 0.5926\nsamples = 5\nvalue = [4, 1, 4, 0]"] ;
571 -> 572 ;
573 [label="gini = 0.0\nsamples = 2\nvalue = [0, 0, 4, 0]"] ;
572 -> 573 ;
574 [label="X[5] <= 0.1424\ngini = 0.32\nsamples = 3\nvalue = [4, 1, 0, 0]"] ;
572 -> 574 ;
575 [label="gini = 0.0\nsamples = 1\nvalue = [0, 1, 0, 0]"] ;
574 -> 575 ;
576 [label="gini = 0.0\nsamples = 2\nvalue = [4, 0, 0, 0]"] ;
574 -> 576 ;
577 [label="gini = 0.0\nsamples = 3\nvalue = [7, 0, 0, 0]"] ;
571 -> 577 ;
578 [label="gini = 0.0\nsamples = 2\nvalue = [0, 2, 0, 0]"] ;
570 -> 578 ;
579 [label="X[3] <= 0.0803\ngini = 0.48\nsamples = 4\nvalue = [0, 3, 2, 0]"] ;
569 -> 579 ;
580 [label="gini = 0.0\nsamples = 1\nvalue = [0, 0, 2, 0]"] ;
579 -> 580 ;
581 [label="gini = 0.0\nsamples = 3\nvalue = [0, 3, 0, 0]"] ;
579 -> 581 ;
582 [label="X[0] <= 0.2588\ngini = 0.4159\nsamples = 17\nvalue = [4, 17, 2, 0]"] ;
568 -> 582 ;
583 [label="gini = 0.0\nsamples = 6\nvalue = [0, 9, 0, 0]"] ;
582 -> 583 ;
584 [label="X[5] <= 0.1192\ngini = 0.5714\nsamples = 11\nvalue = [4, 8, 2, 0]"] ;
582 -> 584 ;
585 [label="X[0] <= 0.3246\ngini = 0.375\nsamples = 4\nvalue = [3, 1, 0, 0]"] ;
584 -> 585 ;
586 [label="gini = 0.0\nsamples = 2\nvalue = [2, 0, 0, 0]"] ;
585 -> 586 ;
587 [label="X[3] <= 0.2454\ngini = 0.5\nsamples = 2\nvalue = [1, 1, 0, 0]"] ;
585 -> 587 ;
588 [label="gini = 0.0\nsamples = 1\nvalue = [0, 1, 0, 0]"] ;
587 -> 588 ;
589 [label="gini = 0.0\nsamples = 1\nvalue = [1, 0, 0, 0]"] ;
587 -> 589 ;
590 [label="X[5] <= 0.2442\ngini = 0.46\nsamples = 7\nvalue = [1, 7, 2, 0]"] ;
584 -> 590 ;
591 [label="X[4] <= 0.3967\ngini = 0.3457\nsamples = 6\nvalue = [0, 7, 2, 0]"] ;
590 -> 591 ;
592 [label="X[2] <= 0.3576\ngini = 0.2188\nsamples = 5\nvalue = [0, 7, 1, 0]"] ;
591 -> 592 ;
593 [label="gini = 0.0\nsamples = 1\nvalue = [0, 0, 1, 0]"] ;
592 -> 593 ;
594 [label="gini = 0.0\nsamples = 4\nvalue = [0, 7, 0, 0]"] ;
592 -> 594 ;
595 [label="gini = 0.0\nsamples = 1\nvalue = [0, 0, 1, 0]"] ;
591 -> 595 ;
596 [label="gini = 0.0\nsamples = 1\nvalue = [1, 0, 0, 0]"] ;
590 -> 596 ;
597 [label="gini = 0.0\nsamples = 2\nvalue = [5, 0, 0, 0]"] ;
567 -> 597 ;
598 [label="X[5] <= 0.0291\ngini = 0.3478\nsamples = 25\nvalue = [3, 27, 4, 0]"] ;
556 -> 598 ;
599 [label="X[2] <= 0.3976\ngini = 0.375\nsamples = 3\nvalue = [1, 0, 3, 0]"] ;
598 -> 599 ;
600 [label="gini = 0.0\nsamples = 2\nvalue = [0, 0, 3, 0]"] ;
599 -> 600 ;
601 [label="gini = 0.0\nsamples = 1\nvalue = [1, 0, 0, 0]"] ;
599 -> 601 ;
602 [label="X[0] <= 0.1184\ngini = 0.1844\nsamples = 22\nvalue = [2, 27, 1, 0]"] ;
598 -> 602 ;
603 [label="X[6] <= 0.9351\ngini = 0.6111\nsamples = 5\nvalue = [2, 3, 1, 0]"] ;
602 -> 603 ;
604 [label="X[0] <= 0.1009\ngini = 0.56\nsamples = 4\nvalue = [1, 3, 1, 0]"] ;
603 -> 604 ;
605 [label="gini = 0.0\nsamples = 2\nvalue = [0, 3, 0, 0]"] ;
604 -> 605 ;
606 [label="X[6] <= 0.8982\ngini = 0.5\nsamples = 2\nvalue = [1, 0, 1, 0]"] ;
604 -> 606 ;
607 [label="gini = 0.0\nsamples = 1\nvalue = [0, 0, 1, 0]"] ;
606 -> 607 ;
608 [label="gini = 0.0\nsamples = 1\nvalue = [1, 0, 0, 0]"] ;
606 -> 608 ;
609 [label="gini = 0.0\nsamples = 1\nvalue = [1, 0, 0, 0]"] ;
603 -> 609 ;
610 [label="gini = 0.0\nsamples = 17\nvalue = [0, 24, 0, 0]"] ;
602 -> 610 ;
611 [label="X[3] <= 0.1606\ngini = 0.5\nsamples = 4\nvalue = [1, 1, 4, 0]"] ;
555 -> 611 ;
612 [label="X[0] <= 0.1272\ngini = 0.32\nsamples = 3\nvalue = [1, 0, 4, 0]"] ;
611 -> 612 ;
613 [label="gini = 0.0\nsamples = 2\nvalue = [0, 0, 4, 0]"] ;
612 -> 613 ;
614 [label="gini = 0.0\nsamples = 1\nvalue = [1, 0, 0, 0]"] ;
612 -> 614 ;
615 [label="gini = 0.0\nsamples = 1\nvalue = [0, 1, 0, 0]"] ;
611 -> 615 ;
616 [label="X[4] <= 0.4835\ngini = 0.3132\nsamples = 286\nvalue = [363, 73, 11, 0]"] ;
0 -> 616 [labeldistance=2.5, labelangle=-45, headlabel="False"] ;
617 [label="X[3] <= 0.4709\ngini = 0.2605\nsamples = 252\nvalue = [333, 52, 7, 0]"] ;
616 -> 617 ;
618 [label="X[1] <= 0.0526\ngini = 0.1763\nsamples = 190\nvalue = [272, 25, 4, 0]"] ;
617 -> 618 ;
619 [label="gini = 0.0\nsamples = 1\nvalue = [0, 2, 0, 0]"] ;
618 -> 619 ;
620 [label="X[0] <= 0.1272\ngini = 0.1664\nsamples = 189\nvalue = [272, 23, 4, 0]"] ;
618 -> 620 ;
621 [label="X[6] <= 0.3274\ngini = 0.2449\nsamples = 3\nvalue = [1, 6, 0, 0]"] ;
620 -> 621 ;
622 [label="gini = 0.0\nsamples = 1\nvalue = [1, 0, 0, 0]"] ;
621 -> 622 ;
623 [label="gini = 0.0\nsamples = 2\nvalue = [0, 6, 0, 0]"] ;
621 -> 623 ;
624 [label="X[5] <= 0.2907\ngini = 0.1351\nsamples = 186\nvalue = [271, 17, 4, 0]"] ;
620 -> 624 ;
625 [label="X[3] <= 0.1407\ngini = 0.1131\nsamples = 181\nvalue = [269, 13, 4, 0]"] ;
624 -> 625 ;
626 [label="X[4] <= 0.2769\ngini = 0.4444\nsamples = 3\nvalue = [1, 2, 0, 0]"] ;
625 -> 626 ;
627 [label="gini = 0.0\nsamples = 1\nvalue = [1, 0, 0, 0]"] ;
626 -> 627 ;
628 [label="gini = 0.0\nsamples = 2\nvalue = [0, 2, 0, 0]"] ;
626 -> 628 ;
629 [label="X[5] <= 0.0494\ngini = 0.1015\nsamples = 178\nvalue = [268, 11, 4, 0]"] ;
625 -> 629 ;
630 [label="X[1] <= 0.1421\ngini = 0.5\nsamples = 4\nvalue = [2, 2, 0, 0]"] ;
629 -> 630 ;
631 [label="gini = 0.0\nsamples = 2\nvalue = [2, 0, 0, 0]"] ;
630 -> 631 ;
632 [label="gini = 0.0\nsamples = 2\nvalue = [0, 2, 0, 0]"] ;
630 -> 632 ;
633 [label="X[2] <= 0.9201\ngini = 0.0898\nsamples = 174\nvalue = [266, 9, 4, 0]"] ;
629 -> 633 ;
634 [label="X[6] <= 0.4867\ngini = 0.0834\nsamples = 173\nvalue = [266, 8, 4, 0]"] ;
633 -> 634 ;
635 [label="X[4] <= 0.1529\ngini = 0.0512\nsamples = 140\nvalue = [223, 5, 1, 0]"] ;
634 -> 635 ;
636 [label="X[3] <= 0.4627\ngini = 0.1723\nsamples = 11\nvalue = [19, 2, 0, 0]"] ;
635 -> 636 ;
637 [label="gini = 0.0\nsamples = 7\nvalue = [16, 0, 0, 0]"] ;
636 -> 637 ;
638 [label="X[2] <= 0.6267\ngini = 0.48\nsamples = 4\nvalue = [3, 2, 0, 0]"] ;
636 -> 638 ;
639 [label="gini = 0.0\nsamples = 1\nvalue = [2, 0, 0, 0]"] ;
638 -> 639 ;
640 [label="X[0] <= 0.2719\ngini = 0.4444\nsamples = 3\nvalue = [1, 2, 0, 0]"] ;
638 -> 640 ;
641 [label="gini = 0.0\nsamples = 2\nvalue = [0, 2, 0, 0]"] ;
640 -> 641 ;
642 [label="gini = 0.0\nsamples = 1\nvalue = [1, 0, 0, 0]"] ;
640 -> 642 ;
643 [label="X[1] <= 0.0895\ngini = 0.0379\nsamples = 129\nvalue = [204, 3, 1, 0]"] ;
635 -> 643 ;
644 [label="X[5] <= 0.1047\ngini = 0.1327\nsamples = 7\nvalue = [13, 0, 1, 0]"] ;
643 -> 644 ;
645 [label="gini = 0.0\nsamples = 1\nvalue = [0, 0, 1, 0]"] ;
644 -> 645 ;
646 [label="gini = 0.0\nsamples = 6\nvalue = [13, 0, 0, 0]"] ;
644 -> 646 ;
647 [label="X[3] <= 0.2195\ngini = 0.0304\nsamples = 122\nvalue = [191, 3, 0, 0]"] ;
643 -> 647 ;
648 [label="X[6] <= 0.4071\ngini = 0.2449\nsamples = 5\nvalue = [6, 1, 0, 0]"] ;
647 -> 648 ;
649 [label="gini = 0.0\nsamples = 1\nvalue = [0, 1, 0, 0]"] ;
648 -> 649 ;
650 [label="gini = 0.0\nsamples = 4\nvalue = [6, 0, 0, 0]"] ;
648 -> 650 ;
651 [label="X[4] <= 0.4421\ngini = 0.0212\nsamples = 117\nvalue = [185, 2, 0, 0]"] ;
647 -> 651 ;
652 [label="X[0] <= 0.3289\ngini = 0.0112\nsamples = 111\nvalue = [177, 1, 0, 0]"] ;
651 -> 652 ;
653 [label="gini = 0.0\nsamples = 105\nvalue = [169, 0, 0, 0]"] ;
652 -> 653 ;
654 [label="X[0] <= 0.3377\ngini = 0.1975\nsamples = 6\nvalue = [8, 1, 0, 0]"] ;
652 -> 654 ;
655 [label="X[2] <= 0.5885\ngini = 0.5\nsamples = 2\nvalue = [1, 1, 0, 0]"] ;
654 -> 655 ;
656 [label="gini = 0.0\nsamples = 1\nvalue = [1, 0, 0, 0]"] ;
655 -> 656 ;
657 [label="gini = 0.0\nsamples = 1\nvalue = [0, 1, 0, 0]"] ;
655 -> 657 ;
658 [label="gini = 0.0\nsamples = 4\nvalue = [7, 0, 0, 0]"] ;
654 -> 658 ;
659 [label="X[6] <= 0.3628\ngini = 0.1975\nsamples = 6\nvalue = [8, 1, 0, 0]"] ;
651 -> 659 ;
660 [label="gini = 0.0\nsamples = 4\nvalue = [7, 0, 0, 0]"] ;
659 -> 660 ;
661 [label="X[3] <= 0.3181\ngini = 0.5\nsamples = 2\nvalue = [1, 1, 0, 0]"] ;
659 -> 661 ;
662 [label="gini = 0.0\nsamples = 1\nvalue = [1, 0, 0, 0]"] ;
661 -> 662 ;
663 [label="gini = 0.0\nsamples = 1\nvalue = [0, 1, 0, 0]"] ;
661 -> 663 ;
664 [label="X[0] <= 0.2939\ngini = 0.2224\nsamples = 33\nvalue = [43, 3, 3, 0]"] ;
634 -> 664 ;
665 [label="gini = 0.0\nsamples = 23\nvalue = [36, 0, 0, 0]"] ;
664 -> 665 ;
666 [label="X[5] <= 0.0901\ngini = 0.6036\nsamples = 10\nvalue = [7, 3, 3, 0]"] ;
664 -> 666 ;
667 [label="X[5] <= 0.0756\ngini = 0.5\nsamples = 5\nvalue = [3, 0, 3, 0]"] ;
666 -> 667 ;
668 [label="gini = 0.0\nsamples = 3\nvalue = [3, 0, 0, 0]"] ;
667 -> 668 ;
669 [label="gini = 0.0\nsamples = 2\nvalue = [0, 0, 3, 0]"] ;
667 -> 669 ;
670 [label="X[0] <= 0.3465\ngini = 0.4898\nsamples = 5\nvalue = [4, 3, 0, 0]"] ;
666 -> 670 ;
671 [label="X[2] <= 0.599\ngini = 0.375\nsamples = 4\nvalue = [1, 3, 0, 0]"] ;
670 -> 671 ;
672 [label="gini = 0.0\nsamples = 3\nvalue = [0, 3, 0, 0]"] ;
671 -> 672 ;
673 [label="gini = 0.0\nsamples = 1\nvalue = [1, 0, 0, 0]"] ;
671 -> 673 ;
674 [label="gini = 0.0\nsamples = 1\nvalue = [3, 0, 0, 0]"] ;
670 -> 674 ;
675 [label="gini = 0.0\nsamples = 1\nvalue = [0, 1, 0, 0]"] ;
633 -> 675 ;
676 [label="X[4] <= 0.2975\ngini = 0.4444\nsamples = 5\nvalue = [2, 4, 0, 0]"] ;
624 -> 676 ;
677 [label="gini = 0.0\nsamples = 4\nvalue = [0, 4, 0, 0]"] ;
676 -> 677 ;
678 [label="gini = 0.0\nsamples = 1\nvalue = [2, 0, 0, 0]"] ;
676 -> 678 ;
679 [label="X[2] <= 0.5365\ngini = 0.4615\nsamples = 62\nvalue = [61, 27, 3, 0]"] ;
617 -> 679 ;
680 [label="gini = 0.0\nsamples = 7\nvalue = [12, 0, 0, 0]"] ;
679 -> 680 ;
681 [label="X[3] <= 0.4957\ngini = 0.497\nsamples = 55\nvalue = [49, 27, 3, 0]"] ;
679 -> 681 ;
682 [label="X[1] <= 0.1947\ngini = 0.4082\nsamples = 19\nvalue = [8, 20, 0, 0]"] ;
681 -> 682 ;
683 [label="X[5] <= 0.1134\ngini = 0.2778\nsamples = 16\nvalue = [4, 20, 0, 0]"] ;
682 -> 683 ;
684 [label="gini = 0.0\nsamples = 1\nvalue = [1, 0, 0, 0]"] ;
683 -> 684 ;
685 [label="X[0] <= 0.3202\ngini = 0.2268\nsamples = 15\nvalue = [3, 20, 0, 0]"] ;
683 -> 685 ;
686 [label="X[0] <= 0.2763\ngini = 0.1653\nsamples = 14\nvalue = [2, 20, 0, 0]"] ;
685 -> 686 ;
687 [label="gini = 0.0\nsamples = 7\nvalue = [0, 12, 0, 0]"] ;
686 -> 687 ;
688 [label="X[5] <= 0.1541\ngini = 0.32\nsamples = 7\nvalue = [2, 8, 0, 0]"] ;
686 -> 688 ;
689 [label="gini = 0.0\nsamples = 5\nvalue = [0, 8, 0, 0]"] ;
688 -> 689 ;
690 [label="gini = 0.0\nsamples = 2\nvalue = [2, 0, 0, 0]"] ;
688 -> 690 ;
691 [label="gini = 0.0\nsamples = 1\nvalue = [1, 0, 0, 0]"] ;
685 -> 691 ;
692 [label="gini = 0.0\nsamples = 3\nvalue = [4, 0, 0, 0]"] ;
682 -> 692 ;
693 [label="X[6] <= 0.0531\ngini = 0.3314\nsamples = 36\nvalue = [41, 7, 3, 0]"] ;
681 -> 693 ;
694 [label="gini = 0.0\nsamples = 1\nvalue = [0, 1, 0, 0]"] ;
693 -> 694 ;
695 [label="X[5] <= 0.1424\ngini = 0.3096\nsamples = 35\nvalue = [41, 6, 3, 0]"] ;
693 -> 695 ;
696 [label="X[4] <= 0.2851\ngini = 0.5124\nsamples = 8\nvalue = [7, 1, 3, 0]"] ;
695 -> 696 ;
697 [label="X[4] <= 0.2273\ngini = 0.6122\nsamples = 5\nvalue = [3, 1, 3, 0]"] ;
696 -> 697 ;
698 [label="gini = 0.0\nsamples = 2\nvalue = [3, 0, 0, 0]"] ;
697 -> 698 ;
699 [label="X[4] <= 0.2727\ngini = 0.375\nsamples = 3\nvalue = [0, 1, 3, 0]"] ;
697 -> 699 ;
700 [label="gini = 0.0\nsamples = 1\nvalue = [0, 1, 0, 0]"] ;
699 -> 700 ;
701 [label="gini = 0.0\nsamples = 2\nvalue = [0, 0, 3, 0]"] ;
699 -> 701 ;
702 [label="gini = 0.0\nsamples = 3\nvalue = [4, 0, 0, 0]"] ;
696 -> 702 ;
703 [label="X[2] <= 0.5608\ngini = 0.2235\nsamples = 27\nvalue = [34, 5, 0, 0]"] ;
695 -> 703 ;
704 [label="gini = 0.0\nsamples = 1\nvalue = [0, 1, 0, 0]"] ;
703 -> 704 ;
705 [label="X[4] <= 0.4008\ngini = 0.1884\nsamples = 26\nvalue = [34, 4, 0, 0]"] ;
703 -> 705 ;
706 [label="X[5] <= 0.1599\ngini = 0.0713\nsamples = 18\nvalue = [26, 1, 0, 0]"] ;
705 -> 706 ;
707 [label="X[0] <= 0.2851\ngini = 0.2188\nsamples = 6\nvalue = [7, 1, 0, 0]"] ;
706 -> 707 ;
708 [label="gini = 0.0\nsamples = 4\nvalue = [6, 0, 0, 0]"] ;
707 -> 708 ;
709 [label="X[2] <= 0.6753\ngini = 0.5\nsamples = 2\nvalue = [1, 1, 0, 0]"] ;
707 -> 709 ;
710 [label="gini = 0.0\nsamples = 1\nvalue = [0, 1, 0, 0]"] ;
709 -> 710 ;
711 [label="gini = 0.0\nsamples = 1\nvalue = [1, 0, 0, 0]"] ;
709 -> 711 ;
712 [label="gini = 0.0\nsamples = 12\nvalue = [19, 0, 0, 0]"] ;
706 -> 712 ;
713 [label="X[0] <= 0.2412\ngini = 0.3967\nsamples = 8\nvalue = [8, 3, 0, 0]"] ;
705 -> 713 ;
714 [label="gini = 0.0\nsamples = 1\nvalue = [0, 1, 0, 0]"] ;
713 -> 714 ;
715 [label="X[6] <= 0.115\ngini = 0.32\nsamples = 7\nvalue = [8, 2, 0, 0]"] ;
713 -> 715 ;
716 [label="gini = 0.0\nsamples = 6\nvalue = [8, 0, 0, 0]"] ;
715 -> 716 ;
717 [label="gini = 0.0\nsamples = 1\nvalue = [0, 2, 0, 0]"] ;
715 -> 717 ;
718 [label="X[3] <= 0.3971\ngini = 0.5514\nsamples = 34\nvalue = [30, 21, 4, 0]"] ;
616 -> 718 ;
719 [label="X[1] <= 0.4368\ngini = 0.5806\nsamples = 25\nvalue = [17, 20, 4, 0]"] ;
718 -> 719 ;
720 [label="X[3] <= 0.372\ngini = 0.5444\nsamples = 24\nvalue = [17, 20, 2, 0]"] ;
719 -> 720 ;
721 [label="X[3] <= 0.1545\ngini = 0.551\nsamples = 21\nvalue = [17, 14, 2, 0]"] ;
720 -> 721 ;
722 [label="gini = 0.0\nsamples = 3\nvalue = [0, 5, 0, 0]"] ;
721 -> 722 ;
723 [label="X[1] <= 0.1158\ngini = 0.523\nsamples = 18\nvalue = [17, 9, 2, 0]"] ;
721 -> 723 ;
724 [label="X[5] <= 0.093\ngini = 0.4082\nsamples = 5\nvalue = [2, 5, 0, 0]"] ;
723 -> 724 ;
725 [label="gini = 0.0\nsamples = 1\nvalue = [1, 0, 0, 0]"] ;
724 -> 725 ;
726 [label="X[5] <= 0.1424\ngini = 0.2778\nsamples = 4\nvalue = [1, 5, 0, 0]"] ;
724 -> 726 ;
727 [label="gini = 0.0\nsamples = 3\nvalue = [0, 5, 0, 0]"] ;
726 -> 727 ;
728 [label="gini = 0.0\nsamples = 1\nvalue = [1, 0, 0, 0]"] ;
726 -> 728 ;
729 [label="X[2] <= 0.5208\ngini = 0.4444\nsamples = 13\nvalue = [15, 4, 2, 0]"] ;
723 -> 729 ;
730 [label="gini = 0.0\nsamples = 1\nvalue = [0, 2, 0, 0]"] ;
729 -> 730 ;
731 [label="X[1] <= 0.2263\ngini = 0.3546\nsamples = 12\nvalue = [15, 2, 2, 0]"] ;
729 -> 731 ;
732 [label="gini = 0.0\nsamples = 7\nvalue = [12, 0, 0, 0]"] ;
731 -> 732 ;
733 [label="X[0] <= 0.1535\ngini = 0.6531\nsamples = 5\nvalue = [3, 2, 2, 0]"] ;
731 -> 733 ;
734 [label="gini = 0.0\nsamples = 2\nvalue = [0, 2, 0, 0]"] ;
733 -> 734 ;
735 [label="X[5] <= 0.1366\ngini = 0.48\nsamples = 3\nvalue = [3, 0, 2, 0]"] ;
733 -> 735 ;
736 [label="gini = 0.0\nsamples = 1\nvalue = [0, 0, 2, 0]"] ;
735 -> 736 ;
737 [label="gini = 0.0\nsamples = 2\nvalue = [3, 0, 0, 0]"] ;
735 -> 737 ;
738 [label="gini = 0.0\nsamples = 3\nvalue = [0, 6, 0, 0]"] ;
720 -> 738 ;
739 [label="gini = 0.0\nsamples = 1\nvalue = [0, 0, 2, 0]"] ;
719 -> 739 ;
740 [label="X[1] <= 0.1316\ngini = 0.1327\nsamples = 9\nvalue = [13, 1, 0, 0]"] ;
718 -> 740 ;
741 [label="X[6] <= 0.2566\ngini = 0.375\nsamples = 4\nvalue = [3, 1, 0, 0]"] ;
740 -> 741 ;
742 [label="X[3] <= 0.4637\ngini = 0.5\nsamples = 2\nvalue = [1, 1, 0, 0]"] ;
741 -> 742 ;
743 [label="gini = 0.0\nsamples = 1\nvalue = [1, 0, 0, 0]"] ;
742 -> 743 ;
744 [label="gini = 0.0\nsamples = 1\nvalue = [0, 1, 0, 0]"] ;
742 -> 744 ;
745 [label="gini = 0.0\nsamples = 2\nvalue = [2, 0, 0, 0]"] ;
741 -> 745 ;
746 [label="gini = 0.0\nsamples = 5\nvalue = [10, 0, 0, 0]"] ;
740 -> 746 ;
}