digraph Tree {
node [shape=box] ;
0 [label="X[2] <= 0.4983\ngini = 0.4667\nsamples = 1254\nvalue = [1313, 558, 85, 1]"] ;
1 [label="X[1] <= 0.4263\ngini = 0.4937\nsamples = 942\nvalue = [932, 480, 63, 1]"] ;
0 -> 1 [labeldistance=2.5, labelangle=45, headlabel="True"] ;
2 [label="X[6] <= 0.4336\ngini = 0.5073\nsamples = 807\nvalue = [772, 441, 55, 1]"] ;
1 -> 2 ;
3 [label="X[0] <= 0.2149\ngini = 0.3214\nsamples = 297\nvalue = [377, 80, 10, 1]"] ;
2 -> 3 ;
4 [label="X[5] <= 0.2645\ngini = 0.184\nsamples = 104\nvalue = [151, 15, 2, 0]"] ;
3 -> 4 ;
5 [label="X[6] <= 0.3038\ngini = 0.142\nsamples = 98\nvalue = [146, 10, 2, 0]"] ;
4 -> 5 ;
6 [label="gini = 0.0\nsamples = 45\nvalue = [73, 0, 0, 0]"] ;
5 -> 6 ;
7 [label="X[4] <= 0.3967\ngini = 0.248\nsamples = 53\nvalue = [73, 10, 2, 0]"] ;
5 -> 7 ;
8 [label="X[6] <= 0.3628\ngini = 0.0997\nsamples = 21\nvalue = [36, 2, 0, 0]"] ;
7 -> 8 ;
9 [label="X[3] <= 0.2747\ngini = 0.3457\nsamples = 6\nvalue = [7, 2, 0, 0]"] ;
8 -> 9 ;
10 [label="gini = 0.0\nsamples = 1\nvalue = [0, 2, 0, 0]"] ;
9 -> 10 ;
11 [label="gini = 0.0\nsamples = 5\nvalue = [7, 0, 0, 0]"] ;
9 -> 11 ;
12 [label="gini = 0.0\nsamples = 15\nvalue = [29, 0, 0, 0]"] ;
8 -> 12 ;
13 [label="X[2] <= 0.3941\ngini = 0.3495\nsamples = 32\nvalue = [37, 8, 2, 0]"] ;
7 -> 13 ;
14 [label="X[2] <= 0.3611\ngini = 0.4511\nsamples = 20\nvalue = [21, 7, 2, 0]"] ;
13 -> 14 ;
15 [label="X[2] <= 0.2899\ngini = 0.18\nsamples = 13\nvalue = [18, 2, 0, 0]"] ;
14 -> 15 ;
16 [label="X[6] <= 0.3673\ngini = 0.4082\nsamples = 4\nvalue = [5, 2, 0, 0]"] ;
15 -> 16 ;
17 [label="X[1] <= 0.1158\ngini = 0.2778\nsamples = 3\nvalue = [5, 1, 0, 0]"] ;
16 -> 17 ;
18 [label="gini = 0.0\nsamples = 2\nvalue = [5, 0, 0, 0]"] ;
17 -> 18 ;
19 [label="gini = 0.0\nsamples = 1\nvalue = [0, 1, 0, 0]"] ;
17 -> 19 ;
20 [label="gini = 0.0\nsamples = 1\nvalue = [0, 1, 0, 0]"] ;
16 -> 20 ;
21 [label="gini = 0.0\nsamples = 9\nvalue = [13, 0, 0, 0]"] ;
15 -> 21 ;
22 [label="X[6] <= 0.3304\ngini = 0.62\nsamples = 7\nvalue = [3, 5, 2, 0]"] ;
14 -> 22 ;
23 [label="gini = 0.0\nsamples = 1\nvalue = [0, 2, 0, 0]"] ;
22 -> 23 ;
24 [label="X[2] <= 0.3767\ngini = 0.6562\nsamples = 6\nvalue = [3, 3, 2, 0]"] ;
22 -> 24 ;
25 [label="X[0] <= 0.1447\ngini = 0.375\nsamples = 3\nvalue = [3, 1, 0, 0]"] ;
24 -> 25 ;
26 [label="gini = 0.0\nsamples = 1\nvalue = [2, 0, 0, 0]"] ;
25 -> 26 ;
27 [label="X[5] <= 0.1948\ngini = 0.5\nsamples = 2\nvalue = [1, 1, 0, 0]"] ;
25 -> 27 ;
28 [label="gini = 0.0\nsamples = 1\nvalue = [0, 1, 0, 0]"] ;
27 -> 28 ;
29 [label="gini = 0.0\nsamples = 1\nvalue = [1, 0, 0, 0]"] ;
27 -> 29 ;
30 [label="X[0] <= 0.136\ngini = 0.5\nsamples = 3\nvalue = [0, 2, 2, 0]"] ;
24 -> 30 ;
31 [label="gini = 0.0\nsamples = 1\nvalue = [0, 1, 0, 0]"] ;
30 -> 31 ;
32 [label="X[0] <= 0.1711\ngini = 0.4444\nsamples = 2\nvalue = [0, 1, 2, 0]"] ;
30 -> 32 ;
33 [label="gini = 0.0\nsamples = 1\nvalue = [0, 0, 2, 0]"] ;
32 -> 33 ;
34 [label="gini = 0.0\nsamples = 1\nvalue = [0, 1, 0, 0]"] ;
32 -> 34 ;
35 [label="X[1] <= 0.1895\ngini = 0.1107\nsamples = 12\nvalue = [16, 1, 0, 0]"] ;
13 -> 35 ;
36 [label="gini = 0.0\nsamples = 10\nvalue = [13, 0, 0, 0]"] ;
35 -> 36 ;
37 [label="X[2] <= 0.4115\ngini = 0.375\nsamples = 2\nvalue = [3, 1, 0, 0]"] ;
35 -> 37 ;
38 [label="gini = 0.0\nsamples = 1\nvalue = [3, 0, 0, 0]"] ;
37 -> 38 ;
39 [label="gini = 0.0\nsamples = 1\nvalue = [0, 1, 0, 0]"] ;
37 -> 39 ;
40 [label="X[5] <= 0.3983\ngini = 0.5\nsamples = 6\nvalue = [5, 5, 0, 0]"] ;
4 -> 40 ;
41 [label="X[2] <= 0.309\ngini = 0.4082\nsamples = 5\nvalue = [2, 5, 0, 0]"] ;
40 -> 41 ;
42 [label="X[0] <= 0.1886\ngini = 0.4444\nsamples = 3\nvalue = [2, 1, 0, 0]"] ;
41 -> 42 ;
43 [label="gini = 0.0\nsamples = 2\nvalue = [2, 0, 0, 0]"] ;
42 -> 43 ;
44 [label="gini = 0.0\nsamples = 1\nvalue = [0, 1, 0, 0]"] ;
42 -> 44 ;
45 [label="gini = 0.0\nsamples = 2\nvalue = [0, 4, 0, 0]"] ;
41 -> 45 ;
46 [label="gini = 0.0\nsamples = 1\nvalue = [3, 0, 0, 0]"] ;
40 -> 46 ;
47 [label="X[6] <= 0.3982\ngini = 0.3848\nsamples = 193\nvalue = [226, 65, 8, 1]"] ;
3 -> 47 ;
48 [label="X[3] <= 0.4156\ngini = 0.3325\nsamples = 163\nvalue = [200, 45, 5, 1]"] ;
47 -> 48 ;
49 [label="X[0] <= 0.2939\ngini = 0.2282\nsamples = 99\nvalue = [128, 17, 2, 0]"] ;
48 -> 49 ;
50 [label="X[3] <= 0.295\ngini = 0.3051\nsamples = 60\nvalue = [75, 16, 1, 0]"] ;
49 -> 50 ;
51 [label="X[3] <= 0.2672\ngini = 0.3967\nsamples = 28\nvalue = [32, 12, 0, 0]"] ;
50 -> 51 ;
52 [label="X[4] <= 0.1074\ngini = 0.2449\nsamples = 22\nvalue = [30, 5, 0, 0]"] ;
51 -> 52 ;
53 [label="gini = 0.0\nsamples = 1\nvalue = [0, 1, 0, 0]"] ;
52 -> 53 ;
54 [label="X[2] <= 0.3212\ngini = 0.2076\nsamples = 21\nvalue = [30, 4, 0, 0]"] ;
52 -> 54 ;
55 [label="X[4] <= 0.2603\ngini = 0.42\nsamples = 7\nvalue = [7, 3, 0, 0]"] ;
54 -> 55 ;
56 [label="gini = 0.0\nsamples = 3\nvalue = [5, 0, 0, 0]"] ;
55 -> 56 ;
57 [label="X[6] <= 0.3363\ngini = 0.48\nsamples = 4\nvalue = [2, 3, 0, 0]"] ;
55 -> 57 ;
58 [label="gini = 0.0\nsamples = 3\nvalue = [0, 3, 0, 0]"] ;
57 -> 58 ;
59 [label="gini = 0.0\nsamples = 1\nvalue = [2, 0, 0, 0]"] ;
57 -> 59 ;
60 [label="X[1] <= 0.0474\ngini = 0.0799\nsamples = 14\nvalue = [23, 1, 0, 0]"] ;
54 -> 60 ;
61 [label="gini = 0.0\nsamples = 1\nvalue = [0, 1, 0, 0]"] ;
60 -> 61 ;
62 [label="gini = 0.0\nsamples = 13\nvalue = [23, 0, 0, 0]"] ;
60 -> 62 ;
63 [label="X[2] <= 0.3628\ngini = 0.3457\nsamples = 6\nvalue = [2, 7, 0, 0]"] ;
51 -> 63 ;
64 [label="gini = 0.0\nsamples = 2\nvalue = [2, 0, 0, 0]"] ;
63 -> 64 ;
65 [label="gini = 0.0\nsamples = 4\nvalue = [0, 7, 0, 0]"] ;
63 -> 65 ;
66 [label="X[6] <= 0.1681\ngini = 0.1901\nsamples = 32\nvalue = [43, 4, 1, 0]"] ;
50 -> 66 ;
67 [label="X[1] <= 0.1421\ngini = 0.4444\nsamples = 5\nvalue = [4, 2, 0, 0]"] ;
66 -> 67 ;
68 [label="gini = 0.0\nsamples = 2\nvalue = [0, 2, 0, 0]"] ;
67 -> 68 ;
69 [label="gini = 0.0\nsamples = 3\nvalue = [4, 0, 0, 0]"] ;
67 -> 69 ;
70 [label="X[0] <= 0.2412\ngini = 0.1349\nsamples = 27\nvalue = [39, 2, 1, 0]"] ;
66 -> 70 ;
71 [label="gini = 0.0\nsamples = 12\nvalue = [23, 0, 0, 0]"] ;
70 -> 71 ;
72 [label="X[1] <= 0.1789\ngini = 0.277\nsamples = 15\nvalue = [16, 2, 1, 0]"] ;
70 -> 72 ;
73 [label="X[1] <= 0.1053\ngini = 0.4938\nsamples = 9\nvalue = [6, 2, 1, 0]"] ;
72 -> 73 ;
74 [label="X[5] <= 0.093\ngini = 0.32\nsamples = 5\nvalue = [4, 0, 1, 0]"] ;
73 -> 74 ;
75 [label="X[6] <= 0.2124\ngini = 0.5\nsamples = 2\nvalue = [1, 0, 1, 0]"] ;
74 -> 75 ;
76 [label="gini = 0.0\nsamples = 1\nvalue = [1, 0, 0, 0]"] ;
75 -> 76 ;
77 [label="gini = 0.0\nsamples = 1\nvalue = [0, 0, 1, 0]"] ;
75 -> 77 ;
78 [label="gini = 0.0\nsamples = 3\nvalue = [3, 0, 0, 0]"] ;
74 -> 78 ;
79 [label="X[6] <= 0.3274\ngini = 0.5\nsamples = 4\nvalue = [2, 2, 0, 0]"] ;
73 -> 79 ;
80 [label="gini = 0.0\nsamples = 2\nvalue = [2, 0, 0, 0]"] ;
79 -> 80 ;
81 [label="gini = 0.0\nsamples = 2\nvalue = [0, 2, 0, 0]"] ;
79 -> 81 ;
82 [label="gini = 0.0\nsamples = 6\nvalue = [10, 0, 0, 0]"] ;
72 -> 82 ;
83 [label="X[4] <= 0.2066\ngini = 0.0707\nsamples = 39\nvalue = [53, 1, 1, 0]"] ;
49 -> 83 ;
84 [label="X[2] <= 0.4167\ngini = 0.2188\nsamples = 8\nvalue = [7, 1, 0, 0]"] ;
83 -> 84 ;
85 [label="gini = 0.0\nsamples = 6\nvalue = [6, 0, 0, 0]"] ;
84 -> 85 ;
86 [label="X[3] <= 0.3246\ngini = 0.5\nsamples = 2\nvalue = [1, 1, 0, 0]"] ;
84 -> 86 ;
87 [label="gini = 0.0\nsamples = 1\nvalue = [0, 1, 0, 0]"] ;
86 -> 87 ;
88 [label="gini = 0.0\nsamples = 1\nvalue = [1, 0, 0, 0]"] ;
86 -> 88 ;
89 [label="X[6] <= 0.3451\ngini = 0.0416\nsamples = 31\nvalue = [46, 0, 1, 0]"] ;
83 -> 89 ;
90 [label="gini = 0.0\nsamples = 25\nvalue = [37, 0, 0, 0]"] ;
89 -> 90 ;
91 [label="X[4] <= 0.3347\ngini = 0.18\nsamples = 6\nvalue = [9, 0, 1, 0]"] ;
89 -> 91 ;
92 [label="gini = 0.0\nsamples = 4\nvalue = [7, 0, 0, 0]"] ;
91 -> 92 ;
93 [label="X[1] <= 0.1526\ngini = 0.4444\nsamples = 2\nvalue = [2, 0, 1, 0]"] ;
91 -> 93 ;
94 [label="gini = 0.0\nsamples = 1\nvalue = [2, 0, 0, 0]"] ;
93 -> 94 ;
95 [label="gini = 0.0\nsamples = 1\nvalue = [0, 0, 1, 0]"] ;
93 -> 95 ;
96 [label="X[2] <= 0.4045\ngini = 0.4473\nsamples = 64\nvalue = [72, 28, 3, 1]"] ;
48 -> 96 ;
97 [label="X[5] <= 0.2413\ngini = 0.3573\nsamples = 48\nvalue = [61, 17, 1, 0]"] ;
96 -> 97 ;
98 [label="X[2] <= 0.3872\ngini = 0.1244\nsamples = 20\nvalue = [28, 2, 0, 0]"] ;
97 -> 98 ;
99 [label="gini = 0.0\nsamples = 15\nvalue = [23, 0, 0, 0]"] ;
98 -> 99 ;
100 [label="X[3] <= 0.4424\ngini = 0.4082\nsamples = 5\nvalue = [5, 2, 0, 0]"] ;
98 -> 100 ;
101 [label="X[2] <= 0.3941\ngini = 0.5\nsamples = 2\nvalue = [2, 2, 0, 0]"] ;
100 -> 101 ;
102 [label="gini = 0.0\nsamples = 1\nvalue = [0, 2, 0, 0]"] ;
101 -> 102 ;
103 [label="gini = 0.0\nsamples = 1\nvalue = [2, 0, 0, 0]"] ;
101 -> 103 ;
104 [label="gini = 0.0\nsamples = 3\nvalue = [3, 0, 0, 0]"] ;
100 -> 104 ;
105 [label="X[3] <= 0.4605\ngini = 0.4523\nsamples = 28\nvalue = [33, 15, 1, 0]"] ;
97 -> 105 ;
106 [label="X[6] <= 0.2212\ngini = 0.3367\nsamples = 8\nvalue = [3, 11, 0, 0]"] ;
105 -> 106 ;
107 [label="gini = 0.0\nsamples = 2\nvalue = [2, 0, 0, 0]"] ;
106 -> 107 ;
108 [label="X[4] <= 0.2851\ngini = 0.1528\nsamples = 6\nvalue = [1, 11, 0, 0]"] ;
106 -> 108 ;
109 [label="X[6] <= 0.2773\ngini = 0.4444\nsamples = 2\nvalue = [1, 2, 0, 0]"] ;
108 -> 109 ;
110 [label="gini = 0.0\nsamples = 1\nvalue = [0, 2, 0, 0]"] ;
109 -> 110 ;
111 [label="gini = 0.0\nsamples = 1\nvalue = [1, 0, 0, 0]"] ;
109 -> 111 ;
112 [label="gini = 0.0\nsamples = 4\nvalue = [0, 9, 0, 0]"] ;
108 -> 112 ;
113 [label="X[6] <= 0.3451\ngini = 0.2514\nsamples = 20\nvalue = [30, 4, 1, 0]"] ;
105 -> 113 ;
114 [label="X[4] <= 0.1281\ngini = 0.0832\nsamples = 14\nvalue = [22, 0, 1, 0]"] ;
113 -> 114 ;
115 [label="X[3] <= 0.5447\ngini = 0.5\nsamples = 2\nvalue = [1, 0, 1, 0]"] ;
114 -> 115 ;
116 [label="gini = 0.0\nsamples = 1\nvalue = [0, 0, 1, 0]"] ;
115 -> 116 ;
117 [label="gini = 0.0\nsamples = 1\nvalue = [1, 0, 0, 0]"] ;
115 -> 117 ;
118 [label="gini = 0.0\nsamples = 12\nvalue = [21, 0, 0, 0]"] ;
114 -> 118 ;
119 [label="X[6] <= 0.3805\ngini = 0.4444\nsamples = 6\nvalue = [8, 4, 0, 0]"] ;
113 -> 119 ;
120 [label="X[5] <= 0.311\ngini = 0.4938\nsamples = 5\nvalue = [5, 4, 0, 0]"] ;
119 -> 120 ;
121 [label="gini = 0.0\nsamples = 2\nvalue = [5, 0, 0, 0]"] ;
120 -> 121 ;
122 [label="gini = 0.0\nsamples = 3\nvalue = [0, 4, 0, 0]"] ;
120 -> 122 ;
123 [label="gini = 0.0\nsamples = 1\nvalue = [3, 0, 0, 0]"] ;
119 -> 123 ;
124 [label="X[0] <= 0.2895\ngini = 0.6048\nsamples = 16\nvalue = [11, 11, 2, 1]"] ;
96 -> 124 ;
125 [label="X[3] <= 0.4379\ngini = 0.4082\nsamples = 8\nvalue = [4, 10, 0, 0]"] ;
124 -> 125 ;
126 [label="gini = 0.0\nsamples = 2\nvalue = [0, 5, 0, 0]"] ;
125 -> 126 ;
127 [label="X[6] <= 0.0796\ngini = 0.4938\nsamples = 6\nvalue = [4, 5, 0, 0]"] ;
125 -> 127 ;
128 [label="gini = 0.0\nsamples = 3\nvalue = [0, 5, 0, 0]"] ;
127 -> 128 ;
129 [label="gini = 0.0\nsamples = 3\nvalue = [4, 0, 0, 0]"] ;
127 -> 129 ;
130 [label="X[5] <= 0.186\ngini = 0.5455\nsamples = 8\nvalue = [7, 1, 2, 1]"] ;
124 -> 130 ;
131 [label="X[0] <= 0.3772\ngini = 0.2188\nsamples = 6\nvalue = [7, 0, 0, 1]"] ;
130 -> 131 ;
132 [label="gini = 0.0\nsamples = 5\nvalue = [7, 0, 0, 0]"] ;
131 -> 132 ;
133 [label="gini = 0.0\nsamples = 1\nvalue = [0, 0, 0, 1]"] ;
131 -> 133 ;
134 [label="X[3] <= 0.5058\ngini = 0.4444\nsamples = 2\nvalue = [0, 1, 2, 0]"] ;
130 -> 134 ;
135 [label="gini = 0.0\nsamples = 1\nvalue = [0, 1, 0, 0]"] ;
134 -> 135 ;
136 [label="gini = 0.0\nsamples = 1\nvalue = [0, 0, 2, 0]"] ;
134 -> 136 ;
137 [label="X[1] <= 0.3263\ngini = 0.5481\nsamples = 30\nvalue = [26, 20, 3, 0]"] ;
47 -> 137 ;
138 [label="X[4] <= 0.2851\ngini = 0.564\nsamples = 25\nvalue = [18, 20, 3, 0]"] ;
137 -> 138 ;
139 [label="X[3] <= 0.2685\ngini = 0.18\nsamples = 7\nvalue = [9, 1, 0, 0]"] ;
138 -> 139 ;
140 [label="X[0] <= 0.2895\ngini = 0.5\nsamples = 2\nvalue = [1, 1, 0, 0]"] ;
139 -> 140 ;
141 [label="gini = 0.0\nsamples = 1\nvalue = [0, 1, 0, 0]"] ;
140 -> 141 ;
142 [label="gini = 0.0\nsamples = 1\nvalue = [1, 0, 0, 0]"] ;
140 -> 142 ;
143 [label="gini = 0.0\nsamples = 5\nvalue = [8, 0, 0, 0]"] ;
139 -> 143 ;
144 [label="X[0] <= 0.2237\ngini = 0.5307\nsamples = 18\nvalue = [9, 19, 3, 0]"] ;
138 -> 144 ;
145 [label="gini = 0.0\nsamples = 1\nvalue = [0, 0, 3, 0]"] ;
144 -> 145 ;
146 [label="X[5] <= 0.1076\ngini = 0.4362\nsamples = 17\nvalue = [9, 19, 0, 0]"] ;
144 -> 146 ;
147 [label="gini = 0.0\nsamples = 1\nvalue = [2, 0, 0, 0]"] ;
146 -> 147 ;
148 [label="X[0] <= 0.2412\ngini = 0.3935\nsamples = 16\nvalue = [7, 19, 0, 0]"] ;
146 -> 148 ;
149 [label="gini = 0.0\nsamples = 6\nvalue = [0, 7, 0, 0]"] ;
148 -> 149 ;
150 [label="X[1] <= 0.1\ngini = 0.4654\nsamples = 10\nvalue = [7, 12, 0, 0]"] ;
148 -> 150 ;
151 [label="gini = 0.0\nsamples = 2\nvalue = [0, 6, 0, 0]"] ;
150 -> 151 ;
152 [label="X[0] <= 0.6053\ngini = 0.497\nsamples = 8\nvalue = [7, 6, 0, 0]"] ;
150 -> 152 ;
153 [label="gini = 0.0\nsamples = 5\nvalue = [7, 0, 0, 0]"] ;
152 -> 153 ;
154 [label="gini = 0.0\nsamples = 3\nvalue = [0, 6, 0, 0]"] ;
152 -> 154 ;
155 [label="gini = 0.0\nsamples = 5\nvalue = [8, 0, 0, 0]"] ;
137 -> 155 ;
156 [label="X[1] <= 0.1947\ngini = 0.5505\nsamples = 510\nvalue = [395, 361, 45, 0]"] ;
2 -> 156 ;
157 [label="X[4] <= 0.219\ngini = 0.5191\nsamples = 250\nvalue = [230, 141, 19, 0]"] ;
156 -> 157 ;
158 [label="X[3] <= 0.2205\ngini = 0.3521\nsamples = 52\nvalue = [66, 18, 1, 0]"] ;
157 -> 158 ;
159 [label="X[5] <= 0.0552\ngini = 0.2297\nsamples = 42\nvalue = [59, 9, 0, 0]"] ;
158 -> 159 ;
160 [label="gini = 0.0\nsamples = 1\nvalue = [0, 2, 0, 0]"] ;
159 -> 160 ;
161 [label="X[0] <= 0.4079\ngini = 0.1896\nsamples = 41\nvalue = [59, 7, 0, 0]"] ;
159 -> 161 ;
162 [label="X[0] <= 0.2763\ngini = 0.1189\nsamples = 40\nvalue = [59, 4, 0, 0]"] ;
161 -> 162 ;
163 [label="X[4] <= 0.157\ngini = 0.1975\nsamples = 24\nvalue = [32, 4, 0, 0]"] ;
162 -> 163 ;
164 [label="gini = 0.0\nsamples = 13\nvalue = [19, 0, 0, 0]"] ;
163 -> 164 ;
165 [label="X[3] <= 0.1107\ngini = 0.3599\nsamples = 11\nvalue = [13, 4, 0, 0]"] ;
163 -> 165 ;
166 [label="gini = 0.0\nsamples = 1\nvalue = [0, 1, 0, 0]"] ;
165 -> 166 ;
167 [label="X[2] <= 0.3455\ngini = 0.3047\nsamples = 10\nvalue = [13, 3, 0, 0]"] ;
165 -> 167 ;
168 [label="X[4] <= 0.1983\ngini = 0.5\nsamples = 4\nvalue = [3, 3, 0, 0]"] ;
167 -> 168 ;
169 [label="X[5] <= 0.0843\ngini = 0.375\nsamples = 3\nvalue = [3, 1, 0, 0]"] ;
168 -> 169 ;
170 [label="gini = 0.0\nsamples = 1\nvalue = [0, 1, 0, 0]"] ;
169 -> 170 ;
171 [label="gini = 0.0\nsamples = 2\nvalue = [3, 0, 0, 0]"] ;
169 -> 171 ;
172 [label="gini = 0.0\nsamples = 1\nvalue = [0, 2, 0, 0]"] ;
168 -> 172 ;
173 [label="gini = 0.0\nsamples = 6\nvalue = [10, 0, 0, 0]"] ;
167 -> 173 ;
174 [label="gini = 0.0\nsamples = 16\nvalue = [27, 0, 0, 0]"] ;
162 -> 174 ;
175 [label="gini = 0.0\nsamples = 1\nvalue = [0, 3, 0, 0]"] ;
161 -> 175 ;
176 [label="X[0] <= 0.307\ngini = 0.5467\nsamples = 10\nvalue = [7, 9, 1, 0]"] ;
158 -> 176 ;
177 [label="X[4] <= 0.2107\ngini = 0.18\nsamples = 5\nvalue = [0, 9, 1, 0]"] ;
176 -> 177 ;
178 [label="gini = 0.0\nsamples = 4\nvalue = [0, 9, 0, 0]"] ;
177 -> 178 ;
179 [label="gini = 0.0\nsamples = 1\nvalue = [0, 0, 1, 0]"] ;
177 -> 179 ;
180 [label="gini = 0.0\nsamples = 5\nvalue = [7, 0, 0, 0]"] ;
176 -> 180 ;
181 [label="X[6] <= 0.7699\ngini = 0.5448\nsamples = 198\nvalue = [164, 123, 18, 0]"] ;
157 -> 181 ;
182 [label="X[2] <= 0.4774\ngini = 0.5159\nsamples = 180\nvalue = [158, 110, 9, 0]"] ;
181 -> 182 ;
183 [label="X[3] <= 0.1707\ngini = 0.5048\nsamples = 173\nvalue = [157, 99, 8, 0]"] ;
182 -> 183 ;
184 [label="X[1] <= 0.0789\ngini = 0.5082\nsamples = 75\nvalue = [55, 50, 1, 0]"] ;
183 -> 184 ;
185 [label="X[5] <= 0.1831\ngini = 0.4152\nsamples = 13\nvalue = [5, 12, 0, 0]"] ;
184 -> 185 ;
186 [label="X[2] <= 0.2674\ngini = 0.4938\nsamples = 7\nvalue = [5, 4, 0, 0]"] ;
185 -> 186 ;
187 [label="X[4] <= 0.4339\ngini = 0.32\nsamples = 3\nvalue = [1, 4, 0, 0]"] ;
186 -> 187 ;
188 [label="gini = 0.0\nsamples = 2\nvalue = [0, 4, 0, 0]"] ;
187 -> 188 ;
189 [label="gini = 0.0\nsamples = 1\nvalue = [1, 0, 0, 0]"] ;
187 -> 189 ;
190 [label="gini = 0.0\nsamples = 4\nvalue = [4, 0, 0, 0]"] ;
186 -> 190 ;
191 [label="gini = 0.0\nsamples = 6\nvalue = [0, 8, 0, 0]"] ;
185 -> 191 ;
192 [label="X[2] <= 0.2656\ngini = 0.502\nsamples = 62\nvalue = [50, 38, 1, 0]"] ;
184 -> 192 ;
193 [label="X[0] <= 0.0965\ngini = 0.2076\nsamples = 13\nvalue = [15, 2, 0, 0]"] ;
192 -> 193 ;
194 [label="gini = 0.0\nsamples = 1\nvalue = [0, 1, 0, 0]"] ;
193 -> 194 ;
195 [label="X[5] <= 0.1105\ngini = 0.1172\nsamples = 12\nvalue = [15, 1, 0, 0]"] ;
193 -> 195 ;
196 [label="X[2] <= 0.2083\ngini = 0.4444\nsamples = 3\nvalue = [2, 1, 0, 0]"] ;
195 -> 196 ;
197 [label="gini = 0.0\nsamples = 1\nvalue = [0, 1, 0, 0]"] ;
196 -> 197 ;
198 [label="gini = 0.0\nsamples = 2\nvalue = [2, 0, 0, 0]"] ;
196 -> 198 ;
199 [label="gini = 0.0\nsamples = 9\nvalue = [13, 0, 0, 0]"] ;
195 -> 199 ;
200 [label="X[1] <= 0.1\ngini = 0.5135\nsamples = 49\nvalue = [35, 36, 1, 0]"] ;
192 -> 200 ;
201 [label="X[5] <= 0.0727\ngini = 0.2975\nsamples = 8\nvalue = [9, 2, 0, 0]"] ;
200 -> 201 ;
202 [label="gini = 0.0\nsamples = 1\nvalue = [0, 1, 0, 0]"] ;
201 -> 202 ;
203 [label="X[3] <= 0.1204\ngini = 0.18\nsamples = 7\nvalue = [9, 1, 0, 0]"] ;
201 -> 203 ;
204 [label="gini = 0.0\nsamples = 1\nvalue = [0, 1, 0, 0]"] ;
203 -> 204 ;
205 [label="gini = 0.0\nsamples = 6\nvalue = [9, 0, 0, 0]"] ;
203 -> 205 ;
206 [label="X[0] <= 0.2061\ngini = 0.5074\nsamples = 41\nvalue = [26, 34, 1, 0]"] ;
200 -> 206 ;
207 [label="X[3] <= 0.1204\ngini = 0.4821\nsamples = 23\nvalue = [22, 15, 0, 0]"] ;
206 -> 207 ;
208 [label="X[4] <= 0.4669\ngini = 0.2076\nsamples = 10\nvalue = [15, 2, 0, 0]"] ;
207 -> 208 ;
209 [label="gini = 0.0\nsamples = 8\nvalue = [13, 0, 0, 0]"] ;
208 -> 209 ;
210 [label="X[1] <= 0.1684\ngini = 0.5\nsamples = 2\nvalue = [2, 2, 0, 0]"] ;
208 -> 210 ;
211 [label="gini = 0.0\nsamples = 1\nvalue = [0, 2, 0, 0]"] ;
210 -> 211 ;
212 [label="gini = 0.0\nsamples = 1\nvalue = [2, 0, 0, 0]"] ;
210 -> 212 ;
213 [label="X[5] <= 0.2151\ngini = 0.455\nsamples = 13\nvalue = [7, 13, 0, 0]"] ;
207 -> 213 ;
214 [label="X[6] <= 0.6283\ngini = 0.142\nsamples = 9\nvalue = [1, 12, 0, 0]"] ;
213 -> 214 ;
215 [label="gini = 0.0\nsamples = 7\nvalue = [0, 11, 0, 0]"] ;
214 -> 215 ;
216 [label="X[4] <= 0.405\ngini = 0.5\nsamples = 2\nvalue = [1, 1, 0, 0]"] ;
214 -> 216 ;
217 [label="gini = 0.0\nsamples = 1\nvalue = [0, 1, 0, 0]"] ;
216 -> 217 ;
218 [label="gini = 0.0\nsamples = 1\nvalue = [1, 0, 0, 0]"] ;
216 -> 218 ;
219 [label="X[5] <= 0.2907\ngini = 0.2449\nsamples = 4\nvalue = [6, 1, 0, 0]"] ;
213 -> 219 ;
220 [label="gini = 0.0\nsamples = 3\nvalue = [6, 0, 0, 0]"] ;
219 -> 220 ;
221 [label="gini = 0.0\nsamples = 1\nvalue = [0, 1, 0, 0]"] ;
219 -> 221 ;
222 [label="X[5] <= 0.0727\ngini = 0.3438\nsamples = 18\nvalue = [4, 19, 1, 0]"] ;
206 -> 222 ;
223 [label="gini = 0.0\nsamples = 2\nvalue = [2, 0, 0, 0]"] ;
222 -> 223 ;
224 [label="X[4] <= 0.2273\ngini = 0.2438\nsamples = 16\nvalue = [2, 19, 1, 0]"] ;
222 -> 224 ;
225 [label="gini = 0.0\nsamples = 1\nvalue = [1, 0, 0, 0]"] ;
224 -> 225 ;
226 [label="X[5] <= 0.2674\ngini = 0.1769\nsamples = 15\nvalue = [1, 19, 1, 0]"] ;
224 -> 226 ;
227 [label="X[5] <= 0.093\ngini = 0.095\nsamples = 14\nvalue = [0, 19, 1, 0]"] ;
226 -> 227 ;
228 [label="X[2] <= 0.3542\ngini = 0.18\nsamples = 6\nvalue = [0, 9, 1, 0]"] ;
227 -> 228 ;
229 [label="gini = 0.0\nsamples = 3\nvalue = [0, 7, 0, 0]"] ;
228 -> 229 ;
230 [label="X[4] <= 0.3347\ngini = 0.4444\nsamples = 3\nvalue = [0, 2, 1, 0]"] ;
228 -> 230 ;
231 [label="gini = 0.0\nsamples = 1\nvalue = [0, 0, 1, 0]"] ;
230 -> 231 ;
232 [label="gini = 0.0\nsamples = 2\nvalue = [0, 2, 0, 0]"] ;
230 -> 232 ;
233 [label="gini = 0.0\nsamples = 8\nvalue = [0, 10, 0, 0]"] ;
227 -> 233 ;
234 [label="gini = 0.0\nsamples = 1\nvalue = [1, 0, 0, 0]"] ;
226 -> 234 ;
235 [label="X[3] <= 0.2469\ngini = 0.4851\nsamples = 98\nvalue = [102, 49, 7, 0]"] ;
183 -> 235 ;
236 [label="X[5] <= 0.2297\ngini = 0.4074\nsamples = 68\nvalue = [80, 30, 1, 0]"] ;
235 -> 236 ;
237 [label="X[4] <= 0.4008\ngini = 0.332\nsamples = 56\nvalue = [73, 18, 1, 0]"] ;
236 -> 237 ;
238 [label="X[0] <= 0.3728\ngini = 0.2241\nsamples = 40\nvalue = [61, 9, 0, 0]"] ;
237 -> 238 ;
239 [label="X[0] <= 0.1974\ngini = 0.14\nsamples = 38\nvalue = [61, 5, 0, 0]"] ;
238 -> 239 ;
240 [label="gini = 0.0\nsamples = 9\nvalue = [18, 0, 0, 0]"] ;
239 -> 240 ;
241 [label="X[0] <= 0.2149\ngini = 0.1866\nsamples = 29\nvalue = [43, 5, 0, 0]"] ;
239 -> 241 ;
242 [label="gini = 0.0\nsamples = 1\nvalue = [0, 1, 0, 0]"] ;
241 -> 242 ;
243 [label="X[3] <= 0.1847\ngini = 0.1557\nsamples = 28\nvalue = [43, 4, 0, 0]"] ;
241 -> 243 ;
244 [label="X[5] <= 0.1017\ngini = 0.2778\nsamples = 6\nvalue = [10, 2, 0, 0]"] ;
243 -> 244 ;
245 [label="gini = 0.0\nsamples = 1\nvalue = [0, 1, 0, 0]"] ;
244 -> 245 ;
246 [label="X[4] <= 0.2645\ngini = 0.1653\nsamples = 5\nvalue = [10, 1, 0, 0]"] ;
244 -> 246 ;
247 [label="gini = 0.0\nsamples = 1\nvalue = [0, 1, 0, 0]"] ;
246 -> 247 ;
248 [label="gini = 0.0\nsamples = 4\nvalue = [10, 0, 0, 0]"] ;
246 -> 248 ;
249 [label="X[1] <= 0.1\ngini = 0.1078\nsamples = 22\nvalue = [33, 2, 0, 0]"] ;
243 -> 249 ;
250 [label="X[0] <= 0.2456\ngini = 0.3457\nsamples = 7\nvalue = [7, 2, 0, 0]"] ;
249 -> 250 ;
251 [label="gini = 0.0\nsamples = 3\nvalue = [4, 0, 0, 0]"] ;
250 -> 251 ;
252 [label="X[5] <= 0.1076\ngini = 0.48\nsamples = 4\nvalue = [3, 2, 0, 0]"] ;
250 -> 252 ;
253 [label="gini = 0.0\nsamples = 2\nvalue = [3, 0, 0, 0]"] ;
252 -> 253 ;
254 [label="gini = 0.0\nsamples = 2\nvalue = [0, 2, 0, 0]"] ;
252 -> 254 ;
255 [label="gini = 0.0\nsamples = 15\nvalue = [26, 0, 0, 0]"] ;
249 -> 255 ;
256 [label="gini = 0.0\nsamples = 2\nvalue = [0, 4, 0, 0]"] ;
238 -> 256 ;
257 [label="X[2] <= 0.4271\ngini = 0.5331\nsamples = 16\nvalue = [12, 9, 1, 0]"] ;
237 -> 257 ;
258 [label="X[3] <= 0.2022\ngini = 0.4986\nsamples = 14\nvalue = [12, 6, 1, 0]"] ;
257 -> 258 ;
259 [label="X[2] <= 0.316\ngini = 0.4444\nsamples = 7\nvalue = [3, 6, 0, 0]"] ;
258 -> 259 ;
260 [label="X[3] <= 0.1789\ngini = 0.375\nsamples = 3\nvalue = [3, 1, 0, 0]"] ;
259 -> 260 ;
261 [label="gini = 0.0\nsamples = 2\nvalue = [3, 0, 0, 0]"] ;
260 -> 261 ;
262 [label="gini = 0.0\nsamples = 1\nvalue = [0, 1, 0, 0]"] ;
260 -> 262 ;
263 [label="gini = 0.0\nsamples = 4\nvalue = [0, 5, 0, 0]"] ;
259 -> 263 ;
264 [label="X[4] <= 0.4959\ngini = 0.18\nsamples = 7\nvalue = [9, 0, 1, 0]"] ;
258 -> 264 ;
265 [label="gini = 0.0\nsamples = 6\nvalue = [9, 0, 0, 0]"] ;
264 -> 265 ;
266 [label="gini = 0.0\nsamples = 1\nvalue = [0, 0, 1, 0]"] ;
264 -> 266 ;
267 [label="gini = 0.0\nsamples = 2\nvalue = [0, 3, 0, 0]"] ;
257 -> 267 ;
268 [label="X[3] <= 0.2009\ngini = 0.4654\nsamples = 12\nvalue = [7, 12, 0, 0]"] ;
236 -> 268 ;
269 [label="X[3] <= 0.18\ngini = 0.375\nsamples = 5\nvalue = [6, 2, 0, 0]"] ;
268 -> 269 ;
270 [label="gini = 0.0\nsamples = 2\nvalue = [0, 2, 0, 0]"] ;
269 -> 270 ;
271 [label="gini = 0.0\nsamples = 3\nvalue = [6, 0, 0, 0]"] ;
269 -> 271 ;
272 [label="X[5] <= 0.3285\ngini = 0.1653\nsamples = 7\nvalue = [1, 10, 0, 0]"] ;
268 -> 272 ;
273 [label="gini = 0.0\nsamples = 5\nvalue = [0, 9, 0, 0]"] ;
272 -> 273 ;
274 [label="X[3] <= 0.2287\ngini = 0.5\nsamples = 2\nvalue = [1, 1, 0, 0]"] ;
272 -> 274 ;
275 [label="gini = 0.0\nsamples = 1\nvalue = [0, 1, 0, 0]"] ;
274 -> 275 ;
276 [label="gini = 0.0\nsamples = 1\nvalue = [1, 0, 0, 0]"] ;
274 -> 276 ;
277 [label="X[5] <= 0.2122\ngini = 0.6012\nsamples = 30\nvalue = [22, 19, 6, 0]"] ;
235 -> 277 ;
278 [label="X[6] <= 0.469\ngini = 0.5702\nsamples = 20\nvalue = [8, 18, 5, 0]"] ;
277 -> 278 ;
279 [label="X[3] <= 0.2728\ngini = 0.4959\nsamples = 7\nvalue = [6, 5, 0, 0]"] ;
278 -> 279 ;
280 [label="gini = 0.0\nsamples = 3\nvalue = [0, 4, 0, 0]"] ;
279 -> 280 ;
281 [label="X[5] <= 0.0988\ngini = 0.2449\nsamples = 4\nvalue = [6, 1, 0, 0]"] ;
279 -> 281 ;
282 [label="gini = 0.0\nsamples = 2\nvalue = [4, 0, 0, 0]"] ;
281 -> 282 ;
283 [label="X[3] <= 0.2909\ngini = 0.4444\nsamples = 2\nvalue = [2, 1, 0, 0]"] ;
281 -> 283 ;
284 [label="gini = 0.0\nsamples = 1\nvalue = [2, 0, 0, 0]"] ;
283 -> 284 ;
285 [label="gini = 0.0\nsamples = 1\nvalue = [0, 1, 0, 0]"] ;
283 -> 285 ;
286 [label="X[0] <= 0.2807\ngini = 0.505\nsamples = 13\nvalue = [2, 13, 5, 0]"] ;
278 -> 286 ;
287 [label="X[6] <= 0.5752\ngini = 0.6281\nsamples = 9\nvalue = [2, 4, 5, 0]"] ;
286 -> 287 ;
288 [label="X[3] <= 0.2784\ngini = 0.32\nsamples = 3\nvalue = [0, 1, 4, 0]"] ;
287 -> 288 ;
289 [label="gini = 0.0\nsamples = 1\nvalue = [0, 1, 0, 0]"] ;
288 -> 289 ;
290 [label="gini = 0.0\nsamples = 2\nvalue = [0, 0, 4, 0]"] ;
288 -> 290 ;
291 [label="X[3] <= 0.3064\ngini = 0.6111\nsamples = 6\nvalue = [2, 3, 1, 0]"] ;
287 -> 291 ;
292 [label="X[1] <= 0.1\ngini = 0.625\nsamples = 4\nvalue = [2, 1, 1, 0]"] ;
291 -> 292 ;
293 [label="gini = 0.0\nsamples = 1\nvalue = [0, 0, 1, 0]"] ;
292 -> 293 ;
294 [label="X[4] <= 0.5992\ngini = 0.4444\nsamples = 3\nvalue = [2, 1, 0, 0]"] ;
292 -> 294 ;
295 [label="gini = 0.0\nsamples = 2\nvalue = [2, 0, 0, 0]"] ;
294 -> 295 ;
296 [label="gini = 0.0\nsamples = 1\nvalue = [0, 1, 0, 0]"] ;
294 -> 296 ;
297 [label="gini = 0.0\nsamples = 2\nvalue = [0, 2, 0, 0]"] ;
291 -> 297 ;
298 [label="gini = 0.0\nsamples = 4\nvalue = [0, 9, 0, 0]"] ;
286 -> 298 ;
299 [label="X[0] <= 0.2719\ngini = 0.2266\nsamples = 10\nvalue = [14, 1, 1, 0]"] ;
277 -> 299 ;
300 [label="gini = 0.0\nsamples = 1\nvalue = [0, 0, 1, 0]"] ;
299 -> 300 ;
301 [label="X[0] <= 0.3509\ngini = 0.1244\nsamples = 9\nvalue = [14, 1, 0, 0]"] ;
299 -> 301 ;
302 [label="gini = 0.0\nsamples = 5\nvalue = [9, 0, 0, 0]"] ;
301 -> 302 ;
303 [label="X[5] <= 0.3256\ngini = 0.2778\nsamples = 4\nvalue = [5, 1, 0, 0]"] ;
301 -> 303 ;
304 [label="X[1] <= 0.1789\ngini = 0.5\nsamples = 2\nvalue = [1, 1, 0, 0]"] ;
303 -> 304 ;
305 [label="gini = 0.0\nsamples = 1\nvalue = [0, 1, 0, 0]"] ;
304 -> 305 ;
306 [label="gini = 0.0\nsamples = 1\nvalue = [1, 0, 0, 0]"] ;
304 -> 306 ;
307 [label="gini = 0.0\nsamples = 2\nvalue = [4, 0, 0, 0]"] ;
303 -> 307 ;
308 [label="X[0] <= 0.1535\ngini = 0.2722\nsamples = 7\nvalue = [1, 11, 1, 0]"] ;
182 -> 308 ;
309 [label="gini = 0.0\nsamples = 1\nvalue = [0, 0, 1, 0]"] ;
308 -> 309 ;
310 [label="X[3] <= 0.1757\ngini = 0.1528\nsamples = 6\nvalue = [1, 11, 0, 0]"] ;
308 -> 310 ;
311 [label="gini = 0.0\nsamples = 1\nvalue = [1, 0, 0, 0]"] ;
310 -> 311 ;
312 [label="gini = 0.0\nsamples = 5\nvalue = [0, 11, 0, 0]"] ;
310 -> 312 ;
313 [label="X[5] <= 0.0698\ngini = 0.6352\nsamples = 18\nvalue = [6, 13, 9, 0]"] ;
181 -> 313 ;
314 [label="X[1] <= 0.0789\ngini = 0.2778\nsamples = 3\nvalue = [0, 1, 5, 0]"] ;
313 -> 314 ;
315 [label="gini = 0.0\nsamples = 2\nvalue = [0, 0, 5, 0]"] ;
314 -> 315 ;
316 [label="gini = 0.0\nsamples = 1\nvalue = [0, 1, 0, 0]"] ;
314 -> 316 ;
317 [label="X[1] <= 0.1\ngini = 0.595\nsamples = 15\nvalue = [6, 12, 4, 0]"] ;
313 -> 317 ;
318 [label="X[6] <= 0.7876\ngini = 0.5\nsamples = 4\nvalue = [4, 1, 1, 0]"] ;
317 -> 318 ;
319 [label="gini = 0.0\nsamples = 1\nvalue = [0, 1, 0, 0]"] ;
318 -> 319 ;
320 [label="X[0] <= 0.1535\ngini = 0.32\nsamples = 3\nvalue = [4, 0, 1, 0]"] ;
318 -> 320 ;
321 [label="gini = 0.0\nsamples = 1\nvalue = [2, 0, 0, 0]"] ;
320 -> 321 ;
322 [label="X[6] <= 0.8142\ngini = 0.4444\nsamples = 2\nvalue = [2, 0, 1, 0]"] ;
320 -> 322 ;
323 [label="gini = 0.0\nsamples = 1\nvalue = [2, 0, 0, 0]"] ;
322 -> 323 ;
324 [label="gini = 0.0\nsamples = 1\nvalue = [0, 0, 1, 0]"] ;
322 -> 324 ;
325 [label="X[3] <= 0.3269\ngini = 0.4766\nsamples = 11\nvalue = [2, 11, 3, 0]"] ;
317 -> 325 ;
326 [label="X[0] <= 0.2237\ngini = 0.3367\nsamples = 10\nvalue = [0, 11, 3, 0]"] ;
325 -> 326 ;
327 [label="X[5] <= 0.2413\ngini = 0.1528\nsamples = 9\nvalue = [0, 11, 1, 0]"] ;
326 -> 327 ;
328 [label="gini = 0.0\nsamples = 8\nvalue = [0, 11, 0, 0]"] ;
327 -> 328 ;
329 [label="gini = 0.0\nsamples = 1\nvalue = [0, 0, 1, 0]"] ;
327 -> 329 ;
330 [label="gini = 0.0\nsamples = 1\nvalue = [0, 0, 2, 0]"] ;
326 -> 330 ;
331 [label="gini = 0.0\nsamples = 1\nvalue = [2, 0, 0, 0]"] ;
325 -> 331 ;
332 [label="X[3] <= 0.1495\ngini = 0.5483\nsamples = 260\nvalue = [165, 220, 26, 0]"] ;
156 -> 332 ;
333 [label="X[5] <= 0.1134\ngini = 0.4533\nsamples = 79\nvalue = [34, 85, 5, 0]"] ;
332 -> 333 ;
334 [label="X[6] <= 0.7699\ngini = 0.568\nsamples = 37\nvalue = [24, 24, 4, 0]"] ;
333 -> 334 ;
335 [label="X[3] <= 0.137\ngini = 0.5104\nsamples = 27\nvalue = [21, 11, 2, 0]"] ;
334 -> 335 ;
336 [label="X[1] <= 0.2053\ngini = 0.4162\nsamples = 24\nvalue = [21, 7, 1, 0]"] ;
335 -> 336 ;
337 [label="X[4] <= 0.2397\ngini = 0.375\nsamples = 4\nvalue = [1, 3, 0, 0]"] ;
336 -> 337 ;
338 [label="gini = 0.0\nsamples = 3\nvalue = [0, 3, 0, 0]"] ;
337 -> 338 ;
339 [label="gini = 0.0\nsamples = 1\nvalue = [1, 0, 0, 0]"] ;
337 -> 339 ;
340 [label="X[0] <= 0.0965\ngini = 0.3328\nsamples = 20\nvalue = [20, 4, 1, 0]"] ;
336 -> 340 ;
341 [label="X[2] <= 0.3663\ngini = 0.64\nsamples = 4\nvalue = [2, 2, 1, 0]"] ;
340 -> 341 ;
342 [label="X[5] <= 0.0727\ngini = 0.4444\nsamples = 2\nvalue = [2, 1, 0, 0]"] ;
341 -> 342 ;
343 [label="gini = 0.0\nsamples = 1\nvalue = [2, 0, 0, 0]"] ;
342 -> 343 ;
344 [label="gini = 0.0\nsamples = 1\nvalue = [0, 1, 0, 0]"] ;
342 -> 344 ;
345 [label="X[1] <= 0.3\ngini = 0.5\nsamples = 2\nvalue = [0, 1, 1, 0]"] ;
341 -> 345 ;
346 [label="gini = 0.0\nsamples = 1\nvalue = [0, 1, 0, 0]"] ;
345 -> 346 ;
347 [label="gini = 0.0\nsamples = 1\nvalue = [0, 0, 1, 0]"] ;
345 -> 347 ;
348 [label="X[3] <= 0.1014\ngini = 0.18\nsamples = 16\nvalue = [18, 2, 0, 0]"] ;
340 -> 348 ;
349 [label="gini = 0.0\nsamples = 8\nvalue = [12, 0, 0, 0]"] ;
348 -> 349 ;
350 [label="X[2] <= 0.3594\ngini = 0.375\nsamples = 8\nvalue = [6, 2, 0, 0]"] ;
348 -> 350 ;
351 [label="gini = 0.0\nsamples = 4\nvalue = [4, 0, 0, 0]"] ;
350 -> 351 ;
352 [label="X[3] <= 0.1047\ngini = 0.5\nsamples = 4\nvalue = [2, 2, 0, 0]"] ;
350 -> 352 ;
353 [label="gini = 0.0\nsamples = 2\nvalue = [0, 2, 0, 0]"] ;
352 -> 353 ;
354 [label="gini = 0.0\nsamples = 2\nvalue = [2, 0, 0, 0]"] ;
352 -> 354 ;
355 [label="X[5] <= 0.0814\ngini = 0.32\nsamples = 3\nvalue = [0, 4, 1, 0]"] ;
335 -> 355 ;
356 [label="gini = 0.0\nsamples = 1\nvalue = [0, 0, 1, 0]"] ;
355 -> 356 ;
357 [label="gini = 0.0\nsamples = 2\nvalue = [0, 4, 0, 0]"] ;
355 -> 357 ;
358 [label="X[3] <= 0.0598\ngini = 0.4383\nsamples = 10\nvalue = [3, 13, 2, 0]"] ;
334 -> 358 ;
359 [label="gini = 0.0\nsamples = 2\nvalue = [3, 0, 0, 0]"] ;
358 -> 359 ;
360 [label="X[1] <= 0.3158\ngini = 0.2311\nsamples = 8\nvalue = [0, 13, 2, 0]"] ;
358 -> 360 ;
361 [label="gini = 0.0\nsamples = 6\nvalue = [0, 13, 0, 0]"] ;
360 -> 361 ;
362 [label="gini = 0.0\nsamples = 2\nvalue = [0, 0, 2, 0]"] ;
360 -> 362 ;
363 [label="X[4] <= 0.0496\ngini = 0.2627\nsamples = 42\nvalue = [10, 61, 1, 0]"] ;
333 -> 363 ;
364 [label="gini = 0.0\nsamples = 1\nvalue = [1, 0, 0, 0]"] ;
363 -> 364 ;
365 [label="X[5] <= 0.1424\ngini = 0.2456\nsamples = 41\nvalue = [9, 61, 1, 0]"] ;
363 -> 365 ;
366 [label="X[3] <= 0.1083\ngini = 0.4032\nsamples = 16\nvalue = [7, 18, 0, 0]"] ;
365 -> 366 ;
367 [label="gini = 0.0\nsamples = 7\nvalue = [0, 9, 0, 0]"] ;
366 -> 367 ;
368 [label="X[2] <= 0.4097\ngini = 0.4922\nsamples = 9\nvalue = [7, 9, 0, 0]"] ;
366 -> 368 ;
369 [label="X[1] <= 0.2158\ngini = 0.4592\nsamples = 8\nvalue = [5, 9, 0, 0]"] ;
368 -> 369 ;
370 [label="gini = 0.0\nsamples = 2\nvalue = [2, 0, 0, 0]"] ;
369 -> 370 ;
371 [label="X[3] <= 0.1204\ngini = 0.375\nsamples = 6\nvalue = [3, 9, 0, 0]"] ;
369 -> 371 ;
372 [label="gini = 0.0\nsamples = 2\nvalue = [2, 0, 0, 0]"] ;
371 -> 372 ;
373 [label="X[2] <= 0.3767\ngini = 0.18\nsamples = 4\nvalue = [1, 9, 0, 0]"] ;
371 -> 373 ;
374 [label="X[6] <= 0.708\ngini = 0.375\nsamples = 2\nvalue = [1, 3, 0, 0]"] ;
373 -> 374 ;
375 [label="gini = 0.0\nsamples = 1\nvalue = [0, 3, 0, 0]"] ;
374 -> 375 ;
376 [label="gini = 0.0\nsamples = 1\nvalue = [1, 0, 0, 0]"] ;
374 -> 376 ;
377 [label="gini = 0.0\nsamples = 2\nvalue = [0, 6, 0, 0]"] ;
373 -> 377 ;
378 [label="gini = 0.0\nsamples = 1\nvalue = [2, 0, 0, 0]"] ;
368 -> 378 ;
379 [label="X[3] <= 0.1431\ngini = 0.1238\nsamples = 25\nvalue = [2, 43, 1, 0]"] ;
365 -> 379 ;
380 [label="X[1] <= 0.2053\ngini = 0.094\nsamples = 22\nvalue = [1, 39, 1, 0]"] ;
379 -> 380 ;
381 [label="gini = 0.0\nsamples = 1\nvalue = [1, 0, 0, 0]"] ;
380 -> 381 ;
382 [label="X[1] <= 0.3868\ngini = 0.0487\nsamples = 21\nvalue = [0, 39, 1, 0]"] ;
380 -> 382 ;
383 [label="gini = 0.0\nsamples = 20\nvalue = [0, 39, 0, 0]"] ;
382 -> 383 ;
384 [label="gini = 0.0\nsamples = 1\nvalue = [0, 0, 1, 0]"] ;
382 -> 384 ;
385 [label="X[4] <= 0.3512\ngini = 0.32\nsamples = 3\nvalue = [1, 4, 0, 0]"] ;
379 -> 385 ;
386 [label="gini = 0.0\nsamples = 1\nvalue = [1, 0, 0, 0]"] ;
385 -> 386 ;
387 [label="gini = 0.0\nsamples = 2\nvalue = [0, 4, 0, 0]"] ;
385 -> 387 ;
388 [label="X[5] <= 0.2297\ngini = 0.565\nsamples = 181\nvalue = [131, 135, 21, 0]"] ;
332 -> 388 ;
389 [label="X[3] <= 0.3522\ngini = 0.5531\nsamples = 116\nvalue = [100, 75, 13, 0]"] ;
388 -> 389 ;
390 [label="X[4] <= 0.1612\ngini = 0.5628\nsamples = 107\nvalue = [88, 74, 13, 0]"] ;
389 -> 390 ;
391 [label="X[0] <= 0.2237\ngini = 0.1049\nsamples = 12\nvalue = [17, 0, 1, 0]"] ;
390 -> 391 ;
392 [label="X[5] <= 0.0581\ngini = 0.32\nsamples = 4\nvalue = [4, 0, 1, 0]"] ;
391 -> 392 ;
393 [label="gini = 0.0\nsamples = 1\nvalue = [0, 0, 1, 0]"] ;
392 -> 393 ;
394 [label="gini = 0.0\nsamples = 3\nvalue = [4, 0, 0, 0]"] ;
392 -> 394 ;
395 [label="gini = 0.0\nsamples = 8\nvalue = [13, 0, 0, 0]"] ;
391 -> 395 ;
396 [label="X[0] <= 0.1491\ngini = 0.5675\nsamples = 95\nvalue = [71, 74, 12, 0]"] ;
390 -> 396 ;
397 [label="X[4] <= 0.5702\ngini = 0.0997\nsamples = 15\nvalue = [18, 1, 0, 0]"] ;
396 -> 397 ;
398 [label="gini = 0.0\nsamples = 13\nvalue = [16, 0, 0, 0]"] ;
397 -> 398 ;
399 [label="X[5] <= 0.2238\ngini = 0.4444\nsamples = 2\nvalue = [2, 1, 0, 0]"] ;
397 -> 399 ;
400 [label="gini = 0.0\nsamples = 1\nvalue = [0, 1, 0, 0]"] ;
399 -> 400 ;
401 [label="gini = 0.0\nsamples = 1\nvalue = [2, 0, 0, 0]"] ;
399 -> 401 ;
402 [label="X[6] <= 0.7522\ngini = 0.5651\nsamples = 80\nvalue = [53, 73, 12, 0]"] ;
396 -> 402 ;
403 [label="X[3] <= 0.1649\ngini = 0.5752\nsamples = 71\nvalue = [51, 60, 11, 0]"] ;
402 -> 403 ;
404 [label="X[6] <= 0.646\ngini = 0.5511\nsamples = 9\nvalue = [9, 2, 4, 0]"] ;
403 -> 404 ;
405 [label="X[2] <= 0.2917\ngini = 0.625\nsamples = 5\nvalue = [2, 2, 4, 0]"] ;
404 -> 405 ;
406 [label="gini = 0.0\nsamples = 2\nvalue = [2, 0, 0, 0]"] ;
405 -> 406 ;
407 [label="X[5] <= 0.0727\ngini = 0.4444\nsamples = 3\nvalue = [0, 2, 4, 0]"] ;
405 -> 407 ;
408 [label="gini = 0.0\nsamples = 1\nvalue = [0, 0, 4, 0]"] ;
407 -> 408 ;
409 [label="gini = 0.0\nsamples = 2\nvalue = [0, 2, 0, 0]"] ;
407 -> 409 ;
410 [label="gini = 0.0\nsamples = 4\nvalue = [7, 0, 0, 0]"] ;
404 -> 410 ;
411 [label="X[5] <= 0.0785\ngini = 0.5478\nsamples = 62\nvalue = [42, 58, 7, 0]"] ;
403 -> 411 ;
412 [label="X[0] <= 0.2632\ngini = 0.1975\nsamples = 5\nvalue = [8, 0, 1, 0]"] ;
411 -> 412 ;
413 [label="X[1] <= 0.2632\ngini = 0.4444\nsamples = 2\nvalue = [2, 0, 1, 0]"] ;
412 -> 413 ;
414 [label="gini = 0.0\nsamples = 1\nvalue = [2, 0, 0, 0]"] ;
413 -> 414 ;
415 [label="gini = 0.0\nsamples = 1\nvalue = [0, 0, 1, 0]"] ;
413 -> 415 ;
416 [label="gini = 0.0\nsamples = 3\nvalue = [6, 0, 0, 0]"] ;
412 -> 416 ;
417 [label="X[4] <= 0.2355\ngini = 0.5256\nsamples = 57\nvalue = [34, 58, 6, 0]"] ;
411 -> 417 ;
418 [label="X[0] <= 0.2325\ngini = 0.4444\nsamples = 3\nvalue = [1, 0, 2, 0]"] ;
417 -> 418 ;
419 [label="gini = 0.0\nsamples = 2\nvalue = [0, 0, 2, 0]"] ;
418 -> 419 ;
420 [label="gini = 0.0\nsamples = 1\nvalue = [1, 0, 0, 0]"] ;
418 -> 420 ;
421 [label="X[1] <= 0.2789\ngini = 0.5048\nsamples = 54\nvalue = [33, 58, 4, 0]"] ;
417 -> 421 ;
422 [label="X[2] <= 0.3611\ngini = 0.4024\nsamples = 30\nvalue = [11, 37, 2, 0]"] ;
421 -> 422 ;
423 [label="X[4] <= 0.4008\ngini = 0.4911\nsamples = 17\nvalue = [9, 17, 1, 0]"] ;
422 -> 423 ;
424 [label="X[3] <= 0.2339\ngini = 0.3457\nsamples = 11\nvalue = [4, 14, 0, 0]"] ;
423 -> 424 ;
425 [label="X[5] <= 0.1541\ngini = 0.4898\nsamples = 6\nvalue = [4, 3, 0, 0]"] ;
424 -> 425 ;
426 [label="gini = 0.0\nsamples = 3\nvalue = [4, 0, 0, 0]"] ;
425 -> 426 ;
427 [label="gini = 0.0\nsamples = 3\nvalue = [0, 3, 0, 0]"] ;
425 -> 427 ;
428 [label="gini = 0.0\nsamples = 5\nvalue = [0, 11, 0, 0]"] ;
424 -> 428 ;
429 [label="X[6] <= 0.646\ngini = 0.5679\nsamples = 6\nvalue = [5, 3, 1, 0]"] ;
423 -> 429 ;
430 [label="X[4] <= 0.4711\ngini = 0.4688\nsamples = 5\nvalue = [5, 3, 0, 0]"] ;
429 -> 430 ;
431 [label="X[0] <= 0.2061\ngini = 0.2778\nsamples = 4\nvalue = [5, 1, 0, 0]"] ;
430 -> 431 ;
432 [label="gini = 0.0\nsamples = 1\nvalue = [0, 1, 0, 0]"] ;
431 -> 432 ;
433 [label="gini = 0.0\nsamples = 3\nvalue = [5, 0, 0, 0]"] ;
431 -> 433 ;
434 [label="gini = 0.0\nsamples = 1\nvalue = [0, 2, 0, 0]"] ;
430 -> 434 ;
435 [label="gini = 0.0\nsamples = 1\nvalue = [0, 0, 1, 0]"] ;
429 -> 435 ;
436 [label="X[6] <= 0.6991\ngini = 0.2344\nsamples = 13\nvalue = [2, 20, 1, 0]"] ;
422 -> 436 ;
437 [label="X[4] <= 0.3223\ngini = 0.1653\nsamples = 12\nvalue = [2, 20, 0, 0]"] ;
436 -> 437 ;
438 [label="gini = 0.0\nsamples = 5\nvalue = [0, 13, 0, 0]"] ;
437 -> 438 ;
439 [label="X[2] <= 0.4115\ngini = 0.3457\nsamples = 7\nvalue = [2, 7, 0, 0]"] ;
437 -> 439 ;
440 [label="gini = 0.0\nsamples = 3\nvalue = [0, 5, 0, 0]"] ;
439 -> 440 ;
441 [label="X[1] <= 0.2421\ngini = 0.5\nsamples = 4\nvalue = [2, 2, 0, 0]"] ;
439 -> 441 ;
442 [label="gini = 0.0\nsamples = 2\nvalue = [2, 0, 0, 0]"] ;
441 -> 442 ;
443 [label="gini = 0.0\nsamples = 2\nvalue = [0, 2, 0, 0]"] ;
441 -> 443 ;
444 [label="gini = 0.0\nsamples = 1\nvalue = [0, 0, 1, 0]"] ;
436 -> 444 ;
445 [label="X[5] <= 0.0959\ngini = 0.5412\nsamples = 24\nvalue = [22, 21, 2, 0]"] ;
421 -> 445 ;
446 [label="X[2] <= 0.434\ngini = 0.1528\nsamples = 7\nvalue = [1, 11, 0, 0]"] ;
445 -> 446 ;
447 [label="gini = 0.0\nsamples = 6\nvalue = [0, 11, 0, 0]"] ;
446 -> 447 ;
448 [label="gini = 0.0\nsamples = 1\nvalue = [1, 0, 0, 0]"] ;
446 -> 448 ;
449 [label="X[2] <= 0.4792\ngini = 0.4995\nsamples = 17\nvalue = [21, 10, 2, 0]"] ;
445 -> 449 ;
450 [label="X[3] <= 0.2443\ngini = 0.5694\nsamples = 13\nvalue = [12, 10, 2, 0]"] ;
449 -> 450 ;
451 [label="X[3] <= 0.2072\ngini = 0.4082\nsamples = 7\nvalue = [4, 10, 0, 0]"] ;
450 -> 451 ;
452 [label="X[3] <= 0.2013\ngini = 0.4938\nsamples = 4\nvalue = [4, 5, 0, 0]"] ;
451 -> 452 ;
453 [label="X[2] <= 0.4479\ngini = 0.2778\nsamples = 3\nvalue = [1, 5, 0, 0]"] ;
452 -> 453 ;
454 [label="gini = 0.0\nsamples = 1\nvalue = [0, 4, 0, 0]"] ;
453 -> 454 ;
455 [label="X[4] <= 0.376\ngini = 0.5\nsamples = 2\nvalue = [1, 1, 0, 0]"] ;
453 -> 455 ;
456 [label="gini = 0.0\nsamples = 1\nvalue = [1, 0, 0, 0]"] ;
455 -> 456 ;
457 [label="gini = 0.0\nsamples = 1\nvalue = [0, 1, 0, 0]"] ;
455 -> 457 ;
458 [label="gini = 0.0\nsamples = 1\nvalue = [3, 0, 0, 0]"] ;
452 -> 458 ;
459 [label="gini = 0.0\nsamples = 3\nvalue = [0, 5, 0, 0]"] ;
451 -> 459 ;
460 [label="X[2] <= 0.4531\ngini = 0.32\nsamples = 6\nvalue = [8, 0, 2, 0]"] ;
450 -> 460 ;
461 [label="gini = 0.0\nsamples = 5\nvalue = [8, 0, 0, 0]"] ;
460 -> 461 ;
462 [label="gini = 0.0\nsamples = 1\nvalue = [0, 0, 2, 0]"] ;
460 -> 462 ;
463 [label="gini = 0.0\nsamples = 4\nvalue = [9, 0, 0, 0]"] ;
449 -> 463 ;
464 [label="X[6] <= 0.8319\ngini = 0.3203\nsamples = 9\nvalue = [2, 13, 1, 0]"] ;
402 -> 464 ;
465 [label="X[5] <= 0.125\ngini = 0.142\nsamples = 7\nvalue = [0, 12, 1, 0]"] ;
464 -> 465 ;
466 [label="gini = 0.0\nsamples = 5\nvalue = [0, 10, 0, 0]"] ;
465 -> 466 ;
467 [label="X[3] <= 0.2177\ngini = 0.4444\nsamples = 2\nvalue = [0, 2, 1, 0]"] ;
465 -> 467 ;
468 [label="gini = 0.0\nsamples = 1\nvalue = [0, 0, 1, 0]"] ;
467 -> 468 ;
469 [label="gini = 0.0\nsamples = 1\nvalue = [0, 2, 0, 0]"] ;
467 -> 469 ;
470 [label="X[0] <= 0.2544\ngini = 0.4444\nsamples = 2\nvalue = [2, 1, 0, 0]"] ;
464 -> 470 ;
471 [label="gini = 0.0\nsamples = 1\nvalue = [0, 1, 0, 0]"] ;
470 -> 471 ;
472 [label="gini = 0.0\nsamples = 1\nvalue = [2, 0, 0, 0]"] ;
470 -> 472 ;
473 [label="X[1] <= 0.2684\ngini = 0.142\nsamples = 9\nvalue = [12, 1, 0, 0]"] ;
389 -> 473 ;
474 [label="X[3] <= 0.3824\ngini = 0.4444\nsamples = 2\nvalue = [2, 1, 0, 0]"] ;
473 -> 474 ;
475 [label="gini = 0.0\nsamples = 1\nvalue = [2, 0, 0, 0]"] ;
474 -> 475 ;
476 [label="gini = 0.0\nsamples = 1\nvalue = [0, 1, 0, 0]"] ;
474 -> 476 ;
477 [label="gini = 0.0\nsamples = 7\nvalue = [10, 0, 0, 0]"] ;
473 -> 477 ;
478 [label="X[4] <= 0.4421\ngini = 0.5281\nsamples = 65\nvalue = [31, 60, 8, 0]"] ;
388 -> 478 ;
479 [label="X[5] <= 0.4826\ngini = 0.4458\nsamples = 43\nvalue = [17, 46, 3, 0]"] ;
478 -> 479 ;
480 [label="X[6] <= 0.6283\ngini = 0.4263\nsamples = 42\nvalue = [15, 46, 3, 0]"] ;
479 -> 480 ;
481 [label="X[1] <= 0.2342\ngini = 0.5926\nsamples = 19\nvalue = [12, 12, 3, 0]"] ;
480 -> 481 ;
482 [label="gini = 0.0\nsamples = 5\nvalue = [0, 8, 0, 0]"] ;
481 -> 482 ;
483 [label="X[6] <= 0.5575\ngini = 0.5319\nsamples = 14\nvalue = [12, 4, 3, 0]"] ;
481 -> 483 ;
484 [label="X[6] <= 0.5221\ngini = 0.4615\nsamples = 10\nvalue = [9, 1, 3, 0]"] ;
483 -> 484 ;
485 [label="X[2] <= 0.0903\ngini = 0.5938\nsamples = 7\nvalue = [4, 1, 3, 0]"] ;
484 -> 485 ;
486 [label="X[4] <= 0.3678\ngini = 0.56\nsamples = 4\nvalue = [1, 1, 3, 0]"] ;
485 -> 486 ;
487 [label="gini = 0.0\nsamples = 2\nvalue = [0, 0, 3, 0]"] ;
486 -> 487 ;
488 [label="X[6] <= 0.469\ngini = 0.5\nsamples = 2\nvalue = [1, 1, 0, 0]"] ;
486 -> 488 ;
489 [label="gini = 0.0\nsamples = 1\nvalue = [1, 0, 0, 0]"] ;
488 -> 489 ;
490 [label="gini = 0.0\nsamples = 1\nvalue = [0, 1, 0, 0]"] ;
488 -> 490 ;
491 [label="gini = 0.0\nsamples = 3\nvalue = [3, 0, 0, 0]"] ;
485 -> 491 ;
492 [label="gini = 0.0\nsamples = 3\nvalue = [5, 0, 0, 0]"] ;
484 -> 492 ;
493 [label="X[4] <= 0.3719\ngini = 0.5\nsamples = 4\nvalue = [3, 3, 0, 0]"] ;
483 -> 493 ;
494 [label="gini = 0.0\nsamples = 2\nvalue = [0, 3, 0, 0]"] ;
493 -> 494 ;
495 [label="gini = 0.0\nsamples = 2\nvalue = [3, 0, 0, 0]"] ;
493 -> 495 ;
496 [label="X[4] <= 0.2273\ngini = 0.149\nsamples = 23\nvalue = [3, 34, 0, 0]"] ;
480 -> 496 ;
497 [label="gini = 0.0\nsamples = 1\nvalue = [1, 0, 0, 0]"] ;
496 -> 497 ;
498 [label="X[6] <= 0.7168\ngini = 0.1049\nsamples = 22\nvalue = [2, 34, 0, 0]"] ;
496 -> 498 ;
499 [label="X[2] <= 0.0642\ngini = 0.1653\nsamples = 13\nvalue = [2, 20, 0, 0]"] ;
498 -> 499 ;
500 [label="gini = 0.0\nsamples = 5\nvalue = [0, 12, 0, 0]"] ;
499 -> 500 ;
501 [label="X[4] <= 0.3926\ngini = 0.32\nsamples = 8\nvalue = [2, 8, 0, 0]"] ;
499 -> 501 ;
502 [label="gini = 0.0\nsamples = 3\nvalue = [0, 4, 0, 0]"] ;
501 -> 502 ;
503 [label="X[2] <= 0.0764\ngini = 0.4444\nsamples = 5\nvalue = [2, 4, 0, 0]"] ;
501 -> 503 ;
504 [label="gini = 0.0\nsamples = 1\nvalue = [1, 0, 0, 0]"] ;
503 -> 504 ;
505 [label="X[0] <= 0.3728\ngini = 0.32\nsamples = 4\nvalue = [1, 4, 0, 0]"] ;
503 -> 505 ;
506 [label="gini = 0.0\nsamples = 2\nvalue = [0, 3, 0, 0]"] ;
505 -> 506 ;
507 [label="X[1] <= 0.2895\ngini = 0.5\nsamples = 2\nvalue = [1, 1, 0, 0]"] ;
505 -> 507 ;
508 [label="gini = 0.0\nsamples = 1\nvalue = [0, 1, 0, 0]"] ;
507 -> 508 ;
509 [label="gini = 0.0\nsamples = 1\nvalue = [1, 0, 0, 0]"] ;
507 -> 509 ;
510 [label="gini = 0.0\nsamples = 9\nvalue = [0, 14, 0, 0]"] ;
498 -> 510 ;
511 [label="gini = 0.0\nsamples = 1\nvalue = [2, 0, 0, 0]"] ;
479 -> 511 ;
512 [label="X[0] <= 0.2061\ngini = 0.6171\nsamples = 22\nvalue = [14, 14, 5, 0]"] ;
478 -> 512 ;
513 [label="X[5] <= 0.3663\ngini = 0.4028\nsamples = 9\nvalue = [2, 9, 1, 0]"] ;
512 -> 513 ;
514 [label="X[5] <= 0.282\ngini = 0.5714\nsamples = 5\nvalue = [2, 4, 1, 0]"] ;
513 -> 514 ;
515 [label="gini = 0.0\nsamples = 2\nvalue = [0, 4, 0, 0]"] ;
514 -> 515 ;
516 [label="X[3] <= 0.1593\ngini = 0.4444\nsamples = 3\nvalue = [2, 0, 1, 0]"] ;
514 -> 516 ;
517 [label="gini = 0.0\nsamples = 1\nvalue = [0, 0, 1, 0]"] ;
516 -> 517 ;
518 [label="gini = 0.0\nsamples = 2\nvalue = [2, 0, 0, 0]"] ;
516 -> 518 ;
519 [label="gini = 0.0\nsamples = 4\nvalue = [0, 5, 0, 0]"] ;
513 -> 519 ;
520 [label="X[1] <= 0.3368\ngini = 0.5805\nsamples = 13\nvalue = [12, 5, 4, 0]"] ;
512 -> 520 ;
521 [label="X[2] <= 0.1476\ngini = 0.4609\nsamples = 10\nvalue = [11, 4, 1, 0]"] ;
520 -> 521 ;
522 [label="X[1] <= 0.2368\ngini = 0.5\nsamples = 5\nvalue = [1, 4, 1, 0]"] ;
521 -> 522 ;
523 [label="gini = 0.0\nsamples = 1\nvalue = [1, 0, 0, 0]"] ;
522 -> 523 ;
524 [label="X[4] <= 0.4669\ngini = 0.32\nsamples = 4\nvalue = [0, 4, 1, 0]"] ;
522 -> 524 ;
525 [label="gini = 0.0\nsamples = 1\nvalue = [0, 0, 1, 0]"] ;
524 -> 525 ;
526 [label="gini = 0.0\nsamples = 3\nvalue = [0, 4, 0, 0]"] ;
524 -> 526 ;
527 [label="gini = 0.0\nsamples = 5\nvalue = [10, 0, 0, 0]"] ;
521 -> 527 ;
528 [label="X[3] <= 0.342\ngini = 0.56\nsamples = 3\nvalue = [1, 1, 3, 0]"] ;
520 -> 528 ;
529 [label="X[0] <= 0.25\ngini = 0.5\nsamples = 2\nvalue = [1, 1, 0, 0]"] ;
528 -> 529 ;
530 [label="gini = 0.0\nsamples = 1\nvalue = [1, 0, 0, 0]"] ;
529 -> 530 ;
531 [label="gini = 0.0\nsamples = 1\nvalue = [0, 1, 0, 0]"] ;
529 -> 531 ;
532 [label="gini = 0.0\nsamples = 1\nvalue = [0, 0, 3, 0]"] ;
528 -> 532 ;
533 [label="X[6] <= 0.6637\ngini = 0.3656\nsamples = 135\nvalue = [160, 39, 8, 0]"] ;
1 -> 533 ;
534 [label="X[3] <= 0.6116\ngini = 0.2574\nsamples = 117\nvalue = [151, 27, 0, 0]"] ;
533 -> 534 ;
535 [label="X[5] <= 0.2413\ngini = 0.2242\nsamples = 114\nvalue = [149, 22, 0, 0]"] ;
534 -> 535 ;
536 [label="X[2] <= 0.0556\ngini = 0.1528\nsamples = 71\nvalue = [99, 9, 0, 0]"] ;
535 -> 536 ;
537 [label="X[0] <= 0.3421\ngini = 0.4082\nsamples = 16\nvalue = [20, 8, 0, 0]"] ;
536 -> 537 ;
538 [label="X[4] <= 0.4711\ngini = 0.5\nsamples = 10\nvalue = [8, 8, 0, 0]"] ;
537 -> 538 ;
539 [label="X[5] <= 0.2122\ngini = 0.2778\nsamples = 4\nvalue = [1, 5, 0, 0]"] ;
538 -> 539 ;
540 [label="gini = 0.0\nsamples = 3\nvalue = [0, 5, 0, 0]"] ;
539 -> 540 ;
541 [label="gini = 0.0\nsamples = 1\nvalue = [1, 0, 0, 0]"] ;
539 -> 541 ;
542 [label="X[1] <= 0.6105\ngini = 0.42\nsamples = 6\nvalue = [7, 3, 0, 0]"] ;
538 -> 542 ;
543 [label="X[1] <= 0.4789\ngini = 0.375\nsamples = 3\nvalue = [1, 3, 0, 0]"] ;
542 -> 543 ;
544 [label="gini = 0.0\nsamples = 1\nvalue = [1, 0, 0, 0]"] ;
543 -> 544 ;
545 [label="gini = 0.0\nsamples = 2\nvalue = [0, 3, 0, 0]"] ;
543 -> 545 ;
546 [label="gini = 0.0\nsamples = 3\nvalue = [6, 0, 0, 0]"] ;
542 -> 546 ;
547 [label="gini = 0.0\nsamples = 6\nvalue = [12, 0, 0, 0]"] ;
537 -> 547 ;
548 [label="X[0] <= 0.25\ngini = 0.0247\nsamples = 55\nvalue = [79, 1, 0, 0]"] ;
536 -> 548 ;
549 [label="X[6] <= 0.3274\ngini = 0.0644\nsamples = 21\nvalue = [29, 1, 0, 0]"] ;
548 -> 549 ;
550 [label="X[1] <= 0.5316\ngini = 0.2188\nsamples = 7\nvalue = [7, 1, 0, 0]"] ;
549 -> 550 ;
551 [label="gini = 0.0\nsamples = 4\nvalue = [5, 0, 0, 0]"] ;
550 -> 551 ;
552 [label="X[6] <= 0.2389\ngini = 0.4444\nsamples = 3\nvalue = [2, 1, 0, 0]"] ;
550 -> 552 ;
553 [label="gini = 0.0\nsamples = 2\nvalue = [2, 0, 0, 0]"] ;
552 -> 553 ;
554 [label="gini = 0.0\nsamples = 1\nvalue = [0, 1, 0, 0]"] ;
552 -> 554 ;
555 [label="gini = 0.0\nsamples = 14\nvalue = [22, 0, 0, 0]"] ;
549 -> 555 ;
556 [label="gini = 0.0\nsamples = 34\nvalue = [50, 0, 0, 0]"] ;
548 -> 556 ;
557 [label="X[6] <= 0.2832\ngini = 0.3275\nsamples = 43\nvalue = [50, 13, 0, 0]"] ;
535 -> 557 ;
558 [label="gini = 0.0\nsamples = 15\nvalue = [23, 0, 0, 0]"] ;
557 -> 558 ;
559 [label="X[5] <= 0.282\ngini = 0.4388\nsamples = 28\nvalue = [27, 13, 0, 0]"] ;
557 -> 559 ;
560 [label="X[0] <= 0.2763\ngini = 0.3967\nsamples = 8\nvalue = [3, 8, 0, 0]"] ;
559 -> 560 ;
561 [label="X[6] <= 0.4956\ngini = 0.4444\nsamples = 3\nvalue = [2, 1, 0, 0]"] ;
560 -> 561 ;
562 [label="gini = 0.0\nsamples = 2\nvalue = [2, 0, 0, 0]"] ;
561 -> 562 ;
563 [label="gini = 0.0\nsamples = 1\nvalue = [0, 1, 0, 0]"] ;
561 -> 563 ;
564 [label="X[0] <= 0.3202\ngini = 0.2188\nsamples = 5\nvalue = [1, 7, 0, 0]"] ;
560 -> 564 ;
565 [label="gini = 0.0\nsamples = 3\nvalue = [0, 6, 0, 0]"] ;
564 -> 565 ;
566 [label="X[2] <= 0.0903\ngini = 0.5\nsamples = 2\nvalue = [1, 1, 0, 0]"] ;
564 -> 566 ;
567 [label="gini = 0.0\nsamples = 1\nvalue = [1, 0, 0, 0]"] ;
566 -> 567 ;
568 [label="gini = 0.0\nsamples = 1\nvalue = [0, 1, 0, 0]"] ;
566 -> 568 ;
569 [label="X[4] <= 0.3347\ngini = 0.2854\nsamples = 20\nvalue = [24, 5, 0, 0]"] ;
559 -> 569 ;
570 [label="X[1] <= 0.5316\ngini = 0.4444\nsamples = 2\nvalue = [1, 2, 0, 0]"] ;
569 -> 570 ;
571 [label="gini = 0.0\nsamples = 1\nvalue = [0, 2, 0, 0]"] ;
570 -> 571 ;
572 [label="gini = 0.0\nsamples = 1\nvalue = [1, 0, 0, 0]"] ;
570 -> 572 ;
573 [label="X[3] <= 0.3681\ngini = 0.2041\nsamples = 18\nvalue = [23, 3, 0, 0]"] ;
569 -> 573 ;
574 [label="gini = 0.0\nsamples = 9\nvalue = [13, 0, 0, 0]"] ;
573 -> 574 ;
575 [label="X[1] <= 0.4842\ngini = 0.355\nsamples = 9\nvalue = [10, 3, 0, 0]"] ;
573 -> 575 ;
576 [label="gini = 0.0\nsamples = 4\nvalue = [7, 0, 0, 0]"] ;
575 -> 576 ;
577 [label="X[0] <= 0.4035\ngini = 0.5\nsamples = 5\nvalue = [3, 3, 0, 0]"] ;
575 -> 577 ;
578 [label="X[4] <= 0.4917\ngini = 0.48\nsamples = 4\nvalue = [3, 2, 0, 0]"] ;
577 -> 578 ;
579 [label="gini = 0.0\nsamples = 2\nvalue = [2, 0, 0, 0]"] ;
578 -> 579 ;
580 [label="X[4] <= 0.5165\ngini = 0.4444\nsamples = 2\nvalue = [1, 2, 0, 0]"] ;
578 -> 580 ;
581 [label="gini = 0.0\nsamples = 1\nvalue = [0, 2, 0, 0]"] ;
580 -> 581 ;
582 [label="gini = 0.0\nsamples = 1\nvalue = [1, 0, 0, 0]"] ;
580 -> 582 ;
583 [label="gini = 0.0\nsamples = 1\nvalue = [0, 1, 0, 0]"] ;
577 -> 583 ;
584 [label="X[0] <= 0.6404\ngini = 0.4082\nsamples = 3\nvalue = [2, 5, 0, 0]"] ;
534 -> 584 ;
585 [label="gini = 0.0\nsamples = 1\nvalue = [2, 0, 0, 0]"] ;
584 -> 585 ;
586 [label="gini = 0.0\nsamples = 2\nvalue = [0, 5, 0, 0]"] ;
584 -> 586 ;
587 [label="X[5] <= 0.3488\ngini = 0.6564\nsamples = 18\nvalue = [9, 12, 8, 0]"] ;
533 -> 587 ;
588 [label="X[5] <= 0.1337\ngini = 0.6488\nsamples = 13\nvalue = [9, 5, 8, 0]"] ;
587 -> 588 ;
589 [label="X[4] <= 0.3636\ngini = 0.32\nsamples = 2\nvalue = [1, 0, 4, 0]"] ;
588 -> 589 ;
590 [label="gini = 0.0\nsamples = 1\nvalue = [1, 0, 0, 0]"] ;
589 -> 590 ;
591 [label="gini = 0.0\nsamples = 1\nvalue = [0, 0, 4, 0]"] ;
589 -> 591 ;
592 [label="X[3] <= 0.2382\ngini = 0.6367\nsamples = 11\nvalue = [8, 5, 4, 0]"] ;
588 -> 592 ;
593 [label="X[5] <= 0.186\ngini = 0.5938\nsamples = 6\nvalue = [1, 3, 4, 0]"] ;
592 -> 593 ;
594 [label="gini = 0.0\nsamples = 1\nvalue = [1, 0, 0, 0]"] ;
593 -> 594 ;
595 [label="X[2] <= 0.3802\ngini = 0.4898\nsamples = 5\nvalue = [0, 3, 4, 0]"] ;
593 -> 595 ;
596 [label="gini = 0.0\nsamples = 3\nvalue = [0, 0, 4, 0]"] ;
595 -> 596 ;
597 [label="gini = 0.0\nsamples = 2\nvalue = [0, 3, 0, 0]"] ;
595 -> 597 ;
598 [label="X[0] <= 0.1623\ngini = 0.3457\nsamples = 5\nvalue = [7, 2, 0, 0]"] ;
592 -> 598 ;
599 [label="gini = 0.0\nsamples = 1\nvalue = [0, 1, 0, 0]"] ;
598 -> 599 ;
600 [label="X[4] <= 0.562\ngini = 0.2188\nsamples = 4\nvalue = [7, 1, 0, 0]"] ;
598 -> 600 ;
601 [label="gini = 0.0\nsamples = 3\nvalue = [7, 0, 0, 0]"] ;
600 -> 601 ;
602 [label="gini = 0.0\nsamples = 1\nvalue = [0, 1, 0, 0]"] ;
600 -> 602 ;
603 [label="gini = 0.0\nsamples = 5\nvalue = [0, 7, 0, 0]"] ;
587 -> 603 ;
604 [label="X[6] <= 0.5929\ngini = 0.3442\nsamples = 312\nvalue = [381, 78, 22, 0]"] ;
0 -> 604 [labeldistance=2.5, labelangle=-45, headlabel="False"] ;
605 [label="X[4] <= 0.124\ngini = 0.302\nsamples = 273\nvalue = [353, 60, 16, 0]"] ;
604 -> 605 ;
606 [label="X[2] <= 0.5191\ngini = 0.5429\nsamples = 10\nvalue = [10, 1, 8, 0]"] ;
605 -> 606 ;
607 [label="gini = 0.0\nsamples = 2\nvalue = [0, 0, 8, 0]"] ;
606 -> 607 ;
608 [label="X[6] <= 0.0796\ngini = 0.1653\nsamples = 8\nvalue = [10, 1, 0, 0]"] ;
606 -> 608 ;
609 [label="gini = 0.0\nsamples = 1\nvalue = [0, 1, 0, 0]"] ;
608 -> 609 ;
610 [label="gini = 0.0\nsamples = 7\nvalue = [10, 0, 0, 0]"] ;
608 -> 610 ;
611 [label="X[4] <= 0.4669\ngini = 0.279\nsamples = 263\nvalue = [343, 59, 8, 0]"] ;
605 -> 611 ;
612 [label="X[3] <= 0.4687\ngini = 0.2359\nsamples = 222\nvalue = [303, 42, 5, 0]"] ;
611 -> 612 ;
613 [label="X[1] <= 0.0789\ngini = 0.1534\nsamples = 167\nvalue = [243, 20, 2, 0]"] ;
612 -> 613 ;
614 [label="X[5] <= 0.1802\ngini = 0.4444\nsamples = 7\nvalue = [8, 4, 0, 0]"] ;
613 -> 614 ;
615 [label="gini = 0.0\nsamples = 4\nvalue = [7, 0, 0, 0]"] ;
614 -> 615 ;
616 [label="X[4] <= 0.3264\ngini = 0.32\nsamples = 3\nvalue = [1, 4, 0, 0]"] ;
614 -> 616 ;
617 [label="gini = 0.0\nsamples = 2\nvalue = [0, 4, 0, 0]"] ;
616 -> 617 ;
618 [label="gini = 0.0\nsamples = 1\nvalue = [1, 0, 0, 0]"] ;
616 -> 618 ;
619 [label="X[1] <= 0.1421\ngini = 0.1332\nsamples = 160\nvalue = [235, 16, 2, 0]"] ;
613 -> 619 ;
620 [label="gini = 0.0\nsamples = 41\nvalue = [67, 0, 0, 0]"] ;
619 -> 620 ;
621 [label="X[0] <= 0.1272\ngini = 0.1767\nsamples = 119\nvalue = [168, 16, 2, 0]"] ;
619 -> 621 ;
622 [label="X[4] <= 0.3471\ngini = 0.48\nsamples = 3\nvalue = [3, 2, 0, 0]"] ;
621 -> 622 ;
623 [label="gini = 0.0\nsamples = 1\nvalue = [3, 0, 0, 0]"] ;
622 -> 623 ;
624 [label="gini = 0.0\nsamples = 2\nvalue = [0, 2, 0, 0]"] ;
622 -> 624 ;
625 [label="X[3] <= 0.3148\ngini = 0.1629\nsamples = 116\nvalue = [165, 14, 2, 0]"] ;
621 -> 625 ;
626 [label="X[3] <= 0.2982\ngini = 0.3226\nsamples = 37\nvalue = [46, 9, 2, 0]"] ;
625 -> 626 ;
627 [label="X[0] <= 0.1798\ngini = 0.1833\nsamples = 31\nvalue = [44, 5, 0, 0]"] ;
626 -> 627 ;
628 [label="gini = 0.0\nsamples = 9\nvalue = [15, 0, 0, 0]"] ;
627 -> 628 ;
629 [label="X[4] <= 0.376\ngini = 0.2509\nsamples = 22\nvalue = [29, 5, 0, 0]"] ;
627 -> 629 ;
630 [label="X[6] <= 0.2832\ngini = 0.1327\nsamples = 17\nvalue = [26, 2, 0, 0]"] ;
629 -> 630 ;
631 [label="X[2] <= 0.5035\ngini = 0.48\nsamples = 4\nvalue = [3, 2, 0, 0]"] ;
630 -> 631 ;
632 [label="gini = 0.0\nsamples = 1\nvalue = [0, 1, 0, 0]"] ;
631 -> 632 ;
633 [label="X[5] <= 0.1686\ngini = 0.375\nsamples = 3\nvalue = [3, 1, 0, 0]"] ;
631 -> 633 ;
634 [label="X[0] <= 0.2105\ngini = 0.5\nsamples = 2\nvalue = [1, 1, 0, 0]"] ;
633 -> 634 ;
635 [label="gini = 0.0\nsamples = 1\nvalue = [1, 0, 0, 0]"] ;
634 -> 635 ;
636 [label="gini = 0.0\nsamples = 1\nvalue = [0, 1, 0, 0]"] ;
634 -> 636 ;
637 [label="gini = 0.0\nsamples = 1\nvalue = [2, 0, 0, 0]"] ;
633 -> 637 ;
638 [label="gini = 0.0\nsamples = 13\nvalue = [23, 0, 0, 0]"] ;
630 -> 638 ;
639 [label="X[4] <= 0.3843\ngini = 0.5\nsamples = 5\nvalue = [3, 3, 0, 0]"] ;
629 -> 639 ;
640 [label="gini = 0.0\nsamples = 1\nvalue = [0, 2, 0, 0]"] ;
639 -> 640 ;
641 [label="X[2] <= 0.5365\ngini = 0.375\nsamples = 4\nvalue = [3, 1, 0, 0]"] ;
639 -> 641 ;
642 [label="gini = 0.0\nsamples = 1\nvalue = [0, 1, 0, 0]"] ;
641 -> 642 ;
643 [label="gini = 0.0\nsamples = 3\nvalue = [3, 0, 0, 0]"] ;
641 -> 643 ;
644 [label="X[4] <= 0.2934\ngini = 0.625\nsamples = 6\nvalue = [2, 4, 2, 0]"] ;
626 -> 644 ;
645 [label="gini = 0.0\nsamples = 2\nvalue = [0, 3, 0, 0]"] ;
644 -> 645 ;
646 [label="X[5] <= 0.1047\ngini = 0.64\nsamples = 4\nvalue = [2, 1, 2, 0]"] ;
644 -> 646 ;
647 [label="gini = 0.0\nsamples = 1\nvalue = [0, 0, 2, 0]"] ;
646 -> 647 ;
648 [label="X[0] <= 0.2018\ngini = 0.4444\nsamples = 3\nvalue = [2, 1, 0, 0]"] ;
646 -> 648 ;
649 [label="gini = 0.0\nsamples = 2\nvalue = [2, 0, 0, 0]"] ;
648 -> 649 ;
650 [label="gini = 0.0\nsamples = 1\nvalue = [0, 1, 0, 0]"] ;
648 -> 650 ;
651 [label="X[1] <= 0.1526\ngini = 0.0774\nsamples = 79\nvalue = [119, 5, 0, 0]"] ;
625 -> 651 ;
652 [label="X[2] <= 0.526\ngini = 0.2907\nsamples = 12\nvalue = [14, 3, 0, 0]"] ;
651 -> 652 ;
653 [label="gini = 0.0\nsamples = 2\nvalue = [5, 0, 0, 0]"] ;
652 -> 653 ;
654 [label="X[3] <= 0.3526\ngini = 0.375\nsamples = 10\nvalue = [9, 3, 0, 0]"] ;
652 -> 654 ;
655 [label="gini = 0.0\nsamples = 3\nvalue = [4, 0, 0, 0]"] ;
654 -> 655 ;
656 [label="X[4] <= 0.1942\ngini = 0.4688\nsamples = 7\nvalue = [5, 3, 0, 0]"] ;
654 -> 656 ;
657 [label="gini = 0.0\nsamples = 1\nvalue = [0, 1, 0, 0]"] ;
656 -> 657 ;
658 [label="X[3] <= 0.3656\ngini = 0.4082\nsamples = 6\nvalue = [5, 2, 0, 0]"] ;
656 -> 658 ;
659 [label="gini = 0.0\nsamples = 1\nvalue = [0, 1, 0, 0]"] ;
658 -> 659 ;
660 [label="X[0] <= 0.3202\ngini = 0.2778\nsamples = 5\nvalue = [5, 1, 0, 0]"] ;
658 -> 660 ;
661 [label="gini = 0.0\nsamples = 4\nvalue = [5, 0, 0, 0]"] ;
660 -> 661 ;
662 [label="gini = 0.0\nsamples = 1\nvalue = [0, 1, 0, 0]"] ;
660 -> 662 ;
663 [label="X[4] <= 0.4008\ngini = 0.0367\nsamples = 67\nvalue = [105, 2, 0, 0]"] ;
651 -> 663 ;
664 [label="X[6] <= 0.5044\ngini = 0.0194\nsamples = 64\nvalue = [101, 1, 0, 0]"] ;
663 -> 664 ;
665 [label="gini = 0.0\nsamples = 62\nvalue = [98, 0, 0, 0]"] ;
664 -> 665 ;
666 [label="X[5] <= 0.093\ngini = 0.375\nsamples = 2\nvalue = [3, 1, 0, 0]"] ;
664 -> 666 ;
667 [label="gini = 0.0\nsamples = 1\nvalue = [3, 0, 0, 0]"] ;
666 -> 667 ;
668 [label="gini = 0.0\nsamples = 1\nvalue = [0, 1, 0, 0]"] ;
666 -> 668 ;
669 [label="X[0] <= 0.2544\ngini = 0.32\nsamples = 3\nvalue = [4, 1, 0, 0]"] ;
663 -> 669 ;
670 [label="gini = 0.0\nsamples = 2\nvalue = [4, 0, 0, 0]"] ;
669 -> 670 ;
671 [label="gini = 0.0\nsamples = 1\nvalue = [0, 1, 0, 0]"] ;
669 -> 671 ;
672 [label="X[2] <= 0.5712\ngini = 0.4335\nsamples = 55\nvalue = [60, 22, 3, 0]"] ;
612 -> 672 ;
673 [label="X[4] <= 0.3182\ngini = 0.1588\nsamples = 17\nvalue = [21, 2, 0, 0]"] ;
672 -> 673 ;
674 [label="gini = 0.0\nsamples = 7\nvalue = [11, 0, 0, 0]"] ;
673 -> 674 ;
675 [label="X[3] <= 0.5501\ngini = 0.2778\nsamples = 10\nvalue = [10, 2, 0, 0]"] ;
673 -> 675 ;
676 [label="gini = 0.0\nsamples = 6\nvalue = [8, 0, 0, 0]"] ;
675 -> 676 ;
677 [label="X[0] <= 0.3509\ngini = 0.5\nsamples = 4\nvalue = [2, 2, 0, 0]"] ;
675 -> 677 ;
678 [label="gini = 0.0\nsamples = 2\nvalue = [0, 2, 0, 0]"] ;
677 -> 678 ;
679 [label="gini = 0.0\nsamples = 2\nvalue = [2, 0, 0, 0]"] ;
677 -> 679 ;
680 [label="X[3] <= 0.4957\ngini = 0.4979\nsamples = 38\nvalue = [39, 20, 3, 0]"] ;
672 -> 680 ;
681 [label="X[2] <= 0.7899\ngini = 0.426\nsamples = 16\nvalue = [8, 18, 0, 0]"] ;
680 -> 681 ;
682 [label="X[6] <= 0.1327\ngini = 0.3403\nsamples = 14\nvalue = [5, 18, 0, 0]"] ;
681 -> 682 ;
683 [label="X[2] <= 0.6267\ngini = 0.1975\nsamples = 10\nvalue = [2, 16, 0, 0]"] ;
682 -> 683 ;
684 [label="X[4] <= 0.1901\ngini = 0.4444\nsamples = 3\nvalue = [2, 4, 0, 0]"] ;
683 -> 684 ;
685 [label="gini = 0.0\nsamples = 1\nvalue = [0, 4, 0, 0]"] ;
684 -> 685 ;
686 [label="gini = 0.0\nsamples = 2\nvalue = [2, 0, 0, 0]"] ;
684 -> 686 ;
687 [label="gini = 0.0\nsamples = 7\nvalue = [0, 12, 0, 0]"] ;
683 -> 687 ;
688 [label="X[5] <= 0.1483\ngini = 0.48\nsamples = 4\nvalue = [3, 2, 0, 0]"] ;
682 -> 688 ;
689 [label="gini = 0.0\nsamples = 1\nvalue = [0, 2, 0, 0]"] ;
688 -> 689 ;
690 [label="gini = 0.0\nsamples = 3\nvalue = [3, 0, 0, 0]"] ;
688 -> 690 ;
691 [label="gini = 0.0\nsamples = 2\nvalue = [3, 0, 0, 0]"] ;
681 -> 691 ;
692 [label="X[6] <= 0.0973\ngini = 0.2485\nsamples = 22\nvalue = [31, 2, 3, 0]"] ;
680 -> 692 ;
693 [label="X[5] <= 0.1395\ngini = 0.3967\nsamples = 7\nvalue = [8, 0, 3, 0]"] ;
692 -> 693 ;
694 [label="X[3] <= 0.7562\ngini = 0.48\nsamples = 3\nvalue = [2, 0, 3, 0]"] ;
693 -> 694 ;
695 [label="gini = 0.0\nsamples = 2\nvalue = [0, 0, 3, 0]"] ;
694 -> 695 ;
696 [label="gini = 0.0\nsamples = 1\nvalue = [2, 0, 0, 0]"] ;
694 -> 696 ;
697 [label="gini = 0.0\nsamples = 4\nvalue = [6, 0, 0, 0]"] ;
693 -> 697 ;
698 [label="X[0] <= 0.2763\ngini = 0.1472\nsamples = 15\nvalue = [23, 2, 0, 0]"] ;
692 -> 698 ;
699 [label="X[5] <= 0.2907\ngini = 0.3457\nsamples = 6\nvalue = [7, 2, 0, 0]"] ;
698 -> 699 ;
700 [label="gini = 0.0\nsamples = 5\nvalue = [7, 0, 0, 0]"] ;
699 -> 700 ;
701 [label="gini = 0.0\nsamples = 1\nvalue = [0, 2, 0, 0]"] ;
699 -> 701 ;
702 [label="gini = 0.0\nsamples = 9\nvalue = [16, 0, 0, 0]"] ;
698 -> 702 ;
703 [label="X[0] <= 0.1228\ngini = 0.4728\nsamples = 41\nvalue = [40, 17, 3, 0]"] ;
611 -> 703 ;
704 [label="gini = 0.0\nsamples = 1\nvalue = [0, 3, 0, 0]"] ;
703 -> 704 ;
705 [label="X[6] <= 0.3982\ngini = 0.4444\nsamples = 40\nvalue = [40, 14, 3, 0]"] ;
703 -> 705 ;
706 [label="X[5] <= 0.3285\ngini = 0.331\nsamples = 30\nvalue = [34, 9, 0, 0]"] ;
705 -> 706 ;
707 [label="X[4] <= 0.6322\ngini = 0.2832\nsamples = 28\nvalue = [34, 7, 0, 0]"] ;
706 -> 707 ;
708 [label="X[6] <= 0.2566\ngini = 0.2392\nsamples = 25\nvalue = [31, 5, 0, 0]"] ;
707 -> 708 ;
709 [label="X[3] <= 0.4767\ngini = 0.42\nsamples = 8\nvalue = [7, 3, 0, 0]"] ;
708 -> 709 ;
710 [label="X[5] <= 0.1773\ngini = 0.5\nsamples = 6\nvalue = [3, 3, 0, 0]"] ;
709 -> 710 ;
711 [label="X[6] <= 0.2389\ngini = 0.375\nsamples = 4\nvalue = [3, 1, 0, 0]"] ;
710 -> 711 ;
712 [label="gini = 0.0\nsamples = 3\nvalue = [3, 0, 0, 0]"] ;
711 -> 712 ;
713 [label="gini = 0.0\nsamples = 1\nvalue = [0, 1, 0, 0]"] ;
711 -> 713 ;
714 [label="gini = 0.0\nsamples = 2\nvalue = [0, 2, 0, 0]"] ;
710 -> 714 ;
715 [label="gini = 0.0\nsamples = 2\nvalue = [4, 0, 0, 0]"] ;
709 -> 715 ;
716 [label="X[5] <= 0.2587\ngini = 0.142\nsamples = 17\nvalue = [24, 2, 0, 0]"] ;
708 -> 716 ;
717 [label="gini = 0.0\nsamples = 15\nvalue = [20, 0, 0, 0]"] ;
716 -> 717 ;
718 [label="X[3] <= 0.3574\ngini = 0.4444\nsamples = 2\nvalue = [4, 2, 0, 0]"] ;
716 -> 718 ;
719 [label="gini = 0.0\nsamples = 1\nvalue = [0, 2, 0, 0]"] ;
718 -> 719 ;
720 [label="gini = 0.0\nsamples = 1\nvalue = [4, 0, 0, 0]"] ;
718 -> 720 ;
721 [label="X[5] <= 0.1192\ngini = 0.48\nsamples = 3\nvalue = [3, 2, 0, 0]"] ;
707 -> 721 ;
722 [label="gini = 0.0\nsamples = 1\nvalue = [0, 2, 0, 0]"] ;
721 -> 722 ;
723 [label="gini = 0.0\nsamples = 2\nvalue = [3, 0, 0, 0]"] ;
721 -> 723 ;
724 [label="gini = 0.0\nsamples = 2\nvalue = [0, 2, 0, 0]"] ;
706 -> 724 ;
725 [label="X[6] <= 0.4513\ngini = 0.6429\nsamples = 10\nvalue = [6, 5, 3, 0]"] ;
705 -> 725 ;
726 [label="gini = 0.0\nsamples = 2\nvalue = [0, 3, 0, 0]"] ;
725 -> 726 ;
727 [label="X[5] <= 0.2471\ngini = 0.595\nsamples = 8\nvalue = [6, 2, 3, 0]"] ;
725 -> 727 ;
728 [label="X[2] <= 0.5851\ngini = 0.4938\nsamples = 7\nvalue = [6, 2, 1, 0]"] ;
727 -> 728 ;
729 [label="X[0] <= 0.1623\ngini = 0.64\nsamples = 5\nvalue = [2, 2, 1, 0]"] ;
728 -> 729 ;
730 [label="gini = 0.0\nsamples = 2\nvalue = [2, 0, 0, 0]"] ;
729 -> 730 ;
731 [label="X[0] <= 0.193\ngini = 0.4444\nsamples = 3\nvalue = [0, 2, 1, 0]"] ;
729 -> 731 ;
732 [label="gini = 0.0\nsamples = 1\nvalue = [0, 0, 1, 0]"] ;
731 -> 732 ;
733 [label="gini = 0.0\nsamples = 2\nvalue = [0, 2, 0, 0]"] ;
731 -> 733 ;
734 [label="gini = 0.0\nsamples = 2\nvalue = [4, 0, 0, 0]"] ;
728 -> 734 ;
735 [label="gini = 0.0\nsamples = 1\nvalue = [0, 0, 2, 0]"] ;
727 -> 735 ;
736 [label="X[2] <= 0.5191\ngini = 0.5769\nsamples = 39\nvalue = [28, 18, 6, 0]"] ;
604 -> 736 ;
737 [label="X[6] <= 0.6637\ngini = 0.6044\nsamples = 11\nvalue = [3, 8, 4, 0]"] ;
736 -> 737 ;
738 [label="gini = 0.0\nsamples = 5\nvalue = [0, 7, 0, 0]"] ;
737 -> 738 ;
739 [label="X[4] <= 0.4587\ngini = 0.5938\nsamples = 6\nvalue = [3, 1, 4, 0]"] ;
737 -> 739 ;
740 [label="X[4] <= 0.3347\ngini = 0.4898\nsamples = 5\nvalue = [3, 0, 4, 0]"] ;
739 -> 740 ;
741 [label="X[1] <= 0.3368\ngini = 0.48\nsamples = 3\nvalue = [3, 0, 2, 0]"] ;
740 -> 741 ;
742 [label="gini = 0.0\nsamples = 2\nvalue = [3, 0, 0, 0]"] ;
741 -> 742 ;
743 [label="gini = 0.0\nsamples = 1\nvalue = [0, 0, 2, 0]"] ;
741 -> 743 ;
744 [label="gini = 0.0\nsamples = 2\nvalue = [0, 0, 2, 0]"] ;
740 -> 744 ;
745 [label="gini = 0.0\nsamples = 1\nvalue = [0, 1, 0, 0]"] ;
739 -> 745 ;
746 [label="X[4] <= 0.6198\ngini = 0.4675\nsamples = 28\nvalue = [25, 10, 2, 0]"] ;
736 -> 746 ;
747 [label="X[3] <= 0.2525\ngini = 0.4343\nsamples = 26\nvalue = [25, 8, 2, 0]"] ;
746 -> 747 ;
748 [label="X[0] <= 0.2588\ngini = 0.2949\nsamples = 21\nvalue = [24, 4, 1, 0]"] ;
747 -> 748 ;
749 [label="X[2] <= 0.5469\ngini = 0.1107\nsamples = 13\nvalue = [16, 1, 0, 0]"] ;
748 -> 749 ;
750 [label="X[3] <= 0.1062\ngini = 0.4444\nsamples = 3\nvalue = [2, 1, 0, 0]"] ;
749 -> 750 ;
751 [label="gini = 0.0\nsamples = 1\nvalue = [0, 1, 0, 0]"] ;
750 -> 751 ;
752 [label="gini = 0.0\nsamples = 2\nvalue = [2, 0, 0, 0]"] ;
750 -> 752 ;
753 [label="gini = 0.0\nsamples = 10\nvalue = [14, 0, 0, 0]"] ;
749 -> 753 ;
754 [label="X[6] <= 0.7876\ngini = 0.4861\nsamples = 8\nvalue = [8, 3, 1, 0]"] ;
748 -> 754 ;
755 [label="X[5] <= 0.1017\ngini = 0.4298\nsamples = 7\nvalue = [8, 2, 1, 0]"] ;
754 -> 755 ;
756 [label="gini = 0.0\nsamples = 1\nvalue = [0, 0, 1, 0]"] ;
755 -> 756 ;
757 [label="X[1] <= 0.2211\ngini = 0.32\nsamples = 6\nvalue = [8, 2, 0, 0]"] ;
755 -> 757 ;
758 [label="X[6] <= 0.646\ngini = 0.4444\nsamples = 4\nvalue = [4, 2, 0, 0]"] ;
757 -> 758 ;
759 [label="gini = 0.0\nsamples = 2\nvalue = [4, 0, 0, 0]"] ;
758 -> 759 ;
760 [label="gini = 0.0\nsamples = 2\nvalue = [0, 2, 0, 0]"] ;
758 -> 760 ;
761 [label="gini = 0.0\nsamples = 2\nvalue = [4, 0, 0, 0]"] ;
757 -> 761 ;
762 [label="gini = 0.0\nsamples = 1\nvalue = [0, 1, 0, 0]"] ;
754 -> 762 ;
763 [label="X[2] <= 0.8194\ngini = 0.5\nsamples = 5\nvalue = [1, 4, 1, 0]"] ;
747 -> 763 ;
764 [label="X[4] <= 0.2769\ngini = 0.6667\nsamples = 3\nvalue = [1, 1, 1, 0]"] ;
763 -> 764 ;
765 [label="gini = 0.0\nsamples = 1\nvalue = [0, 0, 1, 0]"] ;
764 -> 765 ;
766 [label="X[4] <= 0.3554\ngini = 0.5\nsamples = 2\nvalue = [1, 1, 0, 0]"] ;
764 -> 766 ;
767 [label="gini = 0.0\nsamples = 1\nvalue = [0, 1, 0, 0]"] ;
766 -> 767 ;
768 [label="gini = 0.0\nsamples = 1\nvalue = [1, 0, 0, 0]"] ;
766 -> 768 ;
769 [label="gini = 0.0\nsamples = 2\nvalue = [0, 3, 0, 0]"] ;
763 -> 769 ;
770 [label="gini = 0.0\nsamples = 2\nvalue = [0, 2, 0, 0]"] ;
746 -> 770 ;
}