digraph Tree {
node [shape=box] ;
0 [label="X[6] <= 0.4336\ngini = 0.4611\nsamples = 1230\nvalue = [1335, 522, 95, 5]"] ;
1 [label="X[5] <= 0.2413\ngini = 0.289\nsamples = 617\nvalue = [818, 148, 15, 5]"] ;
0 -> 1 [labeldistance=2.5, labelangle=45, headlabel="True"] ;
2 [label="X[4] <= 0.2025\ngini = 0.2653\nsamples = 500\nvalue = [686, 106, 13, 5]"] ;
1 -> 2 ;
3 [label="X[6] <= 0.0973\ngini = 0.4612\nsamples = 66\nvalue = [74, 30, 5, 0]"] ;
2 -> 3 ;
4 [label="X[0] <= 0.2456\ngini = 0.6021\nsamples = 10\nvalue = [3, 9, 5, 0]"] ;
3 -> 4 ;
5 [label="gini = 0.0\nsamples = 2\nvalue = [3, 0, 0, 0]"] ;
4 -> 5 ;
6 [label="X[3] <= 0.476\ngini = 0.4592\nsamples = 8\nvalue = [0, 9, 5, 0]"] ;
4 -> 6 ;
7 [label="gini = 0.0\nsamples = 2\nvalue = [0, 0, 5, 0]"] ;
6 -> 7 ;
8 [label="gini = 0.0\nsamples = 6\nvalue = [0, 9, 0, 0]"] ;
6 -> 8 ;
9 [label="X[1] <= 0.1947\ngini = 0.3523\nsamples = 56\nvalue = [71, 21, 0, 0]"] ;
3 -> 9 ;
10 [label="X[4] <= 0.0785\ngini = 0.4098\nsamples = 47\nvalue = [52, 21, 0, 0]"] ;
9 -> 10 ;
11 [label="gini = 0.0\nsamples = 10\nvalue = [14, 0, 0, 0]"] ;
10 -> 11 ;
12 [label="X[6] <= 0.1327\ngini = 0.4585\nsamples = 37\nvalue = [38, 21, 0, 0]"] ;
10 -> 12 ;
13 [label="X[2] <= 0.5382\ngini = 0.375\nsamples = 8\nvalue = [3, 9, 0, 0]"] ;
12 -> 13 ;
14 [label="X[4] <= 0.1364\ngini = 0.48\nsamples = 3\nvalue = [3, 2, 0, 0]"] ;
13 -> 14 ;
15 [label="gini = 0.0\nsamples = 2\nvalue = [0, 2, 0, 0]"] ;
14 -> 15 ;
16 [label="gini = 0.0\nsamples = 1\nvalue = [3, 0, 0, 0]"] ;
14 -> 16 ;
17 [label="gini = 0.0\nsamples = 5\nvalue = [0, 7, 0, 0]"] ;
13 -> 17 ;
18 [label="X[1] <= 0.1842\ngini = 0.3803\nsamples = 29\nvalue = [35, 12, 0, 0]"] ;
12 -> 18 ;
19 [label="X[1] <= 0.0579\ngini = 0.3457\nsamples = 28\nvalue = [35, 10, 0, 0]"] ;
18 -> 19 ;
20 [label="gini = 0.0\nsamples = 1\nvalue = [0, 1, 0, 0]"] ;
19 -> 20 ;
21 [label="X[4] <= 0.1777\ngini = 0.3254\nsamples = 27\nvalue = [35, 9, 0, 0]"] ;
19 -> 21 ;
22 [label="X[0] <= 0.1535\ngini = 0.1975\nsamples = 19\nvalue = [24, 3, 0, 0]"] ;
21 -> 22 ;
23 [label="gini = 0.0\nsamples = 1\nvalue = [0, 1, 0, 0]"] ;
22 -> 23 ;
24 [label="X[1] <= 0.1211\ngini = 0.142\nsamples = 18\nvalue = [24, 2, 0, 0]"] ;
22 -> 24 ;
25 [label="X[3] <= 0.2009\ngini = 0.2778\nsamples = 9\nvalue = [10, 2, 0, 0]"] ;
24 -> 25 ;
26 [label="gini = 0.0\nsamples = 1\nvalue = [0, 1, 0, 0]"] ;
25 -> 26 ;
27 [label="X[0] <= 0.25\ngini = 0.1653\nsamples = 8\nvalue = [10, 1, 0, 0]"] ;
25 -> 27 ;
28 [label="gini = 0.0\nsamples = 3\nvalue = [6, 0, 0, 0]"] ;
27 -> 28 ;
29 [label="X[0] <= 0.2675\ngini = 0.32\nsamples = 5\nvalue = [4, 1, 0, 0]"] ;
27 -> 29 ;
30 [label="gini = 0.0\nsamples = 1\nvalue = [0, 1, 0, 0]"] ;
29 -> 30 ;
31 [label="gini = 0.0\nsamples = 4\nvalue = [4, 0, 0, 0]"] ;
29 -> 31 ;
32 [label="gini = 0.0\nsamples = 9\nvalue = [14, 0, 0, 0]"] ;
24 -> 32 ;
33 [label="X[6] <= 0.3628\ngini = 0.4567\nsamples = 8\nvalue = [11, 6, 0, 0]"] ;
21 -> 33 ;
34 [label="X[1] <= 0.1579\ngini = 0.2604\nsamples = 7\nvalue = [11, 2, 0, 0]"] ;
33 -> 34 ;
35 [label="gini = 0.0\nsamples = 5\nvalue = [10, 0, 0, 0]"] ;
34 -> 35 ;
36 [label="X[6] <= 0.2743\ngini = 0.4444\nsamples = 2\nvalue = [1, 2, 0, 0]"] ;
34 -> 36 ;
37 [label="gini = 0.0\nsamples = 1\nvalue = [0, 2, 0, 0]"] ;
36 -> 37 ;
38 [label="gini = 0.0\nsamples = 1\nvalue = [1, 0, 0, 0]"] ;
36 -> 38 ;
39 [label="gini = 0.0\nsamples = 1\nvalue = [0, 4, 0, 0]"] ;
33 -> 39 ;
40 [label="gini = 0.0\nsamples = 1\nvalue = [0, 2, 0, 0]"] ;
18 -> 40 ;
41 [label="gini = 0.0\nsamples = 9\nvalue = [19, 0, 0, 0]"] ;
9 -> 41 ;
42 [label="X[4] <= 0.4835\ngini = 0.2259\nsamples = 434\nvalue = [612, 76, 8, 5]"] ;
2 -> 42 ;
43 [label="X[5] <= 0.1366\ngini = 0.1938\nsamples = 366\nvalue = [530, 50, 8, 5]"] ;
42 -> 43 ;
44 [label="X[4] <= 0.4339\ngini = 0.2652\nsamples = 126\nvalue = [166, 18, 6, 5]"] ;
43 -> 44 ;
45 [label="X[5] <= 0.1308\ngini = 0.2433\nsamples = 118\nvalue = [161, 14, 6, 5]"] ;
44 -> 45 ;
46 [label="X[1] <= 0.1\ngini = 0.2014\nsamples = 103\nvalue = [145, 13, 5, 0]"] ;
45 -> 46 ;
47 [label="X[6] <= 0.3451\ngini = 0.4464\nsamples = 19\nvalue = [20, 3, 5, 0]"] ;
46 -> 47 ;
48 [label="X[0] <= 0.2522\ngini = 0.0907\nsamples = 15\nvalue = [20, 0, 1, 0]"] ;
47 -> 48 ;
49 [label="X[3] <= 0.3664\ngini = 0.18\nsamples = 8\nvalue = [9, 0, 1, 0]"] ;
48 -> 49 ;
50 [label="gini = 0.0\nsamples = 4\nvalue = [6, 0, 0, 0]"] ;
49 -> 50 ;
51 [label="X[5] <= 0.0843\ngini = 0.375\nsamples = 4\nvalue = [3, 0, 1, 0]"] ;
49 -> 51 ;
52 [label="gini = 0.0\nsamples = 2\nvalue = [2, 0, 0, 0]"] ;
51 -> 52 ;
53 [label="X[6] <= 0.1947\ngini = 0.5\nsamples = 2\nvalue = [1, 0, 1, 0]"] ;
51 -> 53 ;
54 [label="gini = 0.0\nsamples = 1\nvalue = [1, 0, 0, 0]"] ;
53 -> 54 ;
55 [label="gini = 0.0\nsamples = 1\nvalue = [0, 0, 1, 0]"] ;
53 -> 55 ;
56 [label="gini = 0.0\nsamples = 7\nvalue = [11, 0, 0, 0]"] ;
48 -> 56 ;
57 [label="X[5] <= 0.0901\ngini = 0.4898\nsamples = 4\nvalue = [0, 3, 4, 0]"] ;
47 -> 57 ;
58 [label="gini = 0.0\nsamples = 2\nvalue = [0, 0, 4, 0]"] ;
57 -> 58 ;
59 [label="gini = 0.0\nsamples = 2\nvalue = [0, 3, 0, 0]"] ;
57 -> 59 ;
60 [label="X[0] <= 0.1711\ngini = 0.1372\nsamples = 84\nvalue = [125, 10, 0, 0]"] ;
46 -> 60 ;
61 [label="gini = 0.0\nsamples = 14\nvalue = [27, 0, 0, 0]"] ;
60 -> 61 ;
62 [label="X[3] <= 0.2732\ngini = 0.168\nsamples = 70\nvalue = [98, 10, 0, 0]"] ;
60 -> 62 ;
63 [label="X[1] <= 0.1421\ngini = 0.3457\nsamples = 22\nvalue = [28, 8, 0, 0]"] ;
62 -> 63 ;
64 [label="X[5] <= 0.0901\ngini = 0.4861\nsamples = 9\nvalue = [7, 5, 0, 0]"] ;
63 -> 64 ;
65 [label="gini = 0.0\nsamples = 3\nvalue = [3, 0, 0, 0]"] ;
64 -> 65 ;
66 [label="X[0] <= 0.1974\ngini = 0.4938\nsamples = 6\nvalue = [4, 5, 0, 0]"] ;
64 -> 66 ;
67 [label="gini = 0.0\nsamples = 2\nvalue = [3, 0, 0, 0]"] ;
66 -> 67 ;
68 [label="X[6] <= 0.3274\ngini = 0.2778\nsamples = 4\nvalue = [1, 5, 0, 0]"] ;
66 -> 68 ;
69 [label="gini = 0.0\nsamples = 2\nvalue = [0, 4, 0, 0]"] ;
68 -> 69 ;
70 [label="X[4] <= 0.3306\ngini = 0.5\nsamples = 2\nvalue = [1, 1, 0, 0]"] ;
68 -> 70 ;
71 [label="gini = 0.0\nsamples = 1\nvalue = [0, 1, 0, 0]"] ;
70 -> 71 ;
72 [label="gini = 0.0\nsamples = 1\nvalue = [1, 0, 0, 0]"] ;
70 -> 72 ;
73 [label="X[2] <= 0.4323\ngini = 0.2188\nsamples = 13\nvalue = [21, 3, 0, 0]"] ;
63 -> 73 ;
74 [label="gini = 0.0\nsamples = 7\nvalue = [12, 0, 0, 0]"] ;
73 -> 74 ;
75 [label="X[4] <= 0.3017\ngini = 0.375\nsamples = 6\nvalue = [9, 3, 0, 0]"] ;
73 -> 75 ;
76 [label="gini = 0.0\nsamples = 4\nvalue = [7, 0, 0, 0]"] ;
75 -> 76 ;
77 [label="X[4] <= 0.3347\ngini = 0.48\nsamples = 2\nvalue = [2, 3, 0, 0]"] ;
75 -> 77 ;
78 [label="gini = 0.0\nsamples = 1\nvalue = [0, 3, 0, 0]"] ;
77 -> 78 ;
79 [label="gini = 0.0\nsamples = 1\nvalue = [2, 0, 0, 0]"] ;
77 -> 79 ;
80 [label="X[2] <= 0.6892\ngini = 0.054\nsamples = 48\nvalue = [70, 2, 0, 0]"] ;
62 -> 80 ;
81 [label="gini = 0.0\nsamples = 44\nvalue = [64, 0, 0, 0]"] ;
80 -> 81 ;
82 [label="X[0] <= 0.2325\ngini = 0.375\nsamples = 4\nvalue = [6, 2, 0, 0]"] ;
80 -> 82 ;
83 [label="gini = 0.0\nsamples = 2\nvalue = [3, 0, 0, 0]"] ;
82 -> 83 ;
84 [label="X[4] <= 0.2397\ngini = 0.48\nsamples = 2\nvalue = [3, 2, 0, 0]"] ;
82 -> 84 ;
85 [label="gini = 0.0\nsamples = 1\nvalue = [3, 0, 0, 0]"] ;
84 -> 85 ;
86 [label="gini = 0.0\nsamples = 1\nvalue = [0, 2, 0, 0]"] ;
84 -> 86 ;
87 [label="X[0] <= 0.386\ngini = 0.465\nsamples = 15\nvalue = [16, 1, 1, 5]"] ;
45 -> 87 ;
88 [label="X[6] <= 0.3982\ngini = 0.2037\nsamples = 14\nvalue = [16, 1, 1, 0]"] ;
87 -> 88 ;
89 [label="X[2] <= 0.7092\ngini = 0.1244\nsamples = 12\nvalue = [14, 0, 1, 0]"] ;
88 -> 89 ;
90 [label="gini = 0.0\nsamples = 11\nvalue = [14, 0, 0, 0]"] ;
89 -> 90 ;
91 [label="gini = 0.0\nsamples = 1\nvalue = [0, 0, 1, 0]"] ;
89 -> 91 ;
92 [label="X[6] <= 0.4159\ngini = 0.4444\nsamples = 2\nvalue = [2, 1, 0, 0]"] ;
88 -> 92 ;
93 [label="gini = 0.0\nsamples = 1\nvalue = [0, 1, 0, 0]"] ;
92 -> 93 ;
94 [label="gini = 0.0\nsamples = 1\nvalue = [2, 0, 0, 0]"] ;
92 -> 94 ;
95 [label="gini = 0.0\nsamples = 1\nvalue = [0, 0, 0, 5]"] ;
87 -> 95 ;
96 [label="X[3] <= 0.2728\ngini = 0.4938\nsamples = 8\nvalue = [5, 4, 0, 0]"] ;
44 -> 96 ;
97 [label="gini = 0.0\nsamples = 2\nvalue = [0, 3, 0, 0]"] ;
96 -> 97 ;
98 [label="X[2] <= 0.4349\ngini = 0.2778\nsamples = 6\nvalue = [5, 1, 0, 0]"] ;
96 -> 98 ;
99 [label="X[0] <= 0.2018\ngini = 0.5\nsamples = 2\nvalue = [1, 1, 0, 0]"] ;
98 -> 99 ;
100 [label="gini = 0.0\nsamples = 1\nvalue = [1, 0, 0, 0]"] ;
99 -> 100 ;
101 [label="gini = 0.0\nsamples = 1\nvalue = [0, 1, 0, 0]"] ;
99 -> 101 ;
102 [label="gini = 0.0\nsamples = 4\nvalue = [4, 0, 0, 0]"] ;
98 -> 102 ;
103 [label="X[6] <= 0.3038\ngini = 0.1571\nsamples = 240\nvalue = [364, 32, 2, 0]"] ;
43 -> 103 ;
104 [label="X[3] <= 0.4935\ngini = 0.092\nsamples = 160\nvalue = [256, 13, 0, 0]"] ;
103 -> 104 ;
105 [label="X[2] <= 0.4983\ngini = 0.0362\nsamples = 132\nvalue = [213, 4, 0, 0]"] ;
104 -> 105 ;
106 [label="X[1] <= 0.0895\ngini = 0.0868\nsamples = 61\nvalue = [84, 4, 0, 0]"] ;
105 -> 106 ;
107 [label="X[5] <= 0.1657\ngini = 0.48\nsamples = 4\nvalue = [3, 2, 0, 0]"] ;
106 -> 107 ;
108 [label="X[0] <= 0.193\ngini = 0.4444\nsamples = 2\nvalue = [1, 2, 0, 0]"] ;
107 -> 108 ;
109 [label="gini = 0.0\nsamples = 1\nvalue = [1, 0, 0, 0]"] ;
108 -> 109 ;
110 [label="gini = 0.0\nsamples = 1\nvalue = [0, 2, 0, 0]"] ;
108 -> 110 ;
111 [label="gini = 0.0\nsamples = 2\nvalue = [2, 0, 0, 0]"] ;
107 -> 111 ;
112 [label="X[1] <= 0.1421\ngini = 0.047\nsamples = 57\nvalue = [81, 2, 0, 0]"] ;
106 -> 112 ;
113 [label="X[5] <= 0.1453\ngini = 0.2449\nsamples = 11\nvalue = [12, 2, 0, 0]"] ;
112 -> 113 ;
114 [label="X[6] <= 0.2655\ngini = 0.5\nsamples = 2\nvalue = [1, 1, 0, 0]"] ;
113 -> 114 ;
115 [label="gini = 0.0\nsamples = 1\nvalue = [0, 1, 0, 0]"] ;
114 -> 115 ;
116 [label="gini = 0.0\nsamples = 1\nvalue = [1, 0, 0, 0]"] ;
114 -> 116 ;
117 [label="X[2] <= 0.4861\ngini = 0.1528\nsamples = 9\nvalue = [11, 1, 0, 0]"] ;
113 -> 117 ;
118 [label="gini = 0.0\nsamples = 8\nvalue = [11, 0, 0, 0]"] ;
117 -> 118 ;
119 [label="gini = 0.0\nsamples = 1\nvalue = [0, 1, 0, 0]"] ;
117 -> 119 ;
120 [label="gini = 0.0\nsamples = 46\nvalue = [69, 0, 0, 0]"] ;
112 -> 120 ;
121 [label="gini = 0.0\nsamples = 71\nvalue = [129, 0, 0, 0]"] ;
105 -> 121 ;
122 [label="X[1] <= 0.1895\ngini = 0.2862\nsamples = 28\nvalue = [43, 9, 0, 0]"] ;
104 -> 122 ;
123 [label="X[2] <= 0.6267\ngini = 0.4835\nsamples = 15\nvalue = [13, 9, 0, 0]"] ;
122 -> 123 ;
124 [label="X[6] <= 0.0885\ngini = 0.18\nsamples = 6\nvalue = [9, 1, 0, 0]"] ;
123 -> 124 ;
125 [label="gini = 0.0\nsamples = 1\nvalue = [0, 1, 0, 0]"] ;
124 -> 125 ;
126 [label="gini = 0.0\nsamples = 5\nvalue = [9, 0, 0, 0]"] ;
124 -> 126 ;
127 [label="X[3] <= 0.5665\ngini = 0.4444\nsamples = 9\nvalue = [4, 8, 0, 0]"] ;
123 -> 127 ;
128 [label="X[2] <= 0.6424\ngini = 0.32\nsamples = 8\nvalue = [2, 8, 0, 0]"] ;
127 -> 128 ;
129 [label="gini = 0.0\nsamples = 3\nvalue = [0, 4, 0, 0]"] ;
128 -> 129 ;
130 [label="X[5] <= 0.1541\ngini = 0.4444\nsamples = 5\nvalue = [2, 4, 0, 0]"] ;
128 -> 130 ;
131 [label="gini = 0.0\nsamples = 2\nvalue = [0, 2, 0, 0]"] ;
130 -> 131 ;
132 [label="X[6] <= 0.1504\ngini = 0.5\nsamples = 3\nvalue = [2, 2, 0, 0]"] ;
130 -> 132 ;
133 [label="gini = 0.0\nsamples = 2\nvalue = [2, 0, 0, 0]"] ;
132 -> 133 ;
134 [label="gini = 0.0\nsamples = 1\nvalue = [0, 2, 0, 0]"] ;
132 -> 134 ;
135 [label="gini = 0.0\nsamples = 1\nvalue = [2, 0, 0, 0]"] ;
127 -> 135 ;
136 [label="gini = 0.0\nsamples = 13\nvalue = [30, 0, 0, 0]"] ;
122 -> 136 ;
137 [label="X[3] <= 0.5339\ngini = 0.2771\nsamples = 80\nvalue = [108, 19, 2, 0]"] ;
103 -> 137 ;
138 [label="X[1] <= 0.1158\ngini = 0.2587\nsamples = 79\nvalue = [108, 17, 2, 0]"] ;
137 -> 138 ;
139 [label="X[2] <= 0.3351\ngini = 0.4032\nsamples = 14\nvalue = [18, 7, 0, 0]"] ;
138 -> 139 ;
140 [label="gini = 0.0\nsamples = 1\nvalue = [0, 3, 0, 0]"] ;
139 -> 140 ;
141 [label="X[4] <= 0.3719\ngini = 0.2975\nsamples = 13\nvalue = [18, 4, 0, 0]"] ;
139 -> 141 ;
142 [label="gini = 0.0\nsamples = 7\nvalue = [16, 0, 0, 0]"] ;
141 -> 142 ;
143 [label="X[3] <= 0.2758\ngini = 0.4444\nsamples = 6\nvalue = [2, 4, 0, 0]"] ;
141 -> 143 ;
144 [label="X[6] <= 0.3717\ngini = 0.4444\nsamples = 3\nvalue = [2, 1, 0, 0]"] ;
143 -> 144 ;
145 [label="gini = 0.0\nsamples = 2\nvalue = [2, 0, 0, 0]"] ;
144 -> 145 ;
146 [label="gini = 0.0\nsamples = 1\nvalue = [0, 1, 0, 0]"] ;
144 -> 146 ;
147 [label="gini = 0.0\nsamples = 3\nvalue = [0, 3, 0, 0]"] ;
143 -> 147 ;
148 [label="X[2] <= 0.0434\ngini = 0.2115\nsamples = 65\nvalue = [90, 10, 2, 0]"] ;
138 -> 148 ;
149 [label="X[3] <= 0.4126\ngini = 0.4688\nsamples = 5\nvalue = [5, 3, 0, 0]"] ;
148 -> 149 ;
150 [label="gini = 0.0\nsamples = 2\nvalue = [0, 3, 0, 0]"] ;
149 -> 150 ;
151 [label="gini = 0.0\nsamples = 3\nvalue = [5, 0, 0, 0]"] ;
149 -> 151 ;
152 [label="X[0] <= 0.136\ngini = 0.1763\nsamples = 60\nvalue = [85, 7, 2, 0]"] ;
148 -> 152 ;
153 [label="gini = 0.0\nsamples = 1\nvalue = [0, 1, 0, 0]"] ;
152 -> 153 ;
154 [label="X[4] <= 0.4587\ngini = 0.16\nsamples = 59\nvalue = [85, 6, 2, 0]"] ;
152 -> 154 ;
155 [label="X[2] <= 0.4878\ngini = 0.2047\nsamples = 48\nvalue = [63, 6, 2, 0]"] ;
154 -> 155 ;
156 [label="X[4] <= 0.4463\ngini = 0.1213\nsamples = 32\nvalue = [44, 1, 2, 0]"] ;
155 -> 156 ;
157 [label="X[5] <= 0.2238\ngini = 0.0859\nsamples = 30\nvalue = [43, 1, 1, 0]"] ;
156 -> 157 ;
158 [label="X[4] <= 0.405\ngini = 0.05\nsamples = 24\nvalue = [38, 1, 0, 0]"] ;
157 -> 158 ;
159 [label="gini = 0.0\nsamples = 19\nvalue = [34, 0, 0, 0]"] ;
158 -> 159 ;
160 [label="X[2] <= 0.3576\ngini = 0.32\nsamples = 5\nvalue = [4, 1, 0, 0]"] ;
158 -> 160 ;
161 [label="gini = 0.0\nsamples = 4\nvalue = [4, 0, 0, 0]"] ;
160 -> 161 ;
162 [label="gini = 0.0\nsamples = 1\nvalue = [0, 1, 0, 0]"] ;
160 -> 162 ;
163 [label="X[1] <= 0.2579\ngini = 0.2778\nsamples = 6\nvalue = [5, 0, 1, 0]"] ;
157 -> 163 ;
164 [label="X[2] <= 0.3733\ngini = 0.5\nsamples = 2\nvalue = [1, 0, 1, 0]"] ;
163 -> 164 ;
165 [label="gini = 0.0\nsamples = 1\nvalue = [0, 0, 1, 0]"] ;
164 -> 165 ;
166 [label="gini = 0.0\nsamples = 1\nvalue = [1, 0, 0, 0]"] ;
164 -> 166 ;
167 [label="gini = 0.0\nsamples = 4\nvalue = [4, 0, 0, 0]"] ;
163 -> 167 ;
168 [label="X[0] <= 0.1798\ngini = 0.5\nsamples = 2\nvalue = [1, 0, 1, 0]"] ;
156 -> 168 ;
169 [label="gini = 0.0\nsamples = 1\nvalue = [0, 0, 1, 0]"] ;
168 -> 169 ;
170 [label="gini = 0.0\nsamples = 1\nvalue = [1, 0, 0, 0]"] ;
168 -> 170 ;
171 [label="X[2] <= 0.5052\ngini = 0.3299\nsamples = 16\nvalue = [19, 5, 0, 0]"] ;
155 -> 171 ;
172 [label="gini = 0.0\nsamples = 1\nvalue = [0, 2, 0, 0]"] ;
171 -> 172 ;
173 [label="X[5] <= 0.1831\ngini = 0.2355\nsamples = 15\nvalue = [19, 3, 0, 0]"] ;
171 -> 173 ;
174 [label="gini = 0.0\nsamples = 7\nvalue = [11, 0, 0, 0]"] ;
173 -> 174 ;
175 [label="X[4] <= 0.376\ngini = 0.3967\nsamples = 8\nvalue = [8, 3, 0, 0]"] ;
173 -> 175 ;
176 [label="gini = 0.0\nsamples = 5\nvalue = [6, 0, 0, 0]"] ;
175 -> 176 ;
177 [label="X[2] <= 0.5625\ngini = 0.48\nsamples = 3\nvalue = [2, 3, 0, 0]"] ;
175 -> 177 ;
178 [label="gini = 0.0\nsamples = 1\nvalue = [2, 0, 0, 0]"] ;
177 -> 178 ;
179 [label="gini = 0.0\nsamples = 2\nvalue = [0, 3, 0, 0]"] ;
177 -> 179 ;
180 [label="gini = 0.0\nsamples = 11\nvalue = [22, 0, 0, 0]"] ;
154 -> 180 ;
181 [label="gini = 0.0\nsamples = 1\nvalue = [0, 2, 0, 0]"] ;
137 -> 181 ;
182 [label="X[4] <= 0.5083\ngini = 0.3656\nsamples = 68\nvalue = [82, 26, 0, 0]"] ;
42 -> 182 ;
183 [label="X[1] <= 0.2053\ngini = 0.4922\nsamples = 22\nvalue = [14, 18, 0, 0]"] ;
182 -> 183 ;
184 [label="X[0] <= 0.1096\ngini = 0.3324\nsamples = 14\nvalue = [4, 15, 0, 0]"] ;
183 -> 184 ;
185 [label="gini = 0.0\nsamples = 1\nvalue = [1, 0, 0, 0]"] ;
184 -> 185 ;
186 [label="X[2] <= 0.6753\ngini = 0.2778\nsamples = 13\nvalue = [3, 15, 0, 0]"] ;
184 -> 186 ;
187 [label="X[1] <= 0.1526\ngini = 0.2076\nsamples = 12\nvalue = [2, 15, 0, 0]"] ;
186 -> 187 ;
188 [label="gini = 0.0\nsamples = 5\nvalue = [0, 7, 0, 0]"] ;
187 -> 188 ;
189 [label="X[2] <= 0.5208\ngini = 0.32\nsamples = 7\nvalue = [2, 8, 0, 0]"] ;
187 -> 189 ;
190 [label="gini = 0.0\nsamples = 4\nvalue = [0, 4, 0, 0]"] ;
189 -> 190 ;
191 [label="X[3] <= 0.3699\ngini = 0.4444\nsamples = 3\nvalue = [2, 4, 0, 0]"] ;
189 -> 191 ;
192 [label="gini = 0.0\nsamples = 2\nvalue = [2, 0, 0, 0]"] ;
191 -> 192 ;
193 [label="gini = 0.0\nsamples = 1\nvalue = [0, 4, 0, 0]"] ;
191 -> 193 ;
194 [label="gini = 0.0\nsamples = 1\nvalue = [1, 0, 0, 0]"] ;
186 -> 194 ;
195 [label="X[0] <= 0.2763\ngini = 0.355\nsamples = 8\nvalue = [10, 3, 0, 0]"] ;
183 -> 195 ;
196 [label="X[5] <= 0.2122\ngini = 0.4898\nsamples = 5\nvalue = [4, 3, 0, 0]"] ;
195 -> 196 ;
197 [label="X[2] <= 0.0955\ngini = 0.375\nsamples = 3\nvalue = [1, 3, 0, 0]"] ;
196 -> 197 ;
198 [label="gini = 0.0\nsamples = 2\nvalue = [0, 3, 0, 0]"] ;
197 -> 198 ;
199 [label="gini = 0.0\nsamples = 1\nvalue = [1, 0, 0, 0]"] ;
197 -> 199 ;
200 [label="gini = 0.0\nsamples = 2\nvalue = [3, 0, 0, 0]"] ;
196 -> 200 ;
201 [label="gini = 0.0\nsamples = 3\nvalue = [6, 0, 0, 0]"] ;
195 -> 201 ;
202 [label="X[0] <= 0.2412\ngini = 0.1884\nsamples = 46\nvalue = [68, 8, 0, 0]"] ;
182 -> 202 ;
203 [label="X[1] <= 0.0263\ngini = 0.1014\nsamples = 34\nvalue = [53, 3, 0, 0]"] ;
202 -> 203 ;
204 [label="gini = 0.0\nsamples = 1\nvalue = [0, 1, 0, 0]"] ;
203 -> 204 ;
205 [label="X[2] <= 0.6363\ngini = 0.0701\nsamples = 33\nvalue = [53, 2, 0, 0]"] ;
203 -> 205 ;
206 [label="X[2] <= 0.5312\ngini = 0.037\nsamples = 31\nvalue = [52, 1, 0, 0]"] ;
205 -> 206 ;
207 [label="gini = 0.0\nsamples = 26\nvalue = [44, 0, 0, 0]"] ;
206 -> 207 ;
208 [label="X[3] <= 0.2758\ngini = 0.1975\nsamples = 5\nvalue = [8, 1, 0, 0]"] ;
206 -> 208 ;
209 [label="gini = 0.0\nsamples = 1\nvalue = [0, 1, 0, 0]"] ;
208 -> 209 ;
210 [label="gini = 0.0\nsamples = 4\nvalue = [8, 0, 0, 0]"] ;
208 -> 210 ;
211 [label="X[5] <= 0.1512\ngini = 0.5\nsamples = 2\nvalue = [1, 1, 0, 0]"] ;
205 -> 211 ;
212 [label="gini = 0.0\nsamples = 1\nvalue = [0, 1, 0, 0]"] ;
211 -> 212 ;
213 [label="gini = 0.0\nsamples = 1\nvalue = [1, 0, 0, 0]"] ;
211 -> 213 ;
214 [label="X[6] <= 0.1858\ngini = 0.375\nsamples = 12\nvalue = [15, 5, 0, 0]"] ;
202 -> 214 ;
215 [label="gini = 0.0\nsamples = 1\nvalue = [0, 1, 0, 0]"] ;
214 -> 215 ;
216 [label="X[5] <= 0.218\ngini = 0.3324\nsamples = 11\nvalue = [15, 4, 0, 0]"] ;
214 -> 216 ;
217 [label="X[1] <= 0.1421\ngini = 0.2449\nsamples = 8\nvalue = [12, 2, 0, 0]"] ;
216 -> 217 ;
218 [label="gini = 0.0\nsamples = 3\nvalue = [6, 0, 0, 0]"] ;
217 -> 218 ;
219 [label="X[3] <= 0.2771\ngini = 0.375\nsamples = 5\nvalue = [6, 2, 0, 0]"] ;
217 -> 219 ;
220 [label="gini = 0.0\nsamples = 1\nvalue = [0, 2, 0, 0]"] ;
219 -> 220 ;
221 [label="gini = 0.0\nsamples = 4\nvalue = [6, 0, 0, 0]"] ;
219 -> 221 ;
222 [label="X[3] <= 0.4208\ngini = 0.48\nsamples = 3\nvalue = [3, 2, 0, 0]"] ;
216 -> 222 ;
223 [label="gini = 0.0\nsamples = 1\nvalue = [0, 2, 0, 0]"] ;
222 -> 223 ;
224 [label="gini = 0.0\nsamples = 2\nvalue = [3, 0, 0, 0]"] ;
222 -> 224 ;
225 [label="X[0] <= 0.3596\ngini = 0.3804\nsamples = 117\nvalue = [132, 42, 2, 0]"] ;
1 -> 225 ;
226 [label="X[0] <= 0.1974\ngini = 0.4377\nsamples = 70\nvalue = [69, 33, 0, 0]"] ;
225 -> 226 ;
227 [label="X[0] <= 0.1711\ngini = 0.2188\nsamples = 16\nvalue = [21, 3, 0, 0]"] ;
226 -> 227 ;
228 [label="gini = 0.0\nsamples = 5\nvalue = [9, 0, 0, 0]"] ;
227 -> 228 ;
229 [label="X[5] <= 0.2994\ngini = 0.32\nsamples = 11\nvalue = [12, 3, 0, 0]"] ;
227 -> 229 ;
230 [label="X[4] <= 0.5083\ngini = 0.4444\nsamples = 7\nvalue = [6, 3, 0, 0]"] ;
229 -> 230 ;
231 [label="gini = 0.0\nsamples = 3\nvalue = [5, 0, 0, 0]"] ;
230 -> 231 ;
232 [label="X[5] <= 0.2529\ngini = 0.375\nsamples = 4\nvalue = [1, 3, 0, 0]"] ;
230 -> 232 ;
233 [label="gini = 0.0\nsamples = 1\nvalue = [1, 0, 0, 0]"] ;
232 -> 233 ;
234 [label="gini = 0.0\nsamples = 3\nvalue = [0, 3, 0, 0]"] ;
232 -> 234 ;
235 [label="gini = 0.0\nsamples = 4\nvalue = [6, 0, 0, 0]"] ;
229 -> 235 ;
236 [label="X[2] <= 0.0799\ngini = 0.4734\nsamples = 54\nvalue = [48, 30, 0, 0]"] ;
226 -> 236 ;
237 [label="X[0] <= 0.2895\ngini = 0.2659\nsamples = 13\nvalue = [16, 3, 0, 0]"] ;
236 -> 237 ;
238 [label="gini = 0.0\nsamples = 8\nvalue = [12, 0, 0, 0]"] ;
237 -> 238 ;
239 [label="X[2] <= 0.0556\ngini = 0.4898\nsamples = 5\nvalue = [4, 3, 0, 0]"] ;
237 -> 239 ;
240 [label="X[0] <= 0.3114\ngini = 0.32\nsamples = 4\nvalue = [4, 1, 0, 0]"] ;
239 -> 240 ;
241 [label="gini = 0.0\nsamples = 1\nvalue = [0, 1, 0, 0]"] ;
240 -> 241 ;
242 [label="gini = 0.0\nsamples = 3\nvalue = [4, 0, 0, 0]"] ;
240 -> 242 ;
243 [label="gini = 0.0\nsamples = 1\nvalue = [0, 2, 0, 0]"] ;
239 -> 243 ;
244 [label="X[6] <= 0.2212\ngini = 0.4964\nsamples = 41\nvalue = [32, 27, 0, 0]"] ;
236 -> 244 ;
245 [label="X[2] <= 0.559\ngini = 0.3457\nsamples = 14\nvalue = [14, 4, 0, 0]"] ;
244 -> 245 ;
246 [label="gini = 0.0\nsamples = 7\nvalue = [8, 0, 0, 0]"] ;
245 -> 246 ;
247 [label="X[2] <= 0.6007\ngini = 0.48\nsamples = 7\nvalue = [6, 4, 0, 0]"] ;
245 -> 247 ;
248 [label="X[0] <= 0.2325\ngini = 0.48\nsamples = 3\nvalue = [2, 3, 0, 0]"] ;
247 -> 248 ;
249 [label="gini = 0.0\nsamples = 1\nvalue = [2, 0, 0, 0]"] ;
248 -> 249 ;
250 [label="gini = 0.0\nsamples = 2\nvalue = [0, 3, 0, 0]"] ;
248 -> 250 ;
251 [label="X[5] <= 0.2907\ngini = 0.32\nsamples = 4\nvalue = [4, 1, 0, 0]"] ;
247 -> 251 ;
252 [label="gini = 0.0\nsamples = 1\nvalue = [2, 0, 0, 0]"] ;
251 -> 252 ;
253 [label="X[3] <= 0.4432\ngini = 0.4444\nsamples = 3\nvalue = [2, 1, 0, 0]"] ;
251 -> 253 ;
254 [label="gini = 0.0\nsamples = 2\nvalue = [2, 0, 0, 0]"] ;
253 -> 254 ;
255 [label="gini = 0.0\nsamples = 1\nvalue = [0, 1, 0, 0]"] ;
253 -> 255 ;
256 [label="X[3] <= 0.4152\ngini = 0.4926\nsamples = 27\nvalue = [18, 23, 0, 0]"] ;
244 -> 256 ;
257 [label="X[3] <= 0.2706\ngini = 0.455\nsamples = 16\nvalue = [13, 7, 0, 0]"] ;
256 -> 257 ;
258 [label="X[3] <= 0.2253\ngini = 0.32\nsamples = 5\nvalue = [1, 4, 0, 0]"] ;
257 -> 258 ;
259 [label="gini = 0.0\nsamples = 2\nvalue = [0, 2, 0, 0]"] ;
258 -> 259 ;
260 [label="X[3] <= 0.2447\ngini = 0.4444\nsamples = 3\nvalue = [1, 2, 0, 0]"] ;
258 -> 260 ;
261 [label="gini = 0.0\nsamples = 1\nvalue = [1, 0, 0, 0]"] ;
260 -> 261 ;
262 [label="gini = 0.0\nsamples = 2\nvalue = [0, 2, 0, 0]"] ;
260 -> 262 ;
263 [label="X[2] <= 0.3802\ngini = 0.32\nsamples = 11\nvalue = [12, 3, 0, 0]"] ;
257 -> 263 ;
264 [label="gini = 0.0\nsamples = 4\nvalue = [5, 0, 0, 0]"] ;
263 -> 264 ;
265 [label="X[2] <= 0.4497\ngini = 0.42\nsamples = 7\nvalue = [7, 3, 0, 0]"] ;
263 -> 265 ;
266 [label="gini = 0.0\nsamples = 2\nvalue = [0, 2, 0, 0]"] ;
265 -> 266 ;
267 [label="X[6] <= 0.2832\ngini = 0.2188\nsamples = 5\nvalue = [7, 1, 0, 0]"] ;
265 -> 267 ;
268 [label="gini = 0.0\nsamples = 1\nvalue = [0, 1, 0, 0]"] ;
267 -> 268 ;
269 [label="gini = 0.0\nsamples = 4\nvalue = [7, 0, 0, 0]"] ;
267 -> 269 ;
270 [label="X[6] <= 0.3451\ngini = 0.3628\nsamples = 11\nvalue = [5, 16, 0, 0]"] ;
256 -> 270 ;
271 [label="gini = 0.0\nsamples = 5\nvalue = [0, 12, 0, 0]"] ;
270 -> 271 ;
272 [label="X[4] <= 0.6198\ngini = 0.4938\nsamples = 6\nvalue = [5, 4, 0, 0]"] ;
270 -> 272 ;
273 [label="gini = 0.0\nsamples = 4\nvalue = [5, 0, 0, 0]"] ;
272 -> 273 ;
274 [label="gini = 0.0\nsamples = 2\nvalue = [0, 4, 0, 0]"] ;
272 -> 274 ;
275 [label="X[0] <= 0.75\ngini = 0.2597\nsamples = 47\nvalue = [63, 9, 2, 0]"] ;
225 -> 275 ;
276 [label="X[4] <= 0.1074\ngini = 0.147\nsamples = 41\nvalue = [59, 3, 2, 0]"] ;
275 -> 276 ;
277 [label="X[2] <= 0.3438\ngini = 0.4444\nsamples = 2\nvalue = [1, 0, 2, 0]"] ;
276 -> 277 ;
278 [label="gini = 0.0\nsamples = 1\nvalue = [0, 0, 2, 0]"] ;
277 -> 278 ;
279 [label="gini = 0.0\nsamples = 1\nvalue = [1, 0, 0, 0]"] ;
277 -> 279 ;
280 [label="X[6] <= 0.3717\ngini = 0.0935\nsamples = 39\nvalue = [58, 3, 0, 0]"] ;
276 -> 280 ;
281 [label="X[3] <= 0.4605\ngini = 0.0384\nsamples = 31\nvalue = [50, 1, 0, 0]"] ;
280 -> 281 ;
282 [label="X[1] <= 0.3026\ngini = 0.32\nsamples = 4\nvalue = [4, 1, 0, 0]"] ;
281 -> 282 ;
283 [label="gini = 0.0\nsamples = 1\nvalue = [0, 1, 0, 0]"] ;
282 -> 283 ;
284 [label="gini = 0.0\nsamples = 3\nvalue = [4, 0, 0, 0]"] ;
282 -> 284 ;
285 [label="gini = 0.0\nsamples = 27\nvalue = [46, 0, 0, 0]"] ;
281 -> 285 ;
286 [label="X[2] <= 0.1927\ngini = 0.32\nsamples = 8\nvalue = [8, 2, 0, 0]"] ;
280 -> 286 ;
287 [label="X[4] <= 0.3264\ngini = 0.1975\nsamples = 7\nvalue = [8, 1, 0, 0]"] ;
286 -> 287 ;
288 [label="gini = 0.0\nsamples = 1\nvalue = [0, 1, 0, 0]"] ;
287 -> 288 ;
289 [label="gini = 0.0\nsamples = 6\nvalue = [8, 0, 0, 0]"] ;
287 -> 289 ;
290 [label="gini = 0.0\nsamples = 1\nvalue = [0, 1, 0, 0]"] ;
286 -> 290 ;
291 [label="X[2] <= 0.1267\ngini = 0.48\nsamples = 6\nvalue = [4, 6, 0, 0]"] ;
275 -> 291 ;
292 [label="X[0] <= 0.8202\ngini = 0.2449\nsamples = 4\nvalue = [1, 6, 0, 0]"] ;
291 -> 292 ;
293 [label="gini = 0.0\nsamples = 3\nvalue = [0, 6, 0, 0]"] ;
292 -> 293 ;
294 [label="gini = 0.0\nsamples = 1\nvalue = [1, 0, 0, 0]"] ;
292 -> 294 ;
295 [label="gini = 0.0\nsamples = 2\nvalue = [3, 0, 0, 0]"] ;
291 -> 295 ;
296 [label="X[4] <= 0.219\ngini = 0.5614\nsamples = 613\nvalue = [517, 374, 80, 0]"] ;
0 -> 296 [labeldistance=2.5, labelangle=-45, headlabel="False"] ;
297 [label="X[2] <= 0.0434\ngini = 0.4183\nsamples = 107\nvalue = [119, 31, 12, 0]"] ;
296 -> 297 ;
298 [label="gini = 0.0\nsamples = 1\nvalue = [0, 2, 0, 0]"] ;
297 -> 298 ;
299 [label="X[6] <= 0.5044\ngini = 0.4084\nsamples = 106\nvalue = [119, 29, 12, 0]"] ;
297 -> 299 ;
300 [label="X[5] <= 0.0581\ngini = 0.0555\nsamples = 27\nvalue = [34, 1, 0, 0]"] ;
299 -> 300 ;
301 [label="X[0] <= 0.2763\ngini = 0.4444\nsamples = 3\nvalue = [2, 1, 0, 0]"] ;
300 -> 301 ;
302 [label="gini = 0.0\nsamples = 2\nvalue = [2, 0, 0, 0]"] ;
301 -> 302 ;
303 [label="gini = 0.0\nsamples = 1\nvalue = [0, 1, 0, 0]"] ;
301 -> 303 ;
304 [label="gini = 0.0\nsamples = 24\nvalue = [32, 0, 0, 0]"] ;
300 -> 304 ;
305 [label="X[5] <= 0.0727\ngini = 0.4782\nsamples = 79\nvalue = [85, 28, 12, 0]"] ;
299 -> 305 ;
306 [label="X[6] <= 0.6549\ngini = 0.6259\nsamples = 15\nvalue = [7, 4, 10, 0]"] ;
305 -> 306 ;
307 [label="X[4] <= 0.1612\ngini = 0.5312\nsamples = 8\nvalue = [5, 2, 1, 0]"] ;
306 -> 307 ;
308 [label="gini = 0.0\nsamples = 1\nvalue = [0, 1, 0, 0]"] ;
307 -> 308 ;
309 [label="X[3] <= 0.1554\ngini = 0.449\nsamples = 7\nvalue = [5, 1, 1, 0]"] ;
307 -> 309 ;
310 [label="gini = 0.0\nsamples = 1\nvalue = [0, 0, 1, 0]"] ;
309 -> 310 ;
311 [label="X[0] <= 0.3377\ngini = 0.2778\nsamples = 6\nvalue = [5, 1, 0, 0]"] ;
309 -> 311 ;
312 [label="X[5] <= 0.0581\ngini = 0.4444\nsamples = 3\nvalue = [2, 1, 0, 0]"] ;
311 -> 312 ;
313 [label="X[2] <= 0.4896\ngini = 0.5\nsamples = 2\nvalue = [1, 1, 0, 0]"] ;
312 -> 313 ;
314 [label="gini = 0.0\nsamples = 1\nvalue = [0, 1, 0, 0]"] ;
313 -> 314 ;
315 [label="gini = 0.0\nsamples = 1\nvalue = [1, 0, 0, 0]"] ;
313 -> 315 ;
316 [label="gini = 0.0\nsamples = 1\nvalue = [1, 0, 0, 0]"] ;
312 -> 316 ;
317 [label="gini = 0.0\nsamples = 3\nvalue = [3, 0, 0, 0]"] ;
311 -> 317 ;
318 [label="X[0] <= 0.2939\ngini = 0.4734\nsamples = 7\nvalue = [2, 2, 9, 0]"] ;
306 -> 318 ;
319 [label="gini = 0.0\nsamples = 4\nvalue = [0, 0, 9, 0]"] ;
318 -> 319 ;
320 [label="X[0] <= 0.3377\ngini = 0.5\nsamples = 3\nvalue = [2, 2, 0, 0]"] ;
318 -> 320 ;
321 [label="gini = 0.0\nsamples = 2\nvalue = [2, 0, 0, 0]"] ;
320 -> 321 ;
322 [label="gini = 0.0\nsamples = 1\nvalue = [0, 2, 0, 0]"] ;
320 -> 322 ;
323 [label="X[6] <= 0.5192\ngini = 0.3839\nsamples = 64\nvalue = [78, 24, 2, 0]"] ;
305 -> 323 ;
324 [label="X[0] <= 0.2412\ngini = 0.375\nsamples = 6\nvalue = [2, 6, 0, 0]"] ;
323 -> 324 ;
325 [label="gini = 0.0\nsamples = 2\nvalue = [2, 0, 0, 0]"] ;
324 -> 325 ;
326 [label="gini = 0.0\nsamples = 4\nvalue = [0, 6, 0, 0]"] ;
324 -> 326 ;
327 [label="X[1] <= 0.2263\ngini = 0.3377\nsamples = 58\nvalue = [76, 18, 2, 0]"] ;
323 -> 327 ;
328 [label="X[6] <= 0.7876\ngini = 0.4229\nsamples = 44\nvalue = [50, 18, 2, 0]"] ;
327 -> 328 ;
329 [label="X[1] <= 0.1842\ngini = 0.3921\nsamples = 42\nvalue = [50, 15, 2, 0]"] ;
328 -> 329 ;
330 [label="X[4] <= 0.1694\ngini = 0.2098\nsamples = 27\nvalue = [37, 5, 0, 0]"] ;
329 -> 330 ;
331 [label="X[4] <= 0.1529\ngini = 0.4082\nsamples = 11\nvalue = [10, 4, 0, 0]"] ;
330 -> 331 ;
332 [label="X[6] <= 0.5841\ngini = 0.18\nsamples = 8\nvalue = [9, 1, 0, 0]"] ;
331 -> 332 ;
333 [label="X[4] <= 0.1281\ngini = 0.5\nsamples = 2\nvalue = [1, 1, 0, 0]"] ;
332 -> 333 ;
334 [label="gini = 0.0\nsamples = 1\nvalue = [0, 1, 0, 0]"] ;
333 -> 334 ;
335 [label="gini = 0.0\nsamples = 1\nvalue = [1, 0, 0, 0]"] ;
333 -> 335 ;
336 [label="gini = 0.0\nsamples = 6\nvalue = [8, 0, 0, 0]"] ;
332 -> 336 ;
337 [label="X[5] <= 0.2151\ngini = 0.375\nsamples = 3\nvalue = [1, 3, 0, 0]"] ;
331 -> 337 ;
338 [label="gini = 0.0\nsamples = 2\nvalue = [0, 3, 0, 0]"] ;
337 -> 338 ;
339 [label="gini = 0.0\nsamples = 1\nvalue = [1, 0, 0, 0]"] ;
337 -> 339 ;
340 [label="X[2] <= 0.3802\ngini = 0.0689\nsamples = 16\nvalue = [27, 1, 0, 0]"] ;
330 -> 340 ;
341 [label="gini = 0.0\nsamples = 8\nvalue = [17, 0, 0, 0]"] ;
340 -> 341 ;
342 [label="X[4] <= 0.2025\ngini = 0.1653\nsamples = 8\nvalue = [10, 1, 0, 0]"] ;
340 -> 342 ;
343 [label="gini = 0.0\nsamples = 5\nvalue = [7, 0, 0, 0]"] ;
342 -> 343 ;
344 [label="X[5] <= 0.1337\ngini = 0.375\nsamples = 3\nvalue = [3, 1, 0, 0]"] ;
342 -> 344 ;
345 [label="gini = 0.0\nsamples = 2\nvalue = [3, 0, 0, 0]"] ;
344 -> 345 ;
346 [label="gini = 0.0\nsamples = 1\nvalue = [0, 1, 0, 0]"] ;
344 -> 346 ;
347 [label="X[0] <= 0.3289\ngini = 0.5632\nsamples = 15\nvalue = [13, 10, 2, 0]"] ;
329 -> 347 ;
348 [label="X[2] <= 0.2847\ngini = 0.5762\nsamples = 12\nvalue = [7, 10, 2, 0]"] ;
347 -> 348 ;
349 [label="gini = 0.0\nsamples = 1\nvalue = [0, 0, 2, 0]"] ;
348 -> 349 ;
350 [label="X[4] <= 0.1777\ngini = 0.4844\nsamples = 11\nvalue = [7, 10, 0, 0]"] ;
348 -> 350 ;
351 [label="X[3] <= 0.2154\ngini = 0.2449\nsamples = 6\nvalue = [1, 6, 0, 0]"] ;
350 -> 351 ;
352 [label="gini = 0.0\nsamples = 4\nvalue = [0, 5, 0, 0]"] ;
351 -> 352 ;
353 [label="X[3] <= 0.2598\ngini = 0.5\nsamples = 2\nvalue = [1, 1, 0, 0]"] ;
351 -> 353 ;
354 [label="gini = 0.0\nsamples = 1\nvalue = [1, 0, 0, 0]"] ;
353 -> 354 ;
355 [label="gini = 0.0\nsamples = 1\nvalue = [0, 1, 0, 0]"] ;
353 -> 355 ;
356 [label="X[6] <= 0.6018\ngini = 0.48\nsamples = 5\nvalue = [6, 4, 0, 0]"] ;
350 -> 356 ;
357 [label="X[2] <= 0.441\ngini = 0.4444\nsamples = 3\nvalue = [2, 4, 0, 0]"] ;
356 -> 357 ;
358 [label="gini = 0.0\nsamples = 2\nvalue = [0, 4, 0, 0]"] ;
357 -> 358 ;
359 [label="gini = 0.0\nsamples = 1\nvalue = [2, 0, 0, 0]"] ;
357 -> 359 ;
360 [label="gini = 0.0\nsamples = 2\nvalue = [4, 0, 0, 0]"] ;
356 -> 360 ;
361 [label="gini = 0.0\nsamples = 3\nvalue = [6, 0, 0, 0]"] ;
347 -> 361 ;
362 [label="gini = 0.0\nsamples = 2\nvalue = [0, 3, 0, 0]"] ;
328 -> 362 ;
363 [label="gini = 0.0\nsamples = 14\nvalue = [26, 0, 0, 0]"] ;
327 -> 363 ;
364 [label="X[3] <= 0.106\ngini = 0.5711\nsamples = 506\nvalue = [398, 343, 68, 0]"] ;
296 -> 364 ;
365 [label="X[4] <= 0.4917\ngini = 0.5775\nsamples = 54\nvalue = [27, 51, 13, 0]"] ;
364 -> 365 ;
366 [label="X[5] <= 0.0669\ngini = 0.6167\nsamples = 46\nvalue = [26, 37, 13, 0]"] ;
365 -> 366 ;
367 [label="gini = 0.0\nsamples = 4\nvalue = [0, 0, 8, 0]"] ;
366 -> 367 ;
368 [label="X[0] <= 0.2061\ngini = 0.5523\nsamples = 42\nvalue = [26, 37, 5, 0]"] ;
366 -> 368 ;
369 [label="X[6] <= 0.7699\ngini = 0.5773\nsamples = 31\nvalue = [25, 18, 5, 0]"] ;
368 -> 369 ;
370 [label="X[0] <= 0.0921\ngini = 0.2778\nsamples = 15\nvalue = [20, 4, 0, 0]"] ;
369 -> 370 ;
371 [label="gini = 0.0\nsamples = 2\nvalue = [0, 3, 0, 0]"] ;
370 -> 371 ;
372 [label="X[4] <= 0.4132\ngini = 0.0907\nsamples = 13\nvalue = [20, 1, 0, 0]"] ;
370 -> 372 ;
373 [label="gini = 0.0\nsamples = 12\nvalue = [20, 0, 0, 0]"] ;
372 -> 373 ;
374 [label="gini = 0.0\nsamples = 1\nvalue = [0, 1, 0, 0]"] ;
372 -> 374 ;
375 [label="X[1] <= 0.2\ngini = 0.5729\nsamples = 16\nvalue = [5, 14, 5, 0]"] ;
369 -> 375 ;
376 [label="X[1] <= 0.0895\ngini = 0.5714\nsamples = 5\nvalue = [4, 1, 2, 0]"] ;
375 -> 376 ;
377 [label="gini = 0.0\nsamples = 1\nvalue = [0, 0, 2, 0]"] ;
376 -> 377 ;
378 [label="X[5] <= 0.2093\ngini = 0.32\nsamples = 4\nvalue = [4, 1, 0, 0]"] ;
376 -> 378 ;
379 [label="gini = 0.0\nsamples = 2\nvalue = [3, 0, 0, 0]"] ;
378 -> 379 ;
380 [label="X[4] <= 0.2975\ngini = 0.5\nsamples = 2\nvalue = [1, 1, 0, 0]"] ;
378 -> 380 ;
381 [label="gini = 0.0\nsamples = 1\nvalue = [0, 1, 0, 0]"] ;
380 -> 381 ;
382 [label="gini = 0.0\nsamples = 1\nvalue = [1, 0, 0, 0]"] ;
380 -> 382 ;
383 [label="X[4] <= 0.4752\ngini = 0.3806\nsamples = 11\nvalue = [1, 13, 3, 0]"] ;
375 -> 383 ;
384 [label="X[4] <= 0.3099\ngini = 0.3203\nsamples = 10\nvalue = [1, 13, 2, 0]"] ;
383 -> 384 ;
385 [label="X[3] <= 0.0433\ngini = 0.5\nsamples = 2\nvalue = [1, 1, 0, 0]"] ;
384 -> 385 ;
386 [label="gini = 0.0\nsamples = 1\nvalue = [0, 1, 0, 0]"] ;
385 -> 386 ;
387 [label="gini = 0.0\nsamples = 1\nvalue = [1, 0, 0, 0]"] ;
385 -> 387 ;
388 [label="X[4] <= 0.4298\ngini = 0.2449\nsamples = 8\nvalue = [0, 12, 2, 0]"] ;
384 -> 388 ;
389 [label="gini = 0.0\nsamples = 5\nvalue = [0, 8, 0, 0]"] ;
388 -> 389 ;
390 [label="X[2] <= 0.4635\ngini = 0.4444\nsamples = 3\nvalue = [0, 4, 2, 0]"] ;
388 -> 390 ;
391 [label="gini = 0.0\nsamples = 2\nvalue = [0, 4, 0, 0]"] ;
390 -> 391 ;
392 [label="gini = 0.0\nsamples = 1\nvalue = [0, 0, 2, 0]"] ;
390 -> 392 ;
393 [label="gini = 0.0\nsamples = 1\nvalue = [0, 0, 1, 0]"] ;
383 -> 393 ;
394 [label="X[2] <= 0.3507\ngini = 0.095\nsamples = 11\nvalue = [1, 19, 0, 0]"] ;
368 -> 394 ;
395 [label="gini = 0.0\nsamples = 5\nvalue = [0, 11, 0, 0]"] ;
394 -> 395 ;
396 [label="X[2] <= 0.3767\ngini = 0.1975\nsamples = 6\nvalue = [1, 8, 0, 0]"] ;
394 -> 396 ;
397 [label="gini = 0.0\nsamples = 1\nvalue = [1, 0, 0, 0]"] ;
396 -> 397 ;
398 [label="gini = 0.0\nsamples = 5\nvalue = [0, 8, 0, 0]"] ;
396 -> 398 ;
399 [label="X[5] <= 0.0756\ngini = 0.1244\nsamples = 8\nvalue = [1, 14, 0, 0]"] ;
365 -> 399 ;
400 [label="X[4] <= 0.5496\ngini = 0.5\nsamples = 2\nvalue = [1, 1, 0, 0]"] ;
399 -> 400 ;
401 [label="gini = 0.0\nsamples = 1\nvalue = [0, 1, 0, 0]"] ;
400 -> 401 ;
402 [label="gini = 0.0\nsamples = 1\nvalue = [1, 0, 0, 0]"] ;
400 -> 402 ;
403 [label="gini = 0.0\nsamples = 6\nvalue = [0, 13, 0, 0]"] ;
399 -> 403 ;
404 [label="X[5] <= 0.1948\ngini = 0.5617\nsamples = 452\nvalue = [371, 292, 55, 0]"] ;
364 -> 404 ;
405 [label="X[3] <= 0.177\ngini = 0.533\nsamples = 263\nvalue = [233, 150, 24, 0]"] ;
404 -> 405 ;
406 [label="X[5] <= 0.1657\ngini = 0.5365\nsamples = 117\nvalue = [97, 81, 8, 0]"] ;
405 -> 406 ;
407 [label="X[6] <= 0.5693\ngini = 0.5347\nsamples = 102\nvalue = [80, 76, 6, 0]"] ;
406 -> 407 ;
408 [label="X[3] <= 0.1495\ngini = 0.4506\nsamples = 24\nvalue = [12, 23, 0, 0]"] ;
407 -> 408 ;
409 [label="X[1] <= 0.2737\ngini = 0.142\nsamples = 7\nvalue = [1, 12, 0, 0]"] ;
408 -> 409 ;
410 [label="gini = 0.0\nsamples = 6\nvalue = [0, 12, 0, 0]"] ;
409 -> 410 ;
411 [label="gini = 0.0\nsamples = 1\nvalue = [1, 0, 0, 0]"] ;
409 -> 411 ;
412 [label="X[3] <= 0.1744\ngini = 0.5\nsamples = 17\nvalue = [11, 11, 0, 0]"] ;
408 -> 412 ;
413 [label="X[6] <= 0.4513\ngini = 0.4688\nsamples = 13\nvalue = [10, 6, 0, 0]"] ;
412 -> 413 ;
414 [label="gini = 0.0\nsamples = 2\nvalue = [0, 2, 0, 0]"] ;
413 -> 414 ;
415 [label="X[1] <= 0.2579\ngini = 0.4082\nsamples = 11\nvalue = [10, 4, 0, 0]"] ;
413 -> 415 ;
416 [label="X[2] <= 0.2483\ngini = 0.2778\nsamples = 9\nvalue = [10, 2, 0, 0]"] ;
415 -> 416 ;
417 [label="gini = 0.0\nsamples = 1\nvalue = [0, 1, 0, 0]"] ;
416 -> 417 ;
418 [label="X[6] <= 0.469\ngini = 0.1653\nsamples = 8\nvalue = [10, 1, 0, 0]"] ;
416 -> 418 ;
419 [label="X[3] <= 0.1657\ngini = 0.4444\nsamples = 2\nvalue = [2, 1, 0, 0]"] ;
418 -> 419 ;
420 [label="gini = 0.0\nsamples = 1\nvalue = [0, 1, 0, 0]"] ;
419 -> 420 ;
421 [label="gini = 0.0\nsamples = 1\nvalue = [2, 0, 0, 0]"] ;
419 -> 421 ;
422 [label="gini = 0.0\nsamples = 6\nvalue = [8, 0, 0, 0]"] ;
418 -> 422 ;
423 [label="gini = 0.0\nsamples = 2\nvalue = [0, 2, 0, 0]"] ;
415 -> 423 ;
424 [label="X[0] <= 0.2105\ngini = 0.2778\nsamples = 4\nvalue = [1, 5, 0, 0]"] ;
412 -> 424 ;
425 [label="gini = 0.0\nsamples = 3\nvalue = [0, 5, 0, 0]"] ;
424 -> 425 ;
426 [label="gini = 0.0\nsamples = 1\nvalue = [1, 0, 0, 0]"] ;
424 -> 426 ;
427 [label="X[4] <= 0.4174\ngini = 0.5369\nsamples = 78\nvalue = [68, 53, 6, 0]"] ;
407 -> 427 ;
428 [label="X[4] <= 0.2603\ngini = 0.5522\nsamples = 63\nvalue = [50, 49, 6, 0]"] ;
427 -> 428 ;
429 [label="X[3] <= 0.1627\ngini = 0.3856\nsamples = 13\nvalue = [17, 6, 0, 0]"] ;
428 -> 429 ;
430 [label="X[5] <= 0.1424\ngini = 0.3512\nsamples = 12\nvalue = [17, 5, 0, 0]"] ;
429 -> 430 ;
431 [label="X[6] <= 0.7345\ngini = 0.255\nsamples = 10\nvalue = [17, 3, 0, 0]"] ;
430 -> 431 ;
432 [label="X[1] <= 0.2526\ngini = 0.1049\nsamples = 8\nvalue = [17, 1, 0, 0]"] ;
431 -> 432 ;
433 [label="gini = 0.0\nsamples = 7\nvalue = [17, 0, 0, 0]"] ;
432 -> 433 ;
434 [label="gini = 0.0\nsamples = 1\nvalue = [0, 1, 0, 0]"] ;
432 -> 434 ;
435 [label="gini = 0.0\nsamples = 2\nvalue = [0, 2, 0, 0]"] ;
431 -> 435 ;
436 [label="gini = 0.0\nsamples = 2\nvalue = [0, 2, 0, 0]"] ;
430 -> 436 ;
437 [label="gini = 0.0\nsamples = 1\nvalue = [0, 1, 0, 0]"] ;
429 -> 437 ;
438 [label="X[1] <= 0.2053\ngini = 0.5577\nsamples = 50\nvalue = [33, 43, 6, 0]"] ;
428 -> 438 ;
439 [label="X[3] <= 0.1135\ngini = 0.5026\nsamples = 28\nvalue = [13, 31, 4, 0]"] ;
438 -> 439 ;
440 [label="gini = 0.0\nsamples = 2\nvalue = [6, 0, 0, 0]"] ;
439 -> 440 ;
441 [label="X[4] <= 0.4091\ngini = 0.4184\nsamples = 26\nvalue = [7, 31, 4, 0]"] ;
439 -> 441 ;
442 [label="X[1] <= 0.0947\ngini = 0.3974\nsamples = 25\nvalue = [6, 31, 4, 0]"] ;
441 -> 442 ;
443 [label="gini = 0.0\nsamples = 2\nvalue = [2, 0, 0, 0]"] ;
442 -> 443 ;
444 [label="X[6] <= 0.6637\ngini = 0.3471\nsamples = 23\nvalue = [4, 31, 4, 0]"] ;
442 -> 444 ;
445 [label="gini = 0.0\nsamples = 10\nvalue = [0, 17, 0, 0]"] ;
444 -> 445 ;
446 [label="X[0] <= 0.25\ngini = 0.5289\nsamples = 13\nvalue = [4, 14, 4, 0]"] ;
444 -> 446 ;
447 [label="X[2] <= 0.3889\ngini = 0.6224\nsamples = 9\nvalue = [4, 7, 3, 0]"] ;
446 -> 447 ;
448 [label="X[1] <= 0.1474\ngini = 0.642\nsamples = 7\nvalue = [4, 2, 3, 0]"] ;
447 -> 448 ;
449 [label="gini = 0.0\nsamples = 1\nvalue = [0, 2, 0, 0]"] ;
448 -> 449 ;
450 [label="X[6] <= 0.7345\ngini = 0.4898\nsamples = 6\nvalue = [4, 0, 3, 0]"] ;
448 -> 450 ;
451 [label="gini = 0.0\nsamples = 4\nvalue = [4, 0, 0, 0]"] ;
450 -> 451 ;
452 [label="gini = 0.0\nsamples = 2\nvalue = [0, 0, 3, 0]"] ;
450 -> 452 ;
453 [label="gini = 0.0\nsamples = 2\nvalue = [0, 5, 0, 0]"] ;
447 -> 453 ;
454 [label="X[3] <= 0.1562\ngini = 0.2188\nsamples = 4\nvalue = [0, 7, 1, 0]"] ;
446 -> 454 ;
455 [label="gini = 0.0\nsamples = 2\nvalue = [0, 5, 0, 0]"] ;
454 -> 455 ;
456 [label="X[3] <= 0.1649\ngini = 0.4444\nsamples = 2\nvalue = [0, 2, 1, 0]"] ;
454 -> 456 ;
457 [label="gini = 0.0\nsamples = 1\nvalue = [0, 0, 1, 0]"] ;
456 -> 457 ;
458 [label="gini = 0.0\nsamples = 1\nvalue = [0, 2, 0, 0]"] ;
456 -> 458 ;
459 [label="gini = 0.0\nsamples = 1\nvalue = [1, 0, 0, 0]"] ;
441 -> 459 ;
460 [label="X[0] <= 0.2412\ngini = 0.526\nsamples = 22\nvalue = [20, 12, 2, 0]"] ;
438 -> 460 ;
461 [label="X[0] <= 0.0789\ngini = 0.5762\nsamples = 13\nvalue = [7, 10, 2, 0]"] ;
460 -> 461 ;
462 [label="gini = 0.0\nsamples = 1\nvalue = [0, 0, 2, 0]"] ;
461 -> 462 ;
463 [label="X[3] <= 0.1064\ngini = 0.4844\nsamples = 12\nvalue = [7, 10, 0, 0]"] ;
461 -> 463 ;
464 [label="gini = 0.0\nsamples = 1\nvalue = [3, 0, 0, 0]"] ;
463 -> 464 ;
465 [label="X[1] <= 0.2211\ngini = 0.4082\nsamples = 11\nvalue = [4, 10, 0, 0]"] ;
463 -> 465 ;
466 [label="gini = 0.0\nsamples = 1\nvalue = [1, 0, 0, 0]"] ;
465 -> 466 ;
467 [label="X[2] <= 0.2865\ngini = 0.355\nsamples = 10\nvalue = [3, 10, 0, 0]"] ;
465 -> 467 ;
468 [label="X[5] <= 0.0552\ngini = 0.4444\nsamples = 2\nvalue = [2, 1, 0, 0]"] ;
467 -> 468 ;
469 [label="gini = 0.0\nsamples = 1\nvalue = [0, 1, 0, 0]"] ;
468 -> 469 ;
470 [label="gini = 0.0\nsamples = 1\nvalue = [2, 0, 0, 0]"] ;
468 -> 470 ;
471 [label="X[6] <= 0.6549\ngini = 0.18\nsamples = 8\nvalue = [1, 9, 0, 0]"] ;
467 -> 471 ;
472 [label="gini = 0.0\nsamples = 1\nvalue = [1, 0, 0, 0]"] ;
471 -> 472 ;
473 [label="gini = 0.0\nsamples = 7\nvalue = [0, 9, 0, 0]"] ;
471 -> 473 ;
474 [label="X[2] <= 0.4306\ngini = 0.2311\nsamples = 9\nvalue = [13, 2, 0, 0]"] ;
460 -> 474 ;
475 [label="gini = 0.0\nsamples = 6\nvalue = [11, 0, 0, 0]"] ;
474 -> 475 ;
476 [label="X[2] <= 0.4826\ngini = 0.5\nsamples = 3\nvalue = [2, 2, 0, 0]"] ;
474 -> 476 ;
477 [label="gini = 0.0\nsamples = 2\nvalue = [0, 2, 0, 0]"] ;
476 -> 477 ;
478 [label="gini = 0.0\nsamples = 1\nvalue = [2, 0, 0, 0]"] ;
476 -> 478 ;
479 [label="X[2] <= 0.4097\ngini = 0.2975\nsamples = 15\nvalue = [18, 4, 0, 0]"] ;
427 -> 479 ;
480 [label="X[1] <= 0.1263\ngini = 0.1172\nsamples = 10\nvalue = [15, 1, 0, 0]"] ;
479 -> 480 ;
481 [label="X[1] <= 0.0895\ngini = 0.375\nsamples = 2\nvalue = [3, 1, 0, 0]"] ;
480 -> 481 ;
482 [label="gini = 0.0\nsamples = 1\nvalue = [3, 0, 0, 0]"] ;
481 -> 482 ;
483 [label="gini = 0.0\nsamples = 1\nvalue = [0, 1, 0, 0]"] ;
481 -> 483 ;
484 [label="gini = 0.0\nsamples = 8\nvalue = [12, 0, 0, 0]"] ;
480 -> 484 ;
485 [label="X[4] <= 0.4339\ngini = 0.5\nsamples = 5\nvalue = [3, 3, 0, 0]"] ;
479 -> 485 ;
486 [label="gini = 0.0\nsamples = 1\nvalue = [1, 0, 0, 0]"] ;
485 -> 486 ;
487 [label="X[3] <= 0.1558\ngini = 0.48\nsamples = 4\nvalue = [2, 3, 0, 0]"] ;
485 -> 487 ;
488 [label="gini = 0.0\nsamples = 2\nvalue = [2, 0, 0, 0]"] ;
487 -> 488 ;
489 [label="gini = 0.0\nsamples = 2\nvalue = [0, 3, 0, 0]"] ;
487 -> 489 ;
490 [label="X[3] <= 0.1321\ngini = 0.4479\nsamples = 15\nvalue = [17, 5, 2, 0]"] ;
406 -> 490 ;
491 [label="X[2] <= 0.3385\ngini = 0.4444\nsamples = 3\nvalue = [0, 2, 1, 0]"] ;
490 -> 491 ;
492 [label="gini = 0.0\nsamples = 2\nvalue = [0, 2, 0, 0]"] ;
491 -> 492 ;
493 [label="gini = 0.0\nsamples = 1\nvalue = [0, 0, 1, 0]"] ;
491 -> 493 ;
494 [label="X[0] <= 0.2588\ngini = 0.322\nsamples = 12\nvalue = [17, 3, 1, 0]"] ;
490 -> 494 ;
495 [label="X[5] <= 0.189\ngini = 0.1884\nsamples = 10\nvalue = [17, 2, 0, 0]"] ;
494 -> 495 ;
496 [label="gini = 0.0\nsamples = 7\nvalue = [13, 0, 0, 0]"] ;
495 -> 496 ;
497 [label="X[4] <= 0.4876\ngini = 0.4444\nsamples = 3\nvalue = [4, 2, 0, 0]"] ;
495 -> 497 ;
498 [label="gini = 0.0\nsamples = 2\nvalue = [4, 0, 0, 0]"] ;
497 -> 498 ;
499 [label="gini = 0.0\nsamples = 1\nvalue = [0, 2, 0, 0]"] ;
497 -> 499 ;
500 [label="X[3] <= 0.1638\ngini = 0.5\nsamples = 2\nvalue = [0, 1, 1, 0]"] ;
494 -> 500 ;
501 [label="gini = 0.0\nsamples = 1\nvalue = [0, 1, 0, 0]"] ;
500 -> 501 ;
502 [label="gini = 0.0\nsamples = 1\nvalue = [0, 0, 1, 0]"] ;
500 -> 502 ;
503 [label="X[0] <= 0.0746\ngini = 0.5186\nsamples = 146\nvalue = [136, 69, 16, 0]"] ;
405 -> 503 ;
504 [label="X[5] <= 0.1541\ngini = 0.4444\nsamples = 2\nvalue = [0, 4, 2, 0]"] ;
503 -> 504 ;
505 [label="gini = 0.0\nsamples = 1\nvalue = [0, 4, 0, 0]"] ;
504 -> 505 ;
506 [label="gini = 0.0\nsamples = 1\nvalue = [0, 0, 2, 0]"] ;
504 -> 506 ;
507 [label="X[5] <= 0.0901\ngini = 0.5042\nsamples = 144\nvalue = [136, 65, 14, 0]"] ;
503 -> 507 ;
508 [label="X[1] <= 0.0895\ngini = 0.4047\nsamples = 29\nvalue = [35, 3, 9, 0]"] ;
507 -> 508 ;
509 [label="gini = 0.0\nsamples = 2\nvalue = [0, 0, 3, 0]"] ;
508 -> 509 ;
510 [label="X[4] <= 0.4835\ngini = 0.344\nsamples = 27\nvalue = [35, 3, 6, 0]"] ;
508 -> 510 ;
511 [label="X[5] <= 0.0465\ngini = 0.3191\nsamples = 26\nvalue = [35, 3, 5, 0]"] ;
510 -> 511 ;
512 [label="X[6] <= 0.6018\ngini = 0.625\nsamples = 3\nvalue = [1, 2, 1, 0]"] ;
511 -> 512 ;
513 [label="gini = 0.0\nsamples = 1\nvalue = [0, 2, 0, 0]"] ;
512 -> 513 ;
514 [label="X[0] <= 0.3947\ngini = 0.5\nsamples = 2\nvalue = [1, 0, 1, 0]"] ;
512 -> 514 ;
515 [label="gini = 0.0\nsamples = 1\nvalue = [0, 0, 1, 0]"] ;
514 -> 515 ;
516 [label="gini = 0.0\nsamples = 1\nvalue = [1, 0, 0, 0]"] ;
514 -> 516 ;
517 [label="X[0] <= 0.2325\ngini = 0.2288\nsamples = 23\nvalue = [34, 1, 4, 0]"] ;
511 -> 517 ;
518 [label="gini = 0.0\nsamples = 10\nvalue = [21, 0, 0, 0]"] ;
517 -> 518 ;
519 [label="X[4] <= 0.3636\ngini = 0.4259\nsamples = 13\nvalue = [13, 1, 4, 0]"] ;
517 -> 519 ;
520 [label="X[1] <= 0.2263\ngini = 0.2551\nsamples = 11\nvalue = [12, 1, 1, 0]"] ;
519 -> 520 ;
521 [label="gini = 0.0\nsamples = 4\nvalue = [7, 0, 0, 0]"] ;
520 -> 521 ;
522 [label="X[5] <= 0.064\ngini = 0.449\nsamples = 7\nvalue = [5, 1, 1, 0]"] ;
520 -> 522 ;
523 [label="gini = 0.0\nsamples = 1\nvalue = [0, 0, 1, 0]"] ;
522 -> 523 ;
524 [label="X[4] <= 0.3099\ngini = 0.2778\nsamples = 6\nvalue = [5, 1, 0, 0]"] ;
522 -> 524 ;
525 [label="gini = 0.0\nsamples = 5\nvalue = [5, 0, 0, 0]"] ;
524 -> 525 ;
526 [label="gini = 0.0\nsamples = 1\nvalue = [0, 1, 0, 0]"] ;
524 -> 526 ;
527 [label="X[2] <= 0.5312\ngini = 0.375\nsamples = 2\nvalue = [1, 0, 3, 0]"] ;
519 -> 527 ;
528 [label="gini = 0.0\nsamples = 1\nvalue = [0, 0, 3, 0]"] ;
527 -> 528 ;
529 [label="gini = 0.0\nsamples = 1\nvalue = [1, 0, 0, 0]"] ;
527 -> 529 ;
530 [label="gini = 0.0\nsamples = 1\nvalue = [0, 0, 1, 0]"] ;
510 -> 530 ;
531 [label="X[5] <= 0.1192\ngini = 0.5015\nsamples = 115\nvalue = [101, 62, 5, 0]"] ;
507 -> 531 ;
532 [label="X[0] <= 0.2851\ngini = 0.5294\nsamples = 33\nvalue = [18, 25, 2, 0]"] ;
531 -> 532 ;
533 [label="X[0] <= 0.2588\ngini = 0.5494\nsamples = 28\nvalue = [18, 16, 2, 0]"] ;
532 -> 533 ;
534 [label="X[2] <= 0.4792\ngini = 0.5322\nsamples = 21\nvalue = [9, 16, 2, 0]"] ;
533 -> 534 ;
535 [label="X[5] <= 0.1017\ngini = 0.32\nsamples = 15\nvalue = [4, 16, 0, 0]"] ;
534 -> 535 ;
536 [label="X[3] <= 0.2016\ngini = 0.48\nsamples = 4\nvalue = [3, 2, 0, 0]"] ;
535 -> 536 ;
537 [label="gini = 0.0\nsamples = 2\nvalue = [0, 2, 0, 0]"] ;
536 -> 537 ;
538 [label="gini = 0.0\nsamples = 2\nvalue = [3, 0, 0, 0]"] ;
536 -> 538 ;
539 [label="X[6] <= 0.5044\ngini = 0.1244\nsamples = 11\nvalue = [1, 14, 0, 0]"] ;
535 -> 539 ;
540 [label="gini = 0.0\nsamples = 7\nvalue = [0, 10, 0, 0]"] ;
539 -> 540 ;
541 [label="X[6] <= 0.5221\ngini = 0.32\nsamples = 4\nvalue = [1, 4, 0, 0]"] ;
539 -> 541 ;
542 [label="gini = 0.0\nsamples = 1\nvalue = [1, 0, 0, 0]"] ;
541 -> 542 ;
543 [label="gini = 0.0\nsamples = 3\nvalue = [0, 4, 0, 0]"] ;
541 -> 543 ;
544 [label="X[1] <= 0.2368\ngini = 0.4082\nsamples = 6\nvalue = [5, 0, 2, 0]"] ;
534 -> 544 ;
545 [label="X[1] <= 0.1105\ngini = 0.4444\nsamples = 3\nvalue = [1, 0, 2, 0]"] ;
544 -> 545 ;
546 [label="gini = 0.0\nsamples = 1\nvalue = [1, 0, 0, 0]"] ;
545 -> 546 ;
547 [label="gini = 0.0\nsamples = 2\nvalue = [0, 0, 2, 0]"] ;
545 -> 547 ;
548 [label="gini = 0.0\nsamples = 3\nvalue = [4, 0, 0, 0]"] ;
544 -> 548 ;
549 [label="gini = 0.0\nsamples = 7\nvalue = [9, 0, 0, 0]"] ;
533 -> 549 ;
550 [label="gini = 0.0\nsamples = 5\nvalue = [0, 9, 0, 0]"] ;
532 -> 550 ;
551 [label="X[0] <= 0.3728\ngini = 0.4536\nsamples = 82\nvalue = [83, 37, 3, 0]"] ;
531 -> 551 ;
552 [label="X[3] <= 0.317\ngini = 0.4172\nsamples = 77\nvalue = [82, 29, 3, 0]"] ;
551 -> 552 ;
553 [label="X[1] <= 0.1\ngini = 0.3763\nsamples = 70\nvalue = [81, 24, 2, 0]"] ;
552 -> 553 ;
554 [label="X[4] <= 0.343\ngini = 0.42\nsamples = 7\nvalue = [3, 7, 0, 0]"] ;
553 -> 554 ;
555 [label="gini = 0.0\nsamples = 3\nvalue = [0, 6, 0, 0]"] ;
554 -> 555 ;
556 [label="X[3] <= 0.2059\ngini = 0.375\nsamples = 4\nvalue = [3, 1, 0, 0]"] ;
554 -> 556 ;
557 [label="gini = 0.0\nsamples = 3\nvalue = [3, 0, 0, 0]"] ;
556 -> 557 ;
558 [label="gini = 0.0\nsamples = 1\nvalue = [0, 1, 0, 0]"] ;
556 -> 558 ;
559 [label="X[4] <= 0.5455\ngini = 0.3222\nsamples = 63\nvalue = [78, 17, 2, 0]"] ;
553 -> 559 ;
560 [label="X[0] <= 0.2325\ngini = 0.3005\nsamples = 62\nvalue = [78, 15, 2, 0]"] ;
559 -> 560 ;
561 [label="X[6] <= 0.6991\ngini = 0.4168\nsamples = 30\nvalue = [33, 12, 1, 0]"] ;
560 -> 561 ;
562 [label="X[0] <= 0.2149\ngini = 0.3458\nsamples = 27\nvalue = [33, 8, 1, 0]"] ;
561 -> 562 ;
563 [label="X[1] <= 0.2053\ngini = 0.2128\nsamples = 21\nvalue = [30, 3, 1, 0]"] ;
562 -> 563 ;
564 [label="X[0] <= 0.1535\ngini = 0.4861\nsamples = 10\nvalue = [8, 3, 1, 0]"] ;
563 -> 564 ;
565 [label="gini = 0.0\nsamples = 1\nvalue = [0, 2, 0, 0]"] ;
564 -> 565 ;
566 [label="X[2] <= 0.5017\ngini = 0.34\nsamples = 9\nvalue = [8, 1, 1, 0]"] ;
564 -> 566 ;
567 [label="X[0] <= 0.1842\ngini = 0.2188\nsamples = 7\nvalue = [7, 1, 0, 0]"] ;
566 -> 567 ;
568 [label="gini = 0.0\nsamples = 5\nvalue = [6, 0, 0, 0]"] ;
567 -> 568 ;
569 [label="X[2] <= 0.3872\ngini = 0.5\nsamples = 2\nvalue = [1, 1, 0, 0]"] ;
567 -> 569 ;
570 [label="gini = 0.0\nsamples = 1\nvalue = [1, 0, 0, 0]"] ;
569 -> 570 ;
571 [label="gini = 0.0\nsamples = 1\nvalue = [0, 1, 0, 0]"] ;
569 -> 571 ;
572 [label="X[5] <= 0.1366\ngini = 0.5\nsamples = 2\nvalue = [1, 0, 1, 0]"] ;
566 -> 572 ;
573 [label="gini = 0.0\nsamples = 1\nvalue = [1, 0, 0, 0]"] ;
572 -> 573 ;
574 [label="gini = 0.0\nsamples = 1\nvalue = [0, 0, 1, 0]"] ;
572 -> 574 ;
575 [label="gini = 0.0\nsamples = 11\nvalue = [22, 0, 0, 0]"] ;
563 -> 575 ;
576 [label="X[3] <= 0.2149\ngini = 0.4688\nsamples = 6\nvalue = [3, 5, 0, 0]"] ;
562 -> 576 ;
577 [label="gini = 0.0\nsamples = 2\nvalue = [3, 0, 0, 0]"] ;
576 -> 577 ;
578 [label="gini = 0.0\nsamples = 4\nvalue = [0, 5, 0, 0]"] ;
576 -> 578 ;
579 [label="gini = 0.0\nsamples = 3\nvalue = [0, 4, 0, 0]"] ;
561 -> 579 ;
580 [label="X[4] <= 0.4504\ngini = 0.1524\nsamples = 32\nvalue = [45, 3, 1, 0]"] ;
560 -> 580 ;
581 [label="X[6] <= 0.7345\ngini = 0.0878\nsamples = 27\nvalue = [42, 1, 1, 0]"] ;
580 -> 581 ;
582 [label="X[1] <= 0.1316\ngini = 0.0487\nsamples = 25\nvalue = [39, 0, 1, 0]"] ;
581 -> 582 ;
583 [label="X[1] <= 0.1211\ngini = 0.2188\nsamples = 5\nvalue = [7, 0, 1, 0]"] ;
582 -> 583 ;
584 [label="gini = 0.0\nsamples = 3\nvalue = [5, 0, 0, 0]"] ;
583 -> 584 ;
585 [label="X[3] <= 0.1882\ngini = 0.4444\nsamples = 2\nvalue = [2, 0, 1, 0]"] ;
583 -> 585 ;
586 [label="gini = 0.0\nsamples = 1\nvalue = [2, 0, 0, 0]"] ;
585 -> 586 ;
587 [label="gini = 0.0\nsamples = 1\nvalue = [0, 0, 1, 0]"] ;
585 -> 587 ;
588 [label="gini = 0.0\nsamples = 20\nvalue = [32, 0, 0, 0]"] ;
582 -> 588 ;
589 [label="X[0] <= 0.2895\ngini = 0.375\nsamples = 2\nvalue = [3, 1, 0, 0]"] ;
581 -> 589 ;
590 [label="gini = 0.0\nsamples = 1\nvalue = [3, 0, 0, 0]"] ;
589 -> 590 ;
591 [label="gini = 0.0\nsamples = 1\nvalue = [0, 1, 0, 0]"] ;
589 -> 591 ;
592 [label="X[2] <= 0.4427\ngini = 0.48\nsamples = 5\nvalue = [3, 2, 0, 0]"] ;
580 -> 592 ;
593 [label="gini = 0.0\nsamples = 3\nvalue = [3, 0, 0, 0]"] ;
592 -> 593 ;
594 [label="gini = 0.0\nsamples = 2\nvalue = [0, 2, 0, 0]"] ;
592 -> 594 ;
595 [label="gini = 0.0\nsamples = 1\nvalue = [0, 2, 0, 0]"] ;
559 -> 595 ;
596 [label="X[0] <= 0.1974\ngini = 0.449\nsamples = 7\nvalue = [1, 5, 1, 0]"] ;
552 -> 596 ;
597 [label="gini = 0.0\nsamples = 1\nvalue = [1, 0, 0, 0]"] ;
596 -> 597 ;
598 [label="X[4] <= 0.2686\ngini = 0.2778\nsamples = 6\nvalue = [0, 5, 1, 0]"] ;
596 -> 598 ;
599 [label="gini = 0.0\nsamples = 1\nvalue = [0, 0, 1, 0]"] ;
598 -> 599 ;
600 [label="gini = 0.0\nsamples = 5\nvalue = [0, 5, 0, 0]"] ;
598 -> 600 ;
601 [label="X[2] <= 0.1997\ngini = 0.1975\nsamples = 5\nvalue = [1, 8, 0, 0]"] ;
551 -> 601 ;
602 [label="X[4] <= 0.2727\ngini = 0.5\nsamples = 2\nvalue = [1, 1, 0, 0]"] ;
601 -> 602 ;
603 [label="gini = 0.0\nsamples = 1\nvalue = [1, 0, 0, 0]"] ;
602 -> 603 ;
604 [label="gini = 0.0\nsamples = 1\nvalue = [0, 1, 0, 0]"] ;
602 -> 604 ;
605 [label="gini = 0.0\nsamples = 3\nvalue = [0, 7, 0, 0]"] ;
601 -> 605 ;
606 [label="X[0] <= 0.1272\ngini = 0.5847\nsamples = 189\nvalue = [138, 142, 31, 0]"] ;
404 -> 606 ;
607 [label="X[6] <= 0.6283\ngini = 0.54\nsamples = 17\nvalue = [3, 18, 9, 0]"] ;
606 -> 607 ;
608 [label="X[3] <= 0.1472\ngini = 0.5926\nsamples = 4\nvalue = [2, 2, 5, 0]"] ;
607 -> 608 ;
609 [label="X[5] <= 0.2965\ngini = 0.4082\nsamples = 3\nvalue = [0, 2, 5, 0]"] ;
608 -> 609 ;
610 [label="gini = 0.0\nsamples = 1\nvalue = [0, 2, 0, 0]"] ;
609 -> 610 ;
611 [label="gini = 0.0\nsamples = 2\nvalue = [0, 0, 5, 0]"] ;
609 -> 611 ;
612 [label="gini = 0.0\nsamples = 1\nvalue = [2, 0, 0, 0]"] ;
608 -> 612 ;
613 [label="X[6] <= 0.7876\ngini = 0.381\nsamples = 13\nvalue = [1, 16, 4, 0]"] ;
607 -> 613 ;
614 [label="gini = 0.0\nsamples = 4\nvalue = [0, 9, 0, 0]"] ;
613 -> 614 ;
615 [label="X[4] <= 0.6322\ngini = 0.5417\nsamples = 9\nvalue = [1, 7, 4, 0]"] ;
613 -> 615 ;
616 [label="X[4] <= 0.562\ngini = 0.5\nsamples = 6\nvalue = [0, 4, 4, 0]"] ;
615 -> 616 ;
617 [label="gini = 0.0\nsamples = 2\nvalue = [0, 2, 0, 0]"] ;
616 -> 617 ;
618 [label="X[0] <= 0.1053\ngini = 0.4444\nsamples = 4\nvalue = [0, 2, 4, 0]"] ;
616 -> 618 ;
619 [label="gini = 0.0\nsamples = 2\nvalue = [0, 2, 0, 0]"] ;
618 -> 619 ;
620 [label="gini = 0.0\nsamples = 2\nvalue = [0, 0, 4, 0]"] ;
618 -> 620 ;
621 [label="X[0] <= 0.0658\ngini = 0.375\nsamples = 3\nvalue = [1, 3, 0, 0]"] ;
615 -> 621 ;
622 [label="gini = 0.0\nsamples = 1\nvalue = [0, 2, 0, 0]"] ;
621 -> 622 ;
623 [label="X[2] <= 0.2448\ngini = 0.5\nsamples = 2\nvalue = [1, 1, 0, 0]"] ;
621 -> 623 ;
624 [label="gini = 0.0\nsamples = 1\nvalue = [1, 0, 0, 0]"] ;
623 -> 624 ;
625 [label="gini = 0.0\nsamples = 1\nvalue = [0, 1, 0, 0]"] ;
623 -> 625 ;
626 [label="X[2] <= 0.2865\ngini = 0.5683\nsamples = 172\nvalue = [135, 124, 22, 0]"] ;
606 -> 626 ;
627 [label="X[0] <= 0.3465\ngini = 0.5037\nsamples = 102\nvalue = [90, 63, 3, 0]"] ;
626 -> 627 ;
628 [label="X[5] <= 0.2093\ngini = 0.4284\nsamples = 53\nvalue = [57, 20, 3, 0]"] ;
627 -> 628 ;
629 [label="X[6] <= 0.5221\ngini = 0.32\nsamples = 3\nvalue = [1, 4, 0, 0]"] ;
628 -> 629 ;
630 [label="gini = 0.0\nsamples = 2\nvalue = [0, 4, 0, 0]"] ;
629 -> 630 ;
631 [label="gini = 0.0\nsamples = 1\nvalue = [1, 0, 0, 0]"] ;
629 -> 631 ;
632 [label="X[4] <= 0.7273\ngini = 0.3954\nsamples = 50\nvalue = [56, 16, 3, 0]"] ;
628 -> 632 ;
633 [label="X[0] <= 0.1842\ngini = 0.3731\nsamples = 49\nvalue = [56, 14, 3, 0]"] ;
632 -> 633 ;
634 [label="gini = 0.0\nsamples = 7\nvalue = [14, 0, 0, 0]"] ;
633 -> 634 ;
635 [label="X[1] <= 0.3632\ngini = 0.4344\nsamples = 42\nvalue = [42, 14, 3, 0]"] ;
633 -> 635 ;
636 [label="X[6] <= 0.5841\ngini = 0.541\nsamples = 24\nvalue = [19, 10, 3, 0]"] ;
635 -> 636 ;
637 [label="X[2] <= 0.2257\ngini = 0.6235\nsamples = 15\nvalue = [7, 8, 3, 0]"] ;
636 -> 637 ;
638 [label="X[3] <= 0.3302\ngini = 0.5816\nsamples = 11\nvalue = [3, 8, 3, 0]"] ;
637 -> 638 ;
639 [label="X[2] <= 0.1441\ngini = 0.375\nsamples = 3\nvalue = [0, 1, 3, 0]"] ;
638 -> 639 ;
640 [label="gini = 0.0\nsamples = 2\nvalue = [0, 0, 3, 0]"] ;
639 -> 640 ;
641 [label="gini = 0.0\nsamples = 1\nvalue = [0, 1, 0, 0]"] ;
639 -> 641 ;
642 [label="X[3] <= 0.3599\ngini = 0.42\nsamples = 8\nvalue = [3, 7, 0, 0]"] ;
638 -> 642 ;
643 [label="X[1] <= 0.2368\ngini = 0.2449\nsamples = 5\nvalue = [1, 6, 0, 0]"] ;
642 -> 643 ;
644 [label="X[6] <= 0.5221\ngini = 0.5\nsamples = 2\nvalue = [1, 1, 0, 0]"] ;
643 -> 644 ;
645 [label="gini = 0.0\nsamples = 1\nvalue = [0, 1, 0, 0]"] ;
644 -> 645 ;
646 [label="gini = 0.0\nsamples = 1\nvalue = [1, 0, 0, 0]"] ;
644 -> 646 ;
647 [label="gini = 0.0\nsamples = 3\nvalue = [0, 5, 0, 0]"] ;
643 -> 647 ;
648 [label="X[4] <= 0.4876\ngini = 0.4444\nsamples = 3\nvalue = [2, 1, 0, 0]"] ;
642 -> 648 ;
649 [label="gini = 0.0\nsamples = 2\nvalue = [2, 0, 0, 0]"] ;
648 -> 649 ;
650 [label="gini = 0.0\nsamples = 1\nvalue = [0, 1, 0, 0]"] ;
648 -> 650 ;
651 [label="gini = 0.0\nsamples = 4\nvalue = [4, 0, 0, 0]"] ;
637 -> 651 ;
652 [label="X[4] <= 0.4463\ngini = 0.2449\nsamples = 9\nvalue = [12, 2, 0, 0]"] ;
636 -> 652 ;
653 [label="X[5] <= 0.2238\ngini = 0.4444\nsamples = 3\nvalue = [1, 2, 0, 0]"] ;
652 -> 653 ;
654 [label="gini = 0.0\nsamples = 1\nvalue = [0, 1, 0, 0]"] ;
653 -> 654 ;
655 [label="X[4] <= 0.3512\ngini = 0.5\nsamples = 2\nvalue = [1, 1, 0, 0]"] ;
653 -> 655 ;
656 [label="gini = 0.0\nsamples = 1\nvalue = [1, 0, 0, 0]"] ;
655 -> 656 ;
657 [label="gini = 0.0\nsamples = 1\nvalue = [0, 1, 0, 0]"] ;
655 -> 657 ;
658 [label="gini = 0.0\nsamples = 6\nvalue = [11, 0, 0, 0]"] ;
652 -> 658 ;
659 [label="X[0] <= 0.2061\ngini = 0.2524\nsamples = 18\nvalue = [23, 4, 0, 0]"] ;
635 -> 659 ;
660 [label="gini = 0.0\nsamples = 2\nvalue = [0, 2, 0, 0]"] ;
659 -> 660 ;
661 [label="X[6] <= 0.7345\ngini = 0.1472\nsamples = 16\nvalue = [23, 2, 0, 0]"] ;
659 -> 661 ;
662 [label="X[6] <= 0.646\ngini = 0.0799\nsamples = 15\nvalue = [23, 1, 0, 0]"] ;
661 -> 662 ;
663 [label="gini = 0.0\nsamples = 13\nvalue = [21, 0, 0, 0]"] ;
662 -> 663 ;
664 [label="X[3] <= 0.3202\ngini = 0.4444\nsamples = 2\nvalue = [2, 1, 0, 0]"] ;
662 -> 664 ;
665 [label="gini = 0.0\nsamples = 1\nvalue = [2, 0, 0, 0]"] ;
664 -> 665 ;
666 [label="gini = 0.0\nsamples = 1\nvalue = [0, 1, 0, 0]"] ;
664 -> 666 ;
667 [label="gini = 0.0\nsamples = 1\nvalue = [0, 1, 0, 0]"] ;
661 -> 667 ;
668 [label="gini = 0.0\nsamples = 1\nvalue = [0, 2, 0, 0]"] ;
632 -> 668 ;
669 [label="X[4] <= 0.3719\ngini = 0.4913\nsamples = 49\nvalue = [33, 43, 0, 0]"] ;
627 -> 669 ;
670 [label="X[0] <= 0.5395\ngini = 0.4082\nsamples = 21\nvalue = [10, 25, 0, 0]"] ;
669 -> 670 ;
671 [label="X[5] <= 0.2413\ngini = 0.4983\nsamples = 12\nvalue = [8, 9, 0, 0]"] ;
670 -> 671 ;
672 [label="X[3] <= 0.3675\ngini = 0.3457\nsamples = 5\nvalue = [2, 7, 0, 0]"] ;
671 -> 672 ;
673 [label="gini = 0.0\nsamples = 3\nvalue = [0, 6, 0, 0]"] ;
672 -> 673 ;
674 [label="X[0] <= 0.4781\ngini = 0.4444\nsamples = 2\nvalue = [2, 1, 0, 0]"] ;
672 -> 674 ;
675 [label="gini = 0.0\nsamples = 1\nvalue = [2, 0, 0, 0]"] ;
674 -> 675 ;
676 [label="gini = 0.0\nsamples = 1\nvalue = [0, 1, 0, 0]"] ;
674 -> 676 ;
677 [label="X[4] <= 0.3099\ngini = 0.375\nsamples = 7\nvalue = [6, 2, 0, 0]"] ;
671 -> 677 ;
678 [label="gini = 0.0\nsamples = 4\nvalue = [5, 0, 0, 0]"] ;
677 -> 678 ;
679 [label="X[1] <= 0.2316\ngini = 0.4444\nsamples = 3\nvalue = [1, 2, 0, 0]"] ;
677 -> 679 ;
680 [label="gini = 0.0\nsamples = 1\nvalue = [1, 0, 0, 0]"] ;
679 -> 680 ;
681 [label="gini = 0.0\nsamples = 2\nvalue = [0, 2, 0, 0]"] ;
679 -> 681 ;
682 [label="X[1] <= 0.4474\ngini = 0.1975\nsamples = 9\nvalue = [2, 16, 0, 0]"] ;
670 -> 682 ;
683 [label="X[6] <= 0.5398\ngini = 0.1172\nsamples = 7\nvalue = [1, 15, 0, 0]"] ;
682 -> 683 ;
684 [label="X[1] <= 0.2421\ngini = 0.4444\nsamples = 2\nvalue = [1, 2, 0, 0]"] ;
683 -> 684 ;
685 [label="gini = 0.0\nsamples = 1\nvalue = [0, 2, 0, 0]"] ;
684 -> 685 ;
686 [label="gini = 0.0\nsamples = 1\nvalue = [1, 0, 0, 0]"] ;
684 -> 686 ;
687 [label="gini = 0.0\nsamples = 5\nvalue = [0, 13, 0, 0]"] ;
683 -> 687 ;
688 [label="X[2] <= 0.1007\ngini = 0.5\nsamples = 2\nvalue = [1, 1, 0, 0]"] ;
682 -> 688 ;
689 [label="gini = 0.0\nsamples = 1\nvalue = [0, 1, 0, 0]"] ;
688 -> 689 ;
690 [label="gini = 0.0\nsamples = 1\nvalue = [1, 0, 0, 0]"] ;
688 -> 690 ;
691 [label="X[0] <= 0.3991\ngini = 0.4926\nsamples = 28\nvalue = [23, 18, 0, 0]"] ;
669 -> 691 ;
692 [label="X[6] <= 0.4779\ngini = 0.32\nsamples = 11\nvalue = [3, 12, 0, 0]"] ;
691 -> 692 ;
693 [label="gini = 0.0\nsamples = 1\nvalue = [2, 0, 0, 0]"] ;
692 -> 693 ;
694 [label="X[6] <= 0.6195\ngini = 0.142\nsamples = 10\nvalue = [1, 12, 0, 0]"] ;
692 -> 694 ;
695 [label="X[6] <= 0.5575\ngini = 0.32\nsamples = 3\nvalue = [1, 4, 0, 0]"] ;
694 -> 695 ;
696 [label="gini = 0.0\nsamples = 2\nvalue = [0, 4, 0, 0]"] ;
695 -> 696 ;
697 [label="gini = 0.0\nsamples = 1\nvalue = [1, 0, 0, 0]"] ;
695 -> 697 ;
698 [label="gini = 0.0\nsamples = 7\nvalue = [0, 8, 0, 0]"] ;
694 -> 698 ;
699 [label="X[6] <= 0.6106\ngini = 0.355\nsamples = 17\nvalue = [20, 6, 0, 0]"] ;
691 -> 699 ;
700 [label="X[4] <= 0.4091\ngini = 0.1723\nsamples = 12\nvalue = [19, 2, 0, 0]"] ;
699 -> 700 ;
701 [label="X[0] <= 0.5921\ngini = 0.4444\nsamples = 5\nvalue = [4, 2, 0, 0]"] ;
700 -> 701 ;
702 [label="X[2] <= 0.0538\ngini = 0.5\nsamples = 4\nvalue = [2, 2, 0, 0]"] ;
701 -> 702 ;
703 [label="gini = 0.0\nsamples = 2\nvalue = [2, 0, 0, 0]"] ;
702 -> 703 ;
704 [label="gini = 0.0\nsamples = 2\nvalue = [0, 2, 0, 0]"] ;
702 -> 704 ;
705 [label="gini = 0.0\nsamples = 1\nvalue = [2, 0, 0, 0]"] ;
701 -> 705 ;
706 [label="gini = 0.0\nsamples = 7\nvalue = [15, 0, 0, 0]"] ;
700 -> 706 ;
707 [label="X[6] <= 0.823\ngini = 0.32\nsamples = 5\nvalue = [1, 4, 0, 0]"] ;
699 -> 707 ;
708 [label="gini = 0.0\nsamples = 4\nvalue = [0, 4, 0, 0]"] ;
707 -> 708 ;
709 [label="gini = 0.0\nsamples = 1\nvalue = [1, 0, 0, 0]"] ;
707 -> 709 ;
710 [label="X[6] <= 0.6991\ngini = 0.6092\nsamples = 70\nvalue = [45, 61, 19, 0]"] ;
626 -> 710 ;
711 [label="X[2] <= 0.3524\ngini = 0.5494\nsamples = 48\nvalue = [32, 53, 8, 0]"] ;
710 -> 711 ;
712 [label="X[0] <= 0.2544\ngini = 0.18\nsamples = 13\nvalue = [3, 27, 0, 0]"] ;
711 -> 712 ;
713 [label="X[6] <= 0.5841\ngini = 0.1284\nsamples = 12\nvalue = [2, 27, 0, 0]"] ;
712 -> 713 ;
714 [label="gini = 0.0\nsamples = 8\nvalue = [0, 18, 0, 0]"] ;
713 -> 714 ;
715 [label="X[2] <= 0.3264\ngini = 0.2975\nsamples = 4\nvalue = [2, 9, 0, 0]"] ;
713 -> 715 ;
716 [label="X[2] <= 0.3056\ngini = 0.18\nsamples = 3\nvalue = [1, 9, 0, 0]"] ;
715 -> 716 ;
717 [label="gini = 0.0\nsamples = 1\nvalue = [0, 5, 0, 0]"] ;
716 -> 717 ;
718 [label="X[1] <= 0.3842\ngini = 0.32\nsamples = 2\nvalue = [1, 4, 0, 0]"] ;
716 -> 718 ;
719 [label="gini = 0.0\nsamples = 1\nvalue = [0, 4, 0, 0]"] ;
718 -> 719 ;
720 [label="gini = 0.0\nsamples = 1\nvalue = [1, 0, 0, 0]"] ;
718 -> 720 ;
721 [label="gini = 0.0\nsamples = 1\nvalue = [1, 0, 0, 0]"] ;
715 -> 721 ;
722 [label="gini = 0.0\nsamples = 1\nvalue = [1, 0, 0, 0]"] ;
712 -> 722 ;
723 [label="X[0] <= 0.1623\ngini = 0.6017\nsamples = 35\nvalue = [29, 26, 8, 0]"] ;
711 -> 723 ;
724 [label="X[4] <= 0.5124\ngini = 0.1653\nsamples = 5\nvalue = [1, 10, 0, 0]"] ;
723 -> 724 ;
725 [label="gini = 0.0\nsamples = 4\nvalue = [0, 10, 0, 0]"] ;
724 -> 725 ;
726 [label="gini = 0.0\nsamples = 1\nvalue = [1, 0, 0, 0]"] ;
724 -> 726 ;
727 [label="X[4] <= 0.376\ngini = 0.5917\nsamples = 30\nvalue = [28, 16, 8, 0]"] ;
723 -> 727 ;
728 [label="X[5] <= 0.2791\ngini = 0.375\nsamples = 17\nvalue = [21, 7, 0, 0]"] ;
727 -> 728 ;
729 [label="X[0] <= 0.307\ngini = 0.1723\nsamples = 11\nvalue = [19, 2, 0, 0]"] ;
728 -> 729 ;
730 [label="gini = 0.0\nsamples = 10\nvalue = [19, 0, 0, 0]"] ;
729 -> 730 ;
731 [label="gini = 0.0\nsamples = 1\nvalue = [0, 2, 0, 0]"] ;
729 -> 731 ;
732 [label="X[3] <= 0.2039\ngini = 0.4082\nsamples = 6\nvalue = [2, 5, 0, 0]"] ;
728 -> 732 ;
733 [label="gini = 0.0\nsamples = 5\nvalue = [0, 5, 0, 0]"] ;
732 -> 733 ;
734 [label="gini = 0.0\nsamples = 1\nvalue = [2, 0, 0, 0]"] ;
732 -> 734 ;
735 [label="X[2] <= 0.5035\ngini = 0.6632\nsamples = 13\nvalue = [7, 9, 8, 0]"] ;
727 -> 735 ;
736 [label="X[5] <= 0.2122\ngini = 0.6044\nsamples = 10\nvalue = [4, 3, 8, 0]"] ;
735 -> 736 ;
737 [label="X[6] <= 0.469\ngini = 0.4444\nsamples = 3\nvalue = [1, 2, 0, 0]"] ;
736 -> 737 ;
738 [label="gini = 0.0\nsamples = 1\nvalue = [1, 0, 0, 0]"] ;
737 -> 738 ;
739 [label="gini = 0.0\nsamples = 2\nvalue = [0, 2, 0, 0]"] ;
737 -> 739 ;
740 [label="X[4] <= 0.5413\ngini = 0.4861\nsamples = 7\nvalue = [3, 1, 8, 0]"] ;
736 -> 740 ;
741 [label="X[4] <= 0.4008\ngini = 0.1975\nsamples = 6\nvalue = [0, 1, 8, 0]"] ;
740 -> 741 ;
742 [label="gini = 0.0\nsamples = 1\nvalue = [0, 1, 0, 0]"] ;
741 -> 742 ;
743 [label="gini = 0.0\nsamples = 5\nvalue = [0, 0, 8, 0]"] ;
741 -> 743 ;
744 [label="gini = 0.0\nsamples = 1\nvalue = [3, 0, 0, 0]"] ;
740 -> 744 ;
745 [label="X[1] <= 0.1579\ngini = 0.4444\nsamples = 3\nvalue = [3, 6, 0, 0]"] ;
735 -> 745 ;
746 [label="gini = 0.0\nsamples = 1\nvalue = [3, 0, 0, 0]"] ;
745 -> 746 ;
747 [label="gini = 0.0\nsamples = 2\nvalue = [0, 6, 0, 0]"] ;
745 -> 747 ;
748 [label="X[2] <= 0.3941\ngini = 0.6543\nsamples = 22\nvalue = [13, 8, 11, 0]"] ;
710 -> 748 ;
749 [label="X[5] <= 0.25\ngini = 0.6011\nsamples = 15\nvalue = [9, 3, 11, 0]"] ;
748 -> 749 ;
750 [label="X[0] <= 0.1711\ngini = 0.4267\nsamples = 11\nvalue = [2, 2, 11, 0]"] ;
749 -> 750 ;
751 [label="X[3] <= 0.1081\ngini = 0.4444\nsamples = 3\nvalue = [2, 1, 0, 0]"] ;
750 -> 751 ;
752 [label="gini = 0.0\nsamples = 2\nvalue = [2, 0, 0, 0]"] ;
751 -> 752 ;
753 [label="gini = 0.0\nsamples = 1\nvalue = [0, 1, 0, 0]"] ;
751 -> 753 ;
754 [label="X[5] <= 0.2064\ngini = 0.1528\nsamples = 8\nvalue = [0, 1, 11, 0]"] ;
750 -> 754 ;
755 [label="X[3] <= 0.142\ngini = 0.5\nsamples = 2\nvalue = [0, 1, 1, 0]"] ;
754 -> 755 ;
756 [label="gini = 0.0\nsamples = 1\nvalue = [0, 1, 0, 0]"] ;
755 -> 756 ;
757 [label="gini = 0.0\nsamples = 1\nvalue = [0, 0, 1, 0]"] ;
755 -> 757 ;
758 [label="gini = 0.0\nsamples = 6\nvalue = [0, 0, 10, 0]"] ;
754 -> 758 ;
759 [label="X[6] <= 0.9159\ngini = 0.2188\nsamples = 4\nvalue = [7, 1, 0, 0]"] ;
749 -> 759 ;
760 [label="gini = 0.0\nsamples = 3\nvalue = [7, 0, 0, 0]"] ;
759 -> 760 ;
761 [label="gini = 0.0\nsamples = 1\nvalue = [0, 1, 0, 0]"] ;
759 -> 761 ;
762 [label="X[2] <= 0.4115\ngini = 0.4938\nsamples = 7\nvalue = [4, 5, 0, 0]"] ;
748 -> 762 ;
763 [label="X[2] <= 0.3993\ngini = 0.2778\nsamples = 5\nvalue = [1, 5, 0, 0]"] ;
762 -> 763 ;
764 [label="gini = 0.0\nsamples = 1\nvalue = [0, 2, 0, 0]"] ;
763 -> 764 ;
765 [label="X[5] <= 0.2616\ngini = 0.375\nsamples = 4\nvalue = [1, 3, 0, 0]"] ;
763 -> 765 ;
766 [label="gini = 0.0\nsamples = 3\nvalue = [0, 3, 0, 0]"] ;
765 -> 766 ;
767 [label="gini = 0.0\nsamples = 1\nvalue = [1, 0, 0, 0]"] ;
765 -> 767 ;
768 [label="gini = 0.0\nsamples = 2\nvalue = [3, 0, 0, 0]"] ;
762 -> 768 ;
}